tree
version=v4
num_class=1
num_tree_per_iteration=1
label_index=0
max_feature_idx=102
objective=lambdarank
feature_names=Column_0 Column_1 Column_2 Column_3 Column_4 Column_5 Column_6 Column_7 Column_8 Column_9 Column_10 Column_11 Column_12 Column_13 Column_14 Column_15 Column_16 Column_17 Column_18 Column_19 Column_20 Column_21 Column_22 Column_23 Column_24 Column_25 Column_26 Column_27 Column_28 Column_29 Column_30 Column_31 Column_32 Column_33 Column_34 Column_35 Column_36 Column_37 Column_38 Column_39 Column_40 Column_41 Column_42 Column_43 Column_44 Column_45 Column_46 Column_47 Column_48 Column_49 Column_50 Column_51 Column_52 Column_53 Column_54 Column_55 Column_56 Column_57 Column_58 Column_59 Column_60 Column_61 Column_62 Column_63 Column_64 Column_65 Column_66 Column_67 Column_68 Column_69 Column_70 Column_71 Column_72 Column_73 Column_74 Column_75 Column_76 Column_77 Column_78 Column_79 Column_80 Column_81 Column_82 Column_83 Column_84 Column_85 Column_86 Column_87 Column_88 Column_89 Column_90 Column_91 Column_92 Column_93 Column_94 Column_95 Column_96 Column_97 Column_98 Column_99 Column_100 Column_101 Column_102
feature_infos=[0:19.929042816162109] [-1.0563567876815796:17.498525619506836] [0:9.4498138427734375] [0:148] [0:698] [0:2] [0:607] [0:97420] [0:3] [0:848] [0:146111] [0:6] [0:303.5] [0:48703.66796875] [0:2] [0:92112.25] [0:1000000] [0:2.25] [0:3.3513753414154053] [0:3.3513753414154053] [0:3.3513753414154053] [0:3.3513753414154053] [0:3.3513753414154053] [0:3.3513753414154053] [0:44.7205810546875] [0:23.006790161132812] [0:15.945945739746094] [0:3.3513753414154053] [0:3.3513753414154053] [0:3.3513753414154053] [0:2.8079290390014648] [0:2.8079290390014648] [0:2.8079290390014648] [0:170.81430053710938] [0:887.80975341796875] [0:6.7027506828308105] [0:1613.54443359375] [0:237225.9375] [0:10.054125785827637] [0:1628.012939453125] [0:327189.1875] [0:15.945945739746094] [0:806.772216796875] [0:109063.0625] [0:6.7027506828308105] [0:650881.4375] [0:1000000] [0:25.271360397338867] [0:42] [0:29] [1:4] [0:123] [0:88807] [4:66] [0:932916] [0:1000000] [8:127] [0:66] [0:6834.84619140625] [1.8333333730697632:17.25] [0:3249] [0:1000000] [0:609.6875] [0:1.4285714626312256] [0:1] [0:1.2000000476837158] [0:1.4285714626312256] [0:1] [0:1.2000000476837158] [0:1.4285714626312256] [0:1] [0:1.2000000476837158] [0:1.4285714626312256] [0:1] [0:1.2000000476837158] none none none [0:1] [0:1] [0:1] [0:15] [0:18] [0:5] [0:1] [0:1] [0:1] [0:1000000] [0:1000000] [12:156] [0:135720] [0:790544] [3:27] [1:18] [1:18] [1:18] [0:1] [0:1] [0:1] [0:1] [0:1] [0:1] [2:9]
tree_sizes=3511 3508 3504 3489 3522 3500 3523 3496 3507 3500 3500 3515 3491 3491 3518 3494 3508 3514 3510 3515 3509 3524 3493 3495 3514 3518 3503 3489 3500 3506 3513 3505 3501 3511 3512 3513 3502 3506 3507 3509 3509 3509 3513 3525 3522 3505 3500 3504 3502 3511 3526 3534 3528 3509 3534 3531 3507 3513 3521 3524 3518 3501 3506 3519 3499 3515 3527 3500 3523 3514 3508 3489 3523 3521 3518 3500 3531 3506 3514 3518 3512 3504 3489 3500 3525 3498 3534 3514 3526 3525 3529 3516 3501 3506 3511 3491 3514 3475 3500 3484 3479 3503 3498 3509 3523 3486 3485 3525 3489 3503 3485 3493 3468 3499 3464 3483 3505 3512 3490 3448 3481 3527 3498 3491 3465 3477 3495 3502 3465 3476 3472 3478 3493 3452 3451 3503 3469 3470 3515 3507 3495 3477 3466 3470 3483 3490 3488 3474 3478 3444 3486 3426 3477 3458 3434 3478 3470 3476 3466 3469 3532 3456 3458 3477 3486 3459 3444 3467 3472 3480 3457 3454 3446 3475 3462 3519 3476 3441 3481 3484 3473 3469 3507 3451 3458 3481 3474 3509 3462 3456 3491 3483 3511 3492 3475 3494 3431 3496 3492 3474 3486 3480 3480 3473 3459 3468 3525 3444 3443 3449 3473 3475 3452 3457 3429 3472 3462 3448 3450 3426 3492 3480 3451 3468 3489 3439 3450 3476 3500 3478 3445 3481 3442 3470 3469 3492 3437 3420 3446 3453 3483 3474 3444 3457 3466 3463 3469 3501 3498 3444 3466 3460 3436 3485 3445 3451 3443 3462 3451 3452 3454 3474 3463 3459 3453 3468 3435 3453 3489 3453 3468 3473 3446 3435 3434 3469 3472 3464 3465 3473 3461 3433 3440 3448 3430 3457 3455 3460 3443 3425 3434 3453 3454 3456 3464 3444 3457 3462 3484 3487 3464 3487 3472 3494 3487 3475 3494 3474 3477 3476 3485 3466 3483 3466 3440 3450 3458 3448 3421 3424 3430 3437 3477 3465 3456 3435 3453 3455 3438 3469 3447 3435 3484 3467 3453 3457 3478 3468 3462 3476 3461 3467 3471 3500 3458 3447 3474 3504 3456 3453 3471 3477 3483 3493 3428 3488 3428 3435 3424 3418 3476 3481 3473 3447 3461 3463 3462 3464 3462 3454 3422 3458 3437 3470 3469 3432 3450 3454 3486 3459 3483 3431 3452 3446 3437 3443 3529 3462 3449 3447 3448 3436 3432 3452 3440 3455 3464 3470 3461 3431 3449 3482 3465 3444 3443 3491 3469 3460 3475 3450 3483 3500 3470 3479 3459 3452 3474 3445 3459 3457 3445 3444 3464 3468 3431 3461 3460 3472 3472 3489 3475 3452 3459 3431 3432 3448 3439 3447 3489 3478 3446 3450 3459 3468 3463 3443 3442 3453 3447 3455 3495 3487 3435 3430 3468 3467 3455 3443 3400 3443 3507 3483 3502 3475 3480 3444 3432 3438 3450 3484 3436 3453 3449 3467 3448 3453 3487 3462 3447 3442 3480 3468 3471 3464 3443 3460 3480 3477 3511 3486 3420 3460 3443 3447 3427 3432 3455 3442 3424

Tree=0
num_leaves=31
num_cat=0
split_feature=78 80 0 80 34 20 18 0 20 18 54 20 80 64 80 19 26 64 20 78 19 20 29 26 91 89 84 21 80 28
split_gain=4803.85 2851.88 603.618 597.451 561.049 405.314 318.973 252.992 169.875 132.074 130.872 109.818 146.29 95.5098 90.3576 81.667 80.9 78.8746 76.194 67.0752 59.7596 58.8594 69.2711 57.2245 55.8516 55.3694 51.7819 50.2657 47.3097 46.1
threshold=0.2267388999462128 0.45000259578228002 2.3650178909301762 0.55618247389793407 1.3042029738426211 1.0000000180025095e-35 1.0000000180025095e-35 0.89186394214630138 1.0000000180025095e-35 1.0243951082229616 5.5000000000000009 1.0000000180025095e-35 0.46384821832180029 0.012933179270476105 0.65246686339378368 1.1271170973777773 1.9061893820762636 0.015832234174013141 2.3439238071441655 0.096452280879020705 1.5195944309234621 1.0243951082229616 2.5915917158126835 1.6942822933197024 2896.5000000000005 32.500000000000007 0.6904762089252473 1.4425191283226015 0.57892560958862316 1.4651592969894411
decision_type=2 2 2 2 2 2 2 2 2 2 2 2 2 2 2 2 2 2 2 2 2 2 2 2 2 2 2 2 2 2
left_child=1 4 3 7 6 9 8 11 19 24 -9 -2 18 -7 16 -8 -3 -11 -13 25 -10 -12 -23 -14 -6 27 28 -1 -4 -19
right_child=2 14 26 -5 5 13 15 10 20 17 21 12 23 -15 -16 -17 -18 29 -20 -21 -22 22 -24 -25 -26 -27 -28 -29 -30 -31
leaf_value=-0.0036048149068840444 0.018592759822735734 0.097107161404917944 0.058907213299453247 0.083278341348110616 0.055701194245983056 -0.072691911100580514 -0.083624293702508679 0.092575240258764041 -0.098696751999541824 -0.027857174386160755 0.031855980466584451 -0.076473427929773644 0.09991976162015602 -0.02280595322149705 0.093839902421960331 -0.060168565150669442 0.025100352865146797 -0.00088407341146079152 -0.0098887954650976502 -0.0014665658546651398 -0.036908970358537706 -0.044653343581910442 0.02026289696081222 -0.022177087247808348 -0.0076446714477889297 -0.060571802428691236 0.088064557235516261 -0.034689664109556255 0.093042150760667575 0.04772760136598031
leaf_weight=151.57908428105293 115.72649823664688 59.473478435596917 405.67941465688637 409.79195791407255 195.15000240673544 211.80496856506215 530.43299713265151 73.924166410928592 135.11478307086509 174.41671089694137 463.40249610116007 147.68474570871331 22.608103066682816 175.40473329485394 361.20768811082235 1235.4012129774201 113.34938447485911 126.63879845011979 60.592463208420668 174.67904148803791 55.087869211216457 61.904953661141917 122.2453187048668 16.674241797591094 42.347706124710385 175.61838911904488 696.84710309037473 915.69580775295617 135.37974854087224 79.317153259762563
leaf_count=3193 1968 148 3870 2097 2106 7341 19808 262 5257 4546 6924 5337 51 4385 1189 39499 1926 2639 1383 3825 1531 1840 2140 389 900 5560 3051 25204 485 996
internal_value=8.78015e-05 -0.029471 0.0532319 0.0318443 -0.0427751 -0.0099848 -0.0525441 0.012414 -0.0364317 0.0151508 0.0295484 -0.0216145 -0.0404102 -0.0500937 0.0796136 -0.0672144 0.04988 -0.00311562 -0.0571025 -0.0304784 -0.0808013 0.0223533 -0.0015597 0.0480931 0.0444061 -0.0345558 0.0790536 -0.0302749 0.0674482 0.0178371
internal_weight=7645.18 4912.72 2732.46 1494.55 4378.69 1005.08 3373.61 1084.76 1607.77 617.87 721.477 363.286 247.56 387.21 534.031 1765.83 172.823 380.373 208.277 1417.57 190.203 647.553 184.15 39.2823 237.498 1242.89 1237.91 1067.27 541.059 205.956
internal_count=159850 130053 29797 22391 126790 22913 103877 20294 44570 11187 11166 9128 7160 11726 3263 59307 2074 8181 6720 37782 6788 10904 3980 440 3006 33957 7406 28397 4355 3635
is_linear=0
shrinkage=0.05


Tree=1
num_leaves=31
num_cat=0
split_feature=80 0 0 1 80 26 34 79 92 19 24 26 80 29 100 0 18 59 89 18 23 78 65 92 79 51 99 18 12 92
split_gain=8960.72 6928.63 1896.6 1483.98 1031.48 997.223 781.878 766.503 656.252 512.396 400.698 331.794 363.653 279.671 264.784 243.882 237.714 226.559 223.197 202.326 202.147 200.264 172.32 171.598 170.461 226.905 160.434 157.589 155.188 146.32
threshold=0.4753630012273789 0.89637476205825817 3.6054358482360844 2.0014929771423344 0.68175566196441661 2.0243951082229619 1.1271170973777773 0.065569791942834868 3.5000000000000004 1.3709686994552615 3.3795553445816044 1.3709686994552615 0.34942513704299932 1.7366565465927126 0.70714285969734203 3.9398351907730107 1.0243951082229616 3.5857142210006718 34.500000000000007 1.0000000180025095e-35 3.1486427783966069 0.3548393994569779 0.26136364042758947 4.5000000000000009 0.0061331542674452075 3.5000000000000004 0.63333335518836986 1.1827298998832705 1.4142857193946841 4.5000000000000009
decision_type=2 2 2 2 2 2 2 2 2 2 2 2 2 2 2 2 2 2 2 2 2 2 2 2 2 2 2 2 2 2
left_child=1 3 6 9 5 -2 18 10 20 11 -5 12 16 28 -9 17 -1 -7 21 -16 -6 27 -19 -10 -11 -26 -4 -3 29 -8
right_child=4 2 26 7 8 15 13 14 23 24 -12 -13 -14 -15 19 -17 -18 22 -20 -21 -22 -23 -24 -25 25 -27 -28 -29 -30 -31
leaf_value=-0.0289295068220943 0.090088242300917651 -0.0014637087496119385 0.038539185436266804 0.0082673741444229797 -0.05882692536615837 0.04595157148721471 0.048973275134146267 -0.020958609773074812 0.08627131964343375 -0.043653510568339354 -0.050750972459324577 -0.067912985991469152 0.079173507408334232 -0.0013171516915587514 0.035661474966024953 0.065069712816078901 -0.062100084119978353 0.0066891504600660847 -0.052379194100751286 0.0013674341977934982 0.080323668351764715 0.012110534665036301 -0.037714084742467666 0.048416180599921171 0.057580866207999438 -0.026500275779897511 0.071188876960853451 -0.031266557641719851 0.0095375586953331537 -4.1259562816593087e-05
leaf_weight=1045.394284738868 551.2347220312804 962.97203133790754 492.41912682214752 372.48129795398563 112.38827219046652 275.61718186177313 1449.0328946593218 611.38625485601369 2618.7757208580151 2036.8204191248806 1261.9902603058144 3167.3136540764826 59.556729059666395 628.90903286635876 804.38379238406196 192.94571368210018 1117.4797698697657 868.96325718797743 271.20700468635187 924.27379531064071 33.994352769106627 1076.7828326714225 291.89334813319147 338.00452098343521 84.080019307788461 1756.5476472271257 1594.8619777159765 822.33946416369872 414.55587792629376 170.14166026609018
leaf_count=8784 388 4608 833 2077 177 533 2983 5440 1956 20698 13823 38289 88 2769 3367 194 13004 2626 1840 6047 29 2898 1028 490 286 15426 1523 5793 1298 555
internal_value=7.28538e-05 -0.0144933 0.0226189 -0.0365873 0.0583088 0.0319555 0.00790138 -0.0110283 0.0768278 -0.0475491 -0.0373012 -0.0575212 -0.0427113 0.0278229 0.00732276 0.0122891 -0.0460676 0.00519966 -0.00902767 0.0173252 -0.0265121 -0.00491976 -0.00447589 0.0819439 -0.0336876 -0.0226594 0.0634864 -0.0151913 0.0368341 0.0438229
internal_weight=26408.7 21124.9 7883.22 13241.7 5283.82 2180.65 5795.94 3974.52 3103.16 9267.19 1634.47 5389.74 2222.43 2662.64 2340.04 1629.42 2162.87 1436.47 3133.3 1728.66 146.383 2862.09 1160.86 2956.78 3877.45 1840.63 2087.28 1785.31 2033.73 1619.17
internal_count=159850 152429 25100 127329 7421 4769 22744 30754 2652 96575 15900 60165 21876 7605 14854 4381 21788 4187 15139 9414 206 13299 3654 2446 36410 15712 2356 10401 4836 3538
is_linear=0
shrinkage=0.05


Tree=2
num_leaves=31
num_cat=0
split_feature=80 0 0 79 27 80 26 20 80 39 20 100 20 85 0 34 87 30 0 27 26 14 28 34 91 45 21 21 0 28
split_gain=8384.28 6358.33 1397.2 1316 542.268 514.568 565.332 480.706 483.331 447.614 419.189 410.055 409.288 290.865 224.305 220.649 219.329 194.207 186.579 185.555 184.474 178.42 177.412 164.873 154.029 140.971 136.911 135.501 127.757 124.462
threshold=0.52355083823204052 0.89637476205825817 2.9247596263885502 0.065569791942834868 2.2363831996917729 0.69198602437973034 2.4140416383743291 1.0000000180025095e-35 0.42637833952903753 1.2416213750839236 1.0000000180025095e-35 0.69615384936332714 2.3439238071441655 0.83974358439445507 5.4314527511596689 1.3042029738426211 127.50000000000001 0.70366382598876964 2.682457804679871 1.8174077272415163 1.5195944309234621 0.55000001192092907 1.1866202950477602 1.0243951082229616 87.500000000000014 0.34373936057090765 1.5195944309234621 1.3042029738426211 1.528467118740082 1.5595434308052065
decision_type=2 2 2 2 2 2 2 2 2 2 2 2 2 2 2 2 2 2 2 2 2 2 2 2 2 2 2 2 2 2
left_child=1 3 9 4 10 6 -2 13 12 -3 15 25 16 19 21 26 -9 28 -8 -5 -10 23 -15 24 -4 -11 -1 -18 -13 -6
right_child=5 2 14 7 29 -7 18 8 20 11 -12 17 -14 22 -16 -17 27 -19 -20 -21 -22 -23 -24 -25 -26 -27 -28 -29 -30 -31
leaf_value=-0.0071045202972495605 0.082382963157735023 0.07481045771082824 0.058652931595580562 0.0031639458237131576 -0.072232734843735019 0.077753966230827823 0.0066007639726715544 -0.071419137933445509 0.086342169289511078 0.026653198135171599 -0.058574151054224491 -0.0058159136144351579 -0.0061886657347219624 -0.023684092135228253 0.075228662678197181 0.0067380107534322211 0.081466246669523359 0.040563292302749257 0.053830795866463547 -0.035254447706510178 -0.0065601134746801548 -0.087760228246273747 0.024587664597899433 0.058997531578529085 0.015037746180976941 -0.019030543297395737 -0.035573108222188642 -0.088663181446916622 0.020481852334526623 -0.053348171288173568
leaf_weight=509.64745304366807 555.93555060354993 230.83621399849653 303.87008663034067 615.52578173996881 1409.2690821943688 2623.9531942992471 744.22272581141442 830.97087854077108 97.298068914562464 187.85241886088625 1356.9336201769765 849.37874303339049 444.6697660824284 227.45921311553684 764.37098923046142 453.70844379486516 39.31992482021451 631.90871177753434 290.81725525856018 642.21229981048964 118.52838811744004 25.646452397108078 1166.4585912055336 1001.6801565149799 606.3622631910257 1670.9039618889801 2464.8881368243601 16.663723804056644 1012.2004094840959 2290.6815050833393
leaf_count=3729 485 214 403 4283 19443 2549 2643 9799 74 692 16379 4287 3415 1836 695 2664 34 1865 444 6743 717 114 4750 1272 1668 10990 28058 223 3429 25953
internal_value=7.04388e-05 -0.013455 0.0237737 -0.0348368 -0.0461664 0.0641505 0.0417146 -0.011943 -0.0340883 0.00696076 -0.0350517 0.00336212 -0.0453381 0.000980511 0.0522921 -0.0257413 -0.0649655 0.0166129 0.0198711 -0.0164528 0.0353217 0.0432436 0.0167107 0.0450009 0.0295981 -0.0144136 -0.0306954 0.0308266 0.00848303 -0.0605411
internal_weight=24184.2 19969.2 7285.01 12684.2 8485.13 4214.93 1590.98 4199.11 1547.45 4583.08 4785.18 4352.24 1331.62 2651.66 2701.93 3428.24 886.955 2493.49 1035.04 1257.74 215.826 1937.56 1393.92 1911.91 910.232 1858.76 2974.54 55.9836 1861.58 3699.95
internal_count=159850 153729 25629 128100 96226 6121 3572 31874 14262 21477 50830 21263 13471 17612 4152 34451 10056 9581 3087 11026 791 3457 6586 3343 2071 11682 31787 257 7716 45396
is_linear=0
shrinkage=0.05


Tree=3
num_leaves=31
num_cat=0
split_feature=80 0 0 34 27 29 25 80 39 80 41 1 55 62 25 1 34 93 41 0 65 88 80 22 23 56 32 0 54 78
split_gain=7052.83 5213.29 1254.57 1053.81 559.58 440.441 395.884 630.461 314.049 307.61 325.28 275.596 267.5 205.598 200.553 184.565 165.074 158.692 157.393 150.234 147.365 144.294 137.161 136.808 131.761 127.305 125.559 110.395 105.275 116.86
threshold=0.55194076895713817 0.90321809053421032 3.0386344194412236 1.3709686994552615 2.2390170097351079 0.83976623415946972 2.9073245525360112 0.42637833952903753 1.2416213750839236 0.7563319504261018 2.6401754617691044 3.0574280023574834 2197.5000000000005 1.6700680255889895 1.5195944309234621 3.3777657747268681 1.2416213750839236 4.5000000000000009 3.397739171981812 5.4314527511596689 0.23611111193895343 614.50000000000011 0.68175566196441661 2.0318465828895573 3.1486427783966069 20.500000000000004 1.6725889444351199 1.9906685948371889 96.500000000000014 0.11427341401576997
decision_type=2 2 2 2 2 2 2 2 2 2 2 2 2 2 2 2 2 2 2 2 2 2 2 2 2 2 2 2 2 2
left_child=1 3 8 4 5 15 7 14 12 10 -2 16 -3 -9 28 -1 21 -17 22 -4 23 -10 27 -8 -20 -6 -7 -12 -5 -30
right_child=9 2 19 6 25 26 20 13 11 -11 18 -13 -14 -15 -16 17 -18 -19 24 -21 -22 -23 -24 -25 -26 -27 -28 -29 29 -31
leaf_value=-0.024012548128324228 0.076039313790568219 -0.099258925491189129 0.043230105794377333 -0.055889817406702437 -0.046632300838421202 -0.057463298288442544 0.0012852068719129129 0.06776310501353576 0.013223988505916823 0.076287597217665107 0.0092666464448857115 0.024258879923196669 0.084391669257222815 -0.033674879516775467 -0.016902858521280519 0.047669928855821851 0.0088551495254847647 -0.011092088028673869 -0.034156324656314109 0.070431417629773521 -0.05993261922578981 -0.021864674089202625 0.075804614188379554 0.032459714517709147 0.038353686101058146 -0.065871098094630015 -0.033072460417753684 0.052628878768670818 -0.085325920698032631 0.050909668972705914
leaf_weight=2435.8980359798879 623.16795442253351 22.086016792804003 1708.5117276636884 854.25045096152462 1604.3025190036278 1335.4385362553876 929.16139612998813 222.07491013035178 373.69144271733239 2022.8322946170811 322.18182493560016 1194.7691690751817 193.94011276774108 64.449421202298254 807.50894513831008 174.91953436983749 1389.1658493569121 334.81832256936468 148.41611558012664 722.16565667279065 72.430962026119232 1356.7234001546167 213.08783361688256 566.48945457069203 108.41854789480567 1853.0403274625423 872.27795704151504 269.60938734747469 23.219493203796446 48.871179906651378
leaf_count=24689 614 61 3129 10082 19631 17349 5787 336 1745 2026 1166 4608 143 537 6953 731 5413 3020 640 699 824 9979 215 2124 247 25721 10477 438 354 112
internal_value=2.11111e-05 -0.0121938 0.0223327 -0.0318953 -0.0413821 -0.0309419 -0.00913119 -0.023762 0.00678467 0.0631438 0.0473636 0.00383891 0.0656157 0.0449461 -0.0351163 -0.0182872 -0.00398174 0.00907244 0.0305325 0.0513117 0.00971969 -0.0142871 0.0414072 0.0130928 -0.00354741 -0.0569438 -0.0478264 0.0290217 -0.0509932 0.00702991
internal_weight=22867.9 19160.2 6961.05 12199.2 8610.7 5153.35 3588.46 2020.37 4530.38 3707.71 1684.88 4314.35 216.026 286.524 1733.85 2945.64 3119.58 509.738 1061.71 2430.68 1568.08 1730.41 804.879 1495.65 256.835 3457.34 2207.72 591.791 926.341 72.0907
internal_count=159850 154504 25777 128727 101618 56266 27109 18374 21949 5346 3320 21745 204 873 17501 28440 17137 3751 2706 3828 8735 11724 1819 7911 887 45352 27826 1604 10548 466
is_linear=0
shrinkage=0.05


Tree=4
num_leaves=31
num_cat=0
split_feature=80 78 20 79 78 80 100 26 27 21 18 54 29 20 20 100 21 18 24 21 92 56 16 45 20 79 7 89 16 24
split_gain=6256.75 4169.97 1143.85 1116.71 536.53 473.636 466.782 368.473 327.111 267.402 239.612 228.186 251.099 226.301 225.057 205.962 158.969 139.275 124.691 123.847 120.115 119.494 117.418 108.06 104.041 100.749 99.8345 97.5121 96.2746 93.316
threshold=0.4753630012273789 0.2267388999462128 1.0744368433952334 0.055847028270363815 0.58046236634254467 0.68175566196441661 0.69615384936332714 2.0243951082229619 2.2363831996917729 2.1756876707077031 1.0000000180025095e-35 5.5000000000000009 2.6857987642288212 1.0000000180025095e-35 1.0000000180025095e-35 0.84523808956146251 3.1486427783966069 1.0243951082229616 3.5143870115280156 3.1486427783966069 3.5000000000000004 20.500000000000004 43.577777862548835 0.35992714762687689 1.0000000180025095e-35 0.11804623529314996 26.500000000000004 30.500000000000004 210.36111450195315 2.7612158060073857
decision_type=2 2 2 2 2 2 2 2 2 2 2 2 2 2 2 2 2 2 2 2 2 2 2 2 2 2 2 2 2 2
left_child=1 3 4 8 9 7 13 -2 14 24 22 -4 -13 17 18 23 20 28 -1 -17 -6 -9 -8 -11 -3 29 -22 -10 -5 -12
right_child=5 2 11 6 16 -7 10 21 27 15 25 12 -14 -15 -16 19 -18 -19 -20 -21 26 -23 -24 -25 -26 -27 -28 -29 -30 -31
leaf_value=-0.017486827298625995 0.075201942971303254 -0.0035533346466454924 0.061556264981689403 -0.00013945798734184709 -0.052496654471868569 0.070633205300160415 0.035523621081759695 0.034250921323818788 -0.049693793601427318 0.054563265727496195 -0.068454665283613825 -0.049059027033714508 -0.0041324449384694322 -0.069790708758081674 -0.053475886282631328 0.028204149193818546 0.074051269305577525 -0.042030952814552686 -0.03755946572080069 0.06016382643466972 0.050100708535602716 0.0022450970593194132 0.00085120174966943525 0.0085636560223448961 -0.07672729256233779 0.0016776457839037914 -0.0020708512897459194 -0.070419775968437667 -0.05625696420637738 -0.016123627758846164
leaf_weight=1719.1144175296067 437.42137957923114 618.20568844443187 77.193126121535897 601.65186588431243 32.63295404240489 2366.3181673153304 629.8325390634127 746.15945786051452 2478.4173047365621 141.45138740725815 102.20472164824605 634.44353563711047 610.08360026893206 309.94849831261672 1029.3510718978941 783.58503352478147 605.43356397747993 495.10866407805588 1406.8346373988315 494.36879239673726 926.98426142241806 478.7364386129193 398.78202261216938 1310.6276168613695 52.719774781260639 860.53220356185921 101.7628364758566 736.03982593724504 87.549954620189965 511.64237872691592
leaf_count=15298 388 3063 138 4931 92 2652 2325 2195 33848 242 1446 7170 2999 4509 14140 1935 597 6616 18075 783 1410 2186 2400 5865 719 6323 307 11353 1082 4763
internal_value=8.59899e-06 -0.0127547 0.0195635 -0.0309211 0.0303675 0.056264 -0.00964149 0.0358093 -0.0424629 0.018978 0.00356019 -0.0218614 -0.0270354 -0.0317553 -0.0331979 0.0259284 0.0536064 -0.0218009 -0.0265205 0.0405676 0.0419442 0.0217418 0.0220815 0.0130446 -0.00930318 -0.0093614 0.0449399 -0.0544396 -0.00726812 -0.0248367
internal_weight=21785.1 17756.5 6389.49 11367 5067.77 4028.64 3997.25 1662.32 7369.76 3400.96 2502.99 1321.72 1244.53 1494.26 4155.3 2730.03 1666.81 1184.31 3125.95 1277.95 1061.38 1224.9 1028.61 1452.08 670.925 1474.38 1028.75 3214.46 689.202 613.847
internal_count=159850 152429 25320 127109 15013 7421 34395 4769 92714 12607 17257 10307 10169 17138 47513 8825 2406 12629 33373 2718 1809 4381 4725 6107 3782 12532 1717 45201 6013 6209
is_linear=0
shrinkage=0.05


Tree=5
num_leaves=31
num_cat=0
split_feature=78 44 79 78 21 18 86 6 85 1 92 13 19 85 21 24 62 54 22 22 63 18 13 56 13 24 56 78 38 61
split_gain=4813.44 2778.23 1145.93 700.303 562.723 433.792 335 318.991 292.69 235.73 220.349 214.981 204.197 203.913 191.217 181.857 179.252 203.889 178.452 153.864 152.364 135.097 127.431 124.769 122.465 121.766 121.12 116.326 112.364 107.827
threshold=0.2198416739702225 1.2179100513458254 0.07596378400921823 0.53172424435615551 1.9061893820762636 1.0000000180025095e-35 0.77500000596046459 2.5000000000000004 0.83974358439445507 4.4604477882385263 4.5000000000000009 12.354166507720949 1.3042029738426211 0.89444443583488475 3.1486427783966069 1.3709686994552615 1.5577777624130251 6.5000000000000009 1.6031214594841006 1.7946176528930666 0.31365740299224859 1.0000000180025095e-35 5.6904761791229257 21.500000000000004 20.535714149475101 5.3238143920898446 24.500000000000004 0.34498021006584173 2.2264649868011479 3.7664922475814824
decision_type=2 2 2 2 2 2 2 2 2 2 2 2 2 2 2 2 2 2 2 2 2 2 2 2 2 2 2 2 2 2
left_child=1 2 5 4 15 13 9 14 11 20 -3 21 -7 22 16 -2 -5 -18 -10 -15 27 -4 29 -17 -19 -9 -22 -6 -12 -1
right_child=3 10 8 7 6 12 -8 25 18 -11 28 -13 -14 19 -16 23 17 24 -20 -21 26 -23 -24 -25 -26 -27 -28 -29 -30 -31
leaf_value=0.0034808737175621995 -0.059741251951960998 0.054397807100189072 0.0056774252023874721 0.061838603201751767 0.010647556891591858 -0.060637441924620887 0.055100122445407795 -0.028234669209041042 -0.0043717578025259307 0.048483077475272862 -0.070758630095140343 -0.055672361828958211 -0.038409204953599924 -0.028741645933065819 0.069759281244228963 0.010073502211306833 -0.060112228772819992 0.040181960271644827 0.029459926242822183 0.024649414913964274 0.0076672937361233545 -0.031126569113594661 -0.06354115884233473 -0.02922791132587237 -0.019800488656400887 0.036822842431584422 -0.03187902390420367 0.034739740454500963 0.017971318034561864 -0.030967500376759927
leaf_weight=248.20589705579914 192.01901498576626 1189.5654617357068 662.4529456642922 776.85123941767961 1145.536909588147 2110.390239294793 772.25648762751371 182.52282084617764 765.65953217144124 564.81731423921883 44.214051487389952 307.10965766385198 2024.1522369238082 235.82050074730068 963.35951332375407 500.01397099182941 58.025285568088293 1156.2017494169995 793.95357610844076 315.43840833147988 747.21753596281633 399.83637033111881 276.77500740718096 338.76225910661742 91.855330804362893 118.69675067905337 261.33168042637408 890.52794630546123 184.86141841020435 2678.9367667151964
leaf_count=1895 2549 2487 4798 1090 5315 34649 1568 993 6318 1140 624 4339 27126 2326 1082 3003 688 2351 3325 1454 3402 5101 4116 2661 483 231 1746 2389 974 29873
internal_value=0.000214661 -0.0200399 -0.0286669 0.0285095 0.0173916 -0.0385818 0.0252112 0.0464857 -0.00195953 0.0188163 0.0457504 -0.0188273 -0.0497551 -0.0262798 0.0513392 -0.0158478 0.0428199 0.0315077 0.012851 0.0018095 0.0133127 -0.00817528 -0.0311127 -0.00579943 0.0357673 -0.0025985 -0.00257981 0.0211849 0.000845475 -0.0280465
internal_weight=20997.4 12237.4 10818.7 8760 5412.48 7889.72 4381.69 3347.51 2929.01 3609.43 1418.64 1369.4 4134.54 3755.18 3046.29 1030.8 2082.93 1306.08 1559.61 551.259 3044.61 1062.29 3203.92 838.776 1248.06 301.22 1008.55 2036.06 229.075 2927.14
internal_count=160096 129405 125320 30691 23773 101439 15560 6918 23881 13992 4085 14238 61775 39664 5694 8213 4612 3522 9643 3780 12852 9899 35884 5664 2834 1224 5148 7704 1598 31768
is_linear=0
shrinkage=0.05


Tree=6
num_leaves=31
num_cat=0
split_feature=80 0 79 0 80 11 27 41 39 97 20 1 24 31 79 34 19 78 92 34 28 13 92 18 19 61 20 28 89 89
split_gain=4647.22 3551.96 993.652 893.712 318.181 458.048 286.764 272.424 249.116 214.992 210.638 200.904 220.481 169.92 164.701 159.358 151.24 139.291 130.374 106.801 104.26 100.18 98.7566 97.3475 93.9945 93.6787 94.1479 91.528 90.9143 90.8783
threshold=0.58332458138465892 0.88565003871917736 0.063065182417631163 3.2244230508804326 0.43340504169464117 1.0000000180025095e-35 2.2363831996917729 1.7946176528930666 1.2416213750839236 1.0000000180025095e-35 1.0000000180025095e-35 1.5935902595520022 3.4209991693496709 0.06064064800739289 0.17127166688442233 1.3042029738426211 1.3042029738426211 0.37031795084476476 4.5000000000000009 1.1271170973777773 2.1920384168624882 30.550000190734867 3.5000000000000004 1.0243951082229616 1.5195944309234621 48.85028266906739 1.0243951082229616 1.5127518773078921 36.500000000000007 27.500000000000004
decision_type=2 2 2 2 2 2 2 2 2 2 2 2 2 2 2 2 2 2 2 2 2 2 2 2 2 2 2 2 2 2
left_child=1 2 6 8 5 11 10 -6 -3 17 15 -4 -13 25 19 20 -8 21 22 23 29 -10 -2 -14 -12 26 -11 -21 -5 -1
right_child=18 3 4 28 7 -7 16 -9 9 13 24 12 14 -15 -16 -17 -18 -19 -20 27 -22 -23 -24 -25 -26 -27 -28 -29 -30 -31
leaf_value=-0.024295409712129203 0.0050270918592676857 0.065701020091072315 -0.025861126611260929 0.049322133649981975 0.072784290835544815 -0.048176869270147395 -0.062016341669988075 -0.0082755044282469201 -0.012818145035472524 0.013352403862834372 -0.057924389503839373 0.03445663632414183 -0.015787795022524431 0.039300246487953265 0.019826041731749108 0.0069372562753160505 -0.039253979653628583 0.012526174758703053 0.031206510612828864 -0.013562636748459251 -0.0087516992863447638 -0.08097157707403739 0.063773485430568488 -0.060325375946293426 -0.026139608321038205 0.06987808450014564 -0.013651668907752809 0.032884635765487148 -0.0033097889095366701 -0.046015301721336381
leaf_weight=1236.9093899220461 73.647677363827825 173.61751224752516 686.43761433777399 1950.923525382299 220.10888716764748 687.20656922762282 1421.0646965246997 195.90455173049122 1382.4995920280926 1026.1838604768272 778.98679686698597 494.73479883733671 389.66161696286872 564.13049852708355 494.35106062307023 388.42890596599318 1500.0558280248661 642.39483305695467 394.02899943850935 308.73443494958337 582.66367602697574 56.10766820423305 2498.7592005329207 179.07512288360158 331.61304177017882 57.526953561231494 470.87530616763979 161.5739302164875 85.651301465928555 788.67341495439177
leaf_count=15086 223 234 7920 3125 208 8926 24455 1244 11152 3942 12548 2052 3875 1396 2798 2582 20615 2767 1124 2601 4956 768 3190 3008 3837 109 2975 663 260 11457
internal_value=0.000179205 -0.0097587 -0.0271977 0.0197497 -0.00666379 -0.0117116 -0.0383516 0.0346125 0.00700918 0.00458285 -0.0298343 -0.00248023 0.00543323 0.0157945 -0.00393088 -0.0229411 -0.0503274 -0.00683202 0.0579891 -0.0152338 -0.0273906 -0.0154762 0.0620916 -0.0298111 -0.0484338 0.00726474 0.00485872 0.00239427 0.0471086 -0.0327522
internal_weight=20222.5 17256.1 10846.2 6409.91 3817.79 3401.78 7028.4 416.013 4373.34 4199.72 4107.28 2714.57 2028.13 2118.72 1533.4 2996.68 2921.12 2081 2966.44 1039.05 2608.25 1438.61 2572.41 568.737 1110.6 1554.59 1497.06 470.308 2036.57 2025.58
internal_count=160096 155559 128831 26728 33295 31843 95536 1452 23343 23109 50466 22917 14997 8422 12945 34081 45070 14687 4537 10147 31499 11920 3413 6883 16385 7026 6917 3264 3385 26543
is_linear=0
shrinkage=0.05


Tree=7
num_leaves=31
num_cat=0
split_feature=78 44 79 0 65 100 27 89 30 22 24 2 20 50 19 87 38 65 56 0 7 1 95 21 57 60 2 60 59 1
split_gain=3877.06 2205.36 900.688 686.102 426.529 333.57 252.585 245.716 231.661 215.279 188.384 185.609 154.662 148.761 145.184 126.156 359.175 126.135 115.477 109.363 101.174 100.39 99.6032 96.9708 90.6766 86.5541 85.8768 83.9104 82.1793 81.3172
threshold=0.2198416739702225 1.3340195417404177 0.055847028270363815 2.7302216291427617 0.23611111193895343 0.88194444775581371 2.2363831996917729 24.500000000000004 1.3180042505264284 1.5195944309234621 1.6942822933197024 1.0217025279998782 1.0000000180025095e-35 2.5000000000000004 1.3042029738426211 9.5000000000000018 1.5195944309234621 0.23611111193895343 24.500000000000004 5.4314527511596689 32.500000000000007 3.3777657747268681 3.5000000000000004 1.6942822933197024 6.75337839126587 8.7757759094238299 1.6866196990013125 6.2214128971099862 5.1742422580719003 5.6140739917755136
decision_type=2 2 2 2 2 2 2 2 2 2 2 2 2 2 2 2 2 2 2 2 2 2 2 2 2 2 2 2 2 2
left_child=1 2 6 4 10 8 12 13 -4 25 -2 -9 23 26 -8 -15 -17 -3 21 22 -11 -12 -5 24 -1 -7 -6 -13 -27 -25
right_child=3 17 5 19 7 9 14 11 -10 20 18 27 -14 15 -16 16 -18 -19 -20 -21 -22 -23 -24 29 -26 28 -28 -29 -30 -31
leaf_value=0.0036420446210125288 -0.03779079792057162 -0.0057089169184511793 -0.037492950551981076 0.046390837176065687 -0.039275218949415651 -0.020622867078649576 -0.06052563832355861 -0.041936773659458096 -0.0015269340632713174 0.031377030425490227 0.0079212163946670196 -0.0030693409195898746 -0.047070285645341089 0.068229939526570388 -0.037802070032871699 -0.045811839767557282 0.048820631038375112 0.048885138404649892 -0.010482496978988655 0.061957739557932746 -0.0085843793277403293 0.036017325432322361 0.023439593437289918 -0.028914470080703226 -0.053228840819348359 0.047101510395024582 0.042937005770255388 0.049280542741314604 -0.019151737296357441 0.053746574614997406
leaf_weight=482.21834311488783 252.47846211353317 116.61395547911525 1008.3669564676238 1669.0117764854804 81.815786780789495 584.23002625769004 1359.2041407828219 160.7892922651954 805.26389755378477 835.47366186627187 1746.2537115982268 145.98927718866616 890.11707839480368 491.28388251038268 1455.7981551252306 114.96549186576158 784.35868195537478 1140.8484094343148 690.77645079814829 739.83272982947528 195.44191165198572 388.70373215153813 659.51103652408347 2219.5311055615311 82.009870483772829 107.30032518785447 51.923702124040574 160.92248680070043 83.016359662520699 30.156533268047497
leaf_count=3626 2979 979 14208 3021 888 6077 24535 1941 6997 3771 8622 696 13878 583 20473 1451 1837 2641 4372 833 1131 1108 1812 28715 931 416 141 407 855 172
internal_value=0.000191209 -0.0186336 -0.0263802 0.0265494 0.015256 -0.00637831 -0.0374843 0.0332832 -0.0215238 0.00883571 0.00358978 0.00158065 -0.0289044 0.0430102 -0.048774 0.0478542 0.0367232 0.0438222 0.00728712 0.0452112 0.0238011 0.0130366 0.0398903 -0.023158 -0.00462407 -0.0110831 -0.00735673 0.0243792 0.0182018 -0.0278064
internal_weight=19534.2 11395.6 10138.1 8138.62 5070.26 3619.09 6519.04 1992.05 1813.63 1805.46 3078.21 467.701 3704.03 1524.35 2815 1390.61 899.324 1257.46 2825.73 3068.36 1030.92 2134.96 2328.52 2813.92 564.228 774.547 133.739 306.912 190.317 2249.69
internal_count=160096 129405 125785 30691 25025 33455 92330 7944 21205 12250 17081 3044 47322 4900 45008 3871 3288 3620 14102 5666 4902 9730 4833 33444 4557 7348 1029 1103 1271 28887
is_linear=0
shrinkage=0.05


Tree=8
num_leaves=31
num_cat=0
split_feature=78 44 79 78 21 100 86 27 28 1 63 6 20 24 20 19 21 92 34 78 21 34 92 36 28 56 79 20 38 15
split_gain=3402.47 1940.83 747.618 525.401 383.759 261.903 241.012 224.445 220.967 189.074 175.942 164.923 153.495 145.459 134.492 128.834 106.441 128.916 104.663 118.053 109.078 98.2798 96.8168 96.4405 92.7854 92.5858 89.2976 88.1787 84.812 82.9276
threshold=0.2198416739702225 1.1139941215515139 0.055847028270363815 0.57385930418968212 1.9061893820762636 0.69615384936332714 0.77500000596046459 2.2363831996917729 1.5127518773078921 4.4604477882385263 0.090567328035831465 2.5000000000000004 1.0000000180025095e-35 1.3709686994552615 1.0000000180025095e-35 1.3042029738426211 3.1486427783966069 4.5000000000000009 1.1827298998832705 0.3548393994569779 2.8020691871643071 1.3042029738426211 4.5000000000000009 2.6010477542877202 2.1920384168624882 25.500000000000004 0.16194725036621097 1.0000000180025095e-35 2.2264649868011479 0.99218750000000011
decision_type=2 2 2 2 2 2 2 2 2 2 2 2 2 2 2 2 2 2 2 2 2 2 2 2 2 2 2 2 2 2
left_child=1 2 7 4 13 12 9 14 -7 18 22 16 26 -2 21 -9 17 -5 19 -6 -20 24 -3 -19 -1 -8 -4 -10 -24 -21
right_child=3 10 5 11 6 8 25 15 27 -11 -12 -13 -14 -15 -16 -17 -18 23 20 29 -22 -23 28 -25 -26 -27 -28 -29 -30 -31
leaf_value=-0.031273595578211903 -0.054430644989874724 0.049813001027183487 -0.023455579265842207 0.045583483121136949 -0.0091218055927465517 -0.009002660038759833 0.052279357635807433 -0.058320027461832659 0.030430476320393241 0.043575188794662267 -0.0043579836274552277 0.001132195717145564 -0.061821174471417245 -0.0033556470382941767 -0.045332190857317267 -0.036418466807710069 0.063255806775473447 -0.040413585010428965 0.010257352241785145 0.022715721213957683 0.039626758829108329 0.003552227905101886 -0.06352937800092201 0.030464643944825821 -0.0081991025219435455 -0.022436955557015397 0.014259429226068866 -0.018752222177018014 0.026624156947796088 -0.02425807480605148
leaf_weight=1852.0486432267353 169.16969449166209 1046.2208516946994 850.89645840064622 1453.695881344378 853.94396698265336 1261.6426161458949 723.249900248833 1282.132891201647 723.83353392593563 568.48459673207253 219.6532003483735 209.41698374692351 227.56280609592795 792.15618808590807 833.08023749862332 1409.7696538553573 734.0122438413091 78.416212804615498 732.54332802630961 770.81792326783761 556.17789777973667 322.11097916518338 32.953339727595448 123.69959624670446 569.67553363542538 43.983794534578919 192.44211867719423 104.2605668657925 125.20895682182163 106.99904656363651
leaf_count=26110 2576 2334 10732 2825 5719 11816 1434 24402 2991 1222 1635 951 4135 5952 13626 20416 882 744 3154 2675 1297 2343 525 329 4921 292 1708 1048 663 639
internal_value=0.00023409 -0.0176866 -0.0257436 0.0252552 0.0162496 -0.00671569 0.0225596 -0.0359442 0.00416959 0.0171219 0.0367956 0.0436787 -0.0246143 -0.0123436 -0.0277368 -0.04685 0.047407 0.0403813 0.0121431 0.00411407 0.0229324 -0.0223945 0.0443011 0.00296555 -0.0258457 0.047996 -0.0164991 0.0242382 0.00784054 0.01699
internal_weight=18970.3 11053.5 9629.46 7916.77 5317.53 3360.64 4356.2 6268.82 2089.74 3588.97 1424.04 2599.24 1270.9 961.326 3576.92 2691.9 2389.82 1655.81 3020.48 1731.76 1288.72 2743.84 1204.38 202.116 2421.72 767.234 1043.34 828.094 158.162 877.817
internal_count=160096 129405 124248 30691 24960 32430 16432 91818 15855 14706 5157 5731 16575 8528 47000 44818 4780 3898 13484 9033 4451 33374 3522 1073 31031 1726 12440 4039 1188 3314
is_linear=0
shrinkage=0.05


Tree=9
num_leaves=31
num_cat=0
split_feature=80 78 78 1 63 24 24 19 1 36 80 2 1 34 27 20 1 14 34 19 58 78 20 20 59 87 80 92 34 64
split_gain=3387.53 2412.38 655.958 501.227 305.841 275.601 260.002 213.824 190.587 165.305 125.625 143.929 120.879 119.601 118.762 116.934 112.677 111.113 109.192 106.673 104.254 100.451 98.3195 92.1106 177.659 88.5908 87.3232 85.4438 85.2688 83.9069
threshold=0.58332458138465892 0.11702995002269746 0.42602120339870458 2.423161625862122 0.31365740299224859 6.7101087570190439 4.9205765724182138 1.4425191283226015 3.5090534687042241 1.2416213750839236 0.69198602437973034 1.1198465228080752 4.2605025768280038 1.1827298998832705 1.7962994575500491 1.0000000180025095e-35 4.4604477882385263 0.45000000298023229 1.1271170973777773 1.2416213750839236 6.186195135116578 0.32562106847763067 1.0000000180025095e-35 1.0000000180025095e-35 3.5857142210006718 8.5000000000000018 0.37886068224906927 3.5000000000000004 1.3709686994552615 0.005882673431187869
decision_type=2 2 2 2 2 2 2 2 2 2 2 2 2 2 2 2 2 2 2 2 2 2 2 2 2 2 2 2 2 2
left_child=1 3 4 7 8 12 9 14 13 -4 11 -2 19 21 15 -1 25 -8 -7 -5 22 -3 -11 -15 26 -6 -25 -12 -16 -30
right_child=10 2 6 5 16 18 17 -9 -10 20 27 -13 -14 23 28 -17 -18 -19 -20 -21 -22 -23 -24 24 -26 -27 -28 -29 29 -31
leaf_value=-0.023247361830954834 0.064967180452311479 -0.017305020287601048 0.06019695925746537 -0.010359549447326361 0.03911670472964094 -0.037151597663875047 0.043923761187606672 -0.022349354611033063 0.030547651717007324 0.012909997406848651 0.001490714761906689 0.020627541896646895 0.044478081868255449 0.022652439843643263 -0.053653448362439848 -0.052386363753484294 0.020440573021576699 -0.046890550484913945 0.00098220139056185178 0.028101980139324603 0.04319400802450616 0.015146864319611661 -0.018245179826623225 -0.037656639649617046 -0.016585554020322229 -0.036187599412154846 0.061451963285974701 0.061151027395380024 -0.055256153790221932 -0.009998316696541663
leaf_weight=1234.2969915868016 277.096748881042 1065.2161817434244 166.14672966580838 499.43477706739213 41.10125720128417 604.16172980808187 1702.8151020985097 2407.11108056386 650.53733306983486 685.48631136212498 62.065976728219539 539.09324207995087 234.15230339905247 753.47012543026358 1797.3500658256235 477.48421650158707 114.72428976651281 34.361601820681244 272.34002470213454 282.10797447245568 172.95834409166127 307.23671017074957 401.58670908771455 26.880332631524652 526.0942269761581 784.9071369743906 128.3381301080808 1814.8290138877928 174.46135800634511 247.98064325621817
leaf_count=14961 316 11303 300 4968 167 9674 3048 29354 2469 2430 203 1707 937 3001 34226 8349 479 213 2550 1531 609 1280 3213 361 4970 8862 232 2311 3328 2744
internal_value=0.000225099 -0.0086136 0.0117743 -0.0273444 -0.000714305 -0.00476143 0.0291392 -0.0340857 0.00616271 0.0133187 0.0520569 0.0356809 0.012965 0.000511843 -0.0412713 -0.0313754 -0.0259916 0.0421274 -0.025303 0.00352364 0.00713742 -0.0100404 0.00140065 0.0106056 -0.00271704 -0.0324405 0.0442886 0.0591782 -0.0489025 -0.028689
internal_weight=18485.8 15792.7 7561.86 8230.88 4398.51 1892.2 3163.35 6338.68 3457.77 1426.18 2693.08 816.19 1015.7 2807.24 3931.57 1711.78 940.733 1737.18 876.502 781.543 1260.03 1372.45 1087.07 1434.78 681.313 826.008 155.218 1876.89 2219.79 422.442
internal_count=160096 155559 42937 112622 33124 19660 9813 92962 23616 6552 4537 2023 7436 21147 63608 23310 9508 3261 12224 6499 6252 12583 5643 8564 5563 9029 593 2514 40298 6072
is_linear=0
shrinkage=0.05


Tree=10
num_leaves=31
num_cat=0
split_feature=80 78 78 1 1 34 27 29 90 28 80 28 41 62 16 82 1 29 34 27 93 56 61 36 54 78 50 1 23 34
split_gain=3001.28 2185 598.508 416.782 288.413 234.909 208.955 199.437 192.924 175.59 141.114 129.295 128.335 102.319 99.3051 95.5562 90.8938 86.9867 83.5652 83.5198 81.0668 79.5963 72.4819 70.7847 80.3342 70.5854 129.67 92.3895 68.5048 65.0487
threshold=0.58672583103179943 0.11702995002269746 0.44208593666553503 3.6469858884811406 3.5090534687042241 1.3709686994552615 2.2390170097351079 1.676055431365967 6.5000000000000009 1.3368060588836672 0.68175566196441661 1.7038090229034426 2.9322355985641484 0.28549382090568548 729.09375000000011 1.5000000000000002 1.9368472099304201 0.73813205957412731 1.3042029738426211 2.7039270401000981 3.5000000000000004 20.500000000000004 23.608084678649906 1.6942822933197024 5.5000000000000009 0.8591693937778474 2.5000000000000004 3.250663280487061 2.5466563701629643 1.0744368433952334
decision_type=2 2 2 2 2 2 2 2 2 2 2 2 2 2 2 2 2 2 2 2 2 2 2 2 2 2 2 2 2 2
left_child=1 3 4 5 8 6 17 19 14 22 12 18 -2 -10 23 -15 -11 -1 -5 25 -6 -8 -7 24 -3 27 -27 -4 -9 -25
right_child=10 2 7 11 20 9 21 28 13 16 -12 -13 -14 15 -16 -17 -18 -19 -20 -21 -22 -23 -24 29 -26 26 -28 -29 -30 -31
leaf_value=-0.019364775694020467 0.057198302271146528 0.062945985217091993 0.014092988227489132 -0.02210637607684364 0.046635392978033159 -0.041622440004212211 -0.036347468829831968 -0.039031842263777879 0.042528864022975787 -0.01314906661477667 0.057357367325980159 0.036519234286761286 0.012812166252156063 -0.014185413015859606 -0.076034917986532169 0.008049599726544749 0.017659527856960452 -0.035479809901655369 0.021601609853272627 0.051750608081194693 0.01470645664110159 -0.054573878226930474 0.041407855417815193 -0.020338242993055887 -0.039773469503379261 -0.030626386372541566 0.055454580875304631 0.040784556565164581 0.0089935577268787786 0.0080619824484815389
leaf_weight=1893.0832818781491 273.08911696169525 19.991595037281513 862.64199762139469 307.54901603423059 296.09186695795506 451.26050851074979 1158.5052481169114 90.643223683349788 149.90774337667972 553.54305352061056 1880.8867563996464 274.17334084864706 403.42457114439458 771.10500280256383 78.073418459389359 1294.1482887115562 421.85137127898633 1501.6342371911742 169.69553835695842 567.06000759452581 605.00472673308104 1240.3036993083078 27.909963433165103 542.11555382562801 397.46208250662312 48.805147998034954 422.25990020111203 519.40598989743739 410.66917049814947 321.0087165881414
leaf_count=22580 386 27 2956 4193 757 7031 18797 1039 549 6302 2652 1401 1454 7710 1299 7795 2608 24329 1060 792 2865 24213 173 5273 5757 585 537 1028 2107 1865
internal_value=0.000153808 -0.00817817 0.0114109 -0.0262904 -8.13195e-05 -0.0299651 -0.0344753 0.0290139 -0.00645522 -0.0120007 0.0503135 0.00915536 0.0307296 0.00264285 -0.0212888 -0.000252302 0.000175438 -0.0264932 -0.00656497 0.0349596 0.025198 -0.0457714 -0.0367862 -0.0179511 -0.0348543 0.0298214 0.0465361 0.0241243 0.000309996 -0.00977578
internal_weight=17953.3 15395.9 7396.39 7999.51 4474.91 7248.09 5793.53 2921.49 3573.81 1454.56 2557.4 751.418 676.514 2215.16 1358.65 2065.25 975.394 3394.72 477.245 2420.17 901.097 2398.81 479.17 1280.58 417.454 1853.11 471.065 1382.05 501.312 863.124
internal_count=160120 155628 42941 112687 33897 106033 89919 9044 30275 16114 4492 6654 1840 16054 14221 15505 8910 46909 5253 5898 3622 43010 7204 12922 5784 5106 1122 3984 3146 7138
is_linear=0
shrinkage=0.05


Tree=11
num_leaves=31
num_cat=0
split_feature=80 0 0 1 80 41 89 79 24 100 19 13 0 27 14 87 20 89 79 80 25 54 0 60 27 16 42 30 3 100
split_gain=2728.27 2192.01 507.113 488.711 316.491 261.936 215.142 206.03 168.122 156.214 135.202 121.339 119.075 113.629 102.485 118.072 98.9594 94.2445 90.582 82.917 82.5662 92.7195 78.5407 73.9171 71.5351 65.1624 63.8906 62.7812 78.4191 62.8224
threshold=0.46698068082332617 0.89186394214630138 3.292271733283997 3.250663280487061 0.68175566196441661 1.9061893820762636 29.500000000000004 0.068269349634647383 7.4195778369903573 0.86607143282890331 1.5195944309234621 35.071428298950202 1.9906685948371889 2.2390170097351079 0.30952382087707525 98.500000000000014 1.0000000180025095e-35 34.500000000000007 0.23359777778387072 0.6267199218273164 4.3976223468780526 5.5000000000000009 2.1034638881683354 0.21315193176269534 2.2363831996917729 837.23696899414074 1.4796564579010012 1.1007874608039858 1.0000000180025095e-35 0.34523810446262365
decision_type=2 2 2 2 2 2 2 2 2 2 2 2 2 2 2 2 2 2 2 2 2 2 2 2 2 2 2 2 2 2
left_child=1 3 9 6 5 -2 7 10 -5 17 13 14 19 16 -9 -16 -1 23 -10 -7 21 -11 -23 -3 -8 27 -4 28 -25 -29
right_child=4 2 26 8 -6 12 24 11 18 20 -12 -13 -14 -15 15 -17 -18 -19 -20 -21 -22 22 -24 25 -26 -27 -28 29 -30 -31
leaf_value=-0.021434682140835618 0.06517100571280085 0.040537237112706154 0.014987190976023008 0.02450402842994856 0.055870574176419788 -0.011936299514349795 -0.035084200396245574 0.0033175295902548281 -0.024950995586377266 0.057673796190081054 -0.017197912818246976 -0.059243098918299313 0.034585979763299329 -0.049007888044432193 -0.040142419270351955 0.022002867018300593 -0.047635127914209804 -0.043651178740601287 0.040667636451989342 0.026006313275528183 0.036201779840133085 -0.00042284159019364843 0.025630332588260814 -0.021328386091883395 -0.054734282735063915 -0.05191147678117948 0.043416539994871904 -0.019739045889847553 0.016592871075792822 0.016031686116885432
leaf_weight=1368.3156411310774 300.09878092445433 99.570220211520791 229.84499337151647 618.63837542873807 1805.7263581785373 470.42259911447763 1148.1947528916644 1082.5471158251166 380.59328886843286 97.746189286001027 1490.9129073321819 110.05845730099827 381.89844013075344 1035.1728084966308 326.96370057575405 99.748506844043732 489.26050634286366 142.16504357056692 61.025914357975125 207.5018727327697 399.84835533448495 977.03594338940457 410.94837205950171 556.96909721824341 776.30619263323024 67.605253226589411 1409.801952148322 155.19461726932786 180.5176141585689 587.01059728069231
leaf_count=17790 336 265 705 3521 2652 3059 17378 10190 5605 155 18085 1791 974 21207 4997 641 9879 1765 355 638 1290 5347 1163 6077 15775 847 2343 1262 836 3192
internal_value=0.000149328 -0.00914739 0.016309 -0.0241992 0.0421507 0.0239332 -0.0284631 -0.0237993 0.00768184 0.0059916 -0.0294292 -0.00855866 0.0122564 -0.0357331 -0.00486264 -0.0256153 -0.0283355 -0.00459211 -0.0158834 -0.000322671 0.0160334 0.0106056 0.00729087 -0.00122035 -0.0430107 -0.0039075 0.0394313 -0.00171426 -0.0120462 0.00855205
internal_weight=17467.6 14302 5314.26 8987.74 3165.65 1359.92 7927.48 6002.98 1060.26 3674.61 4383.66 1619.32 1059.82 2892.75 1509.26 426.712 1857.58 1789.03 441.619 677.924 1885.58 1485.73 1387.98 1646.87 1924.5 1547.3 1639.65 1479.69 737.487 742.205
internal_count=160120 152461 25247 127214 7659 5007 117733 84580 9481 22199 66961 17619 4671 48876 15828 5638 27669 14244 5960 3697 7955 6665 6510 12479 33153 12214 3048 11367 6913 4454
is_linear=0
shrinkage=0.05


Tree=12
num_leaves=31
num_cat=0
split_feature=78 44 79 21 27 56 20 85 13 50 87 28 84 44 79 25 0 68 56 63 56 26 82 56 2 56 30 63 59 45
split_gain=2248.5 1250.16 746.125 343.102 235.283 192.849 177.261 217.754 168.167 156.288 203.324 148.326 142.904 128.091 118.39 104.974 91.1025 81.9495 81.7391 78.8835 88.342 78.8806 76.0188 75.166 73.9361 72.165 66.26 71.4226 65.3904 64.1787
threshold=0.28499747812747961 1.4738389849662783 0.11804623529314996 2.8020691871643071 2.2363831996917729 24.500000000000004 1.0000000180025095e-35 0.73863637447357189 30.550000190734867 2.5000000000000004 9.5000000000000018 1.7425852417945864 0.76388889551162731 1.7941412925720217 0.22835243493318561 1.6942822933197024 1.0403175950050356 0.43650794029235845 19.500000000000004 0.15075758099555972 23.500000000000004 5.6847579479217538 1.5000000000000002 25.500000000000004 2.5179533958435063 20.500000000000004 0.97891059517860424 0.077296491712331786 3.3484847545623784 0.26549866795539862
decision_type=2 2 2 2 2 2 2 2 2 2 2 2 2 2 2 2 2 2 2 2 2 2 2 2 2 2 2 2 2 2
left_child=1 2 4 5 6 9 7 18 14 28 -11 -9 24 15 22 -12 23 19 -1 20 -3 -8 25 -6 -5 -4 27 -16 -2 -17
right_child=3 17 8 12 16 -7 21 11 -10 10 13 -13 -14 -15 26 29 -18 -19 -20 -21 -22 -23 -24 -25 -26 -27 -28 -29 -30 -31
leaf_value=-0.010984398393152198 0.021450699261802056 0.038095123903448887 0.0037191278048214205 0.022674107015291461 -0.035666703720876602 -0.013468708604151163 -0.046578537593656683 -0.0063570887358124955 -0.031974571654094709 0.057137315053768845 -0.019855658326911843 0.035398528389814714 0.050635734040071281 0.043163137132886623 0.042044393410806048 0.027635174512276924 -0.014032064689519008 0.052588528834790566 -0.028904085856475338 -0.023222794305595731 -0.024283667387258082 -0.014890158245201845 0.010697638325215884 -0.056337416630186932 0.050113967803792285 -0.046808092459333546 0.055255569832667675 0.002200612778954445 -0.032385249189457177 0.0059089240539421384
leaf_weight=1079.1879900782369 79.740501918829978 527.23339582188055 157.83232705923729 1303.3258040761575 2195.4128149261232 544.71954588231165 707.70795277867001 759.16129720362369 235.33829573355615 374.81570528494194 237.80329468566924 295.45181802893057 1202.7067675918806 377.85544808208942 202.54756837710738 642.64211964909919 391.72672502230853 467.17520442418754 1550.883586404263 74.483969217166305 63.606255975551903 271.8126514259493 899.64260670566 549.96723978943191 302.45956182572991 127.95810825936496 187.1806978341192 252.92272239725571 192.73058635229245 721.55476881773211
leaf_count=11989 388 1618 1575 4453 39310 3930 13662 7806 3136 618 2624 1381 1958 972 904 1998 3959 747 21862 560 615 4431 6573 12343 507 1936 595 2017 1956 3697
internal_value=0.000201172 -0.0132172 -0.0189292 0.0248761 -0.0260012 0.0136068 -0.0188799 -0.0138543 0.00780843 0.0192208 0.0233692 0.00534082 0.0376035 0.0169764 0.0129299 0.0107999 -0.036589 0.0365376 -0.0215512 0.025267 0.0313798 -0.0377852 0.00356121 -0.0398076 0.0278426 -0.0189036 0.0302113 0.0199191 -0.0166298 0.0161437
internal_weight=16977.6 10997.2 9864.73 5980.35 7801.31 3171.86 4664.21 3684.68 2063.42 2627.14 2354.67 1054.61 2808.49 1979.86 1828.08 1602 3137.11 1132.5 2630.07 665.324 590.84 979.521 1185.43 2745.38 1605.79 285.79 642.651 455.47 272.471 1364.2
internal_count=160120 137019 133479 23101 116743 16183 61131 43038 16736 12253 9909 9187 6918 9291 13600 8319 55612 3540 33851 2793 2233 18093 10084 51653 4960 3511 3516 2921 2344 5695
is_linear=0
shrinkage=0.05


Tree=13
num_leaves=31
num_cat=0
split_feature=78 44 79 0 85 65 19 28 27 20 79 89 13 1 79 0 92 65 56 53 92 63 38 89 2 50 2 5 92 100
split_gain=2014.18 1112 670.284 345.762 264.912 250.698 163.616 161.243 150.707 144.608 140.153 132.404 115.296 104.71 102.492 85.9862 75.4776 71.3704 73.8703 68.4301 66.2124 65.8792 65.7512 64.6232 63.9133 62.4761 80.9496 66.2209 63.7885 60.8225
threshold=0.25720064342021948 1.4738389849662783 0.055847028270363815 2.9247596263885502 0.67948719859123241 0.23611111193895343 1.5195944309234621 1.5604868531227114 1.7324635386466982 1.0000000180025095e-35 0.22835243493318561 28.500000000000004 12.050000190734865 3.250663280487061 0.14819693565368655 0.8255603313446046 4.5000000000000009 0.43650794029235845 23.500000000000004 4.5000000000000009 3.5000000000000004 0.15075758099555972 1.2416213750839236 36.500000000000007 1.3214864134788515 2.5000000000000004 1.9923130273818972 1.0000000180025095e-35 3.5000000000000004 0.59166666865348827
decision_type=2 2 2 2 2 2 2 2 2 2 2 2 2 2 2 2 2 2 2 2 2 2 2 2 2 2 2 2 2 2
left_child=1 2 6 5 12 13 8 10 9 -1 -6 15 14 16 -4 22 20 18 21 -12 -2 -3 -7 -5 -13 26 -17 -27 -29 -8
right_child=3 17 4 23 7 11 29 -9 -10 -11 19 24 -14 -15 -16 25 -18 -19 -20 -21 -22 -23 -24 -25 -26 27 -28 28 -30 -31
leaf_value=-0.017367280576169455 -0.041981793639813178 0.035966997821276707 -0.021490748719808273 0.039345702775802453 -0.009508123050472321 -0.059480573621921051 -0.021492991824187926 0.027513534656163924 -0.044302818279819856 -0.055374759428644872 0.06070232273547687 -0.057187944594847176 -0.051452054567126149 0.024392091509509477 0.016496794303121134 -0.052927583746695851 -0.022767617530720839 0.051425463635472748 -0.02158684233206757 0.0127744116615104 0.0051563600314742256 -0.039358802819177301 0.018545464558261872 -0.003368727352848642 0.0098718951116907646 0.021038870594867792 0.043205427274520515 -0.043378395061627939 0.053805361063358148 0.0029786523600518408
leaf_weight=1364.7584157524398 78.372778868768364 482.92632095539011 812.26482242438942 2246.4913041307591 1197.8402721955208 29.68935131188482 1433.7388280904852 721.15137618151493 2175.396558681794 306.45746089104796 99.38294995483011 56.898257836699486 242.84016810904723 473.93393212230876 227.23464408330619 39.363877212628722 352.11889182054438 431.55037407297641 75.30519548477605 297.15574337798171 1506.1048425977351 30.88318040035665 298.07404473144561 92.181546982377768 94.613761958666146 232.4968593143858 49.354140686802566 17.281995844095945 734.59696842450649 308.55229774047621
leaf_count=17336 527 1535 11600 4343 12674 596 19790 3677 46247 7100 198 888 4892 1688 1958 586 3337 706 767 2175 8725 188 1931 379 417 1049 130 68 1448 3165
internal_value=0.00018848 -0.0135337 -0.0190345 0.0224161 -0.00220163 0.0134188 -0.0298707 0.00789494 -0.0356283 -0.0243369 -0.000978718 0.0290898 -0.0204331 0.0033267 -0.0131867 0.0338921 -0.00182853 0.0359775 0.0246612 0.0247864 0.00282477 0.0314394 0.0114777 0.0376621 -0.0153115 0.0407383 0.000551543 0.0443602 0.0515716 -0.0171592
internal_weight=16509 10207.4 9186.77 6301.57 3597.87 3962.9 5588.9 2315.53 3846.61 1671.22 1594.38 1552.37 1282.34 2410.53 1039.5 1400.86 1936.6 1020.67 589.115 396.539 1584.48 513.81 327.763 2338.67 151.512 1073.09 88.718 984.376 751.879 1742.29
internal_count=160120 134008 130812 26112 37174 21390 93638 18724 70683 24436 15047 7113 18450 14277 13558 5808 12589 3196 2490 2373 9252 1723 2527 4722 1305 3281 716 2565 1516 22955
is_linear=0
shrinkage=0.05


Tree=14
num_leaves=31
num_cat=0
split_feature=80 0 79 0 62 34 19 29 18 100 89 43 29 78 32 80 29 87 41 92 92 89 34 34 24 79 51 67 60 29
split_gain=2076.55 1574.29 510.04 400.953 203.945 168.556 165.743 132.477 112.722 91.6109 91.0262 89.735 80.0931 75.8889 71.6195 71.0159 92.6681 91.7287 74.7152 69.2932 70.8728 64.9209 70.0313 62.0587 60.2218 61.8666 58.6081 65.5964 56.9161 58.197
threshold=0.6267199218273164 0.85015875101089489 0.078043974936008467 3.6054358482360844 0.28549382090568548 1.3042029738426211 1.3709686994552615 0.56087663769721996 1.0000000180025095e-35 0.59166666865348827 30.500000000000004 16.502297401428226 1.1182821393013003 0.3548393994569779 1.7196038961410525 0.4912539422512055 2.514865636825562 127.50000000000001 1.7946176528930666 4.5000000000000009 3.5000000000000004 32.500000000000007 1.0744368433952334 1.0744368433952334 3.488899946212769 0.17127166688442233 3.5000000000000004 0.0063881054520607003 2.0049999952316289 0.79783931374549877
decision_type=2 2 2 2 2 2 2 2 2 2 2 2 2 2 2 2 2 2 2 2 2 2 2 2 2 2 2 2 2 2
left_child=1 2 6 5 -4 10 8 24 21 26 13 -7 -11 -3 15 16 17 -9 -17 20 -2 22 28 -16 -6 -26 27 -8 -1 -30
right_child=19 3 4 -5 7 11 9 14 -10 12 -12 -13 -14 -15 23 18 -18 -19 -20 -21 -22 -23 -24 -25 25 -27 -28 -29 29 -31
leaf_value=-0.046392052271483623 -0.0022507969706538514 -0.0063403517188746275 0.041027994686091557 0.03760565353437631 0.028393699976778142 0.023745744925837007 -0.010749699123208598 -0.04617539307197932 -0.044599597266628065 0.013502406369637968 -0.022492990249871999 0.00054307619880363683 -0.023400751908026866 0.014846346055666149 -0.01965037924664368 0.060609003130020683 -0.0037405952778345633 0.02970786065189189 -0.020191967553461233 0.024150720631130291 0.053764250657134166 -0.050382273191693298 0.0031138353224844061 0.015183914731846899 -0.011726515947717737 0.021086564431290856 -0.026261048635637763 0.070837618326562546 -0.013640355317571096 -0.039817583636607742
leaf_weight=295.67652373597957 58.461926607880741 1043.8234885190614 254.04505067598075 1367.923635317944 276.24749513017014 1424.2624647658085 116.11111936415546 518.29723572882358 1658.3400878713001 362.45581573317759 472.21534770750441 589.04005916626193 247.38102382561192 710.25393107696436 233.2723144441843 47.840129714459181 249.85403919848613 43.139508666470647 71.17433399381116 259.91375493560918 1656.5188848651014 244.96163665992208 224.8718931383919 282.93900857423432 391.47097890125588 226.91412255191244 1761.9171704044566 31.271349323913455 710.80113595700823 302.75699652824551
leaf_count=5056 221 9529 1073 2549 1338 5585 1500 9234 39459 3038 4928 3280 3965 2934 3297 63 2617 253 518 860 2551 4886 1923 1956 4584 1397 26598 99 9046 5783
internal_value=0.000178223 -0.00652093 -0.0200214 0.014068 -0.00152207 0.0064735 -0.0280814 -0.00613931 -0.0352214 -0.0183387 -0.00300727 0.0169572 -0.0014674 0.00223848 -0.0154931 -0.0237806 -0.0290717 -0.0403447 0.0122875 0.0482087 0.0518548 -0.0264797 -0.022663 -0.000557461 0.00898462 0.000314122 -0.0237274 0.00656135 -0.0270904 -0.0214597
internal_weight=16134.2 14159.3 8551.74 5607.52 2595.19 4239.6 5956.54 2341.15 3437.41 2519.14 2226.29 2013.3 609.837 1754.08 1446.52 930.305 811.291 561.437 119.014 1974.89 1714.98 1779.07 1534.11 516.211 894.633 618.385 1909.3 147.382 1309.23 1013.56
internal_count=160120 156488 127683 28805 26330 26256 101353 25257 66153 35200 17391 8865 7003 12463 17938 12685 12104 9487 581 3632 2772 26694 21808 5253 7319 5981 28197 1599 19885 14829
is_linear=0
shrinkage=0.05


Tree=15
num_leaves=31
num_cat=0
split_feature=80 0 1 0 34 80 26 25 62 89 54 1 24 84 88 92 1 20 24 79 51 30 0 34 59 80 7 89 65 24
split_gain=1937.95 1535.54 384.394 301.255 215.502 189.002 205.359 109.249 135.09 108.291 103.145 109.89 103.014 94.083 82.2843 80.8543 78.5351 77.4461 120.152 72.2051 70.085 68.6414 67.4252 69.8475 62.8583 57.07 53.8375 51.6882 50.799 50.6981
threshold=0.50350028276443493 0.89186394214630138 3.250663280487061 3.2244230508804326 1.3709686994552615 0.69198602437973034 2.2278519868850712 1.9061893820762636 0.28549382090568548 32.500000000000007 5.5000000000000009 3.4209834337234502 5.7960453033447275 0.76388889551162731 9484.5000000000018 4.5000000000000009 2.8989443778991704 1.0000000180025095e-35 4.6079232692718515 0.20637121051549914 3.5000000000000004 2.3462675809860234 1.0706508159637453 1.2416213750839236 3.6904761791229252 0.37488082051277166 31.500000000000004 22.500000000000004 0.23611111193895343 6.6177077293396005
decision_type=2 2 2 2 2 2 2 2 2 2 2 2 2 2 2 2 2 2 2 2 2 2 2 2 2 2 2 2 2 2
left_child=1 2 4 10 9 6 -2 8 25 17 -3 15 -4 -5 28 22 -8 18 -1 -14 27 -22 -12 -24 -17 -6 -18 -20 -9 -13
right_child=5 3 12 13 7 -7 16 14 -10 -11 11 29 19 -15 -16 24 26 -19 20 -21 21 -23 23 -25 -26 -27 -28 -29 -30 -31
leaf_value=-0.013279783603408632 0.059424878974194975 0.049416639935756387 0.026112006064463917 0.018838801506217109 -0.0234719836859608 0.051295277480523094 0.0026308789272443634 0.010016089319966077 -0.032409857283256294 -0.050280196291341388 -0.020977072352909392 0.034105177449825622 -0.015142937103193319 0.043621946866126297 -0.024170677273003434 0.0091848063851529219 0.048822534203215584 -0.038535072671160756 0.052514982795953562 0.030809955358648961 -0.038406066323318472 -0.0085698170161109758 -0.0032171409981915154 0.015873736151130007 -0.03872306754127372 0.060846546333674381 -0.037585716842879008 -0.029924990517341696 -0.038893100278560716 0.0088243853850822809
leaf_weight=1465.9672715105116 300.14619921334088 130.62318234704435 437.11646600905806 699.93278272589669 30.194981148932129 1477.4645526877139 630.84958568867296 791.19816740020178 717.49235075968318 617.74446041369811 269.61799817415886 362.03984814323485 447.49464021169115 845.5788560770452 288.69200587272644 98.022434037644416 167.10493695782498 1253.1477834937978 41.027514521032572 105.66918900469318 1512.6341952439398 220.92347214603797 1023.3251796597615 900.9182502925396 227.08793505234644 59.834484592080116 20.206431341357529 35.434469441883266 56.908810093533248 438.51645133947022
leaf_count=18288 409 263 2217 1949 451 2505 3205 6668 12071 14579 2854 1067 6651 1363 3979 642 374 26506 283 646 31115 2569 8222 3810 2728 106 140 609 904 2726
internal_value=9.43387e-05 -0.00773894 -0.0212098 0.0140529 -0.0252849 0.0395573 0.0240496 -0.0111033 -0.0251657 -0.0306422 0.00583504 0.00412011 0.00797074 0.0323981 -0.00111412 -0.00100845 0.011072 -0.0279637 -0.0239199 -0.0063647 -0.0325374 -0.0346038 0.00243997 0.00572108 -0.0242786 0.032567 0.0395011 0.0143102 0.00673423 0.0202573
internal_weight=15672.9 13077.1 8081.48 4995.66 7091.2 2595.77 1118.31 1944.32 807.522 5146.88 3450.15 3319.53 990.28 1545.51 1136.8 2518.97 818.161 4529.13 3275.99 553.164 1810.02 1733.56 2193.86 1924.24 325.11 90.0295 187.311 76.462 848.107 800.556
internal_count=159899 153266 127642 25624 118128 6633 4128 24179 12628 93949 22312 22049 9514 3312 11551 18256 3719 79370 52864 7297 34576 33684 14886 12032 3370 557 514 892 7572 3793
is_linear=0
shrinkage=0.05


Tree=16
num_leaves=31
num_cat=0
split_feature=80 0 1 0 34 80 41 39 27 84 28 100 62 20 0 30 1 0 56 51 100 34 19 45 18 79 52 55 28 89
split_gain=1760.43 1396.14 354.473 270.028 200.256 175.978 188.345 106.214 102.631 102.197 99.9477 92.5965 88.9863 73.6357 71.2115 69.3682 66.0154 64.6487 64.3786 68.5998 61.9953 60.261 60.1472 56.4716 92.5939 59.4013 55.9292 53.9789 53.6497 52.4072
threshold=0.50350028276443493 0.89186394214630138 3.3347014188766484 3.0386344194412236 1.3709686994552615 0.69198602437973034 2.2320361137390141 1.2416213750839236 2.2390170097351079 0.76388889551162731 1.4978851079940798 0.78888890147209179 0.28549382090568548 1.0000000180025095e-35 2.7766150236129765 0.14825824648141864 2.0014929771423344 0.23371325433254245 19.500000000000004 3.5000000000000004 0.82575756311416637 1.1827298998832705 1.3042029738426211 0.12070777267217637 1.0243951082229616 0.16811754554510119 113.50000000000001 587.50000000000011 1.5020439028739931 36.500000000000007
decision_type=2 2 2 2 2 2 2 2 2 2 2 2 2 2 2 2 2 2 2 2 2 2 2 2 2 2 2 2 2 2
left_child=1 2 4 7 8 6 -2 -3 13 20 12 23 17 29 -8 26 -14 -6 19 -10 27 28 -15 -9 25 -25 -13 -5 -4 -1
right_child=5 3 21 9 10 -7 14 11 18 -11 -12 15 16 22 -16 -17 -18 -19 -20 -21 -22 -23 -24 24 -26 -27 -28 -29 -30 -31
leaf_value=-0.018248647481315338 0.058276980055975626 0.053126717475142374 -0.022215106820295653 0.033607838319154683 -0.036732855255162213 0.050088952933618841 0.0024317901917165555 0.024661933917929008 0.027988505734241678 0.041707024177303174 0.0040358787181475984 0.0012144588761837897 -0.032782561302813026 -0.051077634441780484 0.036946510992504823 0.024493539810052443 -0.0071529069419219689 0.050504415971516628 -0.046589309043807918 -0.031788037457477096 0.035891637399100521 0.022923016134555847 -0.022291414015359123 -0.0059499407682991473 -0.025545079621960017 0.026223110328923657 0.061007934073741089 -0.0032535606127660887 0.010958729847372213 -0.057421744004518521
leaf_weight=2302.1561134221265 284.84864423237741 111.37353309104219 208.77765707788058 135.14666465017945 29.993946923641488 1414.2547984756529 604.96672963118181 137.31444299221039 51.199000743217766 874.15257144765928 727.94744082051329 1009.1497343743686 703.84560439339839 394.58466738439165 198.47405150905252 632.43469284102321 390.71747312205844 72.741569773294032 1094.1536696247058 767.09318854915909 277.41117377579212 414.0250295328442 335.96716737723909 605.20539954677224 515.31088758877013 188.04341249167919 40.685214811936021 374.60657974239439 292.79797312757 88.668234725948423
leaf_count=32915 407 214 3459 307 409 2505 3258 603 558 1492 6877 5785 12836 10460 463 2557 4021 233 27524 15033 574 2536 5875 4880 6775 924 69 1444 2805 2101
internal_value=0.000109837 -0.00740203 -0.0204416 0.01355 -0.0242895 0.038458 0.0233432 0.00514524 -0.0295349 0.029939 -0.0105746 0.00343692 -0.0194577 -0.0239466 0.010958 0.0114121 -0.0236337 0.0250352 -0.0386559 -0.0280479 0.0168706 0.00880447 -0.0378394 -0.00584219 -0.00904316 0.00167683 0.00353169 0.0065192 -0.00284967 -0.0197015
internal_weight=15278 12775.5 7874.67 4900.83 6959.07 2502.54 1088.29 3239.52 5033.82 1661.32 1925.25 3128.14 1197.3 3121.38 803.441 1682.27 1094.56 102.736 1912.45 818.292 787.164 915.601 730.552 1445.87 1308.56 793.249 1049.83 509.753 501.576 2390.82
internal_count=159899 153266 127642 25624 118842 6633 4128 21807 94466 3817 24376 21593 17499 51351 3721 8411 16857 642 43115 15591 2325 8800 16335 13182 12579 5804 5854 1751 6264 35016
is_linear=0
shrinkage=0.05


Tree=17
num_leaves=31
num_cat=0
split_feature=80 78 79 78 34 1 30 18 19 24 92 62 19 24 62 14 63 92 59 51 64 1 79 7 55 24 87 65 80 41
split_gain=1601.02 1157.73 429.45 259.65 210.242 185.941 176.26 134.575 133.941 116.947 95.1651 81.7176 74.4626 69.9529 77.472 94.6054 67.0452 65.993 64.8748 62.9694 64.1631 62.7617 61.8608 75.3785 59.4194 57.4129 93.4444 53.8056 52.4828 77.2355
threshold=0.58332458138465892 0.2267388999462128 0.032349452376365669 0.58046236634254467 1.3042029738426211 3.7472548484802251 1.3103363513946535 1.0000000180025095e-35 1.4425191283226015 1.7946176528930666 4.5000000000000009 0.28549382090568548 1.0000000180025095e-35 5.3928217887878427 1.5020661354064944 0.63333335518836986 0.31643131375312811 3.5000000000000004 3.5857142210006718 3.5000000000000004 0.0056510481517761954 4.2605025768280038 0.13873301446437838 18.500000000000004 16481.500000000004 1.6031214594841006 127.50000000000001 0.23611111193895343 0.74304392933845531 3.397739171981812
decision_type=2 2 2 2 2 2 2 2 2 2 2 2 2 2 2 2 2 2 2 2 2 2 2 2 2 2 2 2 2 2
left_child=1 2 8 5 6 9 21 27 12 18 17 -9 -1 14 -5 -16 -11 -2 -3 20 -10 -4 23 -8 -7 26 -13 -6 29 -19
right_child=10 3 4 13 7 24 22 11 19 16 -12 25 -14 -15 15 -17 -18 28 -20 -21 -22 -23 -24 -25 -26 -27 -28 -29 -30 -31
leaf_value=-0.016622772618276251 -0.0073359832357195775 0.017369807150765405 -0.032291665352193154 0.043299763598038124 0.031156060498259322 0.031271378382930107 0.00014566891008185452 0.035406331934404761 -0.0036864641844646948 0.0095202604102314035 0.015549713907069615 -0.050967393449216837 -0.041550173733152847 0.041053924324734606 0.016635175779568748 -0.048736191174093883 -0.007556363208264031 0.042371800521601166 -0.039747637680432657 -0.021920804689958634 0.082488936372380195 0.0064582439523644623 0.022762763655640141 -0.03717856349221025 -0.062225287563686171 -0.0018981434110770001 0.047640677358226635 -0.067394012310812088 0.05536716251604909 -0.018555193181305468
leaf_weight=354.53670289763249 55.761789060663432 61.350352755747736 1155.5773668416077 238.77722044894472 497.3346508378163 645.94496181537397 681.16032045008615 126.41928937030025 105.1461464096792 1523.2244772280101 298.00644700718112 138.97171632014215 1932.9814627695596 728.38995471736416 483.96709468541667 62.491714732255787 923.11827975488268 620.47922345343977 262.10614428529516 1545.2130836586002 27.184845686890185 114.88296744436957 214.8526158016175 168.79161237063818 17.45235203858465 838.66199494758621 29.046855873428285 14.246870945207773 979.26484761806205 56.77571162302047
leaf_count=4451 220 626 24269 590 2049 1913 8097 591 1389 8352 1156 2683 45439 1288 1697 1035 6569 1324 4800 24064 51 1325 1527 2856 123 9237 75 244 1574 285
internal_value=0.000124151 -0.00634752 -0.0181706 0.0126414 -0.00656777 0.00503532 -0.0162119 0.00712586 -0.0298171 -0.000659391 0.0416265 -0.0024844 -0.0376867 0.0298935 0.019541 0.00915946 0.00307646 0.0461649 -0.0289141 -0.0190859 0.0140166 -0.0287877 -0.00120733 -0.00726654 0.0288117 -0.00724273 -0.0339201 0.0284116 0.0479659 0.0372642
internal_weight=14902.1 12891.8 7945.01 4946.82 3979.95 3433.2 2335.26 1644.68 3965.06 2769.8 2010.29 1133.1 2287.52 1513.63 785.236 546.459 2446.34 1712.28 323.456 1677.54 132.331 1270.46 1064.8 849.952 663.397 1006.68 168.019 511.582 1656.52 677.255
internal_count=159899 155340 128347 26993 52953 22383 38074 14879 75394 20347 4559 12586 49890 4610 3322 2732 14921 3403 5426 25504 1440 25594 12480 10953 2036 11995 2758 2293 3183 1609
is_linear=0
shrinkage=0.05


Tree=18
num_leaves=31
num_cat=0
split_feature=80 78 34 20 1 78 18 27 92 78 1 64 60 20 7 91 66 89 20 21 92 80 2 1 89 80 92 58 89 22
split_gain=1458.28 1059.81 335.783 260.386 170.754 155.869 125.201 105.859 95.8266 94.9303 92.2651 86.7022 90.8484 80.5241 76.6677 72.7396 70.4977 61.6524 59.3548 53.3649 52.2624 53.6107 68.2718 51.7379 51.5258 49.9162 49.5423 51.529 47.5448 47.3949
threshold=0.58332458138465892 0.2267388999462128 1.3042029738426211 1.0744368433952334 4.2605025768280038 0.58046236634254467 1.0000000180025095e-35 2.2390170097351079 4.5000000000000009 0.8591693937778474 4.4604477882385263 0.01250381348654628 8.7757759094238299 1.7946176528930666 6.5000000000000009 1402.5000000000002 0.29478609561920172 36.500000000000007 1.0000000180025095e-35 3.1486427783966069 3.5000000000000004 0.68175566196441661 1.1198465228080752 1.9695526957511904 19.500000000000004 0.7805660367012025 3.5000000000000004 5.8409972190856942 30.500000000000004 1.5195944309234621
decision_type=2 2 2 2 2 2 2 2 2 2 2 2 2 2 2 2 2 2 2 2 2 2 2 2 2 2 2 2 2 2
left_child=1 2 4 5 7 10 15 17 20 13 16 29 -13 24 -6 -4 -3 18 -1 26 -2 22 -22 -17 -5 -10 -7 -28 -9 -8
right_child=8 3 6 9 14 19 11 28 25 -11 -12 12 -14 -15 -16 23 -18 -19 -20 -21 21 -23 -24 -25 -26 -27 27 -29 -30 -31
leaf_value=-0.015806659610767198 -0.0037932635851099018 0.014618001907165629 0.029939168433175647 0.010421062287457433 0.04324945013940143 -0.059536930763752507 -0.040380281418901438 -0.031179859204226324 -0.00038961135639338539 0.024845334532801112 0.032873223438501541 -0.0086296982334658906 0.028024187452924756 -0.0063460248750874249 -0.0061325289074878643 -0.044995151455152746 -0.0037511305693268119 -0.055229127969990924 -0.033387039239347119 0.049572062144309752 0.056938953851155029 0.052761507955207003 0.016979844858231289 0.0087522813456366866 -0.048898142261211093 0.043068878933750179 0.022645891174165548 0.057359882885295622 -0.049996380762882084 -0.010389577452835842
leaf_weight=2516.22556661407 52.421944892499596 1340.1787649055477 424.53517383383587 43.804276839829981 113.03788942517713 16.420667856466025 254.70814270549454 1633.8698282573605 194.77792081888765 167.83616750291549 426.47570398170501 663.37633203831501 226.86311125801876 626.58463455154561 257.98067520256154 59.272425824776292 855.89976816810668 123.1730148429051 593.31638760463102 359.40194781287573 173.91863434622064 1131.6042034928687 277.36768102739006 183.05847268737853 222.83021589182317 99.995785274077207 667.6675904369913 127.28026657970622 422.52614190825261 272.85226950061042
leaf_count=36309 220 6304 1733 407 675 82 6464 35608 914 1086 1103 7216 1476 5271 3080 790 5708 3204 13983 629 270 1924 989 1276 4582 242 1598 223 12084 4449
internal_value=0.000122122 -0.00607779 -0.0175587 0.0122391 -0.023877 0.0183636 -0.000403735 -0.0261771 0.0405938 -0.0096563 0.0115917 -0.00880737 0.000710951 -0.0161392 0.00891263 0.0174629 0.00745882 -0.0205354 -0.0191611 0.0335329 0.0453239 0.0469505 0.0323795 -0.00439396 -0.0391528 0.0143528 0.0264283 0.028204 -0.0350461 -0.0248692
internal_weight=14529.3 12599.2 7744.8 4854.38 5660.13 3793.32 2084.67 5289.11 1930.09 1061.06 2622.55 1417.8 890.239 893.219 371.019 666.866 2196.08 3232.71 3109.54 1170.77 1635.31 1582.89 451.286 242.331 266.634 294.774 811.369 794.948 2056.4 527.56
internal_count=159899 155340 128347 26993 104943 15647 23404 101188 4559 11346 13115 19605 8692 10260 3755 3799 12012 53496 50292 2532 3403 3183 1259 2066 4989 1156 1903 1821 47692 10913
is_linear=0
shrinkage=0.05


Tree=19
num_leaves=31
num_cat=0
split_feature=42 38 79 63 44 20 62 19 18 4 16 27 34 89 33 13 85 55 30 29 20 87 64 100 35 89 24 7 50 24
split_gain=1120.95 562.745 416.219 175.054 180.628 192.141 159.83 131.894 127.628 114.251 109.319 90.6376 87.2744 82.4418 82.261 73.5006 72.3935 91.6873 69.7258 66.3556 63.3799 54.4383 80.2333 59.4645 52.8008 51.2813 49.8294 48.6094 48.181 78.8661
threshold=0.98066022992134105 2.2264649868011479 0.055089462548494346 0.56330129504203807 1.7941412925720217 1.0000000180025095e-35 0.28549382090568548 1.3709686994552615 1.2416213750839236 1.0000000180025095e-35 108.20486068725587 1.7324635386466982 3.219812393188477 31.500000000000004 2.2264649868011479 11.937500000000002 0.59166666865348827 538.50000000000011 0.18002337962388995 2.6857987642288212 1.0000000180025095e-35 3.5000000000000004 0.0056510481517761954 0.5634920895099641 1.0744368433952334 26.500000000000004 4.8419091701507577 21.500000000000004 2.5000000000000004 4.3281152248382577
decision_type=2 2 2 2 2 2 2 2 2 2 2 2 2 2 2 2 2 2 2 2 2 2 2 2 2 2 2 2 2 2
left_child=1 2 7 4 5 14 -7 11 9 15 -3 20 -10 -6 16 25 17 -2 -18 -8 -1 22 -9 24 -23 -4 -16 28 29 -5
right_child=3 10 8 27 13 6 19 21 12 -11 -12 -13 -14 -15 26 -17 18 -19 -20 -21 -22 23 -24 -25 -26 -27 -28 -29 -30 -31
leaf_value=-0.018724949147332429 0.022158580409806661 0.031573834531510754 0.014364216120146045 -0.044458156864151277 0.03928803069900412 0.043049024466625896 -0.03045708925843011 -0.010805473312047712 -0.025415877766054543 0.026461910378411176 -0.040764110394683528 -0.042853120921308878 0.0067281460445975652 -0.020568740431266844 0.0082601661980988544 -0.030772611518584111 0.0048332760000483598 -0.015033544780228081 0.02439483086808757 -0.0038282950066486597 -0.05076486031506168 -0.025059763959490368 0.077205814850735188 -0.0022970324669259203 0.026800998127820958 -0.0099128029358866929 0.041054169383562183 0.005294971940587959 0.039957430349588659 0.03623504380682005
leaf_weight=994.71281087002717 246.18943503126502 772.57802285859361 519.48398347361945 46.684010215569288 691.05456738430075 122.40000169305131 488.42372030229308 86.504746383638121 661.78831414703745 542.88074622739805 56.014757672790438 1298.3780691586435 310.1227886301931 62.74895832547918 164.38926619756967 180.61201175977476 833.03483426407911 506.907580005005 1005.2625049569178 449.01515258883592 182.70071285474114 1472.8497257996351 36.958658229093999 431.04890568030532 50.771696856827475 374.22457809979096 392.1699692029506 144.15077509055845 985.03421629965305 86.173925697570667
leaf_count=14311 1301 3044 4307 824 2289 480 8680 1363 12562 2606 807 36794 3048 508 677 3303 4570 4928 4030 3764 5866 25413 100 5729 361 4376 820 709 2156 173
internal_value=9.31339e-05 -0.0123216 -0.0168463 0.0159948 0.0117656 0.00772768 -0.0106863 -0.0259469 -0.000839382 0.00776658 0.0266836 -0.0337429 -0.0151592 0.0343054 0.0139272 -0.00168063 0.0101814 -0.00287534 0.0155304 -0.0177024 -0.0236966 -0.0166592 0.0155406 -0.018693 -0.0233316 0.00419865 0.0313679 0.0326215 0.0361452 0.00788083
internal_weight=14195.3 7971.63 7143.04 6223.64 4961.6 4207.79 1059.84 4553.93 2589.11 1617.2 828.593 2475.79 971.911 753.804 3147.95 1074.32 2591.39 753.097 1838.3 937.439 1177.41 2078.13 123.463 1954.67 1523.62 893.709 556.559 1262.04 1117.89 132.858
internal_count=159899 123990 120139 35909 32047 29250 12924 89937 30202 14592 3851 56971 15610 2797 16326 11986 14829 6229 8600 12444 20177 32966 1463 31503 25774 8683 1497 3862 3153 997
is_linear=0
shrinkage=0.05


Tree=20
num_leaves=31
num_cat=0
split_feature=80 0 34 1 0 27 30 63 34 80 2 62 25 52 55 92 88 80 28 55 87 63 46 100 31 20 19 92 15 100
split_gain=1285.23 929.017 363.256 177.804 148.773 114.763 103.754 116.592 90.9494 87.5619 100.56 75.6331 77.5331 74.1761 70.5034 68.4111 64.2178 62.4284 61.3459 59.678 62.5643 54.318 51.2102 50.0595 49.1533 49.1309 54.4265 48.8727 45.8067 45.1245
threshold=0.59125936031341564 1.7518104910850527 1.3709686994552615 3.5555986166000371 4.2196176052093515 2.2390170097351079 0.48167921602725988 0.59166666865348827 1.2416213750839236 0.7563319504261018 1.6692436933517458 0.28549382090568548 1.9825404286384585 14.500000000000002 7741.5000000000009 3.5000000000000004 1245.5000000000002 0.41954752802848821 1.6111404299736025 6765.5000000000009 38.500000000000007 0.97368422150611889 14.435114383697512 0.73863637447357189 0.41024816036224371 1.0000000180025095e-35 1.3709686994552615 3.5000000000000004 0.49489796161651617 0.45299145579338079
decision_type=2 2 2 2 2 2 2 2 2 2 2 2 2 2 2 2 2 2 2 2 2 2 2 2 2 2 2 2 2 2
left_child=1 2 3 5 8 19 7 11 14 10 -2 17 -13 -9 -3 -11 -5 -4 -18 21 -21 25 -15 -12 -16 27 -27 -1 -6 -29
right_child=9 4 6 16 28 -7 -8 13 -10 15 23 12 -14 22 24 -17 18 -19 -20 20 -22 -23 -24 -25 -26 26 -28 29 -30 -31
leaf_value=-0.045350854685250824 0.048688199062295989 0.005874261863087208 -0.011222595440247046 0.051005075068682786 0.041573677623504439 -0.033571432048282987 0.017510613042522764 -0.022843677747447087 0.023278882726303119 -0.015237107632166489 -0.0049225459615667355 -0.0238756660428186 -0.0037571905818253731 0.047121716890818025 -0.069230397244994732 0.052906396137603874 -0.015673483514402172 0.050688644584722969 0.019717438621703574 -0.053965761567361228 -0.019729266998397582 0.03452057667010721 -0.095772561553298802 0.027697185286183978 0.011875152135932165 -0.04261545589037305 -0.01239453545888204 -0.019491063933741701 0.0085876025398373742 -0.0048409196271367132
leaf_weight=111.1099339670036 337.07617089292035 1179.7251573873218 71.303427713923156 68.32239683973603 688.26763289514929 1940.4122559133684 662.49998394260183 56.340392772573978 939.37098107440397 38.380188281647861 214.30904276808724 743.11988872173242 1346.8413215351757 187.26015473110601 55.059407965745777 912.67639349715319 288.77598203904927 94.923853436484933 212.58369681471959 221.78791518503567 334.9907625290798 53.288684142753482 6.4871931872330597 260.68203587457538 28.273193235509098 333.22584928502329 269.45252519776113 944.23473323852522 124.24538278253749 1185.579337320698
leaf_count=1889 690 6448 830 341 1278 47422 3646 536 3014 195 863 12826 13424 706 646 1788 4453 201 1728 5101 6089 207 77 832 183 9568 4526 14140 348 15702
internal_value=-3.21767e-05 -0.00582228 -0.0137671 -0.0210359 0.0182432 -0.0238416 -8.67798e-05 -0.00473841 0.0114971 0.0398602 0.0278017 -0.00832886 -0.0109106 0.0276531 0.00273462 0.0501564 0.00552987 0.0241317 -0.000667225 -0.018375 -0.0333671 -0.0154935 0.0423372 0.0129796 -0.0417128 -0.0164308 -0.0291039 -0.0130225 0.0365296 -0.0113359
internal_weight=13910.6 12147.5 9132.54 5963.76 3014.94 5394.08 3168.78 2506.28 2202.43 1763.12 812.067 2256.19 2089.96 250.088 1263.06 951.057 569.682 166.227 501.36 3453.67 556.779 2896.89 193.747 474.991 83.3326 2843.6 602.678 2240.92 812.513 2129.81
internal_count=159697 155329 143412 111166 11917 104644 32246 28600 10291 4368 2385 27281 26250 1319 7277 1983 6522 1031 6181 57222 11190 46032 783 1695 829 45825 14094 31731 1626 29842
is_linear=0
shrinkage=0.05


Tree=21
num_leaves=31
num_cat=0
split_feature=80 0 79 0 56 80 41 58 50 55 100 18 61 63 1 18 100 62 92 61 22 28 45 100 15 99 63 18 30 30
split_gain=1167.8 846.424 405.96 181.302 124.138 85.5315 103.711 84.7164 78.4546 75.7473 76.2755 73.2824 70.9121 70.8189 75.5636 70.3226 70.3705 59.0107 57.3657 55.421 50.9145 50.748 46.1453 44.0537 43.5169 43.0078 42.8279 42.5909 42.2989 41.0188
threshold=0.59125936031341564 1.3280404210090639 0.068269349634647383 3.6054358482360844 24.500000000000004 0.7563319504261018 2.9322355985641484 6.3337097167968759 2.5000000000000004 16481.500000000004 0.78888890147209179 1.1827298998832705 3.6587632894515996 0.97368422150611889 1.5473189353942873 1.0000000180025095e-35 0.84523808956146251 18.690689086914066 3.5000000000000004 3.4142557382583623 2.0318465828895573 2.2007310390472417 1.4821672439575198 0.73863637447357189 1.0000000180025095e-35 0.77500000596046459 0.2314560413360596 1.3042029738426211 1.5684152245521548 0.34228111803531652
decision_type=2 2 2 2 2 2 2 2 2 2 2 2 2 2 2 2 2 2 2 2 2 2 2 2 2 2 2 2 2 2
left_child=1 2 12 9 7 6 -2 11 -9 10 24 13 19 14 -4 16 21 -6 -7 -1 -18 -14 -17 -8 -3 -5 -13 -19 -12 -26
right_child=5 3 4 25 17 18 23 8 -10 -11 28 26 15 -15 -16 22 20 27 -20 -21 -22 -23 -24 -25 29 -27 -28 -29 -30 -31
leaf_value=-0.013095802704790783 0.047501884113808956 0.024929383009242922 -0.017787178030505803 0.020504320930620799 -0.040490408660438043 -0.011955692639618355 -0.0065886032192745449 -0.054339945274005111 0.039172923655069559 -0.048831070411039207 0.012922164563030906 -0.00066900338555156533 -0.027746291617972898 0.054539346977480446 0.015144487292099818 -0.033161906630040684 -0.016776067032337225 0.0053717790980065024 0.051969669645097742 0.032402336827845955 0.02014763282195365 -0.0087061927709081496 0.0073091182976817359 0.025037687508125635 -0.019727163505538586 0.040052306852050447 -0.020596018108074574 -0.024431553116364042 0.039524451741293785 0.0018866551798297111
leaf_weight=323.41954145953059 342.93847455549985 141.55420222436078 230.87593931448646 530.57580462982878 225.7242682070937 36.578615133650601 198.84591529658064 24.668656353838742 247.08101818314753 59.582010575802997 1197.8651582244784 843.30526859522797 1463.8851892282255 85.691441003466025 709.47198330494575 2134.688145851891 199.76109571172856 240.44793814863078 865.31190771993715 84.396706777857617 175.28514414746314 459.90941595402546 72.836683251196519 246.74123711511493 313.92156671453267 599.07068449282087 396.3759905199986 239.05469358386472 170.72454108530656 729.91153919463977
leaf_count=5541 636 520 3443 1407 4155 195 894 583 1406 558 5289 10515 27635 192 5288 56643 2575 2469 1788 756 1045 5483 1127 855 3609 1119 4923 3759 445 4844
internal_value=-2.73717e-05 -0.00555144 -0.0145848 0.0141333 -0.000853162 0.0388606 0.0268323 0.00430427 0.0306841 0.00689884 0.00819897 0.00114029 -0.0236458 0.0110244 0.00705904 -0.0254527 -0.0193319 -0.0194101 0.049377 -0.00368006 0.000480941 -0.0231945 -0.0318266 0.0109243 -0.00108558 0.0308709 -0.00704047 -0.00948659 0.0162407 -0.00461347
internal_weight=13590.5 11900.1 8156.88 3743.21 3242.7 1690.42 788.526 2537.47 271.75 2613.56 2553.98 2265.72 4914.18 1026.04 940.348 4506.37 2298.84 705.227 901.891 407.816 375.046 1923.79 2207.52 445.587 1185.39 1129.65 1239.68 479.503 1368.59 1043.83
internal_count=159697 155329 137538 17791 36733 4368 2385 26350 1989 15265 14707 24361 100805 8923 8731 94508 36738 10383 1983 6297 3620 33118 57770 1749 8973 2526 15438 6228 5734 8453
is_linear=0
shrinkage=0.05


Tree=22
num_leaves=31
num_cat=0
split_feature=80 78 0 79 27 92 54 20 92 16 80 26 61 85 19 1 52 59 84 31 29 19 92 65 79 63 21 57 1 52
split_gain=1079.51 803.966 270.733 260.529 107.011 100.293 111.229 98.0778 96.3392 81.5831 80.3621 91.3375 79.0603 59.7536 57.2061 59.0839 56.4363 55.8332 55.1983 53.8202 52.6856 52.4311 49.0158 48.001 49.6638 46.9774 46.4423 45.6566 44.3657 42.4872
threshold=0.59125936031341564 0.11558482795953752 3.2244230508804326 0.078043974936008467 2.2363831996917729 4.5000000000000009 6.5000000000000009 1.0000000180025095e-35 3.5000000000000004 32.807779312133796 0.7563319504261018 2.9209991693496709 48.85028266906739 0.67948719859123241 1.3042029738426211 1.6992233991622927 14.500000000000002 3.5857142210006718 0.73214286565780651 0.15940952301025393 2.6689845323562627 1.5195944309234621 3.5000000000000004 0.21111111342906955 0.24456481635570529 0.062996033579111113 3.1486427783966069 5.223180055618287 4.3576223850250253 113.50000000000001
decision_type=2 2 2 2 2 2 2 2 2 2 2 2 2 2 2 2 2 2 2 2 2 2 2 2 2 2 2 2 2 2
left_child=1 3 5 4 14 6 16 8 -8 23 11 -2 20 -10 -1 -16 -3 27 -4 29 25 -6 -12 24 -5 -9 -20 -7 -19 -15
right_child=10 2 18 9 21 17 7 12 13 -11 22 -13 -14 19 15 -17 -18 28 26 -21 -22 -23 -24 -25 -26 -27 -28 -29 -30 -31
leaf_value=-0.025049319754181995 0.046172595654992293 -0.05118462680325539 0.015404643376338723 0.0099215173774479734 -0.040690367154647411 -0.025914331144895022 -0.034558852556612812 0.034048283085134301 0.0005166663700725305 -0.01412249101941819 -0.0089878657844237042 0.011304983008257875 0.03623852329977513 0.009606876913619479 -0.015451256580844591 0.012599018503086062 0.049273445467451132 -0.029102248156585988 0.025088437586180817 0.034149610695650381 -0.002330201725838379 -0.022637742075444413 0.051184454532183038 -0.027496585288436161 0.048191052304376841 -0.03093579773285406 0.049469513072176452 0.032076463835693229 0.018923596704509167 0.063290465210914637
leaf_weight=1442.8277215206181 331.34541494445875 15.148523609619586 576.17985613178462 615.87731482926756 1088.5885878329864 53.385747320018709 127.38476450741291 29.72303869901225 1001.7830698541366 530.21450516651385 35.298558929469436 433.61093306425028 81.992844286374748 1159.7092837166274 1099.7571291851345 226.37260471051559 181.35048767994158 457.29791239765473 447.32523325248621 328.83128567645326 422.83730361057678 637.88908568583429 821.36930644209497 72.550193685572594 98.308379698777571 432.30028229998425 346.70766285574064 93.186075713951141 53.739136658143252 38.066325229592621
leaf_count=29442 652 214 1833 6303 34234 584 1180 119 9424 8006 195 1733 456 6079 17606 2123 592 6898 890 1169 3657 12806 1788 1225 414 8429 693 600 283 70
internal_value=-3.63919e-05 -0.00535266 0.00773809 -0.0185213 -0.0242508 0.00178573 0.00489118 0.00290388 0.00786783 0.00103663 0.0381871 0.0264081 -0.0107312 0.0100054 -0.0181593 -0.010663 0.0415289 -0.0162495 0.0271856 0.016232 -0.0150835 -0.0340204 0.0487051 0.011253 0.0151894 -0.0267552 0.0357342 0.0109545 -0.024052 0.011313
internal_weight=13281 11659.3 5846.95 5812.39 4495.44 4476.74 3819.13 3622.63 2655.77 1316.95 1621.62 764.956 966.853 2528.39 2768.96 1326.13 196.499 657.609 1370.21 1526.61 884.861 1726.48 856.668 786.736 714.186 462.023 794.033 146.572 511.037 1197.78
internal_count=159697 155329 43170 112159 96211 39754 31389 30583 17922 15948 4368 2385 12661 16742 49171 19729 806 8365 3416 7318 12205 47040 1983 7942 6717 8548 1583 1184 7181 6149
is_linear=0
shrinkage=0.05


Tree=23
num_leaves=31
num_cat=0
split_feature=80 78 0 79 27 89 80 28 61 1 78 20 50 38 1 16 59 19 100 62 19 58 34 4 63 78 34 51 51 57
split_gain=988.382 729.044 246.634 238.023 98.0792 95.6481 87.5064 70.3487 66.5295 65.9146 79.4225 74.5126 68.7397 63.8336 59.9449 59.4766 54.8212 54.1134 56.3254 53.4548 49.0305 47.8678 47.8901 56.839 56.3531 45.0505 44.5459 44.5127 46.6947 43.5204
threshold=0.58332458138465892 0.11558482795953752 3.6054358482360844 0.078043974936008467 2.2390170097351079 29.500000000000004 0.69198602437973034 1.1571238636970522 48.85028266906739 3.8070417642593388 0.8591693937778474 1.0000000180025095e-35 2.5000000000000004 2.2805322408676152 3.8666175603866582 32.807779312133796 5.4580419063568124 1.3042029738426211 0.45299145579338079 24.267857551574711 1.5195944309234621 3.9389718770980839 1.0744368433952334 19.500000000000004 0.36882591247558599 0.78976175189018261 2.4894759654998784 3.5000000000000004 8.5000000000000018 4.857983112335206
decision_type=2 2 2 2 2 2 2 2 2 2 2 2 2 2 2 2 2 2 2 2 2 2 2 2 2 2 2 2 2 2
left_child=1 3 5 4 17 8 13 -5 9 10 11 21 -12 -2 19 -9 -14 -1 -19 -7 -6 -3 -23 24 -24 -4 -17 -20 -29 -18
right_child=6 2 25 7 20 14 -8 15 -10 -11 12 -13 16 -15 -16 26 29 18 27 -21 -22 22 23 -25 -26 -27 -28 28 -30 -31
leaf_value=-0.024332632239164612 0.048410727787414891 0.037686134883954912 0.02329790369255505 -0.029104994754453106 -0.03970647811403355 -0.032049744515371313 0.045366332594470017 0.014527752101074837 0.040336611779272162 0.023250398624946097 -0.035994710480460289 -0.012284707094148181 0.051327987698739488 0.010822082245546049 0.015155202317523708 -0.018045061066669015 0.078539902279606222 -0.019381844639553173 0.059622878093537057 -0.0067759460605254021 -0.02194812968413128 -0.0043569157595379571 0.022010187799373648 -0.046305601288246914 -0.010227387102448797 0.04717759915042654 0.019037244178102417 -0.021739595869720782 0.0089578968545992992 -0.073191794800835139
leaf_weight=1423.3532247192343 154.90359294833615 109.56596686807461 805.46261936391238 169.44516368175391 1029.2026117945788 320.79149296367541 1036.5677955640713 695.50582522794139 139.79218730260618 437.0779148589354 33.224999125581235 844.42608604510315 174.76983173680492 417.00557133927941 191.79834150290117 331.43266079528257 6.5878192111849811 739.83509819721803 31.140823758672923 601.4808216963429 624.55833256966434 906.77356876863632 630.60981565201655 39.566929802764207 172.68137200199999 261.67070717108436 107.1754745033104 191.15465796389617 351.99480460770428 16.720470694825053
leaf_count=29644 358 444 2039 3246 33915 5120 2533 6412 694 1894 755 11745 380 1695 1001 5500 10 12579 102 5884 12791 8526 2809 231 944 472 769 2909 4229 67
internal_value=1.47988e-05 -0.00516736 0.00748571 -0.0178164 -0.0233859 0.00248722 0.0367038 0.000945134 0.00653674 0.0051355 0.00243778 3.19739e-05 0.0305585 0.0210031 -0.0102778 0.00543485 0.0417219 -0.0175779 -0.0102617 -0.0155669 -0.0329999 0.00562607 0.00361839 0.0121985 0.0150802 0.0291534 -0.00898387 0.00148742 -0.0018457 -0.0303066
internal_weight=12996.3 11387.8 5693 5694.8 4391.24 4625.87 1608.48 1303.56 3511.8 3372 2934.93 2703.62 231.303 571.909 1114.07 1134.11 198.078 2737.48 1314.13 922.272 1653.76 1859.2 1749.63 842.858 803.291 1067.13 438.608 574.29 543.149 23.3083
internal_count=159697 155111 43015 112096 96169 40504 4586 15927 28499 27805 25911 24699 1212 2053 12005 12681 457 49463 19819 11004 46706 12954 12510 3984 3753 2511 6269 7240 7138 77
is_linear=0
shrinkage=0.05


Tree=24
num_leaves=31
num_cat=0
split_feature=0 44 63 34 0 27 30 63 44 100 82 50 64 89 2 99 89 21 55 0 56 54 100 20 10 100 30 19 89 39
split_gain=732.156 434.75 195.832 170.193 146.696 99.1202 92.6664 91.3599 90.8908 83.6673 64.1715 58.9424 58.5116 53.3004 52.4591 52.1478 52.0089 52.7176 51.5269 47.1147 46.7717 46.1588 45.5637 52.513 45.2079 39.0061 41.2607 39.0625 34.7637 34.3958
threshold=0.77721914649009716 1.1139941215515139 0.69615384936332714 1.3042029738426211 2.0123653411865239 2.2390170097351079 0.48167921602725988 0.10102041065692903 1.7060562372207644 0.88194444775581371 1.5000000000000002 2.5000000000000004 0.0098045459017157572 36.500000000000007 2.5665922164916997 0.35416667163372045 34.500000000000007 3.1486427783966069 22495.500000000004 2.5683540105819707 19.500000000000004 6.5000000000000009 0.63961037993431102 1.0243951082229616 38.500000000000007 0.69615384936332714 0.72739225625991832 1.1271170973777773 23.500000000000004 1.9061893820762636
decision_type=2 2 2 2 2 2 2 2 2 2 2 2 2 2 2 2 2 2 2 2 2 2 2 2 2 2 2 2 2 2
left_child=1 3 4 5 8 13 18 -3 10 14 12 19 -2 22 15 -6 17 -11 -5 -4 21 -7 -1 -24 -10 27 -27 -12 -9 -30
right_child=2 7 11 6 9 20 -8 28 24 16 25 -13 -14 -15 -16 -17 -18 -19 -20 -21 -22 -23 23 -25 -26 26 -28 -29 29 -31
leaf_value=-0.018367065189460057 0.0045394865948488556 0.029592366713882531 -0.046796506848371257 -0.0073994987808099341 -0.0088862146729339151 0.020539116976801244 0.015474328369256149 0.012143365154768822 0.031788376719889988 0.021590268336339178 -0.027524601180018454 0.04364551222821754 -0.026809366181215946 -0.050841565698324521 0.039349535305937822 0.013662951605065025 -0.01091457945843391 0.043514490232558795 -0.051383882465587893 0.034033923990579085 -0.039497222110630482 -0.025772170752297457 -7.812572851624222e-05 -0.044434011596671097 -0.056268834660442579 0.0021418297768806983 0.023520227194796264 0.0058043426150599367 -0.044972709517312602 0.0054665456880211927
leaf_weight=1985.9934175936505 233.0546437894227 703.39866583922412 34.127645790111274 1130.3821183864493 382.58054371923208 59.155418612412177 508.50814601546153 164.38871922204271 281.58914601779543 659.78439596435055 180.10157002077904 607.63177986047231 411.9489548234269 103.63297019607853 133.26379389455542 777.38949843426235 80.423753403360024 469.15463521634229 70.752734783920459 38.215094124898314 822.75067777023651 594.84844771272037 719.65093894518213 73.546742731588893 15.371184945572166 862.83033915678971 305.64809427969158 171.75156227662228 74.238735175225884 62.04873639671132
leaf_count=36422 2436 3664 760 17174 2571 925 3166 1458 1183 2082 2828 1530 6303 3217 353 3310 392 1095 2078 97 27461 14597 10207 2673 179 6030 1483 1842 1516 665
internal_value=-2.77032e-05 -0.0107448 0.0134013 -0.0157867 0.00995482 -0.02103 -0.00241629 0.0197315 0.00129019 0.0184799 -0.00226732 0.0385661 -0.0154823 -0.015634 0.0096391 0.0062258 0.0279338 0.0307013 -0.00999039 -0.00409779 -0.0315637 -0.0215833 -0.0143211 -0.00419088 0.0272304 0.00333916 0.00773395 -0.0112556 -0.00333679 -0.0220088
internal_weight=12718.2 7073.3 5644.87 6069.22 4964.89 4359.58 1709.64 1004.07 2462.3 2502.6 2165.34 679.975 645.004 2882.82 1293.23 1159.97 1209.36 1128.94 1201.13 72.3427 1476.75 654.004 2779.19 793.198 296.96 1520.33 1168.48 351.853 300.676 136.287
internal_count=159697 125223 34474 117920 32087 95502 22418 7303 22284 9803 20922 2387 8739 52519 6234 5881 3569 3177 19252 857 42983 15522 49302 12880 1362 12183 7513 4670 3639 2181
is_linear=0
shrinkage=0.05


Tree=25
num_leaves=31
num_cat=0
split_feature=80 0 34 0 22 92 27 13 100 91 100 28 88 52 89 25 68 64 56 12 21 15 39 7 64 19 25 89 89 80
split_gain=864.486 662.349 201.282 183.46 110.585 78.6215 71.671 70.7155 76.4588 63.2807 57.1087 67.9595 54.4368 53.0387 52.5028 44.7171 41.7327 45.7288 41.4509 40.4681 42.8605 39.5272 41.984 48.2418 39.3452 37.3003 34.2332 34.1406 34.1005 34.0025
threshold=0.59125936031341564 0.7647073268890382 1.3042029738426211 3.2244230508804326 2.0318465828895573 4.5000000000000009 1.9073143601417544 60.111110687255866 0.78888890147209179 2731.5000000000005 0.62019231915473949 1.920387923717499 11594.500000000002 66.500000000000014 27.500000000000004 3.94762134552002 0.23611111193895343 0.0056510481517761954 20.500000000000004 1.4142857193946841 2.8020691871643071 0.51530611515045177 5.893531560897828 21.500000000000004 0.049726743251085288 1.6031214594841006 2.4814078807830815 26.500000000000004 39.500000000000007 0.37488082051277166
decision_type=2 2 2 2 2 2 2 2 2 2 2 2 2 2 2 2 2 2 2 2 2 2 2 2 2 2 2 2 2 2
left_child=1 2 6 7 9 -2 10 8 14 13 -1 24 25 15 -3 18 17 -6 -4 -10 -21 22 23 -5 27 -8 -20 -12 -16 -15
right_child=5 3 4 21 16 -7 12 -9 19 -11 11 -13 -14 29 28 -17 -18 -19 26 20 -22 -23 -24 -25 -26 -27 -28 -29 -30 -31
leaf_value=-0.020315125839174861 0.040735889148321144 0.0036001328706447054 -0.0030128120608550277 0.023109359313181709 -0.0033803091538713347 0.0098970905628926655 -0.030239800696425258 -0.043649640896544141 0.014840131989970508 -0.040698545190117119 -0.0036184439147883534 0.03521974650404236 -0.051159780237384503 -0.0089772045328696867 -0.012392244816463673 0.0136346688470426 -0.047763937878050999 0.033734279454649414 -0.036361784749583209 -0.0097929483440663961 0.041964037058634884 0.0066521939907077153 0.037930272903267358 -0.033242786514989763 0.015326583702170649 -0.014804366157842447 -0.0095723917156486926 -0.032150663934577217 -0.063472006563196876 0.053531563710926149
leaf_weight=1666.3331233400386 1249.6374651163351 926.85106194578111 569.68099930859171 379.92359133320861 114.41043872293085 247.62888542027213 1242.5461602568394 78.416078647831455 1496.7083541711327 138.82900974445511 224.15778857207624 99.505960238166153 230.78694531624205 34.076962295919657 574.36693517945241 200.92978876689449 21.582066045375541 302.22553994669579 238.93779443798121 329.95655689341947 45.518000150565058 228.14898238889873 618.41932501643896 42.197177357040346 121.5736427763477 571.37323796423152 238.06705518381204 196.96977632178459 34.644895022036508 60.168258002027869
leaf_count=30467 3320 8527 7965 1101 1151 1086 37333 1195 8945 3644 3574 799 8524 577 6961 1600 448 1410 5228 2586 157 755 1330 238 1402 11048 3248 4347 790 180
internal_value=-1.39021e-05 -0.00485432 -0.015524 0.00921927 -0.00203302 0.0356355 -0.0214708 0.00329489 0.00437504 -0.00856287 -0.015433 -0.00276535 -0.0282878 -0.00523811 -0.0038935 -0.00797025 0.0200306 0.0235424 -0.0121177 0.0111582 -0.00351856 0.0255 0.0296325 0.0174761 -0.00973004 -0.0253777 -0.0229915 -0.0169635 -0.015298 0.0309298
internal_weight=12524.6 11027.3 6272.15 4755.15 1918.91 1497.27 4353.25 3486.46 3408.05 1480.69 2308.54 642.207 2044.71 1341.86 1535.86 1247.62 438.218 416.636 1046.69 1872.18 375.475 1268.69 1040.54 422.121 542.701 1813.92 477.005 421.128 609.012 94.2452
internal_count=159936 155530 122945 32585 25451 4406 97494 29161 27966 22442 40589 10122 56905 18798 16278 18041 3009 2561 16441 11688 2743 3424 2669 1339 9323 48381 8476 7921 7751 757
is_linear=0
shrinkage=0.05


Tree=26
num_leaves=31
num_cat=0
split_feature=80 78 1 78 1 19 19 1 6 55 80 2 20 62 34 58 38 24 84 18 61 85 20 55 62 78 41 87 87 92
split_gain=789.416 599.989 183.624 145.575 130.438 94.8409 94.0095 98.3998 85.6682 79.6241 74.9244 89.2644 74.6842 95.6022 58.2054 62.44 49.6803 48.567 40.7408 43.7403 39.2183 38.6334 38.4445 37.6554 36.2563 36.2351 55.0338 35.5217 38.1025 34.2038
threshold=0.58332458138465892 0.11702995002269746 2.2740995883941655 0.58046236634254467 3.9296648502349858 1.3709686994552615 1.1827298998832705 5.393726348876954 2.5000000000000004 8696.5000000000018 0.74304392933845531 1.1198465228080752 1.0000000180025095e-35 0.28549382090568548 1.0744368433952334 3.9389718770980839 1.6031214594841006 3.6764119863510136 0.76388889551162731 1.0243951082229616 37.100477218627937 0.59166666865348827 2.0318465828895573 18430.000000000004 6.2415275573730478 0.36383493244647985 3.352110862731934 127.50000000000001 8.5000000000000018 3.5000000000000004
decision_type=2 2 2 2 2 2 2 2 2 2 2 2 2 2 2 2 2 2 2 2 2 2 2 2 2 2 2 2 2 2
left_child=1 2 5 4 12 20 7 9 16 17 11 -2 14 -14 15 -3 -5 -4 19 -17 -1 24 27 -23 -7 -13 -27 28 -15 -12
right_child=10 3 6 8 -6 21 -8 -9 -10 -11 29 25 13 22 -16 18 -18 -19 -20 -21 -22 23 -24 -25 -26 26 -28 -29 -30 -31
leaf_value=-0.031068305552831584 0.05102972741592824 0.03612820336297997 0.017322635845033497 0.031335915175129909 0.022508912874474384 -0.011605492945260934 0.016596597923538337 0.025348286278943557 -0.013721564873519894 -0.0482932292901979 -0.003081513920789705 -0.0011767103185318472 0.031611746275243068 0.040464950300413458 0.012111849115220646 -0.0012006425018971738 -0.0046952713291413019 -0.016164628863959078 0.025844774543500711 -0.020507591831351986 0.020210568098798228 0.0020687512435608739 -0.0091585896176908932 -0.050522267435203029 -0.027626455597724683 0.040143424622460094 -0.014200101075396741 0.0263730970601278 -0.037752599196666986 0.046935472281390278
leaf_weight=1917.9654968482791 194.68778719846159 94.522581408731639 134.61959614558145 924.81246109260246 694.86496482323855 821.87684863316827 477.97263895871583 162.62031734944321 142.72714329627343 164.93071287812199 35.807790514547378 273.19179009366781 108.69585443427786 16.31692411378026 1091.7179238758981 802.19311280571856 106.70638439571485 553.23636234240257 94.074900361942127 462.48154611303471 38.025799010531045 436.76712093886454 518.52578917879146 36.912979461019859 619.18902856006753 173.35251312470064 63.709784394130111 25.992905788123608 340.07626063027419 752.1692627404118
leaf_count=54065 428 512 993 2886 2963 14096 4655 1526 858 4321 186 1212 645 95 5521 6143 858 11093 520 6573 612 5957 5984 905 14155 494 357 137 9246 1940
internal_value=-8.85519e-06 -0.00472472 -0.0165817 0.00700197 0.00269593 -0.0223278 -0.00168816 -0.0102952 0.022585 -0.0170921 0.034068 0.0222255 -0.00117718 -0.012684 0.00338762 -0.00316613 0.0276086 -0.00961087 -0.00589968 -0.00826104 -0.0300714 -0.0144174 -0.0180283 -0.00202957 -0.0184893 0.0112352 0.0255388 -0.030056 -0.0341715 0.0446626
internal_weight=12280.7 10787.8 5364.12 5423.71 4249.46 3870.74 1493.38 1015.41 1174.25 852.787 1492.92 704.942 3554.6 1009.61 2544.99 1453.27 1031.52 687.856 1358.75 1264.67 1955.99 1914.75 900.912 473.68 1441.07 510.254 237.062 382.386 356.393 787.977
internal_count=159936 155319 112378 42941 38339 89790 22588 17933 4602 16407 4617 2491 35376 16107 19269 13748 3744 12086 13236 12716 54677 35113 15462 6862 28251 2063 851 9478 9341 2126
is_linear=0
shrinkage=0.05


Tree=27
num_leaves=31
num_cat=0
split_feature=78 44 79 78 85 28 21 89 92 19 0 101 61 79 16 55 27 92 63 1 56 1 55 84 64 1 2 89 65 1
