tree
version=v4
num_class=1
num_tree_per_iteration=1
label_index=0
max_feature_idx=219
objective=lambdarank
feature_names=Column_0 Column_1 Column_2 Column_3 Column_4 Column_5 Column_6 Column_7 Column_8 Column_9 Column_10 Column_11 Column_12 Column_13 Column_14 Column_15 Column_16 Column_17 Column_18 Column_19 Column_20 Column_21 Column_22 Column_23 Column_24 Column_25 Column_26 Column_27 Column_28 Column_29 Column_30 Column_31 Column_32 Column_33 Column_34 Column_35 Column_36 Column_37 Column_38 Column_39 Column_40 Column_41 Column_42 Column_43 Column_44 Column_45 Column_46 Column_47 Column_48 Column_49 Column_50 Column_51 Column_52 Column_53 Column_54 Column_55 Column_56 Column_57 Column_58 Column_59 Column_60 Column_61 Column_62 Column_63 Column_64 Column_65 Column_66 Column_67 Column_68 Column_69 Column_70 Column_71 Column_72 Column_73 Column_74 Column_75 Column_76 Column_77 Column_78 Column_79 Column_80 Column_81 Column_82 Column_83 Column_84 Column_85 Column_86 Column_87 Column_88 Column_89 Column_90 Column_91 Column_92 Column_93 Column_94 Column_95 Column_96 Column_97 Column_98 Column_99 Column_100 Column_101 Column_102 Column_103 Column_104 Column_105 Column_106 Column_107 Column_108 Column_109 Column_110 Column_111 Column_112 Column_113 Column_114 Column_115 Column_116 Column_117 Column_118 Column_119 Column_120 Column_121 Column_122 Column_123 Column_124 Column_125 Column_126 Column_127 Column_128 Column_129 Column_130 Column_131 Column_132 Column_133 Column_134 Column_135 Column_136 Column_137 Column_138 Column_139 Column_140 Column_141 Column_142 Column_143 Column_144 Column_145 Column_146 Column_147 Column_148 Column_149 Column_150 Column_151 Column_152 Column_153 Column_154 Column_155 Column_156 Column_157 Column_158 Column_159 Column_160 Column_161 Column_162 Column_163 Column_164 Column_165 Column_166 Column_167 Column_168 Column_169 Column_170 Column_171 Column_172 Column_173 Column_174 Column_175 Column_176 Column_177 Column_178 Column_179 Column_180 Column_181 Column_182 Column_183 Column_184 Column_185 Column_186 Column_187 Column_188 Column_189 Column_190 Column_191 Column_192 Column_193 Column_194 Column_195 Column_196 Column_197 Column_198 Column_199 Column_200 Column_201 Column_202 Column_203 Column_204 Column_205 Column_206 Column_207 Column_208 Column_209 Column_210 Column_211 Column_212 Column_213 Column_214 Column_215 Column_216 Column_217 Column_218 Column_219
feature_infos=[1:1000000] [0:339339] [0:2] [0:51189] [0:141] [0:27262] [0:9] [500:857] [0.50003799999999998:0.88231300000000001] [1:223] [1:10] [0:31] [0:16276] [0:10] [0:590.28277600000001] [0:0.444878] [0:0.444878] [0:0.444878] [0:413447] [0:531334] none [0:2] [0:16] [0:1] [0:1] [0:7] [0:52] [0:7] [0:8.0199169999999995] [0:0.437749] [0:0.437749] [0:0.437749] [0:740] [0:740] [0:1] [0:2] [0:16] [0:1] [0:1] [0:7] [0:65] [0:7] [0:1.557912] [0:0.437749] [0:0.437749] [0:0.437749] [0:169] [0:169] [0:1] [0:2] [0:16] [0:1] [0:1] [0:6] [0:7] [0:6] [0:0.69538999999999995] [0:0.421815] [0:0.421815] [0:0.421815] [0:17] [0:17] [0:1] [0:2] [0:16] [0:1] [0:1] [0:4] [0:51] [0:4] [0:2.0739920000000001] [0:0.34491699999999997] [0:0.34491699999999997] [0:0.34491699999999997] [0:959] [0:959] [0:1] [0:2] [0:16] [0:1] [0:1] none none none none none none none none none none none [16:16] none none [0:4] [0:5] [0:4] [0:0.51957399999999998] [0:0.36747299999999999] [0:0.36747299999999999] [0:0.36747299999999999] [0:36] [0:36] [0:1] [0:2] [0:16] [0:1] [0:1] [0:7] [0:112] [0:7] [0:5.2751049999999999] [0:0.41893799999999998] [0:0.41893799999999998] [0:0.41893799999999998] [0:29714] [0:29714] [0:1] [0:2] [0:16] [0:1] [0:1] [1:16] [1:16276] [1:7] [0.000214:590.28277600000001] [4.3000000000000002e-05:0.444878] [0.000214:0.444878] [0.000214:0.444878] [1:413447] [1:531334] [0:1] [1:2] [0:16] [0:1] [0.29999999999999999:1] [1:32] [1:16276] [1:28] [0.000214:590.28277600000001] [4.3000000000000002e-05:2.069502] [0.000214:2.069502] [0.000214:2.069502] [1:413447] [1:531334] [0:2] [1:10] [0:112] [0:7] [1:7] [1:31] [1:16276] [1:10] [0.000214:590.28277600000001] [4.3000000000000002e-05:0.444878] [0.000214:0.444878] [0.000214:0.444878] [1:413447] [1:531334] [0:1] [1:2] [0:16] [0:1] [0.33333333333300003:1] [1:7] [1:16276] [1:7] [0.000214:590.28277600000001] [4.3000000000000002e-05:0.444878] [0.000214:0.444878] [0.000214:0.444878] [1:413447] [1:531334] [0:1] [1:2] [0:16] [0:1] [0.14285714285699999:1] [1:5625] [0.000214:0.444878] [1:16276] [0.000214:0.444878] [1:15651] [1:2201] [0.000214:0.444878] [4.3000000000000002e-05:0.444878] [0:181] [0:7] [3:202] [1:14] [0:3] [0:20] [1:1000000] [0:789] [500048:901273] [0:1] none [0:21] [2:38] [0:2] [0:316] none [0:1] none none [2:7] [0:48] [0:5560] [0:15545] [0:19772] [0:27257] [0:100] [0:1] [0:1] [0:100] [0:1] [0:1] none [0:191]
tree_sizes=3599 3616 3600 3604 3600 3609 3606 3627 3629 3620 3616 3612 3607 3658 3594 3621 3611 3622 3634 3624 3617 3600 3620 3606 3629 3623 3632 3609 3615 3618 3633 3639 3627 3612 3625 3633 3614 3631 3629 3638 3609 3628 3625 3628 3633 3653 3633 3628 3636 3629 3636 3625 3642 3617 3620 3616 3630 3637 3620 3621 3642 3636 3614 3650 3622 3627 3624 3628 3641 3635 3635 3649 3637 3627 3624 3631 3627 3624 3634 3622 3649 3646 3641 3662 3620 3635 3626 3650 3627 3638 3643 3649 3624 3641 3628 3625 3625 3639 3648 3642 3616 3611 3643 3643 3646 3644 3617 3650 3645 3641 3623 3643 3642 3641 3646 3647 3630 3629 3630 3648 3674 3632 3646 3653 3638 3625 3663 3642 3640 3634 3642 3626 3636 3615 3652 3647 3652 3628 3638 3647 3631 3638 3638 3646 3651 3641 3642 3645 3652 3672 3634 3650 3636 3650 3619 3636 3644 3662 3638 3626 3653 3625 3659 3656 3656 3653 3641 3648 3642 3645 3648 3615 3652 3651 3657 3647 3648 3622 3646 3651 3637 3639 3634 3632 3639 3619 3638 3641 3666 3619 3625 3629 3653 3660 3650 3656 3640 3637 3659 3646 3620 3633 3636 3625 3641 3661 3659 3644 3659 3654 3645 3650 3646 3651 3643 3628 3623 3650 3637 3632 3641 3629 3644 3629 3654 3638 3652 3629 3654 3642 3635 3638 3643 3630 3657 3652 3642 3644 3654 3635 3637 3648 3658 3638 3649 3654 3621 3626 3654 3645 3627 3650 3644 3657 3649 3628 3657 3641 3660 3615 3646 3647 3653 3663 3625 3623 3633 3632 3630 3616 3630 3643 3635 3646 3644 3608 3664 3628 3640 3631 3629 3616 3654 3611 3652 3641 3622 3635 3623 3656 3653 3627 3624 3625 3635 3648 3606 3636 3638 3666 3625 3626 3634 3612 3620 3617 3625 3631 3656 3639 3625 3638 3623 3647 3618 3638 3652 3626 3645 3641 3651 3644 3637 3579 3620 3644 3610 3634 3646 3621 3610 3628 3622 3609 3646 3630 3648 3626 3604 3633 3617 3648 3634 3631 3638 3650 3641 3612 3631 3617 3607 3652 3634 3630 3590 3619 3640 3628 3626 3606 3618 3621 3603 3625 3617 3611 3647 3622 3636 3651 3646 3631 3633 3632 3613 3600 3642 3606 3621 3613 3615 3594 3623 3607 3631 3610 3617 3640 3585 3626 3628 3623 3611 3639 3630 3625 3621 3591 3617 3639 3606 3581 3633 3648 3608 3580 3620 3616 3648 3609 3624 3616 3609 3619 3610 3572 3591 3577 3609 3613 3601 3635 3658 3600 3618 3612 3635 3596 3640 3578 3600 3608 3609 3639 3562 3588 3654 3625 3607 3588 3578 3635 3606 3599 3541 3605 3617 3596 3571 3584 3629 3634 3613 3575 3555 3589 3578 3618 3584 3640 3585 3569 3598 3588 3595 3635 3603 3621 3608 3606 3548 3606 3571 3559 3597 3627 3591 3597 3585 3561 3591 3525 3515 3637 3552 3576 3599 3587 3591 3605 3619 3629 3613 3628 3579 3590 3575

Tree=0
num_leaves=31
num_cat=0
split_feature=172 212 5 195 212 195 149 189 0 195 212 210 181 189 13 0 206 27 137 207 203 0 5 193 195 195 195 5 5 5
split_gain=33046.9 10985.2 3625.07 3137.89 2208.54 2011.75 956.167 790.482 995.778 683.247 668.703 582.554 529.268 527.768 451.726 447.203 412.189 369.519 321.166 288.945 277.753 259.058 231.429 226.817 221.166 207.451 204.7 180.042 179.838 166.71
threshold=8.5000000000000018 1.0000000180025095e-35 40.500000000000007 548339.50000000012 1.0000000180025095e-35 538815.50000000012 1.5000000000000002 9.5000000000000018 97659.500000000015 550369.50000000012 1.0000000180025095e-35 17.500000000000004 3.5000000000000004 9.5000000000000018 2.5000000000000004 96299.000000000015 3.5000000000000004 1.5000000000000002 3.5000000000000004 1.0000000180025095e-35 1.0000000180025095e-35 88103.500000000015 75.500000000000014 42825.500000000007 521129.50000000006 559201.00000000012 518410.50000000006 88.500000000000014 50.500000000000007 17.500000000000004
decision_type=2 2 2 2 2 2 2 2 2 2 2 2 2 2 2 2 2 2 2 2 2 2 2 2 2 2 2 2 2 2
left_child=1 2 9 10 14 15 25 -7 -9 -1 -2 19 -6 18 29 24 20 -10 -11 26 23 -14 -16 -8 -3 -4 -12 -23 -17 -5
right_child=3 5 6 4 12 7 16 8 17 13 11 -13 21 -15 22 28 -18 -19 -20 -21 -22 27 -24 -25 -26 -27 -28 -29 -30 -31
leaf_value=-0.046933899074483719 -0.096253512790970983 -0.044388760056115681 -0.091236119054094816 -0.043216948243164015 -0.024700565038987793 0.090006049612820646 0.054695287882749882 0.087110223804013648 0.01003074310922133 0.016422345867549145 -0.050256200579067933 -0.081081386024686272 0.079152706520085547 -0.01274120590086299 0.010997024274791265 0.01103250384778668 0.058870433216997919 0.057259147927909204 0.056907608612825802 -0.072405467577995361 0.03000037559425003 0.04403662667148165 -0.08539048706646693 -0.066899321568327647 0.056933983051352811 -0.053902203590479453 0.016150069845643263 -0.01811977646312651 -0.061897953766895157 -0.084382458494605711
leaf_weight=310.04865564091733 5135.377497608446 66.923921712337687 1159.0801508177406 319.22445770323202 379.38245565111083 6656.621803389432 43.232325435801613 1704.360818497019 863.0035668083442 757.90688153170595 177.16171506760202 1640.0167771557371 352.29571566996583 539.46160637063031 268.55252287620624 119.88938122994205 167.32915795248482 796.32478948204107 1385.1221033737265 248.81846035748913 136.03043568689418 358.94696157882436 81.076549184507712 339.73451596411178 275.84038537981542 548.01589023146244 336.41605375704967 172.48995523012582 286.59051222633116 1071.3670706515904
leaf_count=21287 474899 41963 106984 17825 197293 374344 2372 186201 378810 21949 110171 1355130 43772 28336 9268 60194 5079 174335 26846 150321 6228 88003 6682 37677 76428 42958 140204 94004 253782 105444
internal_value=2.11556e-05 0.0449567 -0.013345 -0.0688479 -0.0256298 0.0741139 -0.0592127 0.0800232 0.0602674 0.0233398 -0.0860675 -0.0642941 0.0246973 0.0314623 -0.062159 -0.00491517 -0.0093712 0.032696 0.0425895 -0.0281824 -0.0313729 0.0459036 -0.0113546 -0.0531728 0.037151 -0.0792511 -0.00675717 0.0238624 -0.0403874 -0.0749325
internal_weight=26696.6 16155.5 5385.96 10541.1 3003.34 10769.6 2393.42 10020.3 3363.69 2992.54 7537.79 2402.41 1263.12 2682.49 1740.22 749.244 686.326 1659.33 2143.03 762.396 518.997 883.733 349.629 382.967 342.764 1707.1 513.578 531.437 406.48 1390.59
internal_count=4638789 1845773 299716 2793016 562291 1546057 201298 1113690 739346 98418 2230725 1755826 423072 77131 139219 432367 51356 553145 48795 400696 46277 225779 15950 40049 118391 149942 250375 182007 313976 123269
is_linear=0
shrinkage=0.05


Tree=1
num_leaves=31
num_cat=0
split_feature=195 189 193 193 125 149 6 38 210 210 193 182 6 38 184 210 5 139 6 210 10 26 210 6 189 6 189 123 193 195
split_gain=35022.1 14022.7 12072.8 6328.07 3396.4 3386.27 2917.75 2517.28 2488.67 1858.86 1576.17 1523.29 1470.68 1433.19 1309.15 1131.97 1063.86 1009.72 922.721 1185.46 794.656 790.132 709.139 704.169 686.481 649.443 608.832 591.771 533.452 531.611
threshold=552132.50000000012 7.5000000000000009 1645.5000000000002 1159.5000000000002 1.5357142857150003 1.5000000000000002 1.5000000000000002 0.69047619047650011 1.0000000180025095e-35 14.500000000000002 1693.5000000000002 0.062674500000000008 1.0000000180025095e-35 0.53571428571450019 3.5000000000000004 1.5000000000000002 40.500000000000007 4.5000000000000009 1.0000000180025095e-35 1.0000000180025095e-35 1.5000000000000002 1.5000000000000002 29.500000000000004 1.0000000180025095e-35 10.500000000000002 1.0000000180025095e-35 11.500000000000002 1.1547619047650002 196.50000000000003 524885.50000000012
decision_type=2 2 2 2 2 2 2 2 2 2 2 2 2 2 2 2 2 2 2 2 2 2 2 2 2 2 2 2 2 2
left_child=3 5 8 9 18 10 15 16 28 29 -2 25 21 20 22 -7 27 -17 19 -4 -12 -10 -6 -9 -16 -11 -14 -5 -3 -1
right_child=1 2 4 7 14 6 -8 23 12 11 13 -13 26 -15 24 17 -18 -19 -20 -21 -22 -23 -24 -25 -26 -27 -28 -29 -30 -31
leaf_value=-0.025207211359427047 0.062454371455732696 0.079565091849813835 -0.023577178908717075 -0.066168641676751919 -0.0035008465254362368 0.057190906824290177 0.074426620487128309 -0.03774500987402904 -0.047947394681974842 -0.051065840418862821 -0.05885237823283565 -0.056285544952439204 0.057982303416961006 0.046268957393493612 0.028654565567073312 -0.029137931112897093 -0.081184240788203466 0.041385457168166814 -0.023836514591727573 -0.072323374259551765 0.0050752007283057961 0.016078711181114026 -0.042637457530666792 0.050589751724030164 -0.014414004499852884 0.054412492171803474 0.0061598205424103873 -0.023239090560465695 0.045923232187797453 0.049371145951381555
leaf_weight=283.59769000852611 2114.9398975511376 3114.5587137978673 1705.6141146766604 2055.3466685817984 2247.4749216997952 1430.2351365996437 12284.924739242011 406.94506076014659 1008.7963897268037 194.03023767159902 549.57380427668613 1667.5157071408848 1683.497142178574 2229.9389532516943 2874.7110557682427 1248.2457219526841 12006.711704506719 855.32074746497528 2595.7043728280478 4640.7892741599462 4210.2271688786623 922.51778558222213 2386.5237862997528 506.29263586767047 1364.3360426557447 588.71797763588984 854.40345913737838 1317.2091694580595 1895.4874079467627 1517.8169638926738
leaf_count=41095 21193 21613 109273 309796 86709 9769 84656 30525 43799 14465 73376 234867 20373 24418 47612 22367 2313652 8763 152006 371661 90145 23644 132953 11074 112806 21720 27963 108706 30029 37761
internal_value=5.41141e-05 0.0218124 -0.0029472 -0.0552496 -0.0272037 0.0489274 0.0629095 -0.0694254 0.0426401 -0.000927652 0.0246344 -0.0292751 0.015515 0.0131909 -0.0052874 0.0228714 -0.0742146 -0.000462765 -0.0489508 -0.0592227 -0.00230597 -0.0173645 -0.0236563 0.0112272 0.014793 0.0282662 0.0405359 -0.0494018 0.0668371 0.0376302
internal_weight=72762 52217.8 27294.4 20544.2 17815.2 24923.4 15818.7 16292.5 9479.26 4251.68 9104.68 2450.26 4469.21 6989.74 8873.05 3533.8 15379.3 2103.57 8942.11 6346.4 4759.8 1931.31 4634 913.238 4239.05 782.748 2537.9 3372.56 5010.05 1801.41
internal_count=4638789 1515128 1180441 3123661 1013020 334687 125555 2773753 167421 349908 209132 271052 115779 187939 380080 40899 2732154 31130 632940 480934 163521 67443 219662 41599 160418 36185 48336 418502 51642 78856
is_linear=0
shrinkage=0.05


Tree=2
num_leaves=31
num_cat=0
split_feature=195 189 0 137 0 6 0 31 210 0 210 172 38 25 212 210 189 26 139 25 138 189 195 210 6 188 8 212 189 64
split_gain=43959.5 13963.4 10348.5 5600.24 4864.57 2746.12 2765.37 2670.77 2046.76 1520.03 1166.99 1155.4 1151.16 1080.03 1023.91 859.316 769.002 634.645 600.519 517.15 510.171 486.652 465.207 408.783 396.177 378.633 505.548 373.094 338.96 327.789
threshold=548740.50000000012 9.5000000000000018 77035.000000000015 2.5000000000000004 53295.500000000007 2.5000000000000004 13327.500000000002 0.012077000000000003 1.0000000180025095e-35 9488.5000000000018 14.500000000000002 12.500000000000002 0.69047619047650011 1.5000000000000002 1.0000000180025095e-35 1.0000000180025095e-35 9.5000000000000018 1.5000000000000002 5.5000000000000009 1.5000000000000002 5.5000000000000009 6.5000000000000009 518410.50000000006 1.0000000180025095e-35 1.0000000180025095e-35 6.5000000000000009 0.53253600000000012 93.500000000000014 7.5000000000000009 6.0000000000000009
decision_type=2 2 2 2 2 2 2 2 2 2 2 2 2 2 2 2 2 2 2 2 2 2 2 2 2 2 2 2 2 2
left_child=4 3 8 9 7 6 -5 10 18 -2 22 -11 25 21 -7 -4 -9 24 -3 -17 -13 -8 -1 -18 -10 26 -6 -24 -14 -12
right_child=1 2 15 5 12 14 13 16 17 11 29 20 28 -15 -16 19 23 -19 -20 -21 -22 -23 27 -25 -26 -27 -28 -29 -30 -31
leaf_value=-0.06922565006992501 0.046609750549255993 0.023316382559482443 -0.026838484437213733 0.061953611438830027 -0.078749175640885544 0.013674193067153463 0.026491305911878017 0.045855407046645286 -0.066893657519660019 0.0049642797657806909 0.057260478299554191 -0.070594915781534109 0.048334615037755421 0.041770439689938155 0.071609228136240891 -0.070398577261896286 0.018677094119333999 0.016579859939413879 0.057059040254271713 -0.035619696512042713 -0.017461491223309016 -0.0021979736385304995 0.021009136657390719 -0.044842993855411961 -0.010932699266621826 -0.081496280928203699 -0.0025524115733757042 -0.06134716821709673 -0.037648713511368122 -0.081269895528112535
leaf_weight=280.36082985630674 1060.4452983441697 2152.4289901663797 2377.4127711064812 6885.2846761755936 541.23947038013284 813.84349504409329 2332.5803818847708 1262.6381490313397 558.46713847666251 2068.353009237544 43.78231403848622 1122.2004729940709 206.36645684111863 3882.0439959940122 12122.080292478062 4618.9658427582162 514.00676313551958 1094.7751977239968 3403.7136288719048 1390.6879620431391 756.20280814963189 4035.3519808613455 699.82404417366706 499.34685972891748 729.2694499282843 13599.155691745267 364.14304380153044 171.15168763357724 257.81568239420449 1729.912867925992
leaf_count=41014 14407 27715 178165 38640 53885 32059 39307 26752 60937 65568 569 138324 3794 57587 61474 558241 11383 37377 19447 102729 51591 143139 26450 43203 35326 2386062 21423 16607 25084 320530
internal_value=9.86507e-05 0.0246441 -0.0135547 0.042422 -0.0624572 0.0505743 0.037446 -0.0208 0.0273623 -0.00653681 -0.0524056 -0.0208166 -0.0769314 0.0209833 0.0679643 -0.0522842 0.0198185 -0.0114079 0.0439873 -0.0623504 -0.0492046 0.00831094 -0.0132065 -0.0126235 -0.0352019 -0.0794119 -0.048103 0.00482565 0.000577822 -0.0778504
internal_weight=71573.9 51404.1 16325.7 35078.4 20169.7 30071.2 17135.3 5201.02 7938.65 5007.2 2925.03 3946.76 14968.7 10250 12935.9 8387.07 2275.99 2382.51 5556.14 6009.65 1878.4 6367.93 1151.34 1013.35 1287.74 14504.5 905.383 870.976 464.182 1773.7
internal_count=4638789 1662033 1019937 642096 2976756 372206 278673 486508 180802 269890 405170 255483 2490248 240033 93533 839135 81338 133640 47162 660970 189915 182446 84071 54586 96263 2461370 75308 43057 28878 321099
is_linear=0
shrinkage=0.05


Tree=3
num_leaves=31
num_cat=0
split_feature=172 189 193 193 184 3 193 211 193 140 27 211 5 27 55 27 193 8 28 8 211 188 8 27 184 193 212 189 189 8
split_gain=41052.1 15123.7 8052.4 4552.28 4164.51 1615.77 1585.48 1488.77 1366.13 1269.82 1266.45 1249.58 1009.86 813.24 797.859 714.304 666.406 593.974 575.325 550.326 559.741 482.294 478.674 469.247 367.616 322.015 316.05 313.283 311.755 299.58
threshold=6.5000000000000009 9.5000000000000018 1645.5000000000002 136.00000000000003 2.5000000000000004 5.5000000000000009 983.50000000000011 1.0000000180025095e-35 1065.5000000000002 0.35038400000000008 1.5000000000000002 1.0000000180025095e-35 93.500000000000014 1.5000000000000002 1.5000000000000002 1.5000000000000002 109686.50000000001 0.56203150000000013 0.048634500000000004 0.53253600000000012 1.0000000180025095e-35 6.5000000000000009 0.54260550000000018 1.5000000000000002 1.5000000000000002 1472.5000000000002 1.0000000180025095e-35 6.5000000000000009 6.5000000000000009 0.56107350000000011
decision_type=2 2 2 2 2 2 2 2 2 2 2 2 2 2 2 2 2 2 2 2 2 2 2 2 2 2 2 2 2 2
left_child=1 4 7 11 8 6 -6 23 -1 -5 14 22 19 21 17 27 -7 -10 -9 -11 -21 -4 -2 -3 -15 -14 -18 -8 -19 -13
right_child=3 2 13 9 5 16 15 18 10 12 -12 29 25 24 -16 -17 26 28 -20 20 -22 -23 -24 -25 -26 -27 -28 -29 -30 -31
leaf_value=0.040872308689160503 -0.058530983415211901 0.019899706114501873 0.0063194982891544311 -0.076054797862238455 0.059463588074021502 0.072908624026721477 0.024442424409143754 -0.051102899150693742 -0.060246243762998086 -0.076840268967299674 0.028377949495838869 -0.074123333687126633 -0.027915162431780952 -0.058611448747061978 0.045876552774086712 0.039071419504347671 0.014006891764843469 0.005873218457658513 0.0077570734258827533 -0.0033339217473986544 -0.04389071611336378 -0.067284751302329734 0.053313276276762335 0.054125862148917597 -0.019425306798400141 -0.075086894190101866 0.054517030758292118 -0.0079516243762017755 -0.029915740185345586 -0.0078640361676242422
leaf_weight=3245.2178123446502 104.28919657588995 1626.0276134358865 233.31927373161307 11654.083582029605 5287.3596837458317 8873.2536489896447 1256.2696871634398 644.54226926520641 905.91018468717812 597.88456909506203 2525.1546680049942 330.29543745768751 410.65073485403263 841.32500594831072 440.98241114546545 3130.1167705047992 537.86484840915364 1164.1612149614084 1166.544270324026 1604.3059485265549 1811.2106788052988 4826.1321204522756 1156.8297875893768 2607.1090525335749 2073.7367688033264 3040.3924099042633 4591.8897214612371 1838.7934339005442 1274.830081769207 352.81485082246945
leaf_count=45855 15709 33672 9825 1995537 34417 28586 23000 68578 129396 69788 55148 63905 32824 84478 8856 49467 23145 35998 55838 87948 179689 663184 13414 18089 164546 453107 20823 85150 66553 22264
internal_value=6.27687e-05 0.0251165 -0.0187795 -0.0583294 0.0426624 0.0532066 0.03933 0.0247477 0.0145089 -0.0657421 0.000952564 0.0145626 -0.049641 -0.0517705 -0.01734 0.0222296 0.0646152 -0.0256742 -0.0131904 -0.0325872 -0.0248407 -0.0638905 0.0440642 0.040979 -0.0307349 -0.0694738 0.0502695 0.00519695 -0.0128332 -0.0399015
internal_weight=70153.3 49090.5 14018.7 21062.8 35071.8 25515.5 11512.5 6044.22 9556.26 19118.5 6311.04 1944.23 7464.44 7974.51 3785.88 6225.18 14003 3344.9 1811.09 4013.4 3415.52 5059.45 1261.12 4233.14 2915.06 3451.04 5129.75 3095.06 2438.99 683.11
internal_count=4638789 1704604 1098210 2934185 606394 264588 192034 176177 341806 2818893 295951 115292 823356 922033 240803 157617 72554 231947 124416 337425 267637 673009 29123 51761 249024 485931 43968 108150 102551 86169
is_linear=0
shrinkage=0.05


Tree=4
num_leaves=31
num_cat=0
split_feature=172 189 0 184 0 210 210 6 0 0 140 31 210 66 210 27 27 8 8 27 212 188 0 189 8 6 210 172 6 212
split_gain=38132.4 13540.1 6859.82 4250.83 3705.83 1933.94 1873.26 1704.9 1232.68 1161.02 1050.37 947.724 939.118 813.395 657.279 637.892 602.205 561.717 517.393 485.836 484.524 438.529 400.702 390.573 382.19 372.079 330.941 301.551 290.279 275.12
threshold=6.5000000000000009 9.5000000000000018 77035.000000000015 2.5000000000000004 5385.5000000000009 1.0000000180025095e-35 14.500000000000002 2.5000000000000004 13327.500000000002 5385.5000000000009 0.35038400000000008 0.04710050000000001 54.500000000000007 0.70833333333350013 1.0000000180025095e-35 1.5000000000000002 1.5000000000000002 0.54260550000000018 0.53253600000000012 2.5000000000000004 1.0000000180025095e-35 6.5000000000000009 7955.5000000000009 4.5000000000000009 0.55151950000000005 1.0000000180025095e-35 1.0000000180025095e-35 1.5000000000000002 1.0000000180025095e-35 1.0000000180025095e-35
decision_type=2 2 2 2 2 2 2 2 2 2 2 2 2 2 2 2 2 2 2 2 2 2 2 2 2 2 2 2 2 2
left_child=1 3 5 9 6 22 17 8 -5 -1 -6 13 18 24 -4 25 28 -2 -12 -16 -9 -20 -3 29 -11 26 -10 -22 -7 -13
right_child=4 2 14 7 10 16 -8 20 15 11 12 23 -14 -15 19 -17 -18 -19 21 -21 27 -23 -24 -25 -26 -27 -28 -29 -30 -31
leaf_value=0.044433010197348834 -0.061550696815006904 0.050935473891178841 -0.02698959576208694 0.055173330456248032 -0.073916570780117249 -0.06492997680077281 -0.057666640152432107 0.015908288492848557 0.020690274395902333 -0.059232028055418842 -0.075277169060481944 0.0013281239679154636 -0.070194324586287035 0.035965641425549262 -0.065788028489561654 0.03671180048767534 0.012035844460941331 0.043168193814319258 0.017334804815368914 -0.01646289944831348 0.069110952492401484 -0.033158275954435788 0.019307280470223256 0.0091236891379478779 -0.017465137472409097 0.02454307315878454 -0.027398344639647521 0.053002970771205742 -0.01596883442545988 0.062169994216134741
leaf_weight=2001.5637315167114 140.66264192402014 2697.4444630703656 2033.0957270236104 5044.7323543699458 11243.358532620477 651.26376110923593 870.47345357779704 536.01151193934493 538.58941186961601 734.73722360923421 619.66152222294477 249.04793780026375 3040.7282800179528 598.17476155108307 4658.9663249665173 3429.9819727462018 884.93021489307284 1429.1144999736862 506.20545114084962 559.1346828356036 9831.4109837464057 2856.5818769871548 1592.6923782100203 2336.7752780264709 2151.7563542774878 1325.8486567401851 1065.6692532389716 4124.3590250900015 565.66807128474466 731.68649842363084
leaf_count=25066 22286 23218 181062 30499 1946847 85457 136442 21099 14457 106652 77810 8232 451306 10788 655468 52618 39280 21409 15728 40518 28473 262357 30766 66230 119722 32439 63210 21793 42441 5116
internal_value=6.44241e-05 0.024382 -0.0178187 0.0409742 -0.0567092 0.0199433 0.00116264 0.0511778 0.0367162 0.0109599 -0.0644404 0.00111035 -0.0492701 -0.0170997 -0.0511063 0.0220763 -0.0193489 0.0337847 -0.0332938 -0.0605027 0.0625588 -0.0255575 0.0391937 0.020238 -0.0280966 0.00494398 -0.0112538 0.0643505 -0.0421713 0.0467198
internal_weight=69050.3 48343.5 13643.2 34700.3 20706.8 6392 2440.25 25896.6 11404.8 8803.74 18266.5 6802.18 7023.18 3484.67 7251.2 6360.09 2101.86 1569.78 3982.45 5218.1 14491.8 3362.79 4290.14 3317.51 2886.49 2930.11 1604.26 13955.8 1216.93 980.734
internal_count=4638789 1704604 1098210 606394 2934185 221162 180137 264588 193223 341806 2754048 316740 807201 237162 877048 162724 167178 43695 355895 695986 71365 278085 53984 79578 226374 110106 77667 50266 127898 13348
is_linear=0
shrinkage=0.05


Tree=5
num_leaves=31
num_cat=0
split_feature=172 189 193 193 184 3 195 193 195 195 208 208 138 189 212 193 212 27 5 28 125 0 5 188 195 27 0 208 211 137
split_gain=34542.3 11972.6 6387.88 3954.06 3726.52 1648.24 1295.53 1187.69 1172.63 1166.8 1071.29 766.582 738.246 700.03 798.342 714.915 684.057 534.668 523.394 482.43 467.36 452.876 441.637 402.503 405.551 359.525 347.953 323.824 273.552 261.071
threshold=6.5000000000000009 9.5000000000000018 1645.5000000000002 136.00000000000003 2.5000000000000004 3.5000000000000004 539916.50000000012 983.50000000000011 549567.50000000012 531534.50000000012 1.0000000180025095e-35 1.0000000180025095e-35 5.5000000000000009 5.5000000000000009 1.0000000180025095e-35 196.50000000000003 1.0000000180025095e-35 2.5000000000000004 60.500000000000007 0.046763500000000006 1.3666666666650003 3655.5000000000005 27.500000000000004 6.5000000000000009 517862.00000000006 1.5000000000000002 105101.50000000001 1.0000000180025095e-35 7.5000000000000009 5.5000000000000009
decision_type=2 2 2 2 2 2 2 2 2 2 2 2 2 2 2 2 2 2 2 2 2 2 2 2 2 2 2 2 2 2
left_child=1 4 10 9 6 7 21 -6 23 -2 25 26 -10 14 -8 28 -7 -13 -14 -12 -9 -1 -17 24 -5 -3 -4 -11 -15 -18
right_child=3 2 11 8 5 16 13 20 12 27 19 17 18 15 -16 22 29 -19 -20 -21 -22 -23 -24 -25 -26 -27 -28 -29 -30 -31
leaf_value=0.016978025130277446 -0.050713277588530892 0.016775362765751055 0.020154704921952926 -0.067040256090742198 0.050909981371455748 0.008547659617296954 -0.016137842548871607 -0.0011854134442017637 -0.061330638744684501 0.047905763877123336 -0.049874697810402692 -0.063954899262352163 -0.0028341790500700575 0.051290675905952557 0.052686206577586547 0.020883590228874531 0.054957890957902093 -0.012796868199130233 -0.046150791198623385 0.0074895522168932404 0.028611875417735834 -0.055489769982479786 -0.016774691843495334 -0.072738211260185606 0.00090655688497014153 0.0477614361790498 -0.032233295870738927 -0.01030125414505728 -0.0084104912681803815 0.068417489904375572
leaf_weight=283.13439193309023 534.72462326576351 1469.2789105596021 378.17638550093397 514.04035271683824 5004.9605516836746 645.78292543871794 527.509735119791 2109.5326379911276 2693.6555212744424 1142.9895921427524 540.72995117204846 4593.2250372389244 1385.7967351730767 985.39917683613021 2093.8272943751654 1149.1152081833279 7842.6660617312882 574.63078889052849 1403.7779385086906 1137.5925840222044 3498.0723491655663 903.72259618112002 2414.2287960071117 11886.184260323113 383.40582664258545 2579.8269449016079 1957.8775445610518 302.1006415792217 238.26767384214327 6664.1051305305446
leaf_count=8585 82123 32501 16124 58663 32178 26739 26355 83071 342167 9441 67236 679933 81844 5535 22368 27356 38814 39860 163173 58284 65756 128042 114597 2155660 16838 17849 185294 23839 8671 17850
internal_value=-2.80427e-05 0.0232432 -0.0171702 -0.0547292 0.0388054 0.0483159 0.0102965 0.0332048 -0.0620036 0.0123881 0.0225957 -0.0475218 -0.0426604 0.0180662 0.0388363 0.0066926 0.0588995 -0.0582665 -0.0246321 -0.0109923 0.0174024 -0.038202 -0.00463056 -0.0703003 -0.0380121 0.0365177 -0.0237524 0.0357374 0.0396659 0.0611409
internal_weight=67838.3 47591.7 13231.3 20246.7 34360.3 25765.1 8595.2 10612.6 18266.9 1979.81 5727.43 7503.91 5483.23 7408.35 2621.34 4787.01 15152.6 5167.86 2789.57 1678.32 5607.6 1186.86 3563.34 12783.6 897.446 4049.11 2336.05 1445.09 1223.67 14506.8
internal_count=4636746 1702998 1097081 2933748 605917 264408 341509 181005 2818345 115403 175870 921211 587184 204882 48723 156159 83403 719793 245017 125520 148827 136627 141953 2231161 75501 50350 201418 33280 14206 56664
is_linear=0
shrinkage=0.05


Tree=6
num_leaves=31
num_cat=0
split_feature=172 189 193 193 150 195 6 210 195 193 210 193 210 181 189 5 212 27 31 188 195 0 0 193 139 125 193 195 190 194
split_gain=31442.9 10641.9 5697.34 3449.92 3309.79 1489.28 1379.38 1089.91 1068.18 995.242 934.302 804.571 781.674 674.614 638.059 503.583 495.575 488.322 432.919 388.12 371.932 344.391 336.694 334.113 333.873 329.505 309.322 298.908 258.935 229.207
threshold=6.5000000000000009 9.5000000000000018 1645.5000000000002 136.00000000000003 2.5357142857150001 539916.50000000012 2.5000000000000004 14.500000000000002 549968.50000000012 1693.5000000000002 1.0000000180025095e-35 1065.5000000000002 1.0000000180025095e-35 5.5000000000000009 6.5000000000000009 60.500000000000007 1.0000000180025095e-35 2.5000000000000004 0.048457500000000008 6.5000000000000009 517054.50000000006 105101.50000000001 3655.5000000000005 90845.500000000015 4.5000000000000009 1.6333333333350002 196.50000000000003 525138.50000000012 1.5000000000000002 1.0000000180025095e-35
decision_type=2 2 2 2 2 2 2 2 2 2 2 2 2 2 2 2 2 2 2 2 2 2 2 2 2 2 2 2 2 2
left_child=1 4 10 7 5 22 11 27 19 -7 26 -6 21 -10 16 -15 -11 -14 -12 20 -5 -4 -1 -8 -13 -16 -3 -2 -18 -25
right_child=3 2 12 8 6 9 23 -9 13 14 18 24 17 15 25 -17 28 -19 -20 -21 -22 -23 -24 29 -26 -27 -28 -29 -30 -31
leaf_value=0.011401154676870764 -0.0363316659581139 0.046181232250979011 0.02107279820074149 -0.065855479239743733 0.049061883129971014 0.041464923851361357 0.06303531395595377 -0.048502198744225601 -0.05947136174455564 -0.011528181695038296 -0.042744156853683879 -0.00046897286452493098 -0.062052777686148711 -0.0029639975607663855 -0.026415518622761383 -0.045944863782085163 0.040449276312206149 -0.013646263684683836 0.0093682810159435477 -0.070277555764048663 -0.0013596136175992298 -0.030098303548946298 -0.051263816748865459 0.013312916332519083 0.027786005917709935 0.0064335481246389527 0.017602243156726979 0.041833497499189715 -0.014707907555655465 0.050252745945613145
leaf_weight=276.87647709960584 135.61598469506134 2355.9024837468751 401.14829235902289 486.03428600597545 4105.3249488619622 3805.7283901272458 9601.2119173533865 560.453560382055 2557.8561395919096 728.22507298950222 622.57409205718432 1513.8166789872339 4479.7273067757051 1410.4403164130053 1273.0641925295349 1318.6192712841439 2282.3357139631989 589.56982654926833 1107.4540966849891 11616.174782205693 413.87922972609522 1823.3431033511879 949.19830010877922 475.72398997284472 3379.7230181616032 1906.8924654623843 1582.9623999001924 1246.2878346536309 234.65447645192035 3580.6463487664005
leaf_count=8883 17442 17110 15039 57796 29798 38497 26982 85785 336495 34771 75951 55393 692589 80841 79609 160356 29138 40703 52729 2165056 17801 172880 131981 8914 68255 56873 30080 12176 9032 27791
internal_value=-4.43808e-06 0.0222085 -0.0163566 -0.0529635 0.0368627 0.0149615 0.0479378 0.0103103 -0.0598669 0.0212021 0.0212432 0.032739 -0.04558 -0.0410227 0.00920005 -0.0237314 0.0247973 -0.056423 -0.00938509 -0.0678269 -0.0361932 -0.0208705 -0.0371126 0.0579521 0.0190453 -0.00671725 0.0346958 0.0341626 0.0353071 0.0459205
internal_weight=66821.5 47076.1 12962.7 19745.4 34113.4 11457 22656.4 1942.36 17803 10230.9 5668.89 8998.86 7293.79 5286.92 6425.17 2729.06 3245.22 5069.3 1730.03 12516.1 899.914 2224.49 1226.07 13657.6 4893.54 3179.96 3938.86 1381.9 2516.99 4056.37
internal_count=4636746 1702998 1097081 2933748 605917 388784 217133 115403 2818345 247920 175870 153446 921211 577692 209423 241197 72941 733292 128680 2240653 75597 187919 140864 63687 123648 136482 47190 29618 38170 36705
is_linear=0
shrinkage=0.05


Tree=7
num_leaves=31
num_cat=0
split_feature=172 189 193 193 150 195 195 27 27 3 195 138 212 212 5 208 189 6 211 27 188 212 195 195 211 140 208 189 208 6
split_gain=28586.5 9692.35 6430.09 3112.98 2355.25 1130.59 1010.11 992.519 983.219 943.296 929.366 623.851 597.128 568.816 472.304 430.868 418.354 418.159 814.624 388.997 355.808 349.054 341.804 322.863 242.222 229.871 223.969 223.826 222.951 317.89
threshold=6.5000000000000009 8.5000000000000018 1645.5000000000002 136.00000000000003 2.5357142857150001 537011.50000000012 549968.50000000012 1.5000000000000002 1.5000000000000002 8.5000000000000018 537769.50000000012 5.5000000000000009 72.500000000000014 1.0000000180025095e-35 60.500000000000007 1.0000000180025095e-35 10.500000000000002 1.0000000180025095e-35 1.0000000180025095e-35 1.5000000000000002 6.5000000000000009 1.0000000180025095e-35 559840.00000000012 516231.50000000006 6.5000000000000009 1.0454070000000002 1.0000000180025095e-35 9.5000000000000018 1.0000000180025095e-35 1.0000000180025095e-35
decision_type=2 2 2 2 2 2 2 2 2 2 2 2 2 2 2 2 2 2 2 2 2 2 2 2 2 2 2 2 2 2
left_child=1 4 7 10 5 -1 20 12 15 19 -2 -8 26 24 -13 -4 -10 18 -15 28 23 -11 -14 -5 -7 -9 -3 -17 -6 -30
right_child=3 2 8 6 9 13 11 25 16 21 -12 14 22 17 -16 27 -18 -19 -20 -21 -22 -23 -24 -25 -26 -27 -28 -29 29 -31
leaf_value=-0.042490814083312206 -0.03961556531621168 0.03464644523182394 -0.028619342664571747 -0.064550083739211464 0.038382215891965971 0.0011742462125961814 -0.057556233533971018 0.026325059982924393 0.0041411200557272734 0.014177250107111178 0.033788360885797335 -0.0033097140190219577 -0.048089839924894934 0.034479828743542475 -0.045089244613546658 -0.036033675532860708 -0.030257335683767886 0.038016250618707011 -0.018829141494561819 0.044926102830726344 -0.068155996061441113 0.059085521317841221 0.00033193467342319734 -0.0043272448207467311 -0.057041292285731029 0.048888449928144825 -0.0047621521131894391 -0.06408819049986636 -0.01702252986204577 0.025181361137286112
leaf_weight=718.62030945500737 650.29355919995578 1276.0115706834476 1856.9215045713645 458.77028483684262 1403.8382057679119 838.10811722792278 2478.9795500884793 1904.0642133348156 1554.6077528945752 449.66246399696684 1279.9316483819421 1444.9260839076014 611.10608422473888 1833.4821868963772 1271.8857469053764 920.17381940710766 2048.7918015201576 4237.2809974975826 1176.4640990140906 4587.8000239772955 11279.775738917713 11465.502077657264 902.93816310950206 432.23589925596025 227.09593607808347 2772.3367048475775 502.51797794504091 3126.9449474308203 632.26786576927407 1516.0019015580183
leaf_count=94137 90828 15393 163645 56839 14395 33201 336495 34235 65439 16069 24575 80841 59006 26313 160356 71930 213170 59903 56607 44624 2165056 36262 36359 18758 21014 26305 33132 527728 30574 23557
internal_value=-8.9182e-06 0.0211975 -0.00823205 -0.0511792 0.0388802 0.0176776 -0.0578744 0.024895 -0.0359986 0.048428 0.00905855 -0.0394187 0.00386564 0.0228792 -0.022869 -0.0485602 -0.0154169 0.0278937 0.0136435 0.0353083 -0.0657532 0.0573907 -0.0192123 -0.0353354 -0.011237 0.0397014 0.0235117 -0.0577096 0.0228863 0.0127601
internal_weight=65859.3 46562.5 17476.4 19296.8 29086.1 9031.05 17366.6 7968.97 9507.44 20055.1 1930.23 5195.79 3292.57 8312.43 2716.81 5904.04 3603.4 7247.23 3009.95 8139.91 12170.8 11915.2 1514.04 891.006 1065.2 4676.4 1778.53 4047.12 3552.11 2148.27
internal_count=4636746 1702998 1246342 2933748 456656 291175 2818345 204430 1041912 165481 115403 577692 143890 197038 241197 763303 278609 142823 82920 113150 2240653 52331 95365 75597 54215 60540 48525 599658 68526 54131
is_linear=0
shrinkage=0.05


Tree=8
num_leaves=31
num_cat=0
split_feature=172 189 193 184 193 6 193 195 210 210 195 212 210 210 27 193 27 28 23 188 10 6 210 195 28 129 6 137 8 152
split_gain=26277.9 8737.46 4693.52 2946.71 2836.73 1725.84 1188.25 961.53 897.716 803.369 757.708 667.069 628.59 588.478 479.803 426.187 412.047 409.648 400.198 332.796 319.591 299.849 384.012 292.396 283.712 281.471 251.537 248.332 247.388 213.58
threshold=6.5000000000000009 9.5000000000000018 1645.5000000000002 1.5000000000000002 136.00000000000003 2.5000000000000004 1065.5000000000002 549968.50000000012 14.500000000000002 1.5000000000000002 537011.50000000012 1.0000000180025095e-35 1.0000000180025095e-35 1.0000000180025095e-35 1.5000000000000002 196.50000000000003 2.5000000000000004 0.048634500000000004 1.0000000180025095e-35 6.5000000000000009 2.5000000000000004 1.0000000180025095e-35 1.0000000180025095e-35 517862.00000000006 0.03903800000000001 0.060263000000000004 1.0000000180025095e-35 5.5000000000000009 0.54260550000000018 10.500000000000002
decision_type=2 2 2 2 2 2 2 2 2 2 2 2 2 2 2 2 2 2 2 2 2 2 2 2 2 2 2 2 2 2
left_child=1 3 9 10 8 6 -5 19 28 24 -1 -7 25 29 21 -12 -14 -11 -17 23 -15 22 -8 -6 -3 -4 -19 -13 -2 -9
right_child=4 2 12 5 7 11 14 13 -10 17 15 27 16 20 -16 18 -18 26 -20 -21 -22 -23 -24 -25 -26 -27 -28 -29 -30 -31
leaf_value=-0.049361088209056048 -0.047341242397973826 0.0013401848381759997 -0.046000778113107155 0.043439459051935483 -0.061727508844577811 0.0041509238772604951 0.016868353442892565 -0.025445845294429049 -0.045092479248984456 -0.045367650619555361 0.03539298837772361 0.047388946171504159 -0.058088770371907995 -0.05591509918851726 0.026027017426754635 0.01643732325213404 -0.013103240151033719 -0.017640541634557704 -0.017916731306517632 -0.066341493098149226 -0.01988094611017371 0.016825684697228751 -0.0280551633460226 -0.0042521133375608049 0.037823999139384973 -0.0077984446054013409 0.027824732086850143 0.060414941603335194 0.035829183565226033 0.014968726505258751
leaf_weight=706.89467315115326 96.221321541495854 639.33058123441879 717.18952170490229 5811.7012558670249 467.31213747881702 715.03447303410212 736.68744309301837 877.73207007485325 564.07701833007741 538.45743488974404 984.44928323442582 7663.5822434265865 4215.5440232886322 2957.3572998013115 3606.1326182242192 1583.3625090203714 578.9340502320556 562.29814950132277 1824.6474912290287 10974.098293464529 776.99227152904496 1566.4795570499846 1342.7870739054924 420.30829710687976 3199.9066597913625 1471.3270793205011 662.81399707205128 7001.8882779778214 1262.8746924564475 520.92394578520907
leaf_count=99869 15453 17568 87352 44394 58663 31947 20924 79966 85785 70689 11726 47278 692589 416449 64925 44238 40703 36020 88427 2165056 57239 44325 88903 16934 29851 100567 21742 18961 14165 24038
internal_value=2.51741e-06 0.0203541 -0.0151712 0.0336834 -0.0496228 0.0399582 0.0265946 -0.056136 0.00793319 0.0189164 -0.00131702 0.0513088 -0.0425214 -0.0380567 0.0130953 0.00641489 -0.0526568 -0.00901874 -0.00195583 -0.0639596 -0.0484176 0.000304909 -0.0121403 -0.0345116 0.0317485 -0.0203176 0.00695722 0.0536081 0.0299409 -0.0103936
internal_weight=65047.3 46129.4 12585.8 33543.6 18917.9 28444.3 13063.8 16994.7 1923.17 5602.81 5099.35 15380.5 6982.99 5133.01 7252.09 4392.46 4794.48 1763.57 3408.01 11861.7 3734.35 3645.95 2079.47 887.62 3839.24 2188.52 1225.11 14665.5 1359.1 1398.66
internal_count=4636746 1702998 1097081 605917 2933748 361657 263471 2818345 115403 175870 244260 98186 921211 577692 219077 144391 733292 128451 132665 2240653 473688 154152 109827 75597 47419 187919 57762 66239 29618 104004
is_linear=0
shrinkage=0.05


Tree=9
num_leaves=31
num_cat=0
split_feature=195 189 193 150 193 193 3 195 139 38 208 193 211 27 212 139 27 188 195 138 212 195 3 179 207 212 6 64 189 138
split_gain=24032.2 7366.15 4567.78 2917.55 2546.81 1570.56 1100.01 1087.63 1086.06 822.048 734.539 707.282 517.909 514.146 463.172 421.933 380.918 370.64 328.203 325.246 295.097 276.856 270.452 269.191 235.836 231.055 260.532 214.965 214.41 205.162
threshold=547570.50000000012 9.5000000000000018 1645.5000000000002 2.5357142857150001 1197.5000000000002 1693.5000000000002 3.5000000000000004 526879.50000000012 1.5000000000000002 0.69047619047650011 1.0000000180025095e-35 415.50000000000006 1.0000000180025095e-35 1.5000000000000002 1.0000000180025095e-35 2.5000000000000004 2.5000000000000004 6.5000000000000009 517862.00000000006 12.500000000000002 74.500000000000014 563584.00000000012 12.500000000000002 8.5357142857150006 1.0000000180025095e-35 1.0000000180025095e-35 1.0000000180025095e-35 4.5000000000000009 6.5000000000000009 9.5000000000000018
decision_type=2 2 2 2 2 2 2 2 2 2 2 2 2 2 2 2 2 2 2 2 2 2 2 2 2 2 2 2 2 2
left_child=4 3 12 5 7 -2 11 -1 -7 17 24 -5 29 21 -8 -9 -12 18 -6 28 -17 -10 -22 -14 -4 -23 -27 -19 -13 -3
right_child=1 2 10 6 9 8 14 15 13 -11 16 19 23 -15 -16 20 -18 27 -20 -21 22 25 -24 -25 -26 26 -28 -29 -30 -31
leaf_value=-0.049846119064932658 0.036674211667262112 0.0052117154866726566 -0.0046223435466582535 0.04653303041156806 -0.059570844078516032 -0.051718223115725853 0.0090214661248537425 -0.039406014588463871 -0.023159240308203669 0.0063387369519779177 -0.055409671281736808 0.021060555626034622 -0.025288185790418083 0.024077720863116603 0.053036260018355812 0.032244731196075786 -0.0098480128865441642 0.042135047745401048 -0.0012531106227855746 0.025404116848891857 -0.022040160945551449 -0.021471672929431473 0.04931000411319042 0.017111002455950961 -0.035621886794566987 -0.0073377481583936713 0.025905290929155996 -0.063534291572498458 -0.015045293280330102 0.037164033946592533
leaf_weight=1249.3927221863996 4038.804051355226 597.99713125766721 1503.1660630612459 3127.1554331183434 492.64820470329869 953.82322141330224 626.83433897054056 398.69880981082679 1400.2479059206235 470.22809954805416 4282.9486553094612 666.51115659157222 702.31995841694879 2367.8566016605764 12860.939263981069 1226.943992514658 513.77683503157459 48.311339057632722 472.79141585103935 3371.8911703602935 625.07899468319374 706.71696060028626 168.64578195524518 801.67130581586389 1036.659509616351 1063.8953496658651 1321.4592952356761 12781.213242835111 1073.3201024080045 3141.949851165642
leaf_count=199371 49619 16207 108297 18015 59608 130835 21982 54973 104357 29229 670333 12443 56821 49252 46132 29869 35599 2127 18828 63039 47259 42044 2912 38931 96682 50597 30031 2477407 44572 29375
internal_value=2.71657e-06 0.0190865 -0.0135457 0.031312 -0.0491167 0.0113581 0.0421977 -0.0119623 -0.00172694 -0.0586721 -0.0390173 0.0278029 0.0220905 0.00522373 0.0509907 0.00760134 -0.0505296 -0.0608881 -0.0310117 0.0163445 0.0168764 -0.00471402 -0.00688011 -0.00268818 -0.0172752 0.00363892 0.0110785 -0.0631364 -0.00121352 0.032055
internal_weight=64093.9 46159.9 12580.5 33579.5 17934 11852.8 21726.7 3668.76 7814 14265.2 7336.55 8238.88 5243.94 6860.18 13487.8 2419.37 4796.73 13795 965.44 5111.72 2020.67 4492.32 793.725 1503.99 2539.83 3092.07 2385.35 12829.5 1739.83 3739.95
internal_count=4636746 1715163 1052245 662918 2921583 456735 206183 334384 407116 2587199 910911 138069 141334 276281 68114 135013 705932 2557970 78436 120054 80040 227029 50171 95752 204979 122672 80628 2479534 57015 45582
is_linear=0
shrinkage=0.05


Tree=10
num_leaves=31
num_cat=0
split_feature=195 189 193 150 193 193 3 139 30 208 38 193 208 6 211 27 27 5 0 158 195 212 27 3 212 179 212 6 180 193
split_gain=22418.6 6682.96 4151.11 2715.83 2307.3 1421.65 1075.02 950.613 941.345 725.493 710.3 605.76 544.829 478.961 462.218 460.201 352.877 323.152 287.677 274.648 274.598 254.933 243.904 241.727 305.984 240.502 211.537 216.593 196.814 195.552
threshold=547570.50000000012 9.5000000000000018 1645.5000000000002 2.5357142857150001 1270.0000000000002 1693.5000000000002 26.500000000000004 1.5000000000000002 0.012077000000000003 1.0000000180025095e-35 0.69047619047650011 1270.0000000000002 1.0000000180025095e-35 1.0000000180025095e-35 1.0000000180025095e-35 1.5000000000000002 2.5000000000000004 26.500000000000004 107047.00000000001 25.500000000000004 569835.50000000012 1.5000000000000002 2.5000000000000004 11.500000000000002 74.500000000000014 8.5357142857150006 1.0000000180025095e-35 1.0000000180025095e-35 0.035330333333350006 24618.000000000004
decision_type=2 2 2 2 2 2 2 2 2 2 2 2 2 2 2 2 2 2 2 2 2 2 2 2 2 2 2 2 2 2
left_child=4 3 14 5 8 -2 11 -7 12 18 17 -5 -1 22 -3 20 -11 19 -4 -6 28 -15 -13 24 -10 -16 -22 -28 -9 -8
right_child=1 2 9 6 10 7 29 15 23 16 -12 13 -14 21 25 -17 -18 -19 -20 -21 26 -23 -24 -25 -26 -27 27 -29 -30 -31
leaf_value=-0.0049741200623170112 0.034633951590757425 0.030499138771879958 0.022131869022019322 0.043655232778417999 -0.0084867254289265892 -0.049510103973971743 0.061066887144482752 -0.0001273686530042001 0.026027448842484154 -0.054265367596185235 0.0036168414965241698 -0.0028862660981380864 -0.057291209346286134 0.0085322037673986294 -0.024618787603534514 0.022304917664528325 -0.010420514848948868 -0.06290915623842111 -0.02353441138260667 -0.05158484969007654 -0.021194340125432195 0.03720716766456042 0.035447830936134794 0.051133128704952804 -0.025694338410938211 0.015746483446994416 -0.0057331900973521983 0.027239690034834608 -0.034011674679239198 0.045638089103546532
leaf_weight=865.37614871613914 4046.5397316783492 3711.6127151316614 411.29403035124415 5882.1751929559978 486.78092411332182 925.48782534213387 4833.89149275003 722.45700851178844 715.71886784117669 4117.8752668576199 459.30522660521092 2067.5972873609571 1171.0567734031647 969.35207652079407 672.40825522548403 2364.9160252349393 516.46417289675446 11329.038556021718 2135.3599946539034 1536.3470669585877 586.36592786856636 3867.9637721824693 519.12509234808385 380.57721132592997 476.21300220733974 817.84265223698458 881.05338984238915 1145.6943226481671 1053.4121350576679 3570.7562016572338
leaf_count=64020 49877 45501 16200 36809 40519 130742 9944 34134 16972 670469 29245 73084 217698 24661 56690 49192 35420 2294882 189348 216915 34456 34891 6425 3315 37177 38993 40645 23839 93709 20527
internal_value=6.34862e-05 0.0184196 -0.0129587 0.0300402 -0.0482173 0.0106503 0.0405125 -0.00198748 -0.0126196 -0.0375981 -0.057519 0.0316701 -0.0350592 0.022174 0.021055 0.00452456 -0.0493792 -0.0596221 -0.0161591 -0.0412151 -0.00505604 0.031461 0.00480694 0.0164403 0.00536302 -0.00246652 0.00525407 0.012906 -0.0202269 0.0545119
internal_weight=63240.1 45819.6 12382.9 33436.8 17420.4 11725.9 21710.9 7679.39 3608.94 7180.99 13811.5 13306.2 2036.43 7424.04 5201.86 6753.9 4634.34 13352.2 2546.65 2023.13 4388.98 4837.32 2586.72 1572.51 1191.93 1490.25 2613.11 2026.75 1775.87 8404.65
internal_count=4636299 1715556 1052621 662935 2920743 456594 206341 406717 339182 911437 2581561 175870 281718 139061 141184 275975 705889 2552316 205548 257434 226783 59552 79509 57464 54149 95683 98940 64484 127843 30471
is_linear=0
shrinkage=0.05


Tree=11
num_leaves=31
num_cat=0
split_feature=172 189 0 210 150 0 27 3 195 210 27 195 212 212 195 138 189 210 195 6 189 188 6 27 189 0 195 212 7 5
split_gain=20789.1 6986.96 4441.3 1958.29 1843.58 1462.97 1084.57 810.063 774.435 652.734 588.891 539.15 470.89 437.624 385.411 377.053 366.891 476.045 346.575 331.207 328.155 322.224 293.092 287.779 283.289 245.011 243.688 218.695 205.521 202.009
threshold=6.5000000000000009 8.5000000000000018 92145.000000000015 1.0000000180025095e-35 2.5357142857150001 63125.000000000007 1.5000000000000002 3.5000000000000004 535799.00000000012 1.5000000000000002 1.5000000000000002 550785.50000000012 1.0000000180025095e-35 1.0000000180025095e-35 525138.50000000012 5.5000000000000009 5.5000000000000009 19.500000000000004 547180.50000000012 1.0000000180025095e-35 9.5000000000000018 4.5000000000000009 1.0000000180025095e-35 1.5000000000000002 10.500000000000002 9488.5000000000018 567617.50000000012 83.500000000000014 558.50000000000011 21.500000000000004
decision_type=2 2 2 2 2 2 2 2 2 2 2 2 2 2 2 2 2 2 2 2 2 2 2 2 2 2 2 2 2 2
left_child=1 4 6 5 8 14 9 23 -1 28 21 -5 29 -9 -2 -13 -14 -18 -7 -11 -17 -4 -19 -6 -12 -8 -23 -16 -3 -10
right_child=3 2 10 11 7 18 25 13 12 19 24 15 16 -15 27 20 17 22 -20 -21 -22 26 -24 -25 -26 -27 -28 -29 -30 -31
leaf_value=-0.039839389738644503 -0.033673113964307597 -0.025875546964691687 0.0082854745808452913 -0.063029351308034498 0.014081577326761902 -0.053027962875580974 0.042276401818039107 0.0080028011903423013 0.0073216390853668477 -0.0493573222569271 -0.00026946798895143828 -0.056586095841346808 0.038349966841201545 0.050783763821617728 0.034217667033217568 -0.0049219305300251389 0.030221008167400094 -0.022248663551596406 -0.019106183614924374 -0.0037120274766834203 -0.046894475503095945 -0.058877898538295337 0.014623554411275948 0.035942695297998976 -0.030527367972402405 0.018909663641781028 -0.035865720581521841 -0.010545474035536262 0.021435164401288186 -0.037016993282586355
leaf_weight=618.14291370706633 345.22143087284348 262.01642143592471 267.51464966905769 8894.9080150473819 2561.6545966539998 2040.6917665512665 2964.9100633648923 627.18695596547332 553.78172340721358 805.27316235311446 1371.4262072342972 1800.9562847232955 2481.5359993237653 12748.422738437424 1262.614755220362 996.5844531544426 2299.2096252476913 1003.0982671847742 1193.2629579122731 784.66376249550376 874.15425024103024 2468.8965588321153 1164.7419917258667 3650.9805499075155 1774.4215123824688 1804.675141355634 2154.2334038599438 348.08041617182607 1852.5750106535852 479.16773052222561
leaf_count=88854 48106 15096 10705 1934770 59116 336669 25955 21593 18361 108087 62689 275774 28573 46175 20416 70321 34054 56294 102859 52748 121351 441395 28026 38667 204544 45772 248346 22693 31372 36918
internal_value=6.45429e-05 0.0182463 -0.0075833 -0.0457045 0.0333756 -0.0198664 0.0176707 0.0418481 0.0140769 -0.00262608 -0.0342124 -0.0563754 0.0182526 0.0487777 0.0142687 -0.0402559 0.0229351 0.0143718 -0.0405115 -0.0268305 -0.0245348 -0.0450677 -0.00243788 0.0269287 -0.0173365 0.0334351 -0.0481549 0.0245441 0.015573 -0.0132463
internal_weight=62455 44698.5 16510.6 17756.5 28187.9 5189.87 8474.11 19588.2 8599.68 3704.53 8036.49 12566.6 7981.54 13375.6 1955.92 3671.69 6948.59 4467.05 3233.95 1589.94 1870.74 4890.64 2167.84 6212.64 3145.85 4769.59 4623.13 1610.7 2114.59 1032.95
internal_count=4636299 1703340 1246709 2932959 456631 530743 279030 165551 291080 207303 967679 2402216 202226 67768 91215 467446 146947 118374 439528 160835 191672 700446 84320 97783 267233 71727 689741 43109 46468 55279
is_linear=0
shrinkage=0.05


Tree=12
num_leaves=31
num_cat=0
split_feature=195 189 0 172 0 6 30 138 138 149 125 0 188 0 210 195 172 210 6 27 207 211 0 210 139 27 189 195 211 5
split_gain=19292.6 5729.67 4398.67 2008.28 1838.63 1075.21 966.154 861.835 693.916 644.047 603.985 454.937 390.962 353.54 342.944 340.521 318.931 316.385 320.493 299.904 298.88 258.315 248.135 230.351 228.658 222.354 207.658 200.821 198.122 182.256
threshold=547570.50000000012 8.5000000000000018 77035.000000000015 2.5000000000000004 8784.0000000000018 2.5000000000000004 0.0084215000000000002 5.5000000000000009 10.500000000000002 1.5000000000000002 1.5357142857150003 13327.500000000002 4.5000000000000009 3655.5000000000005 14.500000000000002 520623.50000000006 8.5000000000000018 1.0000000180025095e-35 1.0000000180025095e-35 1.5000000000000002 1.0000000180025095e-35 1.5000000000000002 999987.50000000012 1.5000000000000002 6.5000000000000009 2.5000000000000004 7.5000000000000009 628884.50000000012 11.500000000000002 56.500000000000007
decision_type=2 2 2 2 2 2 2 2 2 2 2 2 2 2 2 2 2 2 2 2 2 2 2 2 2 2 2 2 2 2
left_child=4 3 8 5 6 11 14 16 23 12 27 -2 15 -9 -1 -6 -5 -10 -19 -13 21 29 -7 -3 -14 -23 -26 -4 -15 -12
right_child=1 2 10 7 9 22 -8 13 17 -11 20 19 24 28 -16 -17 -18 18 -20 -21 -22 25 -24 -25 26 -27 -28 -29 -30 -31
leaf_value=-0.0065450776657502074 0.039690848693634678 0.0086332954535265089 -0.05229925424733476 0.0010354369270585255 -0.051216253039739583 0.052838670830318048 0.024598553368060688 0.040534924749629109 0.035771454110171158 0.010386085005645501 0.020329743282288537 0.0037055745612795416 -0.059886737576327967 0.01554510868330769 -0.056818013272810081 0.0072281866189235246 -0.041801989528319206 -0.013765713223046741 0.028613393551554702 0.027170084913229565 -0.037038514836068029 -0.034166063835669655 0.038230006684389056 -0.028833770333170805 -0.0013423091830113429 0.0074335398085537052 -0.048195058688514376 -0.028359602044415233 -0.01337812161120952 -0.016180215534301306
leaf_weight=577.53272127205855 3220.9368825191632 926.66151542769512 2831.0498660466619 783.635125012137 555.68735278517124 8154.6764690072741 1235.1632286623353 1281.4896669864538 4352.9616295865271 387.65136567708396 868.22209867596393 2599.7861101911403 11054.889357482629 3330.6508075702586 822.13678564630391 451.91457863606047 975.23789268119435 762.46284108315012 1075.2786848741816 2859.6029497896088 1460.4176632710005 1206.5482862513745 4516.7557346468675 736.11077611999644 291.64056053277454 437.77107928119949 1250.6629649199313 1268.5535066895245 720.08369465907163 563.7851834120811
leaf_count=42978 22924 22397 468897 27850 64017 26963 35647 8149 35335 25636 38118 79416 2370556 96795 171441 16616 135752 53725 31677 40769 149469 136025 39813 73453 20870 22718 172982 118478 40350 46483
internal_value=6.60284e-05 0.0170933 -0.00635609 0.0306882 -0.0459477 0.0383448 -0.00763196 0.00763374 0.0207244 -0.0531627 -0.0309818 0.0247884 -0.0549734 0.017645 -0.0360744 -0.0250036 -0.0227165 0.028427 0.0110307 0.0159962 -0.0184123 -0.00956994 0.0476314 -0.00795341 -0.0573706 -0.0230909 -0.0393355 -0.0448915 0.0104035 0.00595567
internal_weight=61560 44932.7 16489.8 28442.9 16627.3 21351.8 2634.83 7091.1 7853.48 13992.4 8636.35 8680.33 13604.8 5332.22 1399.67 1007.6 1758.87 6190.7 1837.74 5459.39 4536.74 3076.33 12671.4 1662.77 12597.2 1644.32 1542.3 4099.6 4050.73 1432.01
internal_count=4636299 1715556 1196775 518781 2920743 209885 250066 308896 216587 2670677 980188 143109 2645041 145294 214419 80633 163602 120737 85402 120185 392813 243344 66776 95850 2564408 158743 193852 587375 137145 84601
is_linear=0
shrinkage=0.05


Tree=13
num_leaves=31
num_cat=0
split_feature=195 172 3 31 207 138 27 212 208 3 208 208 6 213 6 211 208 123 212 211 6 134 180 66 172 212 195 3 6 207
split_gain=17969.7 4957.63 3096.91 1500.22 1457.21 1416.49 1014.46 775.121 682.812 671.756 576.137 554.59 616.356 439.153 414.869 347.86 330.839 325.504 307.314 299.046 387.048 248.508 242.841 236.494 223.985 197.67 192.409 190.689 183.659 166.932
threshold=547180.50000000012 3.5000000000000004 5.5000000000000009 0.020708500000000005 1.0000000180025095e-35 8.5000000000000018 1.5000000000000002 1.0000000180025095e-35 1.0000000180025095e-35 24.500000000000004 1.0000000180025095e-35 1.0000000180025095e-35 1.0000000180025095e-35 1.0000000180025095e-35 1.0000000180025095e-35 1.0000000180025095e-35 1.0000000180025095e-35 1.3095238095200001 1.0000000180025095e-35 1.0000000180025095e-35 1.0000000180025095e-35 11.816666666650002 0.017518850000000002 0.70833333333350013 7.5000000000000009 86.500000000000014 518140.50000000006 75.500000000000014 1.0000000180025095e-35 1.0000000180025095e-35
decision_type=2 2 2 2 2 2 2 2 2 2 2 2 2 2 2 2 2 2 2 2 2 2 2 2 2 2 2 2 2 2
left_child=3 2 4 10 6 15 11 -4 25 13 17 -2 -13 -5 -10 -3 -6 -1 -16 -8 -21 27 -15 -12 28 -7 -19 -9 -17 -28
right_child=1 5 7 9 16 8 19 21 14 -11 23 12 -14 22 18 24 -18 26 -20 20 -22 -23 -24 -25 -26 -27 29 -29 -30 -31
leaf_value=-0.046693201659313732 0.019876656027357845 -0.015090386465936282 -0.0036943651397362666 0.012335383330049932 -0.0019967407485035928 0.030204006231717206 0.0377950795600136 0.044219514724163675 -0.03136287561037044 0.036860704368484994 -0.060350716762927317 -0.028952338546996206 0.010150106234775863 -0.0028925279924735085 -0.042489838515968326 -0.04720969802174859 -0.03739049948105936 -0.049878973547047838 0.012528719085308018 0.0035548604985926671 0.033320620200144778 0.029757372364228481 -0.044279174424426124 0.04176925474493437 -0.051720940889011316 0.0035839143985158164 0.0080178433421396345 0.057379504345915135 -0.002020780802098505 -0.044434631906347
leaf_weight=2404.9485564153001 3326.1464860293199 1766.5386659125797 801.12468676595017 612.91757562069688 1216.5365858227015 1904.3310000881465 5035.3954741358175 6590.040437405929 1548.0766474064003 521.92564881159342 9108.9200231403884 1850.3855736238838 2213.0953897899599 447.82556205094443 302.80487847669428 405.37158100232773 1443.8518845160652 293.66328410853748 1568.5174159120361 1980.5813004925731 2434.5853052371531 1808.7992262196349 1699.6837304604705 57.049234252772294 2157.0520499756021 1100.2969662153628 705.44180841688649 4727.2775324107497 504.90263025046443 193.23697920193081
leaf_count=373982 70906 140242 40020 32845 52118 32732 55163 35976 172222 14338 2053039 171558 76626 34702 32577 55489 144728 41341 75037 81641 46142 22193 265142 1852 341268 50896 50101 12271 24519 34633
internal_value=8.10812e-05 0.0163789 0.0260438 -0.0453069 0.0131823 -0.0123189 0.0186149 0.044052 0.00306584 -0.0151589 -0.0530601 0.00473675 -0.00765596 -0.0249945 -0.0122146 -0.0327647 -0.0212057 -0.0361029 0.00362598 0.0294666 0.0199681 0.0469661 -0.0356487 -0.0597151 -0.0429438 0.0204557 -0.0147423 0.0497165 -0.0221447 -0.00326067
internal_weight=60731.3 44685.7 33427.8 16045.6 19500.6 11257.9 16840.2 13927.2 6424.03 3282.35 12763.3 7389.63 4063.48 2760.43 3419.4 4833.86 2660.39 3597.29 1871.32 9450.56 4415.17 13126.1 2147.51 9165.97 3067.33 3004.63 1192.34 11317.3 910.274 898.679
internal_count=4636299 1734324 809342 2901975 698882 924982 502036 110460 363464 347027 2554948 319090 248184 332689 279836 561518 196846 500057 107614 182946 127783 70440 299844 2054891 421276 83628 126075 48247 80008 84734
is_linear=0
shrinkage=0.05


Tree=14
num_leaves=31
num_cat=0
split_feature=172 189 0 184 193 210 3 27 189 210 195 193 125 193 7 6 41 193 193 27 8 5 58 190 210 195 59 193 40 0
split_gain=16920 5580.15 2685.05 2176.09 1789.06 938.674 864.468 717.445 716.142 777.722 689.901 538.747 426.585 385.924 370.628 329.264 325.518 323.575 290.239 289.507 274.116 272.148 253.308 252.322 209.701 205.895 195.495 176.563 171.96 164.709
threshold=6.5000000000000009 9.5000000000000018 105101.50000000001 3.5000000000000004 1197.5000000000002 17.500000000000004 12.500000000000002 1.5000000000000002 5.5000000000000009 19.500000000000004 551201.50000000012 2847.5000000000005 1.4642857142850001 24618.000000000004 568.50000000000011 1.0000000180025095e-35 1.5000000000000002 196.50000000000003 97901.500000000015 1.5000000000000002 0.54673550000000015 60.500000000000007 0.042568000000000009 1.5000000000000002 1.0000000180025095e-35 555991.00000000012 0.06377300000000001 219.50000000000003 1.5000000000000002 8784.0000000000018
decision_type=2 2 2 2 2 2 2 2 2 2 2 2 2 2 2 2 2 2 2 2 2 2 2 2 2 2 2 2 2 2
left_child=1 3 7 8 5 20 11 14 13 17 -6 -5 -12 -1 -3 -11 24 -10 -8 26 -2 -14 27 -13 -4 -7 -15 -16 -17 -9
right_child=4 2 16 6 10 25 18 29 9 15 12 23 21 19 22 28 -18 -19 -20 -21 -22 -23 -24 -25 -26 -27 -28 -29 -30 -31
leaf_value=0.044270770040664063 -0.03361541683441565 -0.03743778990600085 -0.028175210777848222 0.038198900641537387 -0.057874316507724399 -0.053839735109990287 0.053683397017500904 0.034985588628571034 0.036966306797024444 -0.03226131785004531 -0.04957948725324534 0.025270430168276486 -0.003152175988303885 -0.016289638667874515 0.030807316612152327 -0.0092848539545141509 -0.016337315851143973 0.0050677302937762484 0.034783016719464856 0.031161395700523283 0.023360448593749566 -0.039221823118262382 -0.038895417863703263 0.0027121218445847108 -0.051643843987461246 -0.0056733044045991195 0.025073772212631636 -0.00264311498387482 0.030930880931209492 0.012876117467714433
leaf_weight=1712.1125512970029 244.83111840421407 799.29579398690839 1412.5793206248782 5553.1160719105974 9435.5525657165526 893.83502716530347 6840.0511605445063 1964.0593305302318 1237.1958554092562 1755.3310040123179 2125.2368622274225 2907.8615009568166 1268.5928131449109 879.76242884696694 658.30009916983545 1306.8875362154213 1411.0759477775864 2224.3717656970548 2889.1731791242491 1202.6118058807333 1532.3449789683218 889.72216585191927 304.40484986669617 2160.6842113881721 2918.2813369909854 295.12629466858925 423.00282320054248 984.38899570892681 333.68097773467889 1474.959181804501
leaf_count=16931 33609 97851 146310 45079 2119440 196785 18337 21122 8112 139034 331640 52794 78993 56557 11854 65036 143502 79047 26894 15002 37536 112286 25721 69624 549741 22670 7383 55994 6008 45407
internal_value=7.91677e-05 0.0165461 -0.0125714 0.0275973 -0.0427067 -0.00749528 0.0373034 0.0102855 0.00976179 -0.000209323 -0.0503196 0.0274407 -0.0336785 0.0259744 -0.00876977 -0.0172097 -0.0371938 0.0164686 0.0480708 0.0134712 0.0155112 -0.0180212 0.00299865 0.015654 -0.0439892 -0.0418838 -0.0028591 0.010762 -0.00110523 0.0255031
internal_weight=60038.4 43353.2 11927.3 31425.8 16685.2 2966.14 20350.9 6185.41 11075 6857.47 13719.1 10621.7 4283.55 4217.49 2746.39 3395.9 5741.94 3461.57 9729.22 2505.38 1777.18 2158.31 1947.09 5068.55 4330.86 1188.96 1302.77 1642.69 1640.57 3439.02
internal_count=4636299 1703340 1097502 605838 2932959 290600 212728 257949 393110 297237 2642359 167497 522919 95873 191420 210078 839553 87159 45231 78942 71145 191279 93569 122418 696051 219455 63940 67848 71044 66529
is_linear=0
shrinkage=0.05


Tree=15
num_leaves=31
num_cat=0
split_feature=195 189 193 212 193 3 195 0 210 27 193 38 139 38 138 125 139 5 70 195 207 144 189 189 206 124 193 137 208 206
split_gain=15617.7 4833.93 3562.73 2096.04 1818.21 1507.63 751.01 663.624 608.189 519.855 463.677 455.354 432.35 415.682 329.285 329.005 302.423 272.626 271.928 270.49 263.742 236.169 221.356 201.317 199.619 180.72 173.918 164.596 149.384 147.66
threshold=547180.50000000012 8.5000000000000018 1732.0000000000002 1.0000000180025095e-35 1645.5000000000002 1.0000000180025095e-35 526879.50000000012 10025.500000000002 1.0000000180025095e-35 1.5000000000000002 219.50000000000003 0.77500000000000013 3.5000000000000004 0.73214285714300009 16.500000000000004 1.5357142857150003 2.5000000000000004 34.500000000000007 0.069079500000000016 579368.50000000012 1.0000000180025095e-35 57.500000000000007 9.5000000000000018 11.500000000000002 2.5000000000000004 3.9285714285700002 17487.500000000004 5.5000000000000009 1.0000000180025095e-35 2.5000000000000004
decision_type=2 2 2 2 2 2 2 2 2 2 2 2 2 2 2 2 2 2 2 2 2 2 2 2 2 2 2 2 2 2
left_child=4 3 10 12 6 7 28 -5 20 -10 -3 17 -2 18 -12 19 -8 21 26 -9 25 -6 -18 -11 -14 -4 -7 -15 -1 -17
right_child=1 2 8 5 11 13 16 15 9 23 14 -13 24 27 -16 29 22 -19 -20 -21 -22 -23 -24 -25 -26 -27 -28 -29 -30 -31
leaf_value=-0.021900402863593533 -0.04074557218478031 0.031045021119603378 -0.01864479579141862 0.033975291050163274 -0.01526262465990174 0.033103545108761623 -0.036392239017793378 -0.035484289306285818 -0.047097401503090212 -0.0024999621603937865 -0.015862874658388287 0.0045154059788208335 -0.059627800220811246 0.041742240239431773 0.018013374491815053 -0.024944301748342848 0.02653203310062607 -0.058155503531036927 0.051732086487717634 0.002610205074041277 -0.02817413905176936 -0.050448044594169877 -0.0073326795607854007 -0.033384428389823077 0.0052557060116366723 0.013544964064006982 0.0097545681796315838 0.054133314155120772 -0.05763234742144703 0.019729416127244135
leaf_weight=477.01677642481809 930.85085147250356 4084.1223469242395 669.01403804225265 3710.9326014378166 730.28233263723087 1702.9591453279572 381.94646241359442 610.78467231127433 3928.7039325287551 1170.0686448149791 1148.1033567687264 336.4500916407851 127.09520389040699 5430.9536456138594 1911.8608437678777 196.11066974746063 1140.7576554194675 9361.7542100346145 1027.3080169900786 1965.4972213530564 1122.1985677015109 1374.584117464412 836.30322532574064 961.00872369931312 1761.5483408118016 1252.0185720902518 1500.0325326787279 5291.0643586812075 756.19597077526851 3255.6507280303922
leaf_count=51498 107391 55213 54318 29159 79535 25010 64536 55121 635260 68140 66680 21922 7337 28793 47957 7418 32199 2178632 3909 67249 99887 241494 63936 121735 55447 59918 50847 14754 169733 72136
internal_value=-2.45695e-05 0.0152144 -0.00641057 0.0279855 -0.0433381 0.0326492 -0.0121913 0.0173404 -0.0271527 -0.0363115 0.0200191 -0.0528176 -0.0128563 0.0426204 0.00530295 0.00709971 0.00433843 -0.0544998 0.029348 -0.00642123 -0.00891554 -0.0382405 0.0122071 -0.0164273 0.000889407 0.00233464 0.0221687 0.0478569 -0.0438109 0.0171913
internal_weight=59153.2 43757.9 16247.1 27510.8 15395.3 24691.3 3592.22 9738.98 9103.01 6059.78 7144.09 11803.1 2819.49 14952.3 3059.96 6028.04 2359.01 11466.6 4230.3 2576.28 3043.23 2104.87 1977.06 2131.08 1888.64 1921.03 3202.99 10722 1233.21 3451.76
internal_count=4637164 1733679 1209108 524571 2903485 354396 381902 231083 1039258 825135 169850 2521583 170175 123313 114637 201924 160671 2499661 79766 122370 214123 321029 96135 189875 62784 114236 75857 43547 221231 79554
is_linear=0
shrinkage=0.05


Tree=16
num_leaves=31
num_cat=0
split_feature=172 189 0 193 184 210 27 3 195 184 195 210 125 193 24 210 6 125 190 193 5 8 5 189 195 154 212 212 138 212
split_gain=14790.2 4842.58 2971.61 1543.54 1480 776.755 768.277 761.439 658.303 491.089 450.557 431.868 397.292 368.372 328.871 376.849 292.877 287.437 281.529 262.79 235.51 229.004 215.465 201.314 192.937 187.755 180.128 176.378 171.794 170.827
threshold=6.5000000000000009 8.5000000000000018 105101.50000000001 1197.5000000000002 2.5000000000000004 17.500000000000004 1.5000000000000002 17.500000000000004 551201.50000000012 2.5000000000000004 533675.50000000012 1.0000000180025095e-35 1.4642857142850001 1311.5000000000002 0.77500000000000013 25.500000000000004 1.0000000180025095e-35 2.3666666666650005 1.5000000000000002 97901.500000000015 60.500000000000007 0.54160350000000002 58.500000000000007 4.5000000000000009 555991.00000000012 1.1048290000000003 1.5000000000000002 84.500000000000014 10.500000000000002 1.0000000180025095e-35
decision_type=2 2 2 2 2 2 2 2 2 2 2 2 2 2 2 2 2 2 2 2 2 2 2 2 2 2 2 2 2 2
left_child=1 4 6 5 10 21 11 13 -5 22 -1 -3 -10 -6 29 -16 -13 -11 26 -9 -14 -2 -4 -17 -7 27 -15 -8 -20 -12
right_child=3 2 9 8 7 24 25 19 12 17 14 16 20 18 15 23 -18 -19 28 -21 -22 -23 -24 -25 -26 -27 -28 -29 -30 -31
leaf_value=-0.03749819179750085 -0.038692858690470441 0.011877464666991617 -0.028182911389707507 -0.056163634379055263 0.036650749263277209 -0.052049464522393001 0.027191731029949092 0.051151247304396345 -0.047951546494296102 -0.023655941927800121 -0.0045196168901007706 -0.044318732159052271 -0.0035014253349508599 0.0073306775809856665 0.017101079071664006 0.012947595770012569 -0.0016726363601198236 0.011790750015076928 -0.019035727277947282 0.032875531060889168 -0.037187213896980841 0.01947035737673164 -0.05212955942057778 -0.023312907048680241 -0.0058853992293491815 0.037591716133379416 0.032088309527321862 -0.00078478350768868747 0.012352287342205703 0.034637116289591229
leaf_weight=499.73402285104385 190.04462973447517 2004.0080847223289 1608.7062749697652 8843.3157846299146 4626.8553402599646 850.42755969756399 1646.7323677036911 6516.1294314548722 2032.7233150992251 2721.4901372927707 332.51156969723525 801.43649094327702 1282.2007630706066 983.37215065141208 2376.7637519490672 536.94678399903933 808.97297071010689 724.07942081976216 618.25135545962257 2817.4769070185139 871.56133681093343 1545.4279522812285 2257.6053281034401 1333.1576481738884 308.4149935018504 2221.1641380781657 2905.1804044384044 856.34189907083055 1478.2796459147357 1715.9578657271923
leaf_count=78091 28958 48853 179331 2119685 31689 197000 21967 18923 331242 338218 13840 117784 78856 25843 50503 14678 55192 38436 24349 27680 112223 42066 391565 77407 22741 25273 35772 30481 36505 22013
internal_value=-9.89113e-06 0.0154233 -0.0066665 -0.0410942 0.0283518 -0.00806504 0.0137353 0.0352176 -0.0484309 -0.0299332 0.00819881 -0.00361586 -0.0320968 0.0260556 0.0118263 0.00388936 -0.0228959 -0.0162069 0.0178648 0.0456345 -0.017133 0.0131011 -0.0421658 -0.0129017 -0.0397633 0.0270102 0.0258274 0.0176205 0.0030962 0.0282811
internal_weight=58315.3 42391.2 15650.5 15924.1 26740.6 2894.32 8338.66 19945.5 13029.8 7311.88 6795.07 3614.42 4186.49 10611.9 6295.34 4246.87 1610.41 3445.57 5985.08 9333.61 2153.76 1735.47 3866.31 1870.1 1158.84 4724.24 3888.55 2503.07 2096.53 2048.47
internal_count=4637164 1704393 1247100 2932771 457293 290765 299550 200761 2642006 947550 256532 221829 522321 154158 178441 142588 172976 376654 122469 46603 191079 71024 570896 92085 219741 77721 61615 52448 60854 35853
is_linear=0
shrinkage=0.05


Tree=17
num_leaves=31
num_cat=0
split_feature=172 184 195 3 0 189 0 0 125 181 212 210 5 0 24 210 207 189 64 195 172 208 10 6 189 210 0 212 212 126
split_gain=13809.3 3900.82 2271.88 1821.28 1334.27 1250.5 1029.72 750.819 553.135 550.902 534.912 491.836 421.325 400.04 379.535 374.872 298.292 254.914 250.639 249.559 225.95 212.979 188.117 173.889 160.636 171.252 159.541 153.419 146.378 143.448
threshold=4.5000000000000009 2.5000000000000004 547180.50000000012 3.5000000000000004 9488.5000000000018 8.5000000000000018 13327.500000000002 9488.5000000000018 1.3666666666650003 5.5000000000000009 1.0000000180025095e-35 1.0000000180025095e-35 60.500000000000007 63125.000000000007 0.95000000000000007 25.500000000000004 1.0000000180025095e-35 7.5000000000000009 1.0000000180025095e-35 553081.50000000012 1.5000000000000002 1.0000000180025095e-35 2.5000000000000004 1.0000000180025095e-35 9.5000000000000018 1.0000000180025095e-35 53295.500000000007 83.500000000000014 1.0000000180025095e-35 0.46265587500000005
decision_type=2 2 2 2 2 2 2 2 2 2 2 2 2 2 2 2 2 2 2 2 2 2 2 2 2 2 2 2 2 2
left_child=1 5 11 6 27 14 18 21 17 -6 -5 13 24 22 28 26 -10 -8 -3 -9 -12 -7 -2 -17 -11 -26 -16 -4 -1 -19
right_child=2 3 4 10 9 7 8 19 16 12 20 -13 -14 -15 15 23 -18 29 -20 -21 -22 -23 -24 -25 25 -27 -28 -29 -30 -31
leaf_value=-0.0049700344180717195 -0.031484635488350635 -0.0099195778025665364 0.028674868040133996 -0.0012667744602370553 -0.044621036982906252 0.022922221533898141 0.0060688247398694023 -0.046605615935677289 0.018584260555334825 0.011394359538900112 0.04751448603385168 -0.057356362012839938 -0.03192155331689879 -0.046228986505769377 0.031527493253137272 -0.03699265425376673 -0.01398946134926296 -0.036437186891312104 0.034588206089431223 -0.022548782562529832 0.032175092599130505 -0.023984948714114464 0.013437433051379 -0.0050698530824866235 0.0044925822949277152 -0.038799102553518587 0.003363272283328265 -0.0071758595401877614 0.032272254961255346 -0.00886864755734308
leaf_weight=312.60725513061334 416.85982059304661 336.97337368837907 1492.1703133124829 706.9398903817164 2546.4473410195205 896.52335878541999 1095.4605635846965 2064.696950211357 4581.7445952859271 1280.0053893152799 9071.6413351717638 7543.7538194407862 1963.533708651652 1884.0454992085179 807.70672380271935 674.64358014024765 830.17055747510312 1061.6277845121804 5158.9440725658387 2255.94404351087 3264.6217315584654 331.45767763112963 528.52861502706219 1160.2146376383571 481.89805067321868 434.32019687906723 1332.1063229188294 373.01438994676573 1691.2972568298901 849.36659810823039
leaf_count=15165 53279 11984 22251 34213 400525 10773 30231 351951 154808 47321 42371 1962205 243347 356665 7303 59678 65035 132844 51558 190881 34192 31276 24834 61332 21849 57248 48116 19553 26554 67822
internal_value=-3.75407e-06 0.0171986 -0.0349492 0.027608 -0.0159011 -0.00714488 0.0150251 -0.0242393 0.00403491 -0.0263048 0.0410312 -0.0506886 -0.0150923 -0.0329112 0.00872023 -0.000224866 0.0135876 -0.0131608 0.0318593 -0.0340448 0.0434551 0.010261 -0.00637052 -0.0168073 -4.61818e-05 -0.0160292 0.0139943 0.0215052 0.0264625 -0.024184
internal_weight=57429.3 38484.7 18944.6 26957.5 8571.39 11527.2 13914.3 5548.62 8418.37 6706.2 13043.2 10373.2 4159.76 2829.43 5978.58 3974.67 5411.92 3006.45 5495.92 4320.64 12336.3 1227.98 945.388 1834.86 2196.22 916.218 2139.81 1865.18 2003.9 1910.99
internal_count=4637164 1428087 3209077 625058 812094 803029 514282 584881 450740 770290 110776 2396983 369765 434778 218148 176429 219843 230897 63542 542832 76563 42049 78113 121010 126418 79097 55419 41804 41719 200666
is_linear=0
shrinkage=0.05


Tree=18
num_leaves=31
num_cat=0
split_feature=172 184 3 189 193 193 210 210 189 193 38 140 193 210 203 55 125 0 210 64 140 8 8 140 125 189 189 140 212 212
split_gain=12937.9 4173.3 1906.87 1419.5 1411.77 1188.76 657.782 649.488 565.045 454.652 446.959 441.795 436.762 400.264 346.698 314.433 303.371 297.841 253.776 249.023 220.249 219.034 215.798 178.811 178.235 170.085 154.867 139.558 139.109 127.602
threshold=6.5000000000000009 2.5000000000000004 6.5000000000000009 9.5000000000000018 1197.5000000000002 1270.0000000000002 1.0000000180025095e-35 17.500000000000004 11.500000000000002 1065.5000000000002 0.69047619047650011 0.35038400000000008 90845.500000000015 54.500000000000007 1.0000000180025095e-35 1.5000000000000002 1.3666666666650003 7955.5000000000009 1.0000000180025095e-35 1.0000000180025095e-35 0.24328100000000003 0.53253600000000012 0.54945750000000004 0.66520150000000011 2.4500000000000006 6.5000000000000009 7.5000000000000009 1.1876595000000003 1.5000000000000002 1.0000000180025095e-35
decision_type=2 2 2 2 2 2 2 2 2 2 2 2 2 2 2 2 2 2 2 2 2 2 2 2 2 2 2 2 2 2
left_child=1 3 5 9 7 19 17 20 16 -1 15 -6 -4 21 -14 22 25 -5 -10 -3 -2 -13 -11 -9 -23 -7 28 -27 -24 -16
right_child=4 2 12 6 11 8 -8 23 18 10 -12 13 14 -15 29 -17 -18 -19 -20 -21 -22 24 26 -25 -26 27 -28 -29 -30 -31
leaf_value=0.022504976796954641 -0.024978695558479022 -0.0068134132032553795 0.047280714589959361 0.018540392717959105 -0.054626120435726955 0.013277738267472097 -0.045099331532635317 -0.048905517617495745 0.00063651736808986573 -0.047309820909606101 0.02492827911204086 -0.057914992360968788 -0.016147313604717495 -0.052369184749002477 0.0080059256970554851 0.025525298983458278 0.017461950780337712 -0.021077502626072272 -0.034610905642512999 0.030943660346753388 0.020193741435083384 -0.02703167636888237 -0.021667721856705291 -0.0017804776547966101 0.0015876103904332917 -0.032128187806424416 -0.025111091731677207 -0.0026977013452607465 0.0054687115268822334 0.035950626243678251
leaf_weight=2404.2468115891024 334.71935048965315 464.66713941283524 7972.0350850265822 681.64314155466855 7369.3610362479958 909.1325475811027 2898.4582836060508 841.62944498854631 847.8059150017616 469.09074973541647 1105.4339817736764 397.72639364027782 420.45908797152151 2026.2993187788452 475.66145107428383 530.50917572529215 4096.620190578411 1560.3058788910057 1284.1698163841465 7255.4104177963454 1392.1400847010082 1721.0757641885648 690.52028034338946 264.57130871525442 795.46166226400237 633.22074250219157 1261.5035274644906 1107.0124204949243 1494.2046329339464 2893.5061541104224
leaf_count=46210 35316 17797 33815 9112 1873754 19766 506073 192756 56708 88511 21969 69410 24403 432955 16587 11634 117717 125273 212716 84673 35708 209946 38098 26985 55941 61637 88751 60532 46728 15683
internal_value=7.14224e-06 0.0144553 0.0252357 -0.00889005 -0.0395464 0.0143217 -0.0293689 -0.007723 0.00184377 0.00434222 -0.00352406 -0.0468703 0.0406376 -0.0353018 0.0266628 -0.0105986 0.00893503 -0.00903206 -0.0205943 0.0286711 0.0114379 -0.0234347 -0.0154932 -0.0376346 -0.0179853 -0.00424985 -0.0111625 -0.0134066 -0.00310823 0.0320054
internal_weight=56598.6 41455.6 28359.7 13095.9 15143 16598 5140.41 2833.06 8877.96 7955.51 5551.26 12309.9 11761.7 4940.56 3789.63 4445.83 6745.99 2241.95 2131.98 7720.08 1726.86 2914.26 3915.32 1106.2 2516.54 2649.37 3446.23 1740.23 2184.72 3369.17
internal_count=4637164 1704393 722034 982359 2932771 631546 640458 290765 529076 341901 295691 2642006 90488 768252 56673 273722 259652 134385 269424 102470 71024 335297 262088 219741 265887 141935 173577 122169 84826 32270
is_linear=0
shrinkage=0.05


Tree=19
num_leaves=31
num_cat=0
split_feature=150 173 6 0 189 210 189 210 212 0 210 27 6 6 212 41 189 0 210 32 212 140 154 134 8 0 0 210 70 125
split_gain=11850.3 2644.97 2584.3 1601.26 1230.36 916.421 746.179 550.152 530.191 521.724 509.965 424.641 367.28 342.668 297.707 287.63 272.113 252.617 250.474 249.329 244.12 216.116 197.57 194.961 192.029 185.926 176.172 171.375 169.794 189.22
threshold=2.0714285714300007 14.500000000000002 2.5000000000000004 13327.500000000002 10.500000000000002 1.0000000180025095e-35 11.500000000000002 25.500000000000004 1.0000000180025095e-35 64670.000000000007 1.0000000180025095e-35 2.5000000000000004 1.0000000180025095e-35 1.0000000180025095e-35 1.0000000180025095e-35 1.5000000000000002 10.500000000000002 3655.5000000000005 1.0000000180025095e-35 4.5000000000000009 1.0000000180025095e-35 0.25972650000000003 0.51698150000000009 11.816666666650002 0.53044650000000015 968312.00000000012 7955.5000000000009 1.0000000180025095e-35 0.16840550000000001 1.4142857142850003
decision_type=2 2 2 2 2 2 2 2 2 2 2 2 2 2 2 2 2 2 2 2 2 2 2 2 2 2 2 2 2 2
left_child=1 4 3 19 7 9 11 17 -4 21 26 13 -9 18 -14 -8 28 -1 -5 -2 -15 -3 -11 -16 -24 -18 -6 -17 29 -10
right_child=2 5 8 6 10 -7 15 12 16 22 -12 -13 14 20 23 27 25 -19 -20 -21 -22 -23 24 -25 -26 -27 -28 -29 -30 -31
leaf_value=0.031714200971577615 0.031416100916173133 -0.029828318807620897 -0.0026573261278905747 0.0075978489908181263 0.018203416440269352 -0.050844845264906069 -0.037279799088570598 -0.032138472282911355 0.031651644801881193 -0.046714446697601601 -0.046901590961690422 0.028863821485200131 -0.049524444366000495 -0.021514801612048842 0.022864870428157522 0.01068851676337618 0.021323868559412307 0.0058082871639307376 -0.01942728456994287 0.003631351375679469 0.020360640166198343 0.015449720972802214 -0.058003404030928699 -0.0085892887055322911 -0.0040052364510927045 -0.053877458763356527 -0.019819788670137915 -0.022145602190398885 0.055111283283001071 0.045703059565864186
leaf_weight=1313.2154833230306 5896.0621710536507 357.98009910909605 757.85392286391289 1315.277570109989 392.20920626213774 8713.7558805460721 1707.2723166811265 1467.1726502422243 4512.1569107815158 1465.2946337320172 2362.9319266744424 1536.3678382772487 266.7641567208484 414.75061740321689 961.91420905743144 703.76687141516595 295.04984781329404 3320.3717524833337 2462.6445298992912 935.5335944982362 2163.6547544131899 999.00895999585191 216.68436036841013 1009.8190876324807 685.56084463700245 113.92932832520455 1364.3455334694881 912.93133783855592 2003.8964180366602 5108.3752943525324
leaf_count=9021 64232 45865 40760 46525 6831 2139603 267112 166869 33203 298746 469552 29183 39177 22359 27274 28350 14200 149058 183462 31725 55173 34444 33801 70730 51212 21325 125757 101418 4709 25488
internal_value=-2.14594e-06 -0.0256615 0.0207129 0.00852785 -0.00937792 -0.0419718 -0.003095 0.00166557 0.0379058 -0.0212129 -0.0317337 0.00527403 -0.012695 -0.000427778 4.87244e-05 -0.0229671 0.0404604 0.0131503 -0.0100185 0.0276112 0.0136247 0.00350516 -0.0353805 0.00675569 -0.0169735 0.000375035 -0.0113298 -0.00785254 0.0418707 0.0391128
internal_weight=55736.6 24897 30839.5 18048.3 12458.7 12438.3 11216.7 8339.26 12791.3 3724.53 4119.49 7892.7 3705.67 6356.33 2238.5 3323.97 12033.4 4633.59 3777.92 6831.6 2578.41 1356.99 2367.54 1971.73 902.245 408.979 1756.55 1616.7 11624.4 9620.53
internal_count=4637164 3667940 969224 829539 1064269 2603671 733582 462129 139685 464068 602140 336702 304050 307519 137181 396880 98925 158079 229987 95957 77532 80309 383759 98004 85013 35525 132588 129768 63400 58691
is_linear=0
shrinkage=0.05


Tree=20
num_leaves=31
num_cat=0
split_feature=195 189 0 212 0 3 125 138 195 189 190 149 195 137 139 180 212 5 195 184 138 27 213 208 189 3 31 10 189 123
split_gain=11603.1 3357.53 2899.9 1622.25 1244.45 702.875 690.871 661.811 612.574 349.15 343.896 318.108 309.659 308.358 305.541 303.05 240.994 240.934 211.823 209.088 205.74 192.518 189.946 182.632 182.183 168.474 158.271 154.895 129.041 128.727
threshold=547180.50000000012 7.5000000000000009 77035.000000000015 1.0000000180025095e-35 63125.000000000007 1.0000000180025095e-35 1.5357142857150003 16.500000000000004 526879.50000000012 10.500000000000002 1.5000000000000002 1.5000000000000002 583612.50000000012 5.5000000000000009 3.5000000000000004 0.026638166666650004 72.500000000000014 15.500000000000002 515680.50000000006 6.5000000000000009 69.500000000000014 2.5000000000000004 1.0000000180025095e-35 1.0000000180025095e-35 7.5000000000000009 117.50000000000001 0.051171500000000009 2.5000000000000004 10.500000000000002 1.1833333333350002
decision_type=2 2 2 2 2 2 2 2 2 2 2 2 2 2 2 2 2 2 2 2 2 2 2 2 2 2 2 2 2 2
left_child=4 3 7 14 8 10 12 16 -1 21 -5 26 -4 17 -2 -10 -3 18 -6 -12 -9 -8 -17 -11 -15 29 -7 -20 -14 -13
right_child=1 2 6 5 13 11 9 20 15 23 19 25 28 24 -16 22 -18 -19 27 -21 -22 -23 -24 -25 -26 -27 -28 -29 -30 -31
leaf_value=-0.04208892832966192 -0.038661422660172903 0.012353075707819313 -0.049935933318653043 0.027686534374956818 -0.055563160283945839 0.012447888150019451 -0.0040798678203520936 0.020753455660287887 0.016962629455630904 -0.0054442003604287378 -0.0096105801807457366 0.032387830002007144 -0.01270759735171439 0.022210449135724512 0.00030547276037087167 0.0069174227988564457 -0.015226355921526194 -0.05492426617225861 -0.043035763015937284 0.021029890471403485 0.039131695607532338 0.024296348876787881 -0.03326361035131619 -0.032286245516744173 -0.034781889518608666 0.052494405321649257 0.035859969798259415 0.006203784601748509 -0.034330699088778116 0.046392638330166304
leaf_weight=1427.5556823564402 743.98151247901114 1704.7297528389827 1834.2439014987758 3505.1717217675177 493.37440634025552 1438.1908268229454 2497.7196538712305 4308.610476228816 1207.2207424639491 1047.5319244250131 1370.9826981557198 3736.2556473711156 1391.3433160371787 211.45510000098147 1553.4624183597625 471.64327936494374 1479.5556983912975 7966.4148596034865 257.55099431271083 937.50819043105002 2355.2721647659782 785.76670847181231 781.4334709705945 1604.1027896445885 416.24590804913896 3201.6129145937739 1449.3499756297388 420.45730807255313 1368.7295303607243 2925.5990459572058
leaf_count=300577 95528 49949 351862 52967 82936 52915 125267 83349 46513 71639 57786 22359 96207 8927 52484 31358 95532 2158673 49076 16579 21958 16463 125557 230677 70564 9498 11699 27984 208827 11333
internal_value=-5.90858e-06 0.0132211 -0.0012142 0.0273211 -0.0399577 0.0322259 -0.0194557 0.0182892 -0.0160339 -0.00818729 0.0178177 0.0387952 -0.0340126 -0.0494823 -0.0123132 -0.000915785 -0.000461512 -0.051811 -0.0306381 0.00283291 0.027249 0.00271081 -0.0181399 -0.0216823 -0.0155827 0.0430682 0.0241992 -0.0125006 -0.0234306 0.0385381
internal_weight=54893.1 41239.7 20377.6 20862.1 13653.4 18564.7 10529.4 9848.17 3887.85 5935.12 5813.66 12751 4594.32 9765.5 2297.44 2460.3 3184.29 9137.8 1171.38 2308.49 6663.88 3283.49 1253.08 2651.63 627.701 9863.47 2887.54 678.008 2760.07 6661.85
internal_count=4637043 1734878 1351730 383148 2902165 235136 1100942 250788 504005 444046 127332 107804 656896 2398160 148012 203428 145481 2318669 159996 74365 105307 141730 156915 302316 79491 43190 64614 77060 305034 33692
is_linear=0
shrinkage=0.05


Tree=21
num_leaves=31
num_cat=0
split_feature=195 189 0 212 0 3 138 125 31 211 27 189 208 139 137 6 195 195 52 3 188 212 195 69 27 180 189 206 0 190
split_gain=10884.7 3184.13 2702.65 1518.81 1169.73 707.863 697.816 595.684 571.95 361.668 358.213 326.704 295.571 288.981 288.628 285.424 275.343 241.01 218.27 213.537 212.734 199.815 192.969 190.226 175.135 168.1 165.681 147.16 146.445 188.312
threshold=546867.50000000012 7.5000000000000009 105101.50000000001 1.0000000180025095e-35 63125.000000000007 34.500000000000007 31.500000000000004 1.5357142857150003 0.012077000000000003 1.0000000180025095e-35 1.5000000000000002 10.500000000000002 1.0000000180025095e-35 2.5000000000000004 5.5000000000000009 1.0000000180025095e-35 583612.50000000012 575691.50000000012 0.63333333333350017 12.500000000000002 4.5000000000000009 91.500000000000014 518140.50000000006 1.5000000000000002 2.5000000000000004 0.043200750000000003 5.5000000000000009 2.5000000000000004 7.0000000000000009 1.5000000000000002
decision_type=2 2 2 2 2 2 2 2 2 2 2 2 2 2 2 2 2 2 2 2 2 2 2 2 2 2 2 2 2 2
left_child=4 3 6 13 8 10 9 16 12 -3 17 24 -1 -2 20 -11 -4 25 23 21 22 -10 -6 -7 -9 -5 -16 -15 -19 -30
right_child=1 2 7 5 14 18 -8 11 19 15 -12 -13 -14 27 26 -17 -18 28 -20 -21 -22 -23 -24 -25 -26 -27 -28 -29 29 -31
leaf_value=-0.011545912337390473 -0.047217931091118881 0.014716895709105844 -0.049876874724225209 0.013292970399663498 -0.050848536080483266 0.030538680549920136 0.030373127854354393 -0.0053987584212213668 0.011174993102197158 -0.032251126242070265 0.033862147199147964 -0.022985806479741112 -0.048653654052924294 -0.05528208156630994 0.032571177467564258 0.0041457186032487665 -0.023906554919834896 0.042750162237900395 0.05380257167889764 0.039264886613623068 -0.053635181100870157 -0.031120940800139097 0.0013157982177905759 0.057937144329944068 0.022131331044416253 -0.018528928359052899 -0.029811651311044532 0.00087215953348081677 0.02530474670495618 0.0024376030139373517
leaf_weight=939.2645612351771 464.63166559335514 3341.5272315947077 1691.7120579065158 973.37926528014941 358.7852465105243 3170.1539850879781 4812.1993810933782 2360.3623487648583 798.32037622071221 939.46970916286227 4859.2781331612496 2472.3131213221932 1251.8293175979052 125.34931430139113 137.50165932433447 1262.4999041229894 2572.7343836233267 701.2530165030621 3053.5040093467105 380.16305872239172 8060.4111278306664 429.44862742288387 350.46541433766834 791.73490397573914 764.9019144710619 723.45625535551517 471.07414357847301 1685.3626144916343 2837.192173953692 1318.8087754459702
leaf_count=85832 78484 63422 342359 22146 55309 38754 69965 122106 30645 102618 41092 294519 335576 8343 4042 63029 292356 2653 7164 4376 2231709 44885 17180 1661 16078 51697 74256 62543 36506 35738
internal_value=-1.01605e-05 0.0127166 -0.00139738 0.026499 -0.039533 0.0312575 0.0164425 -0.0201303 -0.0161271 0.00434959 0.0235748 -0.00940458 -0.0327465 -0.0120415 -0.0490144 -0.011383 -0.034209 0.0159476 0.0437566 0.00651983 -0.0513251 -0.00361926 -0.0250723 0.0360139 0.00133917 -0.000274492 -0.0157169 -0.0030152 0.0216146 0.0180484
internal_weight=54099.1 40921.8 20217.7 20704.1 13177.3 18428.8 10355.7 9862.02 3799.03 5543.5 11413.4 5597.58 2191.09 2275.34 9378.24 2201.97 4264.45 6554.09 7015.39 1607.93 8769.66 1227.77 709.251 3961.89 3125.26 1696.84 608.576 1810.71 4857.25 4156
internal_count=4637043 1753233 1366452 386781 2883810 237411 299034 1067418 501314 229069 189832 432703 421408 149370 2382496 165647 634715 148740 47579 79906 2304198 75530 72489 40415 138184 73843 78298 70886 74897 72244
is_linear=0
shrinkage=0.05


Tree=22
num_leaves=31
num_cat=0
split_feature=184 172 3 193 189 212 189 193 208 208 5 172 24 193 27 206 211 208 0 138 193 172 56 189 211 189 154 27 193 212
split_gain=10189.8 2851.65 1987.64 1334.5 1254.56 699.25 641.735 494.738 456.136 422.517 417.449 347.178 335.716 303.743 287.565 279.88 239.943 222.465 211.016 197.971 191.389 183.112 182.257 172.187 206.558 162.439 145.199 135.301 125.835 119.084
threshold=2.5000000000000004 9.5000000000000018 5.5000000000000009 2176.5000000000005 10.500000000000002 1.0000000180025095e-35 10.500000000000002 1693.5000000000002 1.0000000180025095e-35 1.0000000180025095e-35 27.500000000000004 1.5000000000000002 0.77500000000000013 2847.5000000000005 1.5000000000000002 2.5000000000000004 8.5000000000000018 1.0000000180025095e-35 105101.50000000001 10.500000000000002 96.500000000000014 490.50000000000006 0.037089500000000004 5.5000000000000009 5.5000000000000009 4.5000000000000009 1.0220230000000001 2.5000000000000004 26727.000000000004 93.500000000000014
decision_type=2 2 2 2 2 2 2 2 2 2 2 2 2 2 2 2 2 2 2 2 2 2 2 2 2 2 2 2 2 2
left_child=1 4 3 14 7 22 15 23 18 13 -9 -7 -12 29 20 -5 19 -8 -6 -17 -2 28 -4 -1 -25 -14 -22 -19 -13 -3
right_child=2 9 5 6 8 11 17 10 -10 -11 12 21 25 -15 -16 16 -18 27 -20 -21 26 -23 -24 24 -26 -27 -28 -29 -30 -31
leaf_value=0.037801995141312439 0.025106798499795652 0.0023450893730955599 -0.034993820769695552 -0.033277536436731169 0.00096380361619814768 0.044222820835156003 -0.0073258805430004474 0.0095760357997023704 -0.04601281715199982 -0.051552435308511613 0.010449647693136234 0.036124401029009615 -0.0017044063416331787 -0.040431315489580247 0.030685098988130179 -0.0034288028074500572 -0.012398349834311061 -0.040300438188955574 -0.032119964320100884 0.019560743679778465 -0.012332720116804839 -0.04241225943496478 0.013837643165205091 0.0196410550708239 -0.01488877766596172 -0.031700197176291578 0.013972043813011488 1.8251391364980285e-05 0.016778413830214084 -0.040144124068629175
leaf_weight=781.91037451155717 1666.7905117890041 786.99706735959626 390.97153858067759 448.67002462725941 1097.0193115235743 7688.3843206799938 1264.8749123337329 2275.4554117781081 2428.0893755853904 7062.9404401204374 823.50480814438197 1807.8653157120425 562.08632456403575 1973.902913043501 4969.0080720275437 1316.5594641188727 1177.040362303851 1524.603713565295 859.67358058984973 3243.4089912884374 930.79497073593666 97.387571665472933 373.75145959951624 1642.1733968802146 588.24820367142092 2290.888726081248 1202.1535434015677 240.96607122942805 1570.9284961471567 208.62021469098545
leaf_count=7163 21396 47848 61506 31410 30291 34013 113316 77774 485548 1941314 39193 28077 34071 383049 57359 73899 76184 336297 109738 98756 62311 23448 12642 29328 40240 254641 36454 18936 40822 30019
internal_value=-2.79535e-05 -0.0247571 0.0193008 0.00880411 -0.00961938 0.035126 -0.00448115 0.00110093 -0.031536 -0.0448991 -0.00725553 0.0382941 -0.017673 -0.0290743 0.0227672 0.00475377 0.00772805 -0.0233313 -0.0135716 0.0129232 0.0124127 0.0251815 -0.0111279 0.0176121 0.0105342 -0.0257905 0.00249294 -0.0347977 0.0271297 -0.00655804
internal_weight=53295.7 23381.5 29914.2 17984.9 13349 11929.3 9216.12 8964.27 4384.78 10032.5 5951.94 11164.6 3676.48 2969.52 8768.75 6185.68 5737.01 3030.44 1956.69 4559.97 3799.74 3476.18 764.723 3012.33 2230.42 2852.98 2132.95 1765.57 3378.79 995.617
internal_count=4637043 3510217 1126826 926318 1107987 200508 748798 482410 625577 2402230 405679 126360 327905 460916 177520 280249 248839 468549 140029 172655 120161 92347 74148 76731 69568 288712 98765 355233 68899 77867
is_linear=0
shrinkage=0.05


Tree=23
num_leaves=31
num_cat=0
split_feature=195 3 193 189 193 212 139 195 27 38 212 206 210 193 211 73 5 184 123 27 195 150 123 189 206 41 5 189 195 27
split_gain=9709.64 2900.13 2187.11 1371.45 1203.64 958.365 516.386 451.105 435.393 371.018 359.084 328.639 328.618 319.643 282.855 249.313 248.366 210.464 198.092 189.531 187.485 183.942 176.032 171.061 156.387 154.28 152.636 149.713 149.316 144.934
threshold=546867.50000000012 16.500000000000004 2260.0000000000005 10.500000000000002 1270.0000000000002 1.0000000180025095e-35 2.5000000000000004 526879.50000000012 1.5000000000000002 0.69047619047650011 74.500000000000014 2.5000000000000004 1.0000000180025095e-35 21220.500000000004 8.5000000000000018 0.043533000000000009 40.500000000000007 1.5000000000000002 1.3095238095200001 1.5000000000000002 580388.50000000012 2.6333333333350004 1.1547619047650002 12.500000000000002 3.5000000000000004 1.5000000000000002 31.500000000000004 6.5000000000000009 616159.00000000012 1.5000000000000002
decision_type=2 2 2 2 2 2 2 2 2 2 2 2 2 2 2 2 2 2 2 2 2 2 2 2 2 2 2 2 2 2
left_child=4 2 8 6 7 21 28 -1 10 16 -2 -8 24 -7 17 19 18 26 -6 -15 -12 -3 -9 -10 25 -5 -13 -19 -4 -14
right_child=1 5 3 12 9 13 11 22 23 -11 20 14 29 15 -16 -17 -18 27 -20 -21 -22 -23 -24 -25 -26 -27 -28 -29 -30 -31
leaf_value=-0.038009189896879216 0.019482938899044094 -0.047485350773441348 -0.035897186691695483 -0.025995398564297091 -0.044709153663805457 0.047488692849556202 -0.028942396050293535 -0.01326075092882887 0.033206225653203275 0.0015173273225406142 -0.023080642873812313 0.010713232250522807 -0.047166041023110061 -0.0018971679649057802 -0.0097828335944046135 0.03993408267570079 -0.05342707202942959 0.026253799056093555 -0.011552913934682689 0.03014285998620151 0.0060440155199664282 0.0047718691537505104 0.016645780298558951 0.014062205307198906 0.032899735227038415 0.0096602941282344836 -0.018171678521686226 0.010196237273869023 -0.00509361645231933 -0.02411010883034535
leaf_weight=1005.1858203619267 3987.1065035207721 350.61710286028392 1039.8393960405447 1296.5112816165783 1341.2961552988636 5264.1674028888519 642.32825910235988 899.47497158229817 5033.15044010774 377.52001222455874 901.37326034056605 981.7308322734898 2092.9038555602383 859.47251301701181 1820.5753522844898 2303.0327967846533 7160.1773910593911 2407.2121630631154 678.28544165822677 996.97716047335416 1427.9251867557177 324.00991172977956 1086.2445490356477 1519.0514865953592 168.19480395194842 396.06230860273354 856.26552454184275 3656.4685968076665 632.83424517278036 1010.841816072556
leaf_count=201954 72209 60676 162429 135070 291921 27705 37026 86163 45742 27702 65530 26815 461495 40569 89229 9909 2139659 34416 89291 8039 48904 13112 47120 33426 6081 21379 51315 129830 33263 139064
internal_value=-2.85244e-05 0.0120178 0.00418667 -0.00758406 -0.0383985 0.0351819 0.0015358 -0.0107167 0.0197379 -0.0470614 0.0103709 0.00569608 -0.0296966 0.0393031 0.00798457 0.0289437 -0.0490592 0.0120782 -0.0335735 0.0153094 -0.00522641 -0.0223872 0.00309896 0.0287679 -0.0130826 -0.017652 -0.00274335 0.0165709 -0.0242431 -0.0396571
internal_weight=52516.8 39968.7 29870.4 17001.8 12548.2 10098.3 12037.3 2990.91 12868.6 9557.28 6316.4 10364.6 4964.51 9423.65 9722.25 4159.48 9179.76 7901.68 2019.58 1856.45 2329.3 674.627 1985.72 6552.2 1860.77 1692.57 1838 6063.68 1672.67 3103.75
internal_count=4637043 1753233 1593223 1327412 2883810 160010 564323 335237 265811 2548573 186643 368631 763089 86222 331605 58517 2520871 242376 381212 48608 114434 73788 133283 79168 162530 156449 78130 164246 195692 600559
is_linear=0
shrinkage=0.05


Tree=24
num_leaves=31
num_cat=0
split_feature=195 6 0 193 212 207 125 137 195 195 193 5 203 125 123 144 38 189 137 70 193 210 32 125 136 208 206 189 189 187
split_gain=9139.27 2615.66 1820.72 1582.67 1024.07 899.89 654.269 634.312 528.636 376.89 355.253 340.958 291.185 238.017 229.344 222.333 212.654 209.882 174.311 171.691 201.998 168.839 168.742 152.096 151.8 146.543 142.235 152.434 138.651 137.758
threshold=552593.50000000012 2.5000000000000004 13327.500000000002 1270.0000000000002 1.0000000180025095e-35 1.0000000180025095e-35 1.5357142857150003 5.5000000000000009 526879.50000000012 601077.50000000012 90845.500000000015 40.500000000000007 1.0000000180025095e-35 1.5357142857150003 1.0714285714300003 61.500000000000007 0.73214285714300009 6.5000000000000009 3.5000000000000004 0.074611000000000025 8.0000000000000018 1.0000000180025095e-35 3.5000000000000004 1.3666666666650003 0.9479166666665001 1.0000000180025095e-35 3.5000000000000004 10.500000000000002 9.5000000000000018 11.500000000000002
decision_type=2 2 2 2 2 2 2 2 2 2 2 2 2 2 2 2 2 2 2 2 2 2 2 2 2 2 2 2 2 2
left_child=3 2 13 8 18 6 9 11 -1 24 19 15 29 25 28 -5 21 -9 -3 20 -6 -8 -18 -22 -4 -2 27 -7 -10 -12
right_child=1 4 5 7 10 26 16 17 14 -11 12 -13 -14 -15 -16 -17 22 -19 -20 -21 23 -23 -24 -25 -26 -27 -28 -29 -30 -31
leaf_value=-0.037448120461255251 0.01980186111662055 -0.037159165197719911 -0.020277784730567325 -0.011040882906004156 0.050100620701667334 -0.019708979882494638 0.014987083704670001 0.02633136389121131 0.003247899397787247 -0.0022734144567312688 0.0061310146509997946 -0.051891599668267188 0.02824300520329491 0.030312939983255113 0.017261368562497412 -0.042797331140885415 0.023212119623645035 -0.021471287306642464 0.0024090641494436374 0.053801626695347285 0.019122213782806298 -0.0072951356279932923 -0.0023913296677951397 0.038734968620018947 -0.048460918035437388 -0.0049091004492534058 0.01242404464682503 -0.041696827315063606 -0.03047259664290082 -0.049395044204947544
leaf_weight=980.96687705931981 1876.8295581716957 473.51710998051567 1506.5302456292993 929.78552490786387 2019.9093148704851 1457.1906997588812 1344.0448427955562 341.50830683790264 713.08992828777991 3153.1661685311847 327.28303076622251 7622.8025554062333 3292.9029913429986 4828.0302490196191 1648.1790202948905 1353.5012594279469 3014.7391631714127 700.86163088673493 675.2610398514953 2074.8741404426983 1662.5548307896242 2313.5203121942905 818.17169836285757 2438.172973636305 699.68664737061772 881.87398502355063 194.6992318825578 1717.0263565090281 532.47165926835441 169.58111899684445
leaf_count=201954 22232 65771 141367 111453 6161 99323 35583 8607 38592 182920 15290 2262063 34073 40681 58502 300242 75318 95498 31741 4812 32679 141994 46868 24356 139436 41988 15401 276054 63694 22390
internal_value=-2.55088e-05 0.0132834 0.00340067 -0.0331915 0.0311958 -0.00605672 -2.62393e-05 -0.0429108 -0.00572825 -0.0133644 0.0355183 -0.0468148 0.0228593 0.0236185 0.00502466 -0.0298657 0.00951713 -0.00580986 -0.0139006 0.041372 0.0371584 0.000892908 0.0177468 0.0307834 -0.0292159 0.0119025 -0.0290584 -0.0316028 -0.0111675 -0.0128202
internal_weight=51762.7 36939.6 23805.5 14823.2 13134.1 16218.8 12849.9 10948.5 3874.71 5359.38 11985.3 9906.09 3789.77 7586.73 2893.74 2283.29 7490.48 1042.37 1148.78 8195.51 6120.64 3657.57 3832.91 4100.73 2206.22 2758.7 3368.92 3174.22 1245.56 496.864
internal_count=4637043 1496438 1259165 3140605 237273 1154264 763486 2777863 362742 463723 139761 2673758 71753 104901 160788 411695 299763 104105 97512 68008 63196 177577 122186 57035 280803 64220 390778 375377 102286 37680
is_linear=0
shrinkage=0.05


Tree=25
num_leaves=31
num_cat=0
split_feature=195 172 3 0 193 193 181 207 5 38 193 195 66 181 193 203 172 188 207 17 210 195 211 38 190 176 6 123 181 31
split_gain=8721 2841.84 1794.46 1074.6 857.523 841.399 680.7 537.17 413.017 407.411 376.535 335.916 234.956 230.261 210.141 199.019 182.919 177.318 175.03 166.233 200.888 159.803 141.828 136.253 135.785 133.987 133.544 122.303 119.141 123.64
threshold=543423.50000000012 2.5000000000000004 6.5000000000000009 9488.5000000000018 1645.5000000000002 298.50000000000006 5.5000000000000009 1.0000000180025095e-35 108.50000000000001 0.69047619047650011 90845.500000000015 526879.50000000012 0.70833333333350013 15.500000000000002 39110.500000000007 1.0000000180025095e-35 14.500000000000002 6.5000000000000009 1.0000000180025095e-35 0.052755000000000003 15.500000000000002 515953.50000000006 1.5000000000000002 0.73214285714300009 1.5000000000000002 5.5000000000000009 1.0000000180025095e-35 1.3095238095200001 78.500000000000014 0.055050500000000009
decision_type=2 2 2 2 2 2 2 2 2 2 2 2 2 2 2 2 2 2 2 2 2 2 2 2 2 2 2 2 2 2
left_child=4 2 5 -3 11 28 16 9 18 22 25 -1 17 24 -10 -12 -5 21 27 -13 -21 -6 -7 -19 -11 -4 -24 -8 29 -2
right_child=1 3 10 6 12 7 8 -9 14 13 15 19 -14 -15 -16 -17 -18 23 -20 20 -22 -23 26 -25 -26 -27 -28 -29 -30 -31
leaf_value=-0.038404207113312258 0.0045760435558837116 0.018113120198651269 0.045462057641572184 -0.020324385274189768 -0.049689763617560251 0.0044161729718897339 -0.0041901525926014722 -0.023063778419117824 -0.010049890403750053 0.017888041507973889 -0.014033915823172153 0.02727300255450589 0.03086971605067548 0.02398044693639724 -0.04221468646102474 0.027087230993623541 -0.045415100907594506 -0.052795316738762525 -0.019822417373059929 0.0066722761610779171 -0.032893060971426774 -0.0013540729600791514 -0.027363093536260097 -0.011126410906024842 -0.0072842462119748989 0.018061843655503691 -0.0015286876341170956 0.011873230954620487 0.041157242700392477 0.027138802664305274
