{"learner":{"attributes":{"best_iteration":"11","best_score":"0.7802018616487928"},"feature_names":[],"feature_types":[],"gradient_booster":{"model":{"cats":{"enc":[],"feature_segments":[],"sorted_idx":[]},"gbtree_model_param":{"num_parallel_tree":"1","num_trees":"62"},"iteration_indptr":[0,1,2,3,4,5,6,7,8,9,10,11,12,13,14,15,16,17,18,19,20,21,22,23,24,25,26,27,28,29,30,31,32,33,34,35,36,37,38,39,40,41,42,43,44,45,46,47,48,49,50,51,52,53,54,55,56,57,58,59,60,61,62],"tree_info":[0,0,0,0,0,0,0,0,0,0,0,0,0,0,0,0,0,0,0,0,0,0,0,0,0,0,0,0,0,0,0,0,0,0,0,0,0,0,0,0,0,0,0,0,0,0,0,0,0,0,0,0,0,0,0,0,0,0,0,0,0,0],"trees":[{"base_weights":[-1.21637015E-2,-5.7806224E-1,3.7599328E-1,-7.2103405E-1,-3.21835E-1,2.4870619E-1,6.227333E-1,-7.4584323E-1,-2.857298E-1,-5.484051E-1,-1.1615676E-1,1.2874578E-1,4.5358968E-1,3.3948693E-1,7.080347E-1,-7.643665E-1,-4.2441812E-1,1.6016376E-1,-6.008212E-1,-7.739804E-1,-3.3955485E-1,-2.6591066E-1,3.396698E-1,1.7868438E-1,-4.9441296E-1,-1.9867423E-1,4.9699447E-1,7.909988E-3,5.2575356E-1,7.4271095E-1,2.7059576E-1,-8.073545E-1,-5.4784584E-1,3.1708132E-2,-6.3549376E-1,-1.9216731E-2,4.3170407E-2,-1.8442037E-2,-6.597412E-2,-8.57384E-2,-2.8295213E-1,-6.900342E-2,-5.3322196E-1,2.5834638E-1,-4.95196E-1,5.8826405E-1,-2.9910466E-1,2.0729119E-1,-4.91848E-1,2.1895457E-3,-5.8744156E-1,1.1657468E-1,-4.881039E-2,3.1361538E-1,6.63914E-1,4.3010235E-1,-3.6989295E-1,6.1759937E-1,-4.6727385E-2,7.562838E-1,1.8288092E-1,4.030089E-1,-1.4264491E-2,-8.1406295E-2,-1.4393831E-2,2.5867421E-2,-5.961887E-2,2.1852804E-3,-7.438156E-2,-4.8814815E-2,1.4656759E-2,-3.6278967E-2,1.9555163E-2,-6.1825216E-2,1.010284E-2,5.8626503E-2,-3.5701763E-2,-2.0500569E-2,-7.945954E-2,1.7722097E-3,7.252359E-2,-5.389098E-2,1.73786E-2,7.930497E-3,3.5114646E-2,-1.2552775E-2,-5.700321E-2,-6.905901E-2,-3.2339864E-3,-1.4763686E-2,3.787749E-2,3.8464423E-2,-1.0796181E-2,6.9546424E-2,-1.5023559E-2,-4.806074E-3,6.018504E-2,-1.1962536E-2,-5.9141595E-2,-3.4003423E-3,6.7384735E-2,5.5418354E-2,8.0403335E-2,-1.0101872E-2,3.795093E-2,5.0897826E-2,1.2578572E-2],"categories":[],"categories_nodes":[],"categories_segments":[],"categories_sizes":[],"default_left":[0,0,0,0,0,0,0,0,0,0,0,0,0,0,0,0,0,0,0,0,0,0,0,0,0,0,0,0,0,0,0,0,0,0,0,0,0,0,0,0,0,0,0,0,0,0,0,0,0,0,0,0,0,0,0,0,0,0,0,0,0,0,0,0,0,0,0,0,0,0,0,0,0,0,0,0,0,0,0,0,0,0,0,0,0,0,0,0,0,0,0,0,0,0,0,0,0,0,0,0,0,0,0,0,0,0,0],"id":0,"left_children":[1,3,5,7,9,11,13,15,17,19,21,23,25,27,29,31,33,35,37,39,41,43,45,47,49,51,53,55,57,59,61,63,65,-1,67,-1,-1,-1,-1,-1,69,71,73,75,77,79,81,83,85,-1,87,89,-1,91,93,95,97,99,-1,101,103,105,-1,-1,-1,-1,-1,-1,-1,-1,-1,-1,-1,-1,-1,-1,-1,-1,-1,-1,-1,-1,-1,-1,-1,-1,-1,-1,-1,-1,-1,-1,-1,-1,-1,-1,-1,-1,-1,-1,-1,-1,-1,-1,-1,-1,-1],"loss_changes":[1.1610429E2,7.645561E0,9.692432E0,1.2687759E0,3.6094475E0,5.066166E0,2.3216362E0,4.448166E-1,1.3634784E0,1.491499E0,2.9972217E0,4.224207E0,2.267415E0,1.6302938E0,1.0212288E0,6.8310547E-1,1.6552371E0,5.1580113E-1,1.3159275E-2,4.585371E-1,1.0696785E0,4.0483704E0,1.9179144E0,2.4762042E0,4.992168E-1,5.581647E-1,1.9989529E0,1.8393608E0,1.8326612E0,4.246025E-1,4.67394E-1,3.2240295E-1,1.0564351E0,0E0,5.547795E-1,0E0,0E0,0E0,0E0,0E0,4.2217946E-1,8.449442E-1,7.181814E-1,2.3444517E0,1.8383336E0,6.3059807E-1,5.173351E-1,2.1707616E0,8.1988335E-2,0E0,4.709878E-1,2.940104E-1,0E0,1.1271458E0,1.051096E0,4.7545016E-1,2.672698E-1,6.066613E-1,0E0,2.4933243E-1,2.0985448E-1,1.1032343E-1,0E0,0E0,0E0,0E0,0E0,0E0,0E0,0E0,0E0,0E0,0E0,0E0,0E0,0E0,0E0,0E0,0E0,0E0,0E0,0E0,0E0,0E0,0E0,0E0,0E0,0E0,0E0,0E0,0E0,0E0,0E0,0E0,0E0,0E0,0E0,0E0,0E0,0E0,0E0,0E0,0E0,0E0,0E0,0E0,0E0],"parents":[2147483647,0,0,1,1,2,2,3,3,4,4,5,5,6,6,7,7,8,8,9,9,10,10,11,11,12,12,13,13,14,14,15,15,16,16,17,17,18,18,19,19,20,20,21,21,22,22,23,23,24,24,25,25,26,26,27,27,28,28,29,29,30,30,31,31,32,32,34,34,40,40,41,41,42,42,43,43,44,44,45,45,46,46,47,47,48,48,50,50,51,51,53,53,54,54,55,55,56,56,57,57,59,59,60,60,61,61],"right_children":[2,4,6,8,10,12,14,16,18,20,22,24,26,28,30,32,34,36,38,40,42,44,46,48,50,52,54,56,58,60,62,64,66,-1,68,-1,-1,-1,-1,-1,70,72,74,76,78,80,82,84,86,-1,88,90,-1,92,94,96,98,100,-1,102,104,106,-1,-1,-1,-1,-1,-1,-1,-1,-1,-1,-1,-1,-1,-1,-1,-1,-1,-1,-1,-1,-1,-1,-1,-1,-1,-1,-1,-1,-1,-1,-1,-1,-1,-1,-1,-1,-1,-1,-1,-1,-1,-1,-1,-1,-1],"split_conditions":[6.02779E-1,5.00241E-1,8.97128E-1,7.67438E-1,2.2099E-2,3.33333E-1,8.39729E-1,6.10679E-1,7.1429E-2,1.73913E-1,5.31716E-1,8.82353E-1,6.169E-3,5.72276E-1,7E-1,4.17923E-1,6.84522E-1,1.139E-2,8.48451E-1,5.71737E-1,3.05556E-1,1.241E-3,7.10864E-1,9.04762E-1,2.524E-3,7.56859E-1,1.54675E-1,1.73913E-1,1.0687E-1,7.00282E-1,2.91667E-1,6.6305E-1,4.21283E-1,3.1708132E-2,1.946E-3,-1.9216731E-2,4.3170407E-2,-1.8442037E-2,-6.597412E-2,-8.57384E-2,1.05263E-1,1.6927E-2,7.945E-2,4.16667E-1,2.2865E-2,2.38095E-1,7.74194E-1,1.75793E-1,6.95E-4,2.1895457E-3,6.15385E-1,1.39535E-1,-4.881039E-2,4.239E-3,8.9462E-1,3.3333E-2,7.8431E-2,1.241E-3,-4.6727385E-2,9.151E-1,6.2769E-1,9.50802E-1,-1.4264491E-2,-8.1406295E-2,-1.4393831E-2,2.5867421E-2,-5.961887E-2,2.1852804E-3,-7.438156E-2,-4.8814815E-2,1.4656759E-2,-3.6278967E-2,1.9555163E-2,-6.1825216E-2,1.010284E-2,5.8626503E-2,-3.5701763E-2,-2.0500569E-2,-7.945954E-2,1.7722097E-3,7.252359E-2,-5.389098E-2,1.73786E-2,7.930497E-3,3.5114646E-2,-1.2552775E-2,-5.700321E-2,-6.905901E-2,-3.2339864E-3,-1.4763686E-2,3.787749E-2,3.8464423E-2,-1.0796181E-2,6.9546424E-2,-1.5023559E-2,-4.806074E-3,6.018504E-2,-1.1962536E-2,-5.9141595E-2,-3.4003423E-3,6.7384735E-2,5.5418354E-2,8.0403335E-2,-1.0101872E-2,3.795093E-2,5.0897826E-2,1.2578572E-2],"split_indices":[22,23,37,30,44,2,22,11,40,18,29,16,19,28,18,22,11,4,12,22,41,45,23,41,43,28,26,18,4,19,17,30,22,0,43,0,0,0,0,0,18,4,43,40,19,16,41,4,44,0,40,45,0,25,23,44,45,45,0,22,24,37,0,0,0,0,0,0,0,0,0,0,0,0,0,0,0,0,0,0,0,0,0,0,0,0,0,0,0,0,0,0,0,0,0,0,0,0,0,0,0,0,0,0,0,0,0],"split_type":[0,0,0,0,0,0,0,0,0,0,0,0,0,0,0,0,0,0,0,0,0,0,0,0,0,0,0,0,0,0,0,0,0,0,0,0,0,0,0,0,0,0,0,0,0,0,0,0,0,0,0,0,0,0,0,0,0,0,0,0,0,0,0,0,0,0,0,0,0,0,0,0,0,0,0,0,0,0,0,0,0,0,0,0,0,0,0,0,0,0,0,0,0,0,0,0,0,0,0,0,0,0,0,0,0,0,0],"sum_hessian":[5.2658026E2,2.1403984E2,3.125404E2,1.3621783E2,7.782199E1,2.0750279E2,1.05037605E2,1.281981E2,8.019743E0,3.623742E1,4.1584576E1,1.3190189E2,7.56009E1,2.5463854E1,7.957375E1,1.19909805E2,8.288296E0,3.5242217E0,4.4955215E0,1.612029E1,2.0117128E1,3.161474E1,9.969833E0,1.2277614E2,9.125754E0,4.4937654E0,7.110714E1,9.534237E0,1.5929618E1,7.308256E1,6.491192E0,9.776982E1,2.213998E1,1.7252723E0,6.5630236E0,1.6611457E0,1.863076E0,1.0692068E0,3.4263146E0,1.3141964E1,2.9783266E0,8.95849E0,1.1158638E1,9.581061E0,2.2033678E1,7.23373E0,2.736104E0,1.1841507E2,4.361066E0,1.5099838E0,7.6157703E0,2.436805E0,2.0569603E0,3.5254795E1,3.585234E1,4.43723E0,5.0970063E0,1.4927068E1,1.0025507E0,7.101003E1,2.0725298E0,4.9347334E0,1.5564581E0,9.656627E1,1.2035508E0,1.0059848E0,2.1133995E1,1.0414275E0,5.5215964E0,1.9230993E0,1.0552272E0,4.0688004E0,4.88969E0,9.861755E0,1.2968829E0,6.2811923E0,3.2998695E0,1.20444355E1,9.9892435E0,1.6190656E0,5.614664E0,1.7228373E0,1.0132666E0,6.348476E1,5.4930313E1,1.2253604E0,3.1357055E0,6.216539E0,1.3992311E0,1.4313779E0,1.0054271E0,3.0246382E1,5.008414E0,3.465515E1,1.1971903E0,1.3629137E0,3.0743163E0,3.1163244E0,1.9806821E0,1.2175754E0,1.3709492E1,1.5980102E1,5.5029926E1,1.047031E0,1.0254986E0,2.9652653E0,1.9694684E0],"tree_param":{"num_deleted":"0","num_feature":"46","num_nodes":"107","size_leaf_vector":"1"}},{"base_weights":[-6.6491193E-3,-4.4407576E-1,2.0095506E-1,-6.9667506E-1,-1.4609712E-1,8.666116E-2,4.459107E-1,-7.699922E-1,-5.05431E-1,-3.3180094E-1,9.931786E-2,1.8045504E-2,4.2168802E-1,3.0339858E-1,7.198702E-1,-7.9012334E-1,-4.3485463E-1,-5.609589E-1,2.7483478E-1,-5.92166E-2,-6.487782E-1,-1.0451007E-1,4.6122402E-1,-2.2186506E-1,1.3267414E-1,-1.293108E-1,5.264511E-1,-2.7866468E-1,3.5319772E-1,2.3435673E-1,7.5873727E-1,-7.932985E-1,-1.1261709E-2,3.1570223E-1,-6.443919E-1,-7.952801E-1,-3.578976E-1,7.434397E-2,-5.9238434E-2,3.4464929E-1,-3.566705E-1,-6.824912E-1,1.3745752E-1,3.7097338E-1,-3.3230305E-1,6.0330045E-1,-7.759634E-2,-1.8280031E-1,-7.2046936E-1,1.6922703E-1,-3.9412194E-1,-6.1430126E-1,4.3099254E-1,5.9573686E-1,-1.3949513E-1,-8.151206E-2,2.9105801E-2,1.613322E-1,5.561839E-1,-5.922397E-2,7.2624624E-2,4.879217E-1,8.1620795E-1,-8.190479E-2,-6.3544266E-2,4.8284046E-2,2.2853825E-3,-8.261345E-2,8.121385E-3,-8.502365E-2,-9.293423E-3,-5.585695E-2,8.098199E-3,-3.6421284E-2,4.9691085E-2,5.527669E-3,-5.0892856E-2,-2.9363612E-2,-7.3527224E-2,-1.3042353E-2,3.6109176E-2,6.5034725E-2,-6.5023564E-2,-1.6308127E-2,-6.867791E-2,-3.345769E-2,7.0346944E-2,-2.3324123E-2,7.224824E-2,-8.322419E-2,-1.6701178E-3,-1.2823484E-2,2.409225E-2,-8.759628E-2,-6.5570287E-3,3.16392E-2,-7.6337494E-2,7.868583E-2,-6.402748E-2,-2.8653387E-3,6.696432E-2,-4.67865E-2,4.6457212E-2,4.446176E-2,-6.355083E-2,4.5053113E-2,-1.7489085E-2,1.197835E-2,6.563441E-2,7.4358664E-2,-4.6506925E-3,8.453461E-2,6.0455333E-2],"categories":[],"categories_nodes":[],"categories_segments":[],"categories_sizes":[],"default_left":[0,0,0,0,0,0,0,0,0,0,0,0,0,0,0,0,0,0,0,0,0,0,0,0,0,0,0,0,0,0,0,0,0,0,0,0,0,0,0,0,0,0,0,0,0,0,0,0,0,0,0,0,0,0,0,0,0,0,0,0,0,0,0,0,0,0,0,0,0,0,0,0,0,0,0,0,0,0,0,0,0,0,0,0,0,0,0,0,0,0,0,0,0,0,0,0,0,0,0,0,0,0,0,0,0,0,0,0,0,0,0,0,0],"id":1,"left_children":[1,3,5,7,9,11,13,15,17,19,21,23,25,27,29,31,33,35,37,39,41,43,45,47,49,51,53,55,57,59,61,63,-1,65,67,69,71,-1,-1,73,75,77,79,81,83,85,-1,87,89,91,93,95,97,99,101,-1,103,105,107,-1,-1,109,111,-1,-1,-1,-1,-1,-1,-1,-1,-1,-1,-1,-1,-1,-1,-1,-1,-1,-1,-1,-1,-1,-1,-1,-1,-1,-1,-1,-1,-1,-1,-1,-1,-1,-1,-1,-1,-1,-1,-1,-1,-1,-1,-1,-1,-1,-1,-1,-1,-1,-1],"loss_changes":[1.469134E2,3.9089462E1,3.0677315E1,3.5583038E0,1.0977591E1,1.7217724E1,1.3399757E1,1.0165634E0,3.6606274E0,1.1793196E1,7.735653E0,1.7161865E1,7.418253E0,6.7993164E0,2.0607529E0,3.171463E-1,2.3498049E0,3.3259964E0,2.8982072E0,9.09957E0,1.7693214E0,7.4323235E0,7.100422E0,3.7988405E0,8.196314E0,6.0107784E0,5.0287857E0,3.1241748E0,8.221207E0,4.593482E0,1.3042717E0,2.4332428E-1,0E0,1.67606E-1,1.5174327E0,1.2492104E0,3.7857246E0,0E0,0E0,3.656555E0,2.7579374E0,1.0315628E0,2.526588E-1,6.7935934E0,2.656406E0,3.4678183E0,0E0,8.774852E0,1.1126676E0,8.465459E0,4.326798E0,1.8712764E0,4.4680014E0,4.5081177E0,2.38168E0,0E0,3.8444684E0,1.0882785E1,4.43594E0,0E0,0E0,2.9908266E0,3.6304474E-2,0E0,0E0,0E0,0E0,0E0,0E0,0E0,0E0,0E0,0E0,0E0,0E0,0E0,0E0,0E0,0E0,0E0,0E0,0E0,0E0,0E0,0E0,0E0,0E0,0E0,0E0,0E0,0E0,0E0,0E0,0E0,0E0,0E0,0E0,0E0,0E0,0E0,0E0,0E0,0E0,0E0,0E0,0E0,0E0,0E0,0E0,0E0,0E0,0E0,0E0],"parents":[2147483647,0,0,1,1,2,2,3,3,4,4,5,5,6,6,7,7,8,8,9,9,10,10,11,11,12,12,13,13,14,14,15,15,16,16,17,17,18,18,19,19,20,20,21,21,22,22,23,23,24,24,25,25,26,26,27,27,28,28,29,29,30,30,31,31,33,33,34,34,35,35,36,36,39,39,40,40,41,41,42,42,43,43,44,44,45,45,47,47,48,48,49,49,50,50,51,51,52,52,53,53,54,54,56,56,57,57,58,58,61,61,62,62],"right_children":[2,4,6,8,10,12,14,16,18,20,22,24,26,28,30,32,34,36,38,40,42,44,46,48,50,52,54,56,58,60,62,64,-1,66,68,70,72,-1,-1,74,76,78,80,82,84,86,-1,88,90,92,94,96,98,100,102,-1,104,106,108,-1,-1,110,112,-1,-1,-1,-1,-1,-1,-1,-1,-1,-1,-1,-1,-1,-1,-1,-1,-1,-1,-1,-1,-1,-1,-1,-1,-1,-1,-1,-1,-1,-1,-1,-1,-1,-1,-1,-1,-1,-1,-1,-1,-1,-1,-1,-1,-1,-1,-1,-1,-1,-1],"split_conditions":[6.63205E-1,5.46001E-1,3.52991E-1,1.73913E-1,2.7134E-2,8.02935E-1,9.69799E-1,6.0385E-1,9.27517E-1,2.56098E-1,4.29172E-1,7.74363E-1,1.241E-3,3.006E-3,1.29032E-1,7.03221E-1,6.14303E-1,3.9615E-2,1E0,3.0303E-2,6.72727E-1,3.51413E-1,3.64889E-1,9.96095E-1,2.01555E-1,6.0473E-2,2.42424E-1,7.49696E-1,8.66606E-1,9.68828E-1,1.241E-3,4.47582E-1,-1.1261709E-2,3.425E-3,6.9149E-1,5.08681E-1,4.29907E-1,7.434397E-2,-5.9238434E-2,5.37695E-1,7.6923E-2,1.6915E-2,1.31856E-1,3.82353E-1,6E-1,1.1765E-2,-7.759634E-2,9.78463E-1,3.14286E-1,2.1361E-2,1.781E-3,7.93385E-1,1.90399E-1,5.98059E-1,1.61237E-1,-8.151206E-2,9.97706E-1,6.091E-3,7.74063E-1,-5.922397E-2,7.2624624E-2,4.7888E-2,5.38462E-1,-8.190479E-2,-6.3544266E-2,4.8284046E-2,2.2853825E-3,-8.261345E-2,8.121385E-3,-8.502365E-2,-9.293423E-3,-5.585695E-2,8.098199E-3,-3.6421284E-2,4.9691085E-2,5.527669E-3,-5.0892856E-2,-2.9363612E-2,-7.3527224E-2,-1.3042353E-2,3.6109176E-2,6.5034725E-2,-6.5023564E-2,-1.6308127E-2,-6.867791E-2,-3.345769E-2,7.0346944E-2,-2.3324123E-2,7.224824E-2,-8.322419E-2,-1.6701178E-3,-1.2823484E-2,2.409225E-2,-8.759628E-2,-6.5570287E-3,3.16392E-2,-7.6337494E-2,7.868583E-2,-6.402748E-2,-2.8653387E-3,6.696432E-2,-4.67865E-2,4.6457212E-2,4.446176E-2,-6.355083E-2,4.5053113E-2,-1.7489085E-2,1.197835E-2,6.563441E-2,7.4358664E-2,-4.6506925E-3,8.453461E-2,6.0455333E-2],"split_indices":[39,22,11,45,43,30,22,39,31,41,28,22,45,19,16,23,39,43,29,16,45,20,0,39,11,0,16,12,27,21,45,22,0,16,20,22,41,0,0,39,41,14,15,16,40,41,0,39,45,15,26,12,10,28,14,0,36,30,36,0,0,43,40,0,0,0,0,0,0,0,0,0,0,0,0,0,0,0,0,0,0,0,0,0,0,0,0,0,0,0,0,0,0,0,0,0,0,0,0,0,0,0,0,0,0,0,0,0,0,0,0,0,0],"split_type":[0,0,0,0,0,0,0,0,0,0,0,0,0,0,0,0,0,0,0,0,0,0,0,0,0,0,0,0,0,0,0,0,0,0,0,0,0,0,0,0,0,0,0,0,0,0,0,0,0,0,0,0,0,0,0,0,0,0,0,0,0,0,0,0,0,0,0,0,0,0,0,0,0,0,0,0,0,0,0,0,0,0,0,0,0,0,0,0,0,0,0,0,0,0,0,0,0,0,0,0,0,0,0,0,0,0,0,0,0,0,0,0,0],"sum_hessian":[1.6157998E3,5.196811E2,1.0961187E3,2.805328E2,2.3914832E2,7.483157E2,3.47803E2,2.0060193E2,7.993088E1,1.3593513E2,1.0321318E2,6.219834E2,1.2633233E2,2.3017487E2,1.17628136E2,1.8795422E2,1.26477E1,7.488287E1,5.0480003E0,7.372349E1,6.221164E1,6.648155E1,3.6731625E1,2.0079549E2,4.211879E2,2.0145145E1,1.0618718E2,1.7778625E1,2.1239624E2,9.239622E0,1.0838851E2,1.8690736E2,1.0468605E0,2.6497397E0,9.99796E0,3.3411476E1,4.1471397E1,3.3698316E0,1.6781689E0,3.120138E1,4.2522114E1,5.9780277E1,2.4313629E0,2.1329948E1,4.5151604E1,3.3407524E1,3.3241003E0,1.8747386E2,1.3321617E1,3.9449384E2,2.6694056E1,1.0746638E1,9.398507E0,9.6275955E1,9.911224E0,5.8803973E0,1.1898228E1,1.1011176E2,1.02284485E2,3.3709292E0,5.8686924E0,2.0636126E1,8.775239E1,1.5709373E2,2.981363E1,1.2739066E0,1.3758332E0,7.884567E0,2.1133935E0,3.0791567E1,2.6199112E0,2.8271782E1,1.31996155E1,5.27081E0,2.5930569E1,1.164703E1,3.0875082E1,7.9288874E0,5.185139E1,1.2958838E0,1.135479E0,1.7033285E1,4.2966647E0,3.1550102E1,1.3601503E1,2.9979281E0,3.0409597E1,1.782826E2,9.19127E0,1.1338314E1,1.9833039E0,7.6463E1,3.1803082E2,1.0146892E1,1.6547165E1,1.3287338E0,9.417905E0,7.25421E0,2.1442971E0,1.0254458E1,8.60215E1,6.566929E0,3.3442953E0,7.5247955E0,4.3734326E0,5.9012646E1,5.1099117E1,1.950344E1,8.2781044E1,1.3693793E1,6.942332E0,7.450187E1,1.3250515E1],"tree_param":{"num_deleted":"0","num_feature":"46","num_nodes":"113","size_leaf_vector":"1"}},{"base_weights":[5.547959E-3,-4.677053E-1,1.730434E-1,-6.379848E-1,-2.2586796E-1,8.310998E-2,4.5118856E-1,-6.8912846E-1,-3.2451504E-1,-3.7030387E-1,2.8237066E-1,-6.97641E-2,2.2885093E-1,2.0584114E-1,5.727316E-1,-7.607862E-1,-4.9388736E-1,5.6920606E-1,-4.8453927E-1,-5.861127E-1,-1.8226932E-1,-2.831431E-1,5.951416E-1,-1.3479625E-1,1.6672298E-1,3.1043178E-1,-1.623731E-2,-4.4673797E-1,3.820325E-1,1.10834844E-1,6.2397027E-1,-5.79533E-1,-8.1161976E-1,-2.4929172E-1,-7.072259E-1,-9.611074E-3,7.484087E-2,7.438422E-2,-5.924353E-1,-6.940825E-1,-2.1377817E-1,-2.274435E-2,-5.220288E-1,1.446351E-1,-7.040593E-1,1.2199034E-1,7.463765E-1,-9.8172404E-2,-6.749724E-1,2.6508588E-1,-4.5150837E-1,-1.4771223E-2,3.8346833E-1,6.675054E-2,-4.4699016E-1,4.0566525E-1,-5.902065E-1,5.1360524E-1,3.181119E-2,5.273189E-1,-7.4081294E-2,6.5478736E-1,1.2604975E-2,-8.0685735E-2,-2.1047246E-2,-8.262135E-2,-4.6379298E-2,-3.6720686E-2,5.9595704E-2,-4.572358E-2,-8.12834E-2,5.5418372E-2,-5.4761227E-2,-6.358588E-2,1.7280117E-2,-7.3814146E-2,-2.0369185E-2,6.890654E-2,-4.234627E-2,-4.274495E-2,1.8252553E-2,-7.402744E-2,8.498139E-3,-5.8886837E-2,5.862984E-2,-7.7988856E-2,-1.48984445E-2,-5.886626E-2,5.6868758E-2,1.788566E-2,8.335076E-2,-2.6257668E-2,3.4526957E-3,-8.007314E-2,-3.2168843E-3,-2.7728084E-2,3.6973875E-2,6.6194795E-2,-8.667468E-2,3.0519543E-2,-2.818389E-2,2.0372458E-2,4.767498E-2,-4.970548E-3,4.5606192E-2,-7.271645E-2,2.3673771E-2,8.431195E-3,5.2583255E-2,3.214333E-2,-6.685719E-2,2.8991291E-2,7.498505E-2,4.318445E-2,-5.526037E-2,-2.890234E-2,7.460319E-2,6.2684542E-3,6.645888E-2,-6.996683E-2,6.28711E-2],"categories":[],"categories_nodes":[],"categories_segments":[],"categories_sizes":[],"default_left":[0,0,0,0,0,0,0,0,0,0,0,0,0,0,0,0,0,0,0,0,0,0,0,0,0,0,0,0,0,0,0,0,0,0,0,0,0,0,0,0,0,0,0,0,0,0,0,0,0,0,0,0,0,0,0,0,0,0,0,0,0,0,0,0,0,0,0,0,0,0,0,0,0,0,0,0,0,0,0,0,0,0,0,0,0,0,0,0,0,0,0,0,0,0,0,0,0,0,0,0,0,0,0,0,0,0,0,0,0,0,0,0,0,0,0,0,0,0,0,0,0],"id":2,"left_children":[1,3,5,7,9,11,13,15,17,19,21,23,25,27,29,31,33,35,37,39,41,43,45,47,49,51,53,55,57,59,61,63,65,67,69,-1,-1,71,73,75,77,79,81,83,85,87,89,91,93,95,97,99,101,103,105,107,109,111,113,115,-1,117,119,-1,-1,-1,-1,-1,-1,-1,-1,-1,-1,-1,-1,-1,-1,-1,-1,-1,-1,-1,-1,-1,-1,-1,-1,-1,-1,-1,-1,-1,-1,-1,-1,-1,-1,-1,-1,-1,-1,-1,-1,-1,-1,-1,-1,-1,-1,-1,-1,-1,-1,-1,-1,-1,-1,-1,-1,-1,-1],"loss_changes":[1.142211E2,1.5367416E1,2.6584356E1,3.3113022E0,1.1643132E1,1.7961384E1,7.629593E0,2.2639084E0,4.969346E0,4.8776436E0,6.421442E0,6.079918E0,8.254343E0,1.0246174E1,4.0294037E0,7.84256E-1,2.6157389E0,7.209581E-1,1.7552056E0,2.1326542E0,3.6244864E0,2.490675E0,1.5608406E0,6.056146E0,5.3128147E0,7.3590107E0,3.7470405E0,2.5740476E0,3.1879835E0,6.9555273E0,2.9246216E0,2.6257505E0,1.4394379E-1,2.857183E0,3.6848927E-1,0E0,0E0,1.9387829E0,9.03882E-1,7.903938E-1,2.9800544E0,3.9576273E0,2.8966804E0,2.7456317E0,1.724503E-1,2.4892373E0,7.062912E-1,6.357477E0,1.5489521E0,4.3201365E0,6.164476E0,5.020205E0,4.1423683E0,4.0150256E0,3.414814E0,8.475512E-2,1.4113598E0,2.4504194E0,4.927516E0,2.5391972E0,0E0,8.182869E-1,4.165539E0,0E0,0E0,0E0,0E0,0E0,0E0,0E0,0E0,0E0,0E0,0E0,0E0,0E0,0E0,0E0,0E0,0E0,0E0,0E0,0E0,0E0,0E0,0E0,0E0,0E0,0E0,0E0,0E0,0E0,0E0,0E0,0E0,0E0,0E0,0E0,0E0,0E0,0E0,0E0,0E0,0E0,0E0,0E0,0E0,0E0,0E0,0E0,0E0,0E0,0E0,0E0,0E0,0E0,0E0,0E0,0E0,0E0,0E0],"parents":[2147483647,0,0,1,1,2,2,3,3,4,4,5,5,6,6,7,7,8,8,9,9,10,10,11,11,12,12,13,13,14,14,15,15,16,16,17,17,18,18,19,19,20,20,21,21,22,22,23,23,24,24,25,25,26,26,27,27,28,28,29,29,30,30,31,31,32,32,33,33,34,34,37,37,38,38,39,39,40,40,41,41,42,42,43,43,44,44,45,45,46,46,47,47,48,48,49,49,50,50,51,51,52,52,53,53,54,54,55,55,56,56,57,57,58,58,59,59,61,61,62,62],"right_children":[2,4,6,8,10,12,14,16,18,20,22,24,26,28,30,32,34,36,38,40,42,44,46,48,50,52,54,56,58,60,62,64,66,68,70,-1,-1,72,74,76,78,80,82,84,86,88,90,92,94,96,98,100,102,104,106,108,110,112,114,116,-1,118,120,-1,-1,-1,-1,-1,-1,-1,-1,-1,-1,-1,-1,-1,-1,-1,-1,-1,-1,-1,-1,-1,-1,-1,-1,-1,-1,-1,-1,-1,-1,-1,-1,-1,-1,-1,-1,-1,-1,-1,-1,-1,-1,-1,-1,-1,-1,-1,-1,-1,-1,-1,-1,-1,-1,-1,-1,-1,-1],"split_conditions":[5.97924E-1,5.00241E-1,6.32219E-1,4.73221E-1,5.76923E-1,8.25713E-1,5.3672E-2,8.5909E-2,4.0909E-1,1.6112E-2,1.66667E-1,2.38795E-1,3.88889E-1,7.6809E-1,6.58E-3,5.36E-4,1.16192E-1,3.3238E-2,1.58476E-1,3.5567E-1,3.47826E-1,3E-1,5.6951E-1,8.57143E-1,8.6383E-1,8.12045E-1,7.64706E-1,1.47185E-1,4.25E-1,8.68747E-1,8.33333E-1,1.15385E-1,4.50253E-1,2.46979E-1,2.2665E-1,-9.611074E-3,7.484087E-2,2.72727E-1,7.8835E-1,6E-1,3.72246E-1,1.2E-1,8.5909E-2,7.05623E-1,1.46154E-1,2.78223E-1,5.33333E-1,1.77409E-1,8.80484E-1,6.08746E-1,6.02076E-1,7.36569E-1,1.50376E-1,6.5562E-1,9.14976E-1,4.7838E-1,3.501E-3,8.67734E-1,2.6553E-2,6.90541E-1,-7.4081294E-2,3.78209E-1,3.00885E-1,-8.0685735E-2,-2.1047246E-2,-8.262135E-2,-4.6379298E-2,-3.6720686E-2,5.9595704E-2,-4.572358E-2,-8.12834E-2,5.5418372E-2,-5.4761227E-2,-6.358588E-2,1.7280117E-2,-7.3814146E-2,-2.0369185E-2,6.890654E-2,-4.234627E-2,-4.274495E-2,1.8252553E-2,-7.402744E-2,8.498139E-3,-5.8886837E-2,5.862984E-2,-7.7988856E-2,-1.48984445E-2,-5.886626E-2,5.6868758E-2,1.788566E-2,8.335076E-2,-2.6257668E-2,3.4526957E-3,-8.007314E-2,-3.2168843E-3,-2.7728084E-2,3.6973875E-2,6.6194795E-2,-8.667468E-2,3.0519543E-2,-2.818389E-2,2.0372458E-2,4.767498E-2,-4.970548E-3,4.5606192E-2,-7.271645E-2,2.3673771E-2,8.431195E-3,5.2583255E-2,3.214333E-2,-6.685719E-2,2.8991291E-2,7.498505E-2,4.318445E-2,-5.526037E-2,-2.890234E-2,7.460319E-2,6.2684542E-3,6.645888E-2,-6.996683E-2,6.28711E-2],"split_indices":[38,23,24,38,16,21,45,43,22,0,44,29,18,22,19,14,21,0,36,13,18,40,21,18,45,22,17,11,16,24,40,16,22,31,43,0,0,40,20,44,13,18,43,23,0,29,44,0,36,23,21,38,41,10,31,29,27,26,15,38,0,36,10,0,0,0,0,0,0,0,0,0,0,0,0,0,0,0,0,0,0,0,0,0,0,0,0,0,0,0,0,0,0,0,0,0,0,0,0,0,0,0,0,0,0,0,0,0,0,0,0,0,0,0,0,0,0,0,0,0,0],"split_type":[0,0,0,0,0,0,0,0,0,0,0,0,0,0,0,0,0,0,0,0,0,0,0,0,0,0,0,0,0,0,0,0,0,0,0,0,0,0,0,0,0,0,0,0,0,0,0,0,0,0,0,0,0,0,0,0,0,0,0,0,0,0,0,0,0,0,0,0,0,0,0,0,0,0,0,0,0,0,0,0,0,0,0,0,0,0,0,0,0,0,0,0,0,0,0,0,0,0,0,0,0,0,0,0,0,0,0,0,0,0,0,0,0,0,0,0,0,0,0,0,0],"sum_hessian":[1.4389318E3,3.756766E2,1.0632551E3,2.1949232E2,1.5618428E2,8.044492E2,2.588059E2,1.8767424E2,3.1818073E1,1.2183227E2,3.4352013E1,3.9287094E2,4.1157828E2,8.6629234E1,1.7217667E2,1.35168E2,5.2506245E1,4.4436545E0,2.7374418E1,5.574091E1,6.6091354E1,1.2267022E1,2.208499E1,3.0847318E2,8.439777E1,3.0859256E2,1.0298571E2,1.8090385E1,6.853885E1,1.7508387E1,1.5466829E2,3.2321705E1,1.028463E2,2.5471426E1,2.703482E1,1.0413103E0,3.4023445E0,4.479628E0,2.289479E1,4.2540775E1,1.3200136E1,4.570074E1,2.0390615E1,6.409456E0,5.8575664E0,5.786879E0,1.6298111E1,2.899934E2,1.8479757E1,7.330578E1,1.1092002E1,5.674173E1,2.5185085E2,8.70583E1,1.5927414E1,2.3428762E0,1.5747509E1,4.9482517E1,1.9056328E1,1.2013978E1,5.4944086E0,1.4717844E2,7.4898486E0,1.926754E1,1.3054165E1,9.738496E1,5.461335E0,2.2849417E1,2.6220086E0,9.611799E0,1.7423021E1,2.59043E0,1.8891981E0,2.1825377E1,1.0694151E0,3.8570236E1,3.9705377E0,2.0570118E0,1.1143125E1,1.5015051E1,3.068569E1,1.483667E1,5.5539455E0,2.2836049E0,4.125851E0,4.797201E0,1.0603651E0,2.1108713E0,3.6760075E0,2.5755103E0,1.37226E1,1.2908649E2,1.6090692E2,1.5250452E1,3.229305E0,1.1590117E1,6.1715656E1,2.8515282E0,8.240474E0,2.5749353E1,3.0992376E1,8.713491E1,1.6471593E2,6.768406E1,1.9374235E1,1.125278E1,4.674634E0,1.1007785E0,1.2420977E0,1.000996E0,1.4746512E1,2.6560488E1,2.292203E1,1.1467716E1,7.588612E0,2.4706922E0,9.543286E0,2.5170975E0,1.4466133E2,3.4109073E0,4.0789413E0],"tree_param":{"num_deleted":"0","num_feature":"46","num_nodes":"121","size_leaf_vector":"1"}},{"base_weights":[-2.3927575E-2,-5.3214914E-1,1.1240998E-1,-6.921634E-1,-3.1745335E-1,-7.939712E-2,2.2816518E-1,-7.176968E-1,-3.9879125E-1,-5.241753E-1,-1.3093328E-1,-1.7583546E-1,2.5209793E-1,1.2607846E-1,4.9119142E-1,-7.535579E-1,-5.703913E-1,3.4652254E-1,-6.1059624E-1,-5.826825E-1,4.8986875E-2,2.6026013E-1,-3.8511196E-1,-1.1981502E-1,-5.6171024E-1,-4.8531348E-1,3.7931052E-1,-8.4608365E-3,2.7979526E-1,3.728084E-1,7.368244E-1,-7.624758E-2,-3.654954E-1,5.236744E-1,-7.142088E-2,6.029875E-2,-6.497199E-3,-7.706639E-2,1.19948745E-1,-6.071878E-1,1.117567E-2,-1.9186683E-1,5.4208606E-1,-5.082981E-1,1.9557925E-1,-1.7612827E-1,1.7068048E-1,3.933427E-2,-5.9865993E-1,-6.9484407E-1,1.4185919E-2,4.8302057E-1,-1.5835817E-1,5.9173405E-1,-4.0840395E-2,3.7261456E-1,-4.286437E-3,4.1243285E-1,-7.037371E-2,2.1340239E-1,7.836303E-1,1.0726542E-2,-5.425219E-2,7.289356E-2,-5.859947E-3,-5.828808E-3,2.4011444E-2,-6.331583E-2,-1.9245873E-4,-4.6467435E-2,5.112453E-2,-4.5294102E-2,2.543897E-2,-3.825861E-2,6.70985E-2,-2.3614096E-2,-6.945292E-2,5.2542116E-2,-3.896585E-2,6.1666727E-2,-2.192535E-2,6.0413755E-2,-1.8296743E-2,-6.9754265E-2,-2.8263891E-2,-7.68928E-2,-1.9647075E-2,6.05337E-2,-4.3688707E-2,-1.656483E-2,5.5778384E-2,4.039551E-2,-6.641065E-2,-2.5361342E-2,7.673585E-2,-5.8683068E-2,6.4628356E-4,1.6956162E-2,5.7350304E-2,-3.0996224E-2,4.1207254E-2,6.4323335E-3,5.0021797E-2,5.904774E-2,-5.769558E-2,3.582727E-2,7.981111E-2],"categories":[],"categories_nodes":[],"categories_segments":[],"categories_sizes":[],"default_left":[0,0,0,0,0,0,0,0,0,0,0,0,0,0,0,0,0,0,0,0,0,0,0,0,0,0,0,0,0,0,0,0,0,0,0,0,0,0,0,0,0,0,0,0,0,0,0,0,0,0,0,0,0,0,0,0,0,0,0,0,0,0,0,0,0,0,0,0,0,0,0,0,0,0,0,0,0,0,0,0,0,0,0,0,0,0,0,0,0,0,0,0,0,0,0,0,0,0,0,0,0,0,0,0,0,0,0],"id":3,"left_children":[1,3,5,7,9,11,13,15,17,19,21,23,25,27,29,31,33,35,37,39,-1,41,43,45,47,49,51,53,55,57,59,-1,61,63,-1,-1,-1,-1,65,67,69,71,73,75,77,79,81,-1,83,85,87,89,91,93,95,97,99,101,-1,103,105,-1,-1,-1,-1,-1,-1,-1,-1,-1,-1,-1,-1,-1,-1,-1,-1,-1,-1,-1,-1,-1,-1,-1,-1,-1,-1,-1,-1,-1,-1,-1,-1,-1,-1,-1,-1,-1,-1,-1,-1,-1,-1,-1,-1,-1,-1],"loss_changes":[9.290631E1,9.523407E0,2.3494524E1,9.2466736E-1,4.672326E0,1.2790197E1,1.7651237E1,3.4912872E-1,2.6099808E0,3.7257605E0,6.6598144E0,6.621743E0,8.651244E0,9.858307E0,5.078743E0,1.2093353E-1,5.5638695E0,4.6132272E-1,1.5182462E0,8.112736E-1,0E0,3.490715E0,2.988708E0,4.47112E0,1.6102304E0,1.4456706E0,4.400346E0,4.981968E0,5.867529E0,5.6758804E0,1.2745018E0,0E0,4.3603444E-1,5.696734E-1,0E0,0E0,0E0,0E0,7.946476E-2,8.3358765E-1,9.925263E-1,1.390316E0,2.2393537E0,1.5389805E0,1.7086791E0,7.9266415E0,6.9457035E0,0E0,9.8726463E-1,2.0649862E-1,1.6068256E0,3.256812E0,4.048223E0,2.1428733E0,6.279425E0,6.742899E0,7.226163E0,3.708271E0,0E0,2.1898165E0,4.4475555E-2,0E0,0E0,0E0,0E0,0E0,0E0,0E0,0E0,0E0,0E0,0E0,0E0,0E0,0E0,0E0,0E0,0E0,0E0,0E0,0E0,0E0,0E0,0E0,0E0,0E0,0E0,0E0,0E0,0E0,0E0,0E0,0E0,0E0,0E0,0E0,0E0,0E0,0E0,0E0,0E0,0E0,0E0,0E0,0E0,0E0,0E0],"parents":[2147483647,0,0,1,1,2,2,3,3,4,4,5,5,6,6,7,7,8,8,9,9,10,10,11,11,12,12,13,13,14,14,15,15,16,16,17,17,18,18,19,19,21,21,22,22,23,23,24,24,25,25,26,26,27,27,28,28,29,29,30,30,32,32,33,33,38,38,39,39,40,40,41,41,42,42,43,43,44,44,45,45,46,46,48,48,49,49,50,50,51,51,52,52,53,53,54,54,55,55,56,56,57,57,59,59,60,60],"right_children":[2,4,6,8,10,12,14,16,18,20,22,24,26,28,30,32,34,36,38,40,-1,42,44,46,48,50,52,54,56,58,60,-1,62,64,-1,-1,-1,-1,66,68,70,72,74,76,78,80,82,-1,84,86,88,90,92,94,96,98,100,102,-1,104,106,-1,-1,-1,-1,-1,-1,-1,-1,-1,-1,-1,-1,-1,-1,-1,-1,-1,-1,-1,-1,-1,-1,-1,-1,-1,-1,-1,-1,-1,-1,-1,-1,-1,-1,-1,-1,-1,-1,-1,-1,-1,-1,-1,-1,-1,-1],"split_conditions":[5.34423E-1,3.99327E-1,7.83902E-1,6.10679E-1,1.46115E-1,8.5436E-1,6.2769E-1,1.23145E-1,6.84522E-1,8.84462E-1,3.02038E-1,6.55172E-1,2.98E-3,9.01672E-1,9.23031E-1,6.50679E-1,1.35091E-1,1.624E-3,3.90041E-1,9.36647E-1,4.8986875E-2,5.991E-3,7.49022E-1,3.08478E-1,3.659E-2,4.70588E-1,9.78463E-1,3.45506E-1,4E-1,9.04762E-1,7.32054E-1,-7.624758E-2,6.803E-3,8.235E-3,-7.142088E-2,6.029875E-2,-6.497199E-3,-7.706639E-2,6.4343E-2,9.93443E-1,6.47059E-1,3.58367E-1,5.8824E-2,3.95095E-1,2.22222E-1,1.306E-3,4.2287E-1,3.933427E-2,8.9286E-2,7.14734E-1,2.84091E-1,4.591E-3,5.97851E-1,4.28372E-1,5.12584E-1,5.4777E-2,2.9412E-2,3.52991E-1,-7.037371E-2,2.6087E-1,3.2967E-2,1.0726542E-2,-5.425219E-2,7.289356E-2,-5.859947E-3,-5.828808E-3,2.4011444E-2,-6.331583E-2,-1.9245873E-4,-4.6467435E-2,5.112453E-2,-4.5294102E-2,2.543897E-2,-3.825861E-2,6.70985E-2,-2.3614096E-2,-6.945292E-2,5.2542116E-2,-3.896585E-2,6.1666727E-2,-2.192535E-2,6.0413755E-2,-1.8296743E-2,-6.9754265E-2,-2.8263891E-2,-7.68928E-2,-1.9647075E-2,6.05337E-2,-4.3688707E-2,-1.656483E-2,5.5778384E-2,4.039551E-2,-6.641065E-2,-2.5361342E-2,7.673585E-2,-5.8683068E-2,6.4628356E-4,1.6956162E-2,5.7350304E-2,-3.0996224E-2,4.1207254E-2,6.4323335E-3,5.0021797E-2,5.904774E-2,-5.769558E-2,3.582727E-2,7.981111E-2],"split_indices":[37,22,22,11,4,29,24,43,11,22,4,41,45,20,32,20,43,10,39,14,0,43,22,0,36,18,39,20,18,41,39,0,16,36,0,0,0,0,4,26,41,10,18,37,18,14,4,0,4,22,41,19,22,19,36,19,2,11,0,17,10,0,0,0,0,0,0,0,0,0,0,0,0,0,0,0,0,0,0,0,0,0,0,0,0,0,0,0,0,0,0,0,0,0,0,0,0,0,0,0,0,0,0,0,0,0,0],"split_type":[0,0,0,0,0,0,0,0,0,0,0,0,0,0,0,0,0,0,0,0,0,0,0,0,0,0,0,0,0,0,0,0,0,0,0,0,0,0,0,0,0,0,0,0,0,0,0,0,0,0,0,0,0,0,0,0,0,0,0,0,0,0,0,0,0,0,0,0,0,0,0,0,0,0,0,0,0,0,0,0,0,0,0,0,0,0,0,0,0,0,0,0,0,0,0,0,0,0,0,0,0,0,0,0,0,0,0],"sum_hessian":[1.3389756E3,2.8260687E2,1.0563688E3,1.6064966E2,1.2195722E2,3.9769678E2,6.5867194E2,1.4645659E2,1.4193068E1,5.698734E1,6.496989E1,3.0843625E2,8.926052E1,4.7557092E2,1.8310103E2,1.14472824E2,3.1983757E1,3.0000923E0,1.1192976E1,5.4280888E1,2.7064512E0,2.5578852E1,3.9391033E1,2.704792E2,3.795706E1,1.2718778E1,7.654174E1,2.541091E2,2.2146184E2,1.2525299E2,5.7848026E1,1.1095813E2,3.5146997E0,3.4090195E0,2.8574738E1,1.5615149E0,1.4385774E0,9.136242E0,2.0567331E0,5.2108215E1,2.1726742E0,9.944429E0,1.5634422E1,3.2600025E1,6.791007E0,2.2688977E2,4.3589424E1,1.054542E0,3.690252E1,8.6846485E0,4.0341287E0,6.425025E1,1.229149E1,1.2122819E1,2.4198628E2,1.6668759E2,5.477424E1,1.2140146E2,3.8515337E0,5.204652E0,5.2643375E1,1.0648963E0,2.4498034E0,2.3342724E0,1.0747471E0,1.0356026E0,1.0211307E0,4.9920166E1,2.1880498E0,1.1495656E0,1.0231086E0,6.2645125E0,3.6799173E0,1.6720017E0,1.396242E1,1.416596E1,1.8434065E1,4.4085455E0,2.3824615E0,1.1019145E1,2.1587062E2,1.9266579E1,2.4322847E1,2.7188114E1,9.714404E0,7.088115E0,1.5965335E0,1.5979505E0,2.436178E0,6.5143285E0,5.7735924E1,5.915571E0,6.375919E0,2.008942E0,1.0113877E1,1.8384163E1,2.2360211E2,8.38143E1,8.28733E1,3.1732742E1,2.3041498E1,2.4798079E1,9.660338E1,3.6947894E0,1.5098624E0,2.5806491E0,5.0062725E1],"tree_param":{"num_deleted":"0","num_feature":"46","num_nodes":"107","size_leaf_vector":"1"}},{"base_weights":[-1.683666E-2,-4.1531745E-1,1.3868654E-1,-6.002057E-1,-1.6383332E-1,-5.719983E-4,2.5983107E-1,-6.34024E-1,-2.3439226E-1,-8.9825444E-2,-5.409574E-1,-9.704538E-2,1.743425E-1,1.6003017E-1,4.315693E-1,-6.753104E-1,-4.834852E-1,5.371834E-1,-6.548331E-1,-3.5679317E-1,3.262005E-2,-6.1324596E-1,2.3788719E-2,-2.6341504E-1,7.764596E-2,4.4858932E-1,4.4564903E-2,2.191366E-1,-2.8366914E-1,1.832493E-1,5.3187764E-1,-7.38122E-1,-4.8333374E-1,2.5394872E-1,-5.539605E-1,-4.3392714E-2,7.640185E-2,-7.24525E-1,7.375145E-3,-5.1400656E-1,-6.1817743E-2,1.9798861E-1,-2.165792E-1,-7.074346E-1,-1.1487314E-1,6.18999E-1,-3.3685267E-1,-1.4898321E-1,2.6075053E-1,-3.353781E-1,5.510392E-1,-4.0612045E-1,1.4822352E-1,1.4148262E-1,4.2221773E-1,-6.167472E-1,3.7023762E-1,4.6823913E-1,-1.0414269E-1,4.1159624E-1,6.262397E-1,-7.42924E-2,-1.3201687E-2,6.056389E-2,-6.40799E-2,-4.1461453E-2,5.809809E-2,-6.751274E-2,-3.77289E-3,-1.1103722E-2,-7.712115E-2,-5.9748888E-2,2.067664E-2,1.8830253E-2,-3.3905625E-2,-4.80552E-2,3.108655E-2,-4.20492E-2,9.234066E-3,-7.3421426E-2,-2.1100927E-2,3.5369318E-2,-3.442714E-2,-4.127037E-2,7.9366565E-2,-1.2769917E-2,-4.881704E-2,-3.0662535E-2,1.9158702E-2,7.17295E-2,1.1470658E-2,1.2939505E-2,-4.562905E-2,-3.960809E-2,6.319895E-2,-5.6084353E-2,5.5072267E-2,5.41618E-2,1.712575E-3,-2.0358136E-2,2.1203307E-2,4.672138E-2,-5.1810306E-2,-7.100979E-2,3.4832608E-2,7.1132205E-2,-3.902794E-2,1.2174943E-3,6.3535504E-2,-4.5183916E-2,5.9562422E-2,1.3616413E-2,5.5694968E-2,5.1949542E-2,7.842725E-2],"categories":[],"categories_nodes":[],"categories_segments":[],"categories_sizes":[],"default_left":[0,0,0,0,0,0,0,0,0,0,0,0,0,0,0,0,0,0,0,0,0,0,0,0,0,0,0,0,0,0,0,0,0,0,0,0,0,0,0,0,0,0,0,0,0,0,0,0,0,0,0,0,0,0,0,0,0,0,0,0,0,0,0,0,0,0,0,0,0,0,0,0,0,0,0,0,0,0,0,0,0,0,0,0,0,0,0,0,0,0,0,0,0,0,0,0,0,0,0,0,0,0,0,0,0,0,0,0,0,0,0,0,0,0,0],"id":4,"left_children":[1,3,5,7,9,11,13,15,17,19,21,23,25,27,29,31,33,35,37,39,41,43,-1,45,47,49,51,53,55,57,59,61,63,65,67,-1,-1,69,-1,71,73,75,77,79,81,83,85,87,89,91,93,95,97,99,101,103,105,107,109,111,113,-1,-1,-1,-1,-1,-1,-1,-1,-1,-1,-1,-1,-1,-1,-1,-1,-1,-1,-1,-1,-1,-1,-1,-1,-1,-1,-1,-1,-1,-1,-1,-1,-1,-1,-1,-1,-1,-1,-1,-1,-1,-1,-1,-1,-1,-1,-1,-1,-1,-1,-1,-1,-1,-1],"loss_changes":[7.996693E1,1.6743809E1,1.5659214E1,2.4292526E0,4.2732267E0,7.3204637E0,8.438778E0,8.553543E-1,6.5868073E0,4.2822604E0,1.5648818E0,8.146517E0,5.4686775E0,8.337184E0,4.432167E0,1.4123154E0,2.4506617E0,1.9458759E0,7.080226E-1,1.8771191E0,3.771581E0,1.0144529E0,0E0,9.503631E0,5.730577E0,4.154518E0,5.002401E0,4.3401985E0,8.401976E0,4.459137E0,1.2064247E0,2.1813202E-1,7.0866747E0,1.2385269E0,2.5318747E0,0E0,0E0,2.5401306E-1,0E0,1.7310328E0,1.1350489E0,4.355118E0,2.3424678E0,1.03487015E-1,6.489078E-1,2.3769512E0,4.1489906E0,3.3837442E0,5.0003276E0,4.1499823E-1,3.6307755E0,3.2770784E0,4.4641805E0,4.9932156E0,3.4860973E0,2.52108E0,3.7248921E0,2.066781E0,6.991482E0,2.311449E0,7.796936E-1,0E0,0E0,0E0,0E0,0E0,0E0,0E0,0E0,0E0,0E0,0E0,0E0,0E0,0E0,0E0,0E0,0E0,0E0,0E0,0E0,0E0,0E0,0E0,0E0,0E0,0E0,0E0,0E0,0E0,0E0,0E0,0E0,0E0,0E0,0E0,0E0,0E0,0E0,0E0,0E0,0E0,0E0,0E0,0E0,0E0,0E0,0E0,0E0,0E0,0E0,0E0,0E0,0E0,0E0],"parents":[2147483647,0,0,1,1,2,2,3,3,4,4,5,5,6,6,7,7,8,8,9,9,10,10,11,11,12,12,13,13,14,14,15,15,16,16,17,17,18,18,19,19,20,20,21,21,23,23,24,24,25,25,26,26,27,27,28,28,29,29,30,30,31,31,32,32,33,33,34,34,37,37,39,39,40,40,41,41,42,42,43,43,44,44,45,45,46,46,47,47,48,48,49,49,50,50,51,51,52,52,53,53,54,54,55,55,56,56,57,57,58,58,59,59,60,60],"right_children":[2,4,6,8,10,12,14,16,18,20,22,24,26,28,30,32,34,36,38,40,42,44,-1,46,48,50,52,54,56,58,60,62,64,66,68,-1,-1,70,-1,72,74,76,78,80,82,84,86,88,90,92,94,96,98,100,102,104,106,108,110,112,114,-1,-1,-1,-1,-1,-1,-1,-1,-1,-1,-1,-1,-1,-1,-1,-1,-1,-1,-1,-1,-1,-1,-1,-1,-1,-1,-1,-1,-1,-1,-1,-1,-1,-1,-1,-1,-1,-1,-1,-1,-1,-1,-1,-1,-1,-1,-1,-1,-1,-1,-1,-1,-1,-1],"split_conditions":[6.44612E-1,5.16833E-1,8.53976E-1,6.10679E-1,6.16793E-1,5.48171E-1,4.75697E-1,5.35646E-1,7.03912E-1,2.001E-3,4.7047E-1,6.2592E-2,7.35198E-1,3.52284E-1,6.6163E-2,9.7697E-2,5.32595E-1,3.04348E-1,4.83662E-1,5.87909E-1,2.71781E-1,6.76718E-1,2.3788719E-2,2.145E-3,7.11555E-1,5.98169E-1,7.86951E-1,9.82893E-1,9.96095E-1,1.7326E-2,3.26926E-1,6.56048E-1,1.02558E-1,3.8092E-2,4.47582E-1,-4.3392714E-2,7.640185E-2,1.07E-3,7.375145E-3,3.48596E-1,5.47149E-1,1.4555E-2,7.45258E-1,6.41625E-1,6.86849E-1,8.38392E-1,1.90476E-1,7.00282E-1,6.68218E-1,1.17647E-1,4.431E-3,9.25533E-1,8.32669E-1,9.9E-5,7E-1,1.45848E-1,3.4483E-2,8.205E-3,1E0,8.5032E-1,5.04348E-1,-7.42924E-2,-1.3201687E-2,6.056389E-2,-6.40799E-2,-4.1461453E-2,5.809809E-2,-6.751274E-2,-3.77289E-3,-1.1103722E-2,-7.712115E-2,-5.9748888E-2,2.067664E-2,1.8830253E-2,-3.3905625E-2,-4.80552E-2,3.108655E-2,-4.20492E-2,9.234066E-3,-7.3421426E-2,-2.1100927E-2,3.5369318E-2,-3.442714E-2,-4.127037E-2,7.9366565E-2,-1.2769917E-2,-4.881704E-2,-3.0662535E-2,1.9158702E-2,7.17295E-2,1.1470658E-2,1.2939505E-2,-4.562905E-2,-3.960809E-2,6.319895E-2,-5.6084353E-2,5.5072267E-2,5.41618E-2,1.712575E-3,-2.0358136E-2,2.1203307E-2,4.672138E-2,-5.1810306E-2,-7.100979E-2,3.4832608E-2,7.1132205E-2,-3.902794E-2,1.2174943E-3,6.3535504E-2,-4.5183916E-2,5.9562422E-2,1.3616413E-2,5.5694968E-2,5.1949542E-2,7.842725E-2],"split_indices":[39,38,38,11,23,28,28,14,11,43,12,4,23,43,0,19,10,17,38,37,14,23,0,14,21,29,21,39,39,43,11,23,19,43,22,0,0,43,0,27,23,19,38,39,23,23,18,19,38,17,19,10,37,43,18,29,18,19,31,37,45,0,0,0,0,0,0,0,0,0,0,0,0,0,0,0,0,0,0,0,0,0,0,0,0,0,0,0,0,0,0,0,0,0,0,0,0,0,0,0,0,0,0,0,0,0,0,0,0,0,0,0,0,0,0],"split_type":[0,0,0,0,0,0,0,0,0,0,0,0,0,0,0,0,0,0,0,0,0,0,0,0,0,0,0,0,0,0,0,0,0,0,0,0,0,0,0,0,0,0,0,0,0,0,0,0,0,0,0,0,0,0,0,0,0,0,0,0,0,0,0,0,0,0,0,0,0,0,0,0,0,0,0,0,0,0,0,0,0,0,0,0,0,0,0,0,0,0,0,0,0,0,0,0,0,0,0,0,0,0,0,0,0,0,0,0,0,0,0,0,0,0,0],"sum_hessian":[1.2884214E3,3.6122415E2,9.2719727E2,2.073766E2,1.5384755E2,4.318131E2,4.953842E2,1.8915648E2,1.8220118E1,1.2964403E2,2.4203524E1,2.7859845E2,1.5321465E2,3.1453357E2,1.8085062E2,1.4570885E2,4.3447643E1,6.328552E0,1.1891565E1,4.016294E1,8.948109E1,2.2342426E1,1.8610959E0,1.424379E2,1.3616055E2,4.842533E1,1.0478932E2,2.7800574E2,3.6527813E1,5.2848213E1,1.2800241E2,1.07644455E2,3.806439E1,3.5629163E0,3.9884727E1,1.0254601E0,5.3030915E0,1.0858481E1,1.0330837E0,2.571503E1,1.4447907E1,5.391116E1,3.556993E1,1.8438251E1,3.9041748E0,1.0372676E1,1.3206522E2,6.0931625E1,7.522893E1,5.3341026E0,4.309123E1,1.904928E1,8.574004E1,2.023341E2,7.5671646E1,2.423841E1,1.2289404E1,2.6219048E1,2.6629168E1,5.8629913E1,6.937249E1,1.0657436E2,1.0700877E0,4.449196E0,3.3615192E1,1.0823734E0,2.480543E0,3.2053513E1,7.831215E0,1.0068077E0,9.851674E0,2.319908E1,2.5159523E0,7.764074E0,6.683834E0,7.224566E0,4.6686592E1,2.1209036E1,1.4360896E1,1.7040026E1,1.3982267E0,1.1050932E0,2.7990816E0,1.3045125E0,9.068164E0,5.621204E1,7.585318E1,4.1720043E1,1.921158E1,1.7284567E1,5.7944366E1,1.0867205E0,4.247382E0,3.086476E0,4.0004753E1,1.6753994E1,2.2952867E0,2.0648174E1,6.5091866E1,3.4026073E1,1.6830803E2,7.269614E1,2.975507E0,2.2341537E1,1.8968735E0,8.528943E0,3.7604604E0,7.3187695E0,1.8900278E1,1.8026537E1,8.60263E0,2.092177E1,3.770814E1,4.396399E1,2.5408503E1],"tree_param":{"num_deleted":"0","num_feature":"46","num_nodes":"115","size_leaf_vector":"1"}},{"base_weights":[-5.8063343E-3,-4.8761037E-1,1.23736046E-1,-6.5673614E-1,-3.0366024E-1,-1.7164467E-2,2.601314E-1,-6.878094E-1,-2.8699574E-1,-4.461298E-1,-8.270552E-2,2.0309636E-2,-3.9981323E-1,7.9034485E-2,3.6052173E-1,-6.9780195E-1,-3.6648357E-1,-4.6234593E-1,4.0830698E-2,-4.80928E-1,2.602975E-2,6.009632E-1,-1.8827753E-1,-3.4255333E-2,2.1760276E-1,-5.233969E-1,-6.350096E-2,1.2365971E-1,-5.168366E-1,-6.650915E-2,3.7719747E-1,-7.144623E-2,-4.1393578E-1,2.222903E-2,-5.8726735E-2,-5.854668E-2,3.7991533E-3,-2.4779777E-1,-5.6413776E-1,-3.4308648E-1,3.407568E-1,7.3849983E-3,6.88027E-2,-5.3956807E-1,2.112651E-3,-2.2299603E-1,4.210954E-2,-1.10918865E-1,4.235862E-1,-7.415148E-2,-5.9288055E-1,-4.5140693E-1,3.768333E-1,-7.54626E-2,1.509774E-1,-6.693291E-1,4.6764236E-2,4.064785E-1,-7.418561E-2,5.7320517E-2,-7.0928656E-2,-7.447079E-3,-4.9498737E-2,-5.8407445E-2,9.205954E-3,-9.922522E-3,-4.5007158E-2,4.5967508E-2,9.77207E-4,-6.4048976E-2,4.6960507E-2,6.006793E-2,-2.1435285E-2,4.0870033E-2,-3.2245144E-2,-2.8304819E-3,2.790083E-2,1.7742319E-2,-4.9762663E-2,5.0691348E-2,-4.7938127E-2,4.4497516E-2,-4.1822568E-2,-4.6004962E-2,-7.251605E-2,-6.727445E-2,3.3271264E-2,7.15663E-2,-3.6034666E-2,-1.7364783E-2,2.3022419E-2,-1.3550389E-2,-7.9908505E-2,-6.301712E-2,4.1533474E-2,-2.5486965E-2,6.4127944E-2],"categories":[],"categories_nodes":[],"categories_segments":[],"categories_sizes":[],"default_left":[0,0,0,0,0,0,0,0,0,0,0,0,0,0,0,0,0,0,0,0,0,0,0,0,0,0,0,0,0,0,0,0,0,0,0,0,0,0,0,0,0,0,0,0,0,0,0,0,0,0,0,0,0,0,0,0,0,0,0,0,0,0,0,0,0,0,0,0,0,0,0,0,0,0,0,0,0,0,0,0,0,0,0,0,0,0,0,0,0,0,0,0,0,0,0,0,0],"id":5,"left_children":[1,3,5,7,9,11,13,15,17,19,21,23,25,27,29,31,33,35,-1,37,39,41,43,45,47,49,51,53,55,-1,57,-1,59,-1,-1,-1,-1,61,63,65,67,-1,-1,69,71,73,75,77,79,81,83,85,87,-1,89,91,-1,93,95,-1,-1,-1,-1,-1,-1,-1,-1,-1,-1,-1,-1,-1,-1,-1,-1,-1,-1,-1,-1,-1,-1,-1,-1,-1,-1,-1,-1,-1,-1,-1,-1,-1,-1,-1,-1,-1,-1],"loss_changes":[7.705008E1,7.938633E0,1.8702753E1,1.3584938E0,3.966031E0,6.883995E0,8.960609E0,1.4308167E-1,1.6780255E0,1.2790241E0,3.7996986E0,4.7193055E0,1.7464595E0,4.7869587E0,5.686512E0,2.6873016E-1,8.9129066E-1,6.520431E-1,0E0,1.2538853E0,8.417872E-1,2.736869E-1,3.0112581E0,4.963595E0,6.4730086E0,9.2916965E-1,2.3299048E0,4.0979443E0,2.199831E0,0E0,4.172001E0,0E0,3.0288334E0,0E0,0E0,0E0,0E0,8.492093E-1,7.361851E-1,4.326415E-2,1.4782077E-1,0E0,0E0,1.9122791E0,4.0396056E0,6.3622813E0,4.104046E0,4.2571945E0,4.6501646E0,1.1361386E0,1.3827515E-1,1.4695187E0,1.8732297E0,0E0,4.2042956E0,6.740165E-1,0E0,2.9649162E0,2.7405963E0,0E0,0E0,0E0,0E0,0E0,0E0,0E0,0E0,0E0,0E0,0E0,0E0,0E0,0E0,0E0,0E0,0E0,0E0,0E0,0E0,0E0,0E0,0E0,0E0,0E0,0E0,0E0,0E0,0E0,0E0,0E0,0E0,0E0,0E0,0E0,0E0,0E0,0E0],"parents":[2147483647,0,0,1,1,2,2,3,3,4,4,5,5,6,6,7,7,8,8,9,9,10,10,11,11,12,12,13,13,14,14,15,15,16,16,17,17,19,19,20,20,21,21,22,22,23,23,24,24,25,25,26,26,27,27,28,28,30,30,32,32,37,37,38,38,39,39,40,40,43,43,44,44,45,45,46,46,47,47,48,48,49,49,50,50,51,51,52,52,54,54,55,55,57,57,58,58],"right_children":[2,4,6,8,10,12,14,16,18,20,22,24,26,28,30,32,34,36,-1,38,40,42,44,46,48,50,52,54,56,-1,58,-1,60,-1,-1,-1,-1,62,64,66,68,-1,-1,70,72,74,76,78,80,82,84,86,88,-1,90,92,-1,94,96,-1,-1,-1,-1,-1,-1,-1,-1,-1,-1,-1,-1,-1,-1,-1,-1,-1,-1,-1,-1,-1,-1,-1,-1,-1,-1,-1,-1,-1,-1,-1,-1,-1,-1,-1,-1,-1,-1],"split_conditions":[5.49363E-1,3.58755E-1,8.53976E-1,5.55461E-1,3.643E-2,7.69231E-1,8.80162E-1,9.55043E-1,8E-1,7.8835E-1,1.36287E-1,5.13229E-1,5.10811E-1,8.97702E-1,7.53472E-1,6.10679E-1,6.6667E-2,6.35771E-1,4.0830698E-2,3.01183E-1,7.11062E-1,4.8206E-2,1.03405E-1,2.042E-2,1.81818E-1,8.26087E-1,8.4656E-2,5.93552E-1,9.74704E-1,-6.650915E-2,8.33333E-1,-7.144623E-2,6.17088E-1,2.222903E-2,-5.8726735E-2,-5.854668E-2,3.7991533E-3,4.35629E-1,9.99747E-1,3.80952E-1,3.43373E-1,7.3849983E-3,6.88027E-2,7.82532E-1,1.58197E-1,9.55E-4,3.67714E-1,1.93182E-1,9.71475E-1,4.44444E-1,4.712E-2,2.1361E-2,7.6923E-2,-7.54626E-2,1.106E-3,2.5425E-2,4.6764236E-2,4.435E-3,9.99648E-1,5.7320517E-2,-7.0928656E-2,-7.447079E-3,-4.9498737E-2,-5.8407445E-2,9.205954E-3,-9.922522E-3,-4.5007158E-2,4.5967508E-2,9.77207E-4,-6.4048976E-2,4.6960507E-2,6.006793E-2,-2.1435285E-2,4.0870033E-2,-3.2245144E-2,-2.8304819E-3,2.790083E-2,1.7742319E-2,-4.9762663E-2,5.0691348E-2,-4.7938127E-2,4.4497516E-2,-4.1822568E-2,-4.6004962E-2,-7.251605E-2,-6.727445E-2,3.3271264E-2,7.15663E-2,-3.6034666E-2,-1.7364783E-2,2.3022419E-2,-1.3550389E-2,-7.9908505E-2,-6.301712E-2,4.1533474E-2,-2.5486965E-2,6.4127944E-2],"split_indices":[37,38,38,20,43,18,37,30,45,20,23,11,31,23,23,11,18,23,0,20,38,37,10,0,18,18,4,37,23,0,40,0,11,0,0,0,0,37,30,18,1,0,0,23,10,10,31,45,36,40,45,15,0,0,44,15,0,0,30,0,0,0,0,0,0,0,0,0,0,0,0,0,0,0,0,0,0,0,0,0,0,0,0,0,0,0,0,0,0,0,0,0,0,0,0,0,0],"split_type":[0,0,0,0,0,0,0,0,0,0,0,0,0,0,0,0,0,0,0,0,0,0,0,0,0,0,0,0,0,0,0,0,0,0,0,0,0,0,0,0,0,0,0,0,0,0,0,0,0,0,0,0,0,0,0,0,0,0,0,0,0,0,0,0,0,0,0,0,0,0,0,0,0,0,0,0,0,0,0,0,0,0,0,0,0,0,0,0,0,0,0,0,0,0,0,0,0],"sum_hessian":[1.2325323E3,2.60584E2,9.719483E2,1.3442346E2,1.2616056E2,4.785086E2,4.9343973E2,1.2320866E2,1.12148E1,7.608352E1,5.0077045E1,4.3668906E2,4.181953E1,1.7661903E2,3.1682068E2,1.18356384E2,4.852272E0,9.223696E0,1.9911041E0,7.084376E1,5.239759E0,6.070826E0,4.4006218E1,3.4272787E2,9.39612E1,3.0174948E1,1.1644584E1,1.6505074E2,1.1568299E1,4.44675E0,3.1237393E2,1.1036224E2,7.9941382E0,1.321458E0,3.5308142E0,7.265652E0,1.9580438E0,1.9681038E1,5.116272E1,2.3700378E0,2.8697214E0,1.1225803E0,4.9482455E0,1.4822706E1,2.9183512E1,9.8171234E1,2.4455664E2,3.6387897E1,5.7573303E1,4.318826E0,2.5856123E1,6.177479E0,5.467105E0,4.1756663E0,1.6087508E2,1.0293922E1,1.2743762E0,2.934382E2,1.8935728E1,1.624354E0,6.3697844E0,1.2333898E1,7.347141E0,4.9760788E1,1.4019313E0,1.310457E0,1.0595809E0,1.8251569E0,1.0445644E0,1.3807253E1,1.0154529E0,7.2794795E0,2.1904034E1,1.2930854E1,8.524038E1,1.8920038E2,5.5356262E1,2.1155128E1,1.5232768E1,5.311077E1,4.462532E0,1.6046042E0,2.714222E0,1.513546E1,1.0720662E1,4.9283624E0,1.2491164E0,3.76554E0,1.701565E0,3.1332773E1,1.295423E2,2.4126012E0,7.8813214E0,1.8913735E0,2.915468E2,1.5631827E1,3.3039021E0],"tree_param":{"num_deleted":"0","num_feature":"46","num_nodes":"97","size_leaf_vector":"1"}},{"base_weights":[-1.1956533E-2,-5.0185454E-1,9.3544744E-2,-5.7032114E-1,-1.9714142E-1,-9.141435E-3,2.294261E-1,-6.072598E-1,-1.8523172E-1,3.4498048E-1,-3.3488613E-1,-6.5202445E-2,3.875435E-1,5.9699077E-2,2.8342563E-1,-6.939834E-1,-5.062441E-1,8.020801E-2,-4.5982814E-1,5.7579297E-1,-4.9511045E-2,-3.9148426E-1,3.0551127E-1,-2.0274295E-1,9.340342E-2,4.7619712E-1,-1.4935021E-1,-5.999017E-2,3.3772326E-1,3.3028042E-1,-5.0833557E-2,-7.036304E-2,-1.1688281E-2,-1.479368E-1,-5.7797647E-1,4.1857877E-1,-4.1774324E-1,-5.288751E-1,-1.0085865E-2,7.2858706E-2,-2.8218736E-3,-9.8731294E-2,-5.833993E-1,7.015183E-3,3.930847E-2,-2.6735422E-1,2.8252903E-1,3.2352854E-2,4.3003565E-1,-7.251053E-2,6.2276477E-1,-6.317597E-2,2.2126003E-1,-2.9120076E-1,2.0706673E-1,5.498453E-1,-3.643084E-1,3.5745615E-1,-9.117191E-2,-3.1984425E-1,4.708322E-1,1.9182522E-2,-5.1626224E-2,-6.582937E-2,-3.1139994E-2,-4.4648353E-2,7.490519E-2,-5.3942747E-2,-2.1152245E-3,-5.7893533E-2,-1.2615806E-2,-4.91619E-2,1.4120762E-2,-7.163664E-2,-3.190648E-2,-2.4092024E-2,-8.241911E-2,-2.8228244E-2,5.7710048E-2,1.0844608E-2,-2.1733657E-2,1.8359989E-2,6.602201E-2,6.0328174E-2,-5.3564336E-2,6.525191E-2,5.2831303E-3,5.521754E-2,-8.817917E-3,-4.9694993E-2,-6.119126E-3,6.1577108E-2,-1.6940922E-2,6.490302E-2,-2.3432713E-2,-6.4922206E-2,3.3230692E-2,7.7615962E-3,4.0869486E-2,-2.9397303E-2,6.0518213E-2,-5.317628E-3,-7.247681E-2,6.886472E-2,1.8072218E-2],"categories":[],"categories_nodes":[],"categories_segments":[],"categories_sizes":[],"default_left":[0,0,0,0,0,0,0,0,0,0,0,0,0,0,0,0,0,0,0,0,0,0,0,0,0,0,0,0,0,0,0,0,0,0,0,0,0,0,0,0,0,0,0,0,0,0,0,0,0,0,0,0,0,0,0,0,0,0,0,0,0,0,0,0,0,0,0,0,0,0,0,0,0,0,0,0,0,0,0,0,0,0,0,0,0,0,0,0,0,0,0,0,0,0,0,0,0,0,0,0,0,0,0,0,0],"id":6,"left_children":[1,3,5,7,9,11,13,15,17,19,21,23,25,27,29,31,33,35,37,39,-1,41,43,45,47,49,51,53,55,57,59,-1,-1,61,63,65,67,69,-1,-1,-1,71,73,-1,-1,75,77,79,81,83,85,-1,87,89,91,93,95,97,99,101,103,-1,-1,-1,-1,-1,-1,-1,-1,-1,-1,-1,-1,-1,-1,-1,-1,-1,-1,-1,-1,-1,-1,-1,-1,-1,-1,-1,-1,-1,-1,-1,-1,-1,-1,-1,-1,-1,-1,-1,-1,-1,-1,-1,-1],"loss_changes":[6.081908E1,4.2375526E0,1.351313E1,2.301773E0,3.0862598E0,1.2311777E1,3.8033867E0,1.001545E0,1.2245474E0,1.9434825E0,1.2877791E0,1.0597584E1,3.3341885E0,3.4102767E0,4.9651527E0,3.6534882E-1,1.843008E0,1.7143244E0,1.4884794E-1,6.8242955E-1,0E0,1.6307712E0,3.79439E-2,8.228464E0,4.6287594E0,4.796403E0,2.0129292E0,4.5100503E0,4.788309E0,3.2079334E0,5.723322E0,0E0,0E0,1.8334883E0,1.1261749E0,2.03244E0,1.9114017E-1,6.0138106E-2,0E0,0E0,0E0,1.3046305E0,4.0226078E-1,0E0,0E0,3.1867294E0,5.327172E0,3.6773002E0,1.8413987E0,4.5013633E0,7.579498E-1,0E0,7.312466E-1,1.8171451E0,5.339604E0,2.023324E0,1.7540253E0,3.7056885E0,2.6621118E0,2.854831E0,7.548506E-1,0E0,0E0,0E0,0E0,0E0,0E0,0E0,0E0,0E0,0E0,0E0,0E0,0E0,0E0,0E0,0E0,0E0,0E0,0E0,0E0,0E0,0E0,0E0,0E0,0E0,0E0,0E0,0E0,0E0,0E0,0E0,0E0,0E0,0E0,0E0,0E0,0E0,0E0,0E0,0E0,0E0,0E0,0E0,0E0],"parents":[2147483647,0,0,1,1,2,2,3,3,4,4,5,5,6,6,7,7,8,8,9,9,10,10,11,11,12,12,13,13,14,14,15,15,16,16,17,17,18,18,19,19,21,21,22,22,23,23,24,24,25,25,26,26,27,27,28,28,29,29,30,30,33,33,34,34,35,35,36,36,37,37,41,41,42,42,45,45,46,46,47,47,48,48,49,49,50,50,52,52,53,53,54,54,55,55,56,56,57,57,58,58,59,59,60,60],"right_children":[2,4,6,8,10,12,14,16,18,20,22,24,26,28,30,32,34,36,38,40,-1,42,44,46,48,50,52,54,56,58,60,-1,-1,62,64,66,68,70,-1,-1,-1,72,74,-1,-1,76,78,80,82,84,86,-1,88,90,92,94,96,98,100,102,104,-1,-1,-1,-1,-1,-1,-1,-1,-1,-1,-1,-1,-1,-1,-1,-1,-1,-1,-1,-1,-1,-1,-1,-1,-1,-1,-1,-1,-1,-1,-1,-1,-1,-1,-1,-1,-1,-1,-1,-1,-1,-1,-1,-1],"split_conditions":[5.25206E-1,5.81293E-1,8.66362E-1,1E0,2.45637E-1,9.39101E-1,8.25261E-1,2.2099E-2,2.3936E-2,5.05495E-1,9.47064E-1,1.6129E-1,7.98187E-1,2.66667E-1,2.82344E-1,5.62684E-1,3.4483E-2,1.81686E-1,3.37093E-1,7.01892E-1,-4.9511045E-2,1.61237E-1,5.47216E-1,8.48219E-1,6.32481E-1,6.9751E-1,9.284E-3,4.99498E-1,1.2191E-1,8.33333E-1,3.501E-3,-7.036304E-2,-1.1688281E-2,7.274E-3,6.32653E-1,9.6211E-2,4.16667E-1,3.99717E-1,-1.0085865E-2,7.2858706E-2,-2.8218736E-3,1.163E-2,7.52186E-1,7.015183E-3,3.930847E-2,8.63088E-1,7.62294E-1,9.30502E-1,6.89874E-1,9.74639E-1,9.441E-1,-6.317597E-2,3.44868E-1,1.163E-2,7.94861E-1,7E-1,7.80862E-1,1.3E-4,6.08885E-1,5.1926E-2,9.58478E-1,1.9182522E-2,-5.1626224E-2,-6.582937E-2,-3.1139994E-2,-4.4648353E-2,7.490519E-2,-5.3942747E-2,-2.1152245E-3,-5.7893533E-2,-1.2615806E-2,-4.91619E-2,1.4120762E-2,-7.163664E-2,-3.190648E-2,-2.4092024E-2,-8.241911E-2,-2.8228244E-2,5.7710048E-2,1.0844608E-2,-2.1733657E-2,1.8359989E-2,6.602201E-2,6.0328174E-2,-5.3564336E-2,6.525191E-2,5.2831303E-3,5.521754E-2,-8.817917E-3,-4.9694993E-2,-6.119126E-3,6.1577108E-2,-1.6940922E-2,6.490302E-2,-2.3432713E-2,-6.4922206E-2,3.3230692E-2,7.7615962E-3,4.0869486E-2,-2.9397303E-2,6.0518213E-2,-5.317628E-3,-7.247681E-2,6.886472E-2,1.8072218E-2],"split_indices":[39,22,23,45,21,31,38,44,15,41,31,4,23,44,15,38,44,21,12,14,0,14,37,24,24,39,43,30,14,40,27,0,0,43,41,37,41,37,0,0,0,15,22,0,0,25,38,4,14,29,22,0,24,15,31,40,22,43,14,43,39,0,0,0,0,0,0,0,0,0,0,0,0,0,0,0,0,0,0,0,0,0,0,0,0,0,0,0,0,0,0,0,0,0,0,0,0,0,0,0,0,0,0,0,0],"split_type":[0,0,0,0,0,0,0,0,0,0,0,0,0,0,0,0,0,0,0,0,0,0,0,0,0,0,0,0,0,0,0,0,0,0,0,0,0,0,0,0,0,0,0,0,0,0,0,0,0,0,0,0,0,0,0,0,0,0,0,0,0,0,0,0,0,0,0,0,0,0,0,0,0,0,0,0,0,0,0,0,0,0,0,0,0,0,0,0,0,0,0,0,0,0,0,0,0,0,0,0,0,0,0,0,0],"sum_hessian":[1.1748208E3,2.0750569E2,9.673151E2,1.6872325E2,3.878244E1,5.514867E2,4.1582837E2,1.5342905E2,1.5294211E1,7.552717E0,3.1229725E1,4.8393134E2,6.7555374E1,1.0087419E2,3.149542E2,7.939614E1,7.4032906E1,8.136723E0,7.157489E0,6.1716747E0,1.3810428E0,2.90509E1,2.178825E0,2.5902805E2,2.249033E2,5.8078342E1,9.477034E0,7.106498E1,2.9809208E1,2.7624362E2,3.8710564E1,7.787511E1,1.5210372E0,1.2859796E1,6.1173107E1,4.9395614E0,3.1971614E0,5.605893E0,1.5515958E0,4.7610474E0,1.4106271E0,1.2103028E1,1.694787E1,1.0792718E0,1.0995529E0,2.2898856E2,3.0039488E1,1.9130495E2,3.359836E1,1.23497305E1,4.572861E1,3.811326E0,5.6657076E0,3.804031E1,3.3024673E1,2.3058697E1,6.75051E0,2.5965277E2,1.6590853E1,2.5795378E1,1.2915186E1,6.938535E0,5.9212604E0,4.5880325E1,1.5292783E1,1.2683705E0,3.6711907E0,2.1709101E0,1.0262513E0,4.596897E0,1.0089957E0,4.191207E0,7.9118214E0,1.0138079E1,6.809792E0,2.1997847E2,9.010083E0,1.0310961E1,1.9728527E1,1.470553E2,4.4249645E1,1.7094543E1,1.6503817E1,4.8988442E0,7.4508862E0,4.3322006E1,2.4066036E0,2.3587804E0,3.3069272E0,1.9466494E1,1.8573818E1,1.5529809E1,1.7494864E1,2.0622614E1,2.4360836E0,4.839288E0,1.9112217E0,4.0573788E1,2.1907898E2,1.3296358E1,3.2944956E0,1.6234957E1,9.56042E0,6.592092E0,6.323094E0],"tree_param":{"num_deleted":"0","num_feature":"46","num_nodes":"105","size_leaf_vector":"1"}},{"base_weights":[5.049873E-3,-3.4587696E-1,1.3566627E-1,-4.6206042E-1,-4.725111E-2,8.267132E-2,4.3534943E-1,-5.9810114E-1,-3.5370156E-1,4.603229E-1,-1.5694651E-1,-3.5523362E-2,1.9324438E-1,7.7311255E-2,4.9293384E-1,-3.4852666E-1,-6.5982157E-1,-4.0294874E-1,2.218802E-1,-3.7766996E-1,6.861031E-1,2.5066212E-1,-3.2385454E-1,-1.8490937E-1,9.025458E-2,2.4361622E-1,-2.8872782E-1,2.931229E-1,-6.510615E-2,5.1438373E-1,-4.2497333E-2,-5.391422E-1,2.7966935E-2,-6.9032654E-2,-4.5405307E-1,-4.923988E-1,-9.294897E-2,5.79394E-1,-5.8778107E-2,-5.327796E-2,-2.750161E-3,7.9391964E-2,3.2894935E-2,3.697785E-1,-3.7087485E-1,-5.052749E-1,6.488512E-2,-3.0093092E-1,6.602994E-2,2.6283804E-1,-7.0172966E-2,2.6558784E-1,-3.1689057E-1,7.047962E-2,-3.95574E-1,-3.661703E-1,6.39726E-1,1.8592672E-1,5.605957E-1,-6.447715E-2,3.314444E-2,5.370999E-2,-2.268362E-2,-5.565607E-2,1.1212182E-2,-5.086369E-2,1.7426634E-2,-5.5193048E-2,1.1387821E-2,7.198334E-2,1.1229995E-2,-2.4646316E-2,5.357319E-2,7.30465E-3,-5.639515E-2,-5.8501165E-2,-1.3770151E-2,-5.6663312E-2,2.6555398E-2,-3.5951864E-2,-1.6608945E-3,4.2862438E-2,-1.2987333E-2,7.435749E-3,6.177572E-2,-5.364132E-2,8.216142E-4,2.9373122E-2,-3.1448744E-2,-5.7056274E-2,5.4529782E-2,-6.493702E-2,1.2481005E-2,1.0961697E-2,-6.25633E-2,-2.9393067E-3,7.2232686E-2,5.5304866E-2,-2.8299266E-2,-2.922148E-2,5.950112E-2],"categories":[],"categories_nodes":[],"categories_segments":[],"categories_sizes":[],"default_left":[0,0,0,0,0,0,0,0,0,0,0,0,0,0,0,0,0,0,0,0,0,0,0,0,0,0,0,0,0,0,0,0,0,0,0,0,0,0,0,0,0,0,0,0,0,0,0,0,0,0,0,0,0,0,0,0,0,0,0,0,0,0,0,0,0,0,0,0,0,0,0,0,0,0,0,0,0,0,0,0,0,0,0,0,0,0,0,0,0,0,0,0,0,0,0,0,0,0,0,0,0],"id":7,"left_children":[1,3,5,7,9,11,13,15,17,19,21,23,25,27,29,31,33,35,37,39,41,43,45,47,49,51,53,55,-1,57,-1,59,61,-1,63,65,67,69,-1,-1,-1,-1,-1,71,73,75,77,79,81,83,85,87,89,-1,91,93,95,97,99,-1,-1,-1,-1,-1,-1,-1,-1,-1,-1,-1,-1,-1,-1,-1,-1,-1,-1,-1,-1,-1,-1,-1,-1,-1,-1,-1,-1,-1,-1,-1,-1,-1,-1,-1,-1,-1,-1,-1,-1,-1,-1],"loss_changes":[5.3765526E1,1.10171585E1,1.3539437E1,3.1632957E0,5.0960875E0,9.515657E0,2.6052341E0,1.3112907E0,3.771019E0,3.3410354E0,5.179611E0,6.6402106E0,9.200333E0,3.1695192E0,2.3895092E0,1.5908985E0,1.8305969E-1,3.281784E0,3.490468E0,2.081579E-1,2.46624E-1,1.7907424E0,3.8133006E0,4.7207384E0,5.3357706E0,4.2839165E0,4.104783E0,3.7322536E0,0E0,1.5380173E0,0E0,1.5587764E0,1.20262E0,0E0,8.246708E-1,1.0942707E0,2.7308347E0,4.4737744E-1,0E0,0E0,0E0,0E0,0E0,2.1000674E0,3.918687E-1,9.939785E-1,2.4243064E0,1.8362598E0,3.7401237E0,6.1573195E0,3.6709068E0,5.458519E0,3.2242951E0,0E0,4.463519E0,7.982338E-1,5.958781E-1,2.7114038E0,2.9431381E0,0E0,0E0,0E0,0E0,0E0,0E0,0E0,0E0,0E0,0E0,0E0,0E0,0E0,0E0,0E0,0E0,0E0,0E0,0E0,0E0,0E0,0E0,0E0,0E0,0E0,0E0,0E0,0E0,0E0,0E0,0E0,0E0,0E0,0E0,0E0,0E0,0E0,0E0,0E0,0E0,0E0,0E0],"parents":[2147483647,0,0,1,1,2,2,3,3,4,4,5,5,6,6,7,7,8,8,9,9,10,10,11,11,12,12,13,13,14,14,15,15,16,16,17,17,18,18,19,19,20,20,21,21,22,22,23,23,24,24,25,25,26,26,27,27,29,29,31,31,32,32,34,34,35,35,36,36,37,37,43,43,44,44,45,45,46,46,47,47,48,48,49,49,50,50,51,51,52,52,54,54,55,55,56,56,57,57,58,58],"right_children":[2,4,6,8,10,12,14,16,18,20,22,24,26,28,30,32,34,36,38,40,42,44,46,48,50,52,54,56,-1,58,-1,60,62,-1,64,66,68,70,-1,-1,-1,-1,-1,72,74,76,78,80,82,84,86,88,90,-1,92,94,96,98,100,-1,-1,-1,-1,-1,-1,-1,-1,-1,-1,-1,-1,-1,-1,-1,-1,-1,-1,-1,-1,-1,-1,-1,-1,-1,-1,-1,-1,-1,-1,-1,-1,-1,-1,-1,-1,-1,-1,-1,-1,-1,-1],"split_conditions":[6.11918E-1,6.58959E-1,9.2832E-1,1.7152E-2,1.27E-3,8.3574E-1,1.241E-3,5.36E-4,4.85059E-1,6.50679E-1,7.07677E-1,1.13471E-1,8.18182E-1,8.125E-1,4.14608E-1,3.80952E-1,6.8413E-1,5.43774E-1,4.0909E-1,7.84431E-1,4.4023E-2,4.16667E-1,2.9441E-2,8.33328E-1,4.08113E-1,9.23077E-1,3.579E-3,9.84789E-1,-6.510615E-2,6.95E-4,-4.2497333E-2,6.66667E-1,4.33333E-1,-6.9032654E-2,4.44444E-1,8.95075E-1,8.5714E-2,5.41447E-1,-5.8778107E-2,-5.327796E-2,-2.750161E-3,7.9391964E-2,3.2894935E-2,6.8966E-2,8.87E-4,9.70086E-1,7.40417E-1,5E-1,8.57437E-1,3.08478E-1,2.82344E-1,8.33333E-1,8.77095E-1,7.047962E-2,6.91572E-1,2.91667E-1,6.25E-2,9.60311E-1,6.63205E-1,-6.447715E-2,3.314444E-2,5.370999E-2,-2.268362E-2,-5.565607E-2,1.1212182E-2,-5.086369E-2,1.7426634E-2,-5.5193048E-2,1.1387821E-2,7.198334E-2,1.1229995E-2,-2.4646316E-2,5.357319E-2,7.30465E-3,-5.639515E-2,-5.8501165E-2,-1.3770151E-2,-5.6663312E-2,2.6555398E-2,-3.5951864E-2,-1.6608945E-3,4.2862438E-2,-1.2987333E-2,7.435749E-3,6.177572E-2,-5.364132E-2,8.216142E-4,2.9373122E-2,-3.1448744E-2,-5.7056274E-2,5.4529782E-2,-6.493702E-2,1.2481005E-2,1.0961697E-2,-6.25633E-2,-2.9393067E-3,7.2232686E-2,5.5304866E-2,-2.8299266E-2,-2.922148E-2,5.950112E-2],"split_indices":[38,39,29,19,10,21,45,14,29,20,39,19,17,17,15,17,20,38,22,39,12,18,0,38,0,41,10,21,0,44,0,3,17,0,1,24,17,29,0,0,0,0,0,16,44,29,39,45,38,0,15,4,10,0,24,17,0,20,39,0,0,0,0,0,0,0,0,0,0,0,0,0,0,0,0,0,0,0,0,0,0,0,0,0,0,0,0,0,0,0,0,0,0,0,0,0,0,0,0,0,0],"split_type":[0,0,0,0,0,0,0,0,0,0,0,0,0,0,0,0,0,0,0,0,0,0,0,0,0,0,0,0,0,0,0,0,0,0,0,0,0,0,0,0,0,0,0,0,0,0,0,0,0,0,0,0,0,0,0,0,0,0,0,0,0,0,0,0,0,0,0,0,0,0,0,0,0,0,0,0,0,0,0,0,0,0,0,0,0,0,0,0,0,0,0,0,0,0,0,0,0,0,0,0,0],"sum_hessian":[1.1709536E3,3.171688E2,8.5378485E2,2.2793936E2,8.9229416E1,7.2657556E2,1.2720929E2,9.905705E1,1.2888231E2,1.5288997E1,7.394042E1,3.5151254E2,3.7506302E2,1.794938E1,1.0925991E2,2.0957905E1,7.809915E1,1.1900047E2,9.881836E0,3.102225E0,1.2186771E1,2.1335318E1,5.2605103E1,1.6046213E2,1.9105042E2,3.4002127E2,3.504174E1,1.4307682E1,3.641699E0,1.0719457E2,2.0653386E0,1.3626776E1,7.3311296E0,6.5965034E1,1.2134115E1,9.18957E1,2.7104774E1,7.052247E0,2.8295884E0,1.7885005E0,1.3137245E0,8.421582E0,3.7651894E0,1.8243956E1,3.0913622E0,3.566219E1,1.6942913E1,1.0959279E2,5.086934E1,9.173072E1,9.9319695E1,3.277017E2,1.2319584E1,2.8591528E0,3.2182587E1,4.910566E0,9.397117E0,1.3841047E1,9.335352E1,1.2383636E1,1.2431393E0,2.0756946E0,5.255435E0,1.0288358E1,1.8457566E0,8.994201E1,1.953693E0,7.9015203E0,1.9203253E1,5.0060177E0,2.0462294E0,3.767777E0,1.4476179E1,1.1254354E0,1.9659269E0,2.8819006E1,6.843186E0,3.6457558E0,1.3297157E1,9.0649055E1,1.8943731E1,1.742666E1,3.344268E1,6.0703506E1,3.1027212E1,1.345421E1,8.5865486E1,3.1300912E2,1.4692559E1,9.780279E0,2.5393045E0,2.14657E1,1.07168865E1,1.9366944E0,2.9738715E0,1.10336E0,8.2937565E0,7.662547E0,6.1785E0,3.3306098E0,9.002291E1],"tree_param":{"num_deleted":"0","num_feature":"46","num_nodes":"101","size_leaf_vector":"1"}},{"base_weights":[-6.35257E-3,-4.729581E-1,7.861651E-2,-5.787197E-1,-2.4546374E-1,1.9284114E-2,2.7448177E-1,-6.0372037E-1,-2.3693927E-1,3.589008E-1,-3.68785E-1,-5.8478218E-2,1.7331927E-1,-2.6260176E-1,3.2735544E-1,-6.1041856E-1,4.1526346E-3,-5.4807067E-1,4.085832E-1,5.0083E-1,-3.0453283E-2,1.5594379E-2,-4.534441E-1,2.8185587E-2,-1.753718E-1,6.15587E-2,4.6903622E-1,-4.8301062E-1,1.7273194E-1,3.5640427E-1,-4.2208663E-1,-4.9269488E-1,-6.4519966E-1,-1.2275296E-2,-6.011928E-2,5.7012727E-3,5.2434426E-2,-1.1442542E-1,7.439773E-2,-2.1231502E-1,5.3527083E-2,-5.4842985E-1,-1.14678785E-1,-2.5566867E-1,1.04427196E-1,-2.0878454E-1,2.7379367E-1,-1.30084E-1,2.836532E-1,5.3987783E-1,-1.6986476E-1,-6.1823565E-1,-4.4044293E-2,-2.5821084E-1,5.6616373E-2,7.057758E-2,3.9194852E-1,3.5203196E-2,-5.843271E-1,-2.1892933E-2,-6.275266E-2,-6.724038E-2,-3.611088E-2,3.503844E-2,-4.7593717E-2,-4.8065193E-2,2.5742147E-2,-5.8190793E-2,-1.0989419E-2,-5.2850105E-2,2.2965923E-2,-3.5875425E-2,5.658148E-2,2.9872557E-2,-2.6992783E-3,-2.2625856E-2,5.335904E-2,4.7471773E-2,-2.491073E-2,1.8777054E-2,-3.6378287E-2,-5.04488E-2,3.2343276E-2,6.406974E-2,-1.432428E-3,-5.4829277E-2,5.512632E-2,-6.708824E-2,-1.570308E-2,4.7085416E-2,-4.699206E-2,-4.929797E-2,2.3323275E-2,-5.213496E-2,2.5760023E-2,1.4610688E-2,4.4613436E-2,-7.060476E-2,-6.5426114E-3],"categories":[],"categories_nodes":[],"categories_segments":[],"categories_sizes":[],"default_left":[0,0,0,0,0,0,0,0,0,0,0,0,0,0,0,0,0,0,0,0,0,0,0,0,0,0,0,0,0,0,0,0,0,0,0,0,0,0,0,0,0,0,0,0,0,0,0,0,0,0,0,0,0,0,0,0,0,0,0,0,0,0,0,0,0,0,0,0,0,0,0,0,0,0,0,0,0,0,0,0,0,0,0,0,0,0,0,0,0,0,0,0,0,0,0,0,0,0,0],"id":8,"left_children":[1,3,5,7,9,11,13,15,17,19,21,23,25,27,29,31,-1,33,35,37,-1,39,41,43,45,47,49,51,53,55,57,59,61,-1,-1,-1,-1,63,-1,65,-1,67,69,71,73,75,77,79,81,83,85,87,89,91,-1,93,95,-1,97,-1,-1,-1,-1,-1,-1,-1,-1,-1,-1,-1,-1,-1,-1,-1,-1,-1,-1,-1,-1,-1,-1,-1,-1,-1,-1,-1,-1,-1,-1,-1,-1,-1,-1,-1,-1,-1,-1,-1,-1],"loss_changes":[4.4458076E1,4.0140877E0,1.101934E1,8.5824585E-1,4.347599E0,8.744389E0,6.3472347E0,4.944954E-1,2.1587386E0,1.1027423E0,1.5516524E0,4.9213276E0,8.064129E0,2.0327306E0,4.5300026E0,1.2226868E-1,0E0,8.27198E-2,1.2093246E-1,1.3853157E0,0E0,1.2428471E0,1.1898365E0,6.0766125E0,3.1601348E0,7.6498218E0,3.1247168E0,7.889857E-1,1.4288175E0,1.9453754E0,1.2059712E0,9.2374086E-1,3.7353516E-1,0E0,0E0,0E0,0E0,7.2606874E-1,0E0,1.0493574E0,0E0,3.7856865E-1,1.5163763E0,5.239792E0,5.653098E0,2.6244888E0,1.6677353E0,7.2513704E0,2.7705078E0,3.393074E0,2.33514E0,1.480329E-1,1.1674716E0,6.107701E-1,0E0,2.6471877E0,2.2328053E0,0E0,3.9342785E-1,0E0,0E0,0E0,0E0,0E0,0E0,0E0,0E0,0E0,0E0,0E0,0E0,0E0,0E0,0E0,0E0,0E0,0E0,0E0,0E0,0E0,0E0,0E0,0E0,0E0,0E0,0E0,0E0,0E0,0E0,0E0,0E0,0E0,0E0,0E0,0E0,0E0,0E0,0E0,0E0],"parents":[2147483647,0,0,1,1,2,2,3,3,4,4,5,5,6,6,7,7,8,8,9,9,10,10,11,11,12,12,13,13,14,14,15,15,17,17,18,18,19,19,21,21,22,22,23,23,24,24,25,25,26,26,27,27,28,28,29,29,30,30,31,31,32,32,37,37,39,39,41,41,42,42,43,43,44,44,45,45,46,46,47,47,48,48,49,49,50,50,51,51,52,52,53,53,55,55,56,56,58,58],"right_children":[2,4,6,8,10,12,14,16,18,20,22,24,26,28,30,32,-1,34,36,38,-1,40,42,44,46,48,50,52,54,56,58,60,62,-1,-1,-1,-1,64,-1,66,-1,68,70,72,74,76,78,80,82,84,86,88,90,92,-1,94,96,-1,98,-1,-1,-1,-1,-1,-1,-1,-1,-1,-1,-1,-1,-1,-1,-1,-1,-1,-1,-1,-1,-1,-1,-1,-1,-1,-1,-1,-1,-1,-1,-1,-1,-1,-1,-1,-1,-1,-1,-1,-1],"split_conditions":[4.99764E-1,4.04951E-1,6.32481E-1,6.71985E-1,1.81686E-1,8.99322E-1,5.69746E-1,4.93809E-1,1.76471E-1,4.80838E-1,7.1429E-2,2.7027E-1,1.02797E-1,5.43055E-1,8.88889E-1,3.1E-4,4.1526346E-3,5.8824E-2,2.41379E-1,6.8761E-2,-3.0453283E-2,7.77778E-1,1.81818E-1,5.7235E-2,9.58544E-1,4.2978E-2,7.00282E-1,4.68932E-1,1.2662E-2,7.00151E-1,1.17E-4,1.26582E-1,1E0,-1.2275296E-2,-6.011928E-2,5.7012727E-3,5.2434426E-2,4E-5,7.439773E-2,1.5E-1,5.3527083E-2,7.77869E-1,4.98076E-1,9.53943E-1,6.9444E-2,9.98034E-1,8.06368E-1,1.6E-1,1.1765E-2,2.1563E-2,8.88889E-1,9.2E-1,8.1354E-1,4.8584E-1,5.6616373E-2,1.4917E-1,9.062E-3,3.5203196E-2,7.33333E-1,-2.1892933E-2,-6.275266E-2,-6.724038E-2,-3.611088E-2,3.503844E-2,-4.7593717E-2,-4.8065193E-2,2.5742147E-2,-5.8190793E-2,-1.0989419E-2,-5.2850105E-2,2.2965923E-2,-3.5875425E-2,5.658148E-2,2.9872557E-2,-2.6992783E-3,-2.2625856E-2,5.335904E-2,4.7471773E-2,-2.491073E-2,1.8777054E-2,-3.6378287E-2,-5.04488E-2,3.2343276E-2,6.406974E-2,-1.432428E-3,-5.4829277E-2,5.512632E-2,-6.708824E-2,-1.570308E-2,4.7085416E-2,-4.699206E-2,-4.929797E-2,2.3323275E-2,-5.213496E-2,2.5760023E-2,1.4610688E-2,4.4613436E-2,-7.060476E-2,-6.5426114E-3],"split_indices":[39,22,24,30,21,21,22,39,44,20,40,41,15,10,41,10,0,18,18,20,0,2,44,10,31,31,19,35,0,20,44,41,44,0,0,0,0,44,0,18,0,20,21,31,16,26,39,18,41,32,41,16,33,22,0,10,15,0,16,0,0,0,0,0,0,0,0,0,0,0,0,0,0,0,0,0,0,0,0,0,0,0,0,0,0,0,0,0,0,0,0,0,0,0,0,0,0,0,0],"split_type":[0,0,0,0,0,0,0,0,0,0,0,0,0,0,0,0,0,0,0,0,0,0,0,0,0,0,0,0,0,0,0,0,0,0,0,0,0,0,0,0,0,0,0,0,0,0,0,0,0,0,0,0,0,0,0,0,0,0,0,0,0,0,0,0,0,0,0,0,0,0,0,0,0,0,0,0,0,0,0,0,0,0,0,0,0,0,0,0,0,0,0,0,0,0,0,0,0,0,0],"sum_hessian":[1.1194088E3,1.717395E2,9.476693E2,1.161826E2,5.55569E1,7.2818317E2,2.194861E2,1.0754914E2,8.63346E0,9.091516E0,4.6465385E1,4.8430795E2,2.4387523E2,1.9315487E1,2.0017062E2,1.0649759E2,1.0515546E0,5.927478E0,2.705983E0,7.6912174E0,1.4002979E0,8.5340185E0,3.7931366E1,2.7855142E2,2.0575653E2,1.7786334E2,6.601189E1,1.2750439E1,6.5650477E0,1.9320627E2,6.9643517E0,2.7747202E1,7.875039E1,1.0257409E0,4.9017367E0,1.0399926E0,1.6659902E0,2.3285346E0,5.362683E0,6.343472E0,2.1905468E0,2.9141521E1,8.7898445E0,5.8478264E1,2.2007317E2,1.9200848E2,1.3748048E1,9.569959E1,8.216375E1,5.9562553E1,6.449335E0,9.435432E0,3.3150055E0,3.29719E0,3.267858E0,2.1699203E1,1.7150706E2,1.004004E0,5.9603477E0,1.0022004E1,1.7725197E1,7.0620964E1,8.129427E0,1.0321889E0,1.2963458E0,4.022425E0,2.321047E0,2.6770884E1,2.3706386E0,3.7492268E0,5.040618E0,5.2458664E1,6.0196E0,8.828088E1,1.3179228E2,1.8827216E2,3.7363286E0,9.9983425E0,3.7497048E0,4.0632175E1,5.5067417E1,3.3864677E0,7.877728E1,5.0262768E1,9.299787E0,4.38689E0,2.0624452E0,8.060674E0,1.3747592E0,1.45285E0,1.8621557E0,2.2291641E0,1.0680258E0,4.780687E0,1.6918516E1,3.1642246E1,1.3986482E2,4.5357265E0,1.424621E0],"tree_param":{"num_deleted":"0","num_feature":"46","num_nodes":"99","size_leaf_vector":"1"}},{"base_weights":[-2.6955644E-3,-3.9658222E-1,1.0764819E-1,-5.2516574E-1,-1.5417074E-1,4.745642E-2,2.8601152E-1,-5.62859E-1,-1.1883359E-1,5.238108E-1,-2.2406444E-1,-1.0433855E-2,2.7551687E-1,2.3784924E-2,3.743639E-1,-6.0116506E-1,-4.0406305E-1,5.628335E-2,-4.3829146E-1,1.0674841E-2,6.317539E-2,-1.390979E-1,-5.0089765E-1,-1.9192527E-1,9.508815E-2,3.1480962E-1,-6.427672E-1,1.9745614E-1,-4.7642115E-1,1.6974872E-1,4.927386E-1,-6.1753786E-1,-3.6734664E-1,-4.7420916E-1,2.359967E-1,2.8336687E-2,-6.2988974E-2,-3.1184716E-2,-4.5647052E-1,1.9551242E-2,-5.5704725E-1,4.2986605E-1,-2.2321244E-1,6.780948E-2,5.3802574E-1,3.6327815E-1,-4.6105322E-1,-1.1599897E-2,-7.839299E-2,-8.2989186E-2,6.002335E-1,2.669148E-1,-6.477015E-1,-6.1674114E-2,3.6951435E-1,-4.4364655E-1,5.2083415E-1,-6.2156018E-2,-1.1557032E-2,-6.202954E-2,1.6105568E-2,-5.4003354E-2,9.780603E-3,4.4150125E-2,-5.0364467E-3,7.7919974E-3,-4.04026E-2,-5.497806E-2,1.4013752E-2,-5.4724803E-3,-5.8805E-2,-3.9720196E-2,6.740277E-2,-1.8791983E-2,-7.333707E-2,-1.2782878E-2,1.1642025E-2,-5.5100974E-2,6.824591E-2,3.997194E-2,-6.2016036E-2,-7.239174E-2,4.3404475E-2,-3.8263064E-2,2.6717866E-2,-2.6835544E-2,7.046102E-2,-3.074813E-3,4.14699E-2,6.0414866E-4,-7.574428E-2,-5.6335818E-2,1.5370264E-2,-2.9519448E-2,4.6661288E-2,-1.4672833E-2,-5.3408016E-2,3.913368E-2,5.9240934E-2],"categories":[],"categories_nodes":[],"categories_segments":[],"categories_sizes":[],"default_left":[0,0,0,0,0,0,0,0,0,0,0,0,0,0,0,0,0,0,0,0,0,0,0,0,0,0,0,0,0,0,0,0,0,0,0,0,0,0,0,0,0,0,0,0,0,0,0,0,0,0,0,0,0,0,0,0,0,0,0,0,0,0,0,0,0,0,0,0,0,0,0,0,0,0,0,0,0,0,0,0,0,0,0,0,0,0,0,0,0,0,0,0,0,0,0,0,0,0,0],"id":9,"left_children":[1,3,5,7,9,11,13,15,17,19,21,23,25,27,29,31,33,-1,35,-1,-1,37,39,41,43,45,47,49,51,53,55,57,59,61,63,-1,-1,65,67,-1,69,71,73,75,77,79,81,-1,-1,83,85,87,89,91,93,95,97,-1,-1,-1,-1,-1,-1,-1,-1,-1,-1,-1,-1,-1,-1,-1,-1,-1,-1,-1,-1,-1,-1,-1,-1,-1,-1,-1,-1,-1,-1,-1,-1,-1,-1,-1,-1,-1,-1,-1,-1,-1,-1],"loss_changes":[4.707467E1,7.306961E0,9.070131E0,2.2987442E0,4.0772047E0,8.3707485E0,4.9325943E0,6.152382E-1,3.3779767E0,2.976308E-1,1.7286713E0,9.717639E0,4.833479E0,4.856365E0,3.778843E0,2.0041656E-1,1.4798374E0,0E0,1.6099943E0,0E0,0E0,2.036734E0,7.959757E-1,3.724803E0,3.8411853E0,4.82129E0,3.251412E-1,4.7261033E0,2.0089717E0,2.7952027E0,2.8749657E0,1.3579941E-1,1.406021E0,1.0992069E0,2.3861921E-1,0E0,0E0,1.8930479E0,9.188776E-1,0E0,2.2508192E-1,2.1413312E0,3.0716515E0,2.9007525E0,3.2818232E0,4.44226E0,2.1299787E0,0E0,0E0,2.7551718E0,1.740705E0,1.6270515E-1,8.663745E-1,3.1812062E0,2.2243438E0,1.4742851E-2,6.767864E-1,0E0,0E0,0E0,0E0,0E0,0E0,0E0,0E0,0E0,0E0,0E0,0E0,0E0,0E0,0E0,0E0,0E0,0E0,0E0,0E0,0E0,0E0,0E0,0E0,0E0,0E0,0E0,0E0,0E0,0E0,0E0,0E0,0E0,0E0,0E0,0E0,0E0,0E0,0E0,0E0,0E0,0E0],"parents":[2147483647,0,0,1,1,2,2,3,3,4,4,5,5,6,6,7,7,8,8,9,9,10,10,11,11,12,12,13,13,14,14,15,15,16,16,18,18,21,21,22,22,23,23,24,24,25,25,26,26,27,27,28,28,29,29,30,30,31,31,32,32,33,33,34,34,37,37,38,38,40,40,41,41,42,42,43,43,44,44,45,45,46,46,49,49,50,50,51,51,52,52,53,53,54,54,55,55,56,56],"right_children":[2,4,6,8,10,12,14,16,18,20,22,24,26,28,30,32,34,-1,36,-1,-1,38,40,42,44,46,48,50,52,54,56,58,60,62,64,-1,-1,66,68,-1,70,72,74,76,78,80,82,-1,-1,84,86,88,90,92,94,96,98,-1,-1,-1,-1,-1,-1,-1,-1,-1,-1,-1,-1,-1,-1,-1,-1,-1,-1,-1,-1,-1,-1,-1,-1,-1,-1,-1,-1,-1,-1,-1,-1,-1,-1,-1,-1,-1,-1,-1,-1,-1,-1],"split_conditions":[5.96705E-1,5.29032E-1,7.13165E-1,6.10679E-1,2.45637E-1,9.78463E-1,6.58E-3,3.14286E-1,2.93867E-1,9.6211E-2,5.84741E-1,3.7518E-2,3.49419E-1,9.97706E-1,5.28014E-1,9.64029E-1,6.71985E-1,5.628335E-2,6.84522E-1,1.0674841E-2,6.317539E-2,6.15385E-1,5.33692E-1,9.37E-4,9.29603E-1,2.82344E-1,5.06231E-1,9.68828E-1,1.1765E-2,2.17675E-1,6.61438E-1,7.09046E-1,4.35959E-1,8.83834E-1,2.474E-3,2.8336687E-2,-6.2988974E-2,4.61646E-1,8.77095E-1,1.9551242E-2,1.81159E-1,7.29517E-1,9.69051E-1,6.42308E-1,1.51515E-1,9.44444E-1,5.17647E-1,-1.1599897E-2,-7.839299E-2,4.591E-3,8.76284E-1,5.5556E-2,9.89394E-1,1.36364E-1,6.89728E-1,6.08304E-1,9.8039E-2,-6.2156018E-2,-1.1557032E-2,-6.202954E-2,1.6105568E-2,-5.4003354E-2,9.780603E-3,4.4150125E-2,-5.0364467E-3,7.7919974E-3,-4.04026E-2,-5.497806E-2,1.4013752E-2,-5.4724803E-3,-5.8805E-2,-3.9720196E-2,6.740277E-2,-1.8791983E-2,-7.333707E-2,-1.2782878E-2,1.1642025E-2,-5.5100974E-2,6.824591E-2,3.997194E-2,-6.2016036E-2,-7.239174E-2,4.3404475E-2,-3.8263064E-2,2.6717866E-2,-2.6835544E-2,7.046102E-2,-3.074813E-3,4.14699E-2,6.0414866E-4,-7.574428E-2,-5.6335818E-2,1.5370264E-2,-2.9519448E-2,4.6661288E-2,-1.4672833E-2,-5.3408016E-2,3.913368E-2,5.9240934E-2],"split_indices":[39,38,30,11,21,39,19,45,24,37,15,15,30,36,24,0,30,0,11,0,0,40,38,14,35,15,12,21,41,10,36,26,38,14,0,0,0,14,10,0,0,39,37,37,0,41,41,0,0,19,36,3,30,41,22,20,45,0,0,0,0,0,0,0,0,0,0,0,0,0,0,0,0,0,0,0,0,0,0,0,0,0,0,0,0,0,0,0,0,0,0,0,0,0,0,0,0,0,0],"split_type":[0,0,0,0,0,0,0,0,0,0,0,0,0,0,0,0,0,0,0,0,0,0,0,0,0,0,0,0,0,0,0,0,0,0,0,0,0,0,0,0,0,0,0,0,0,0,0,0,0,0,0,0,0,0,0,0,0,0,0,0,0,0,0,0,0,0,0,0,0,0,0,0,0,0,0,0,0,0,0,0,0,0,0,0,0,0,0,0,0,0,0,0,0,0,0,0,0,0,0],"sum_hessian":[1.081117E3,2.3601959E2,8.4509735E2,1.5345517E2,8.256442E1,6.328106E2,2.1228673E2,1.4007588E2,1.3379293E1,7.109229E0,7.545519E1,5.0546017E2,1.2735045E2,5.382004E1,1.5846669E2,1.1060828E2,2.9467602E1,4.0262156E0,9.353078E0,1.8706154E0,5.2386136E0,5.88846E1,1.6570595E1,1.8553406E2,3.199261E2,1.2275503E2,4.595428E0,4.039884E1,1.34212E1,5.8969563E1,9.949712E1,1.01836235E2,8.772043E0,2.679065E1,2.6769533E0,1.8617606E0,7.4913173E0,4.4762646E1,1.4121954E1,1.051173E0,1.5519423E1,8.278113E0,1.7725595E2,3.0245242E2,1.7473684E1,1.1603786E2,6.7171674E0,1.3562253E0,3.2392027E0,2.4284216E1,1.6114626E1,2.408828E0,1.1012372E1,2.7640312E1,3.1329252E1,2.4675162E0,9.702961E1,1.00790344E2,1.0458888E0,5.8146396E0,2.957404E0,2.4076023E1,2.714626E0,1.2430942E0,1.4338591E0,3.524105E1,9.521593E0,1.2279861E1,1.842093E0,1.0629019E0,1.4456521E1,1.7439374E0,6.534176E0,1.6706668E2,1.0189272E1,5.9870148E1,2.4258226E2,1.7164651E0,1.5757219E1,1.1246406E2,3.5737958E0,5.3401604E0,1.377007E0,1.303627E1,1.1247947E1,1.560191E0,1.4554434E1,1.0619056E0,1.3469224E0,1.7187146E0,9.293657E0,7.8167696E0,1.9823544E1,3.7331333E0,2.7596119E1,1.1883469E0,1.2791694E0,3.6841557E1,6.018805E1],"tree_param":{"num_deleted":"0","num_feature":"46","num_nodes":"99","size_leaf_vector":"1"}},{"base_weights":[-1.8526574E-3,-2.727777E-1,1.2749405E-1,-3.5302964E-1,4.8082896E-2,8.368108E-2,3.2914358E-1,-4.6811178E-1,-1.8198581E-1,-2.3738551E-1,2.3242995E-1,4.1415736E-2,2.3262481E-1,4.8105377E-1,1.4160281E-1,-5.5802375E-1,-3.1859416E-1,7.591875E-2,-3.593888E-1,-2.1054342E-2,-6.041767E-1,6.7102715E-2,1.3463257E-1,1.1899186E-1,-5.2654073E-2,-4.9506742E-1,2.7005512E-1,-4.3058913E-2,5.063495E-1,4.2594275E-1,2.46359E-3,-4.3690673E-1,-6.045386E-1,-3.5310224E-1,2.1659821E-1,-5.160984E-1,3.221243E-1,-3.9755312E-1,1.2748016E-1,-4.4503564E-1,1.9073825E-1,-6.9088176E-2,8.59837E-3,-1.5975955E-1,4.1545865E-1,-1.421815E-1,1.8575864E-1,-1.4040808E-1,1.3063967E-1,-7.102098E-2,2.7592078E-2,-4.7810546E-1,3.0188018E-1,1.3419095E-1,5.62573E-1,-5.3466316E-2,5.476412E-1,-1.4276087E-1,3.624833E-1,-5.6780577E-2,2.9737407E-2,-6.42906E-2,-2.872749E-2,1.561826E-2,-3.809017E-2,-4.8941124E-2,6.511048E-2,3.8411866E-3,-5.9732635E-2,4.1896246E-2,-4.4282056E-2,-3.0183718E-2,-6.1539054E-2,4.75407E-2,-4.5654107E-2,-5.7639934E-2,1.2381882E-2,3.5435922E-2,-2.8287796E-2,-4.7626622E-2,2.6164478E-2,-3.602605E-2,5.364899E-2,3.8855409E-3,-7.0276916E-2,6.129064E-2,1.2200199E-2,4.929654E-2,-1.8676396E-2,2.0905787E-2,-5.558771E-2,1.6239453E-2,-6.820541E-2,3.4048494E-2,-2.0868232E-2,-5.4908704E-2,4.2549353E-2,5.8876265E-2,-1.9202756E-2,-3.227371E-2,6.215756E-2,5.9780306E-3,-6.572146E-2,-3.8763788E-2,4.9673393E-2],"categories":[],"categories_nodes":[],"categories_segments":[],"categories_sizes":[],"default_left":[0,0,0,0,0,0,0,0,0,0,0,0,0,0,0,0,0,0,0,0,0,0,0,0,0,0,0,0,0,0,0,0,0,0,0,0,0,0,0,0,0,0,0,0,0,0,0,0,0,0,0,0,0,0,0,0,0,0,0,0,0,0,0,0,0,0,0,0,0,0,0,0,0,0,0,0,0,0,0,0,0,0,0,0,0,0,0,0,0,0,0,0,0,0,0,0,0,0,0,0,0,0,0,0,0],"id":10,"left_children":[1,3,5,7,9,11,13,15,17,19,21,23,25,27,29,31,33,35,37,39,41,-1,43,45,47,49,51,-1,53,55,57,59,61,63,65,67,69,71,73,75,77,-1,-1,79,81,83,85,87,89,-1,-1,91,93,95,97,-1,99,101,103,-1,-1,-1,-1,-1,-1,-1,-1,-1,-1,-1,-1,-1,-1,-1,-1,-1,-1,-1,-1,-1,-1,-1,-1,-1,-1,-1,-1,-1,-1,-1,-1,-1,-1,-1,-1,-1,-1,-1,-1,-1,-1,-1,-1,-1,-1],"loss_changes":[3.7464077E1,8.912674E0,6.3655434E0,5.3568535E0,3.7388983E0,3.7410264E0,3.6018543E0,2.0354767E0,5.189788E0,2.2059484E0,1.7557161E0,3.4019723E0,3.7149343E0,1.8496475E0,2.335767E0,3.0758667E-1,1.2613325E0,6.989093E0,1.2960682E0,1.7572474E0,6.779821E-1,0E0,3.0791564E0,4.4786663E0,3.4121742E0,1.3214188E0,3.1371756E0,0E0,1.3745975E0,2.5608654E0,2.1778603E0,3.2220101E0,6.760845E-1,9.1815615E-1,1.7008966E0,6.5953374E-1,2.6801112E0,1.1152315E0,1.3608733E0,5.5740285E-1,1.1169446E0,0E0,0E0,2.5939088E0,1.9704075E0,5.3603373E0,5.47472E0,4.2955275E0,3.8217E0,0E0,0E0,8.3127034E-1,2.459527E0,2.305435E0,1.2967186E0,0E0,1.3404841E0,3.1333332E0,1.3980886E0,0E0,0E0,0E0,0E0,0E0,0E0,0E0,0E0,0E0,0E0,0E0,0E0,0E0,0E0,0E0,0E0,0E0,0E0,0E0,0E0,0E0,0E0,0E0,0E0,0E0,0E0,0E0,0E0,0E0,0E0,0E0,0E0,0E0,0E0,0E0,0E0,0E0,0E0,0E0,0E0,0E0,0E0,0E0,0E0,0E0,0E0],"parents":[2147483647,0,0,1,1,2,2,3,3,4,4,5,5,6,6,7,7,8,8,9,9,10,10,11,11,12,12,13,13,14,14,15,15,16,16,17,17,18,18,19,19,20,20,22,22,23,23,24,24,25,25,26,26,28,28,29,29,30,30,31,31,32,32,33,33,34,34,35,35,36,36,37,37,38,38,39,39,40,40,43,43,44,44,45,45,46,46,47,47,48,48,51,51,52,52,53,53,54,54,56,56,57,57,58,58],"right_children":[2,4,6,8,10,12,14,16,18,20,22,24,26,28,30,32,34,36,38,40,42,-1,44,46,48,50,52,-1,54,56,58,60,62,64,66,68,70,72,74,76,78,-1,-1,80,82,84,86,88,90,-1,-1,92,94,96,98,-1,100,102,104,-1,-1,-1,-1,-1,-1,-1,-1,-1,-1,-1,-1,-1,-1,-1,-1,-1,-1,-1,-1,-1,-1,-1,-1,-1,-1,-1,-1,-1,-1,-1,-1,-1,-1,-1,-1,-1,-1,-1,-1,-1,-1,-1,-1,-1,-1],"split_conditions":[6.82054E-1,3.09219E-1,8.28227E-1,1.24629E-1,5.28E-3,9.79255E-1,6.13917E-1,4.98076E-1,2.70492E-1,3.07692E-1,6.188E-3,2.38095E-1,7.50862E-1,7.124E-3,1E0,1.34831E-1,9.08094E-1,3.025E-3,7.55238E-1,7.813E-3,8.14414E-1,6.7102715E-2,1.98276E-1,4.7619E-2,2.5722E-2,9.25533E-1,1.183E-2,-4.3058913E-2,7.12399E-1,8.12079E-1,9.94292E-1,1.23377E-1,6.47059E-1,5.02854E-1,4.97228E-1,1.5235E-2,5.33333E-1,1.241E-3,6.48048E-1,9.52935E-1,7.9795E-2,-6.9088176E-2,8.59837E-3,3.07692E-1,1.23145E-1,4.4E-1,3.5503E-2,1.692E-3,8.33333E-1,-7.102098E-2,2.7592078E-2,8.97702E-1,6.1756E-1,7E-1,8.88889E-1,-5.3466316E-2,2.98E-3,9.96073E-1,8.79095E-1,-5.6780577E-2,2.9737407E-2,-6.42906E-2,-2.872749E-2,1.561826E-2,-3.809017E-2,-4.8941124E-2,6.511048E-2,3.8411866E-3,-5.9732635E-2,4.1896246E-2,-4.4282056E-2,-3.0183718E-2,-6.1539054E-2,4.75407E-2,-4.5654107E-2,-5.7639934E-2,1.2381882E-2,3.5435922E-2,-2.8287796E-2,-4.7626622E-2,2.6164478E-2,-3.602605E-2,5.364899E-2,3.8855409E-3,-7.0276916E-2,6.129064E-2,1.2200199E-2,4.929654E-2,-1.8676396E-2,2.0905787E-2,-5.558771E-2,1.6239453E-2,-6.820541E-2,3.4048494E-2,-2.0868232E-2,-5.4908704E-2,4.2549353E-2,5.8876265E-2,-1.9202756E-2,-3.227371E-2,6.215756E-2,5.9780306E-3,-6.572146E-2,-3.8763788E-2,4.9673393E-2],"split_indices":[23,31,24,4,43,21,31,21,4,18,43,18,20,4,24,41,12,43,24,0,36,0,44,18,31,10,14,0,20,29,23,41,44,21,23,21,18,45,27,10,4,0,0,41,43,45,41,14,40,0,0,23,0,1,18,0,45,20,29,0,0,0,0,0,0,0,0,0,0,0,0,0,0,0,0,0,0,0,0,0,0,0,0,0,0,0,0,0,0,0,0,0,0,0,0,0,0,0,0,0,0,0,0,0,0],"split_type":[0,0,0,0,0,0,0,0,0,0,0,0,0,0,0,0,0,0,0,0,0,0,0,0,0,0,0,0,0,0,0,0,0,0,0,0,0,0,0,0,0,0,0,0,0,0,0,0,0,0,0,0,0,0,0,0,0,0,0,0,0,0,0,0,0,0,0,0,0,0,0,0,0,0,0,0,0,0,0,0,0,0,0,0,0,0,0,0,0,0,0,0,0,0,0,0,0,0,0,0,0,0,0,0,0],"sum_hessian":[1.0670884E3,3.4446832E2,7.2262006E2,2.7546918E2,6.899914E1,5.948009E2,1.2781914E2,1.6363506E2,1.1183412E2,2.6961119E1,4.203802E1,4.6432016E2,1.3048074E2,6.975319E1,5.806595E1,1.00479706E2,6.315535E1,4.5809433E1,6.60247E1,1.7623997E1,9.337122E0,6.5958514E0,3.544217E1,2.5432347E2,2.099967E2,5.785083E0,1.2469566E2,1.4506468E0,6.830254E1,1.8401016E1,3.9664932E1,3.0765156E1,6.971455E1,5.9649506E1,3.5058434E0,1.3133317E1,3.2676117E1,6.1395515E1,4.6291795E0,5.5041404E0,1.2119856E1,8.294088E0,1.0430337E0,1.7513618E1,1.7928553E1,5.1548874E1,2.027746E2,1.4216672E2,6.782999E1,4.5845942E0,1.2004886E0,4.5156817E0,1.20179985E2,9.408939E0,5.88936E1,1.6875201E0,1.6713495E1,2.869388E1,1.0971051E1,2.63029E1,4.4622555E0,6.1277706E1,8.436842E0,2.8484178E0,5.6801086E1,1.287494E0,2.2183495E0,1.7453858E0,1.1387931E1,2.9405788E1,3.270326E0,4.4311165E1,1.708435E1,3.0175002E0,1.6116793E0,4.460767E0,1.0433736E0,9.195033E0,2.924822E0,9.927285E0,7.5863333E0,2.15298E0,1.5775572E1,3.966885E1,1.1880022E1,2.5216883E1,1.7755771E2,9.0383835E0,1.3312833E2,6.15005E1,6.3294873E0,1.1398221E0,3.3758597E0,1.12041405E2,8.138575E0,2.5478277E0,6.861111E0,5.713056E1,1.7630388E0,1.0450977E0,1.5668398E1,2.1222391E1,7.471488E0,1.3789259E0,9.592125E0],"tree_param":{"num_deleted":"0","num_feature":"46","num_nodes":"105","size_leaf_vector":"1"}},{"base_weights":[-5.301268E-4,-2.9573417E-1,1.0863634E-1,-4.146336E-1,-3.0830273E-2,4.856648E-2,2.4727008E-1,-5.0550705E-1,-2.0553453E-1,-2.698379E-1,1.3808215E-1,-4.7952533E-1,6.5468766E-2,4.7653E-1,1.935907E-1,-3.1057167E-1,-5.439312E-1,-3.3587995E-1,2.4458212E-1,3.543796E-1,-4.0466052E-1,2.6792994E-1,-2.6484832E-1,-5.675556E-1,2.4099922E-2,-9.089444E-2,1.2867856E-1,1.115653E-1,6.8746346E-1,-2.0024449E-1,2.510273E-1,-1.5112741E-1,-5.17226E-1,-6.4160146E-2,-4.414845E-1,-4.2017266E-1,-6.957672E-2,-4.2037524E-2,3.6130232E-1,-4.7259122E-2,7.2450355E-2,-4.9505606E-1,6.7334905E-2,4.4934368E-1,-2.8468095E-2,-5.373218E-1,4.2352912E-1,-4.208931E-3,-6.5855145E-1,-5.0929368E-2,-5.3473437E-1,1.566892E-1,-2.0434405E-1,3.2678887E-1,-6.1026663E-2,8.204123E-3,7.264049E-1,5.989845E-2,-6.672799E-1,8.709494E-2,3.669979E-1,-3.884403E-2,3.2308158E-2,-6.439433E-2,1.4181012E-2,7.4753053E-3,-4.717811E-2,-5.116983E-2,4.1611213E-3,6.772231E-2,-4.5559373E-2,6.4518265E-2,4.513194E-3,1.7851878E-2,-5.3879526E-2,5.07808E-2,-3.7929278E-2,5.0975095E-2,-2.01981E-2,2.3556525E-2,-6.631166E-2,-1.5329512E-2,-6.1128803E-2,5.6064527E-2,8.36538E-3,-1.605693E-2,1.4956129E-2,-2.3405232E-2,-7.1171306E-2,6.366712E-3,-1.7783297E-2,-6.681832E-2,2.5349949E-2,1.1565684E-2,3.9089084E-2,-3.661855E-2,3.0846415E-2,-7.404007E-3,7.034921E-2,7.45574E-3,7.568638E-2,-5.137958E-2,3.616607E-2,-9.124081E-3,-7.6071195E-2,1.8895542E-2,-2.376605E-2,-2.6523673E-3,4.1061547E-2],"categories":[],"categories_nodes":[],"categories_segments":[],"categories_sizes":[],"default_left":[0,0,0,0,0,0,0,0,0,0,0,0,0,0,0,0,0,0,0,0,0,0,0,0,0,0,0,0,0,0,0,0,0,0,0,0,0,0,0,0,0,0,0,0,0,0,0,0,0,0,0,0,0,0,0,0,0,0,0,0,0,0,0,0,0,0,0,0,0,0,0,0,0,0,0,0,0,0,0,0,0,0,0,0,0,0,0,0,0,0,0,0,0,0,0,0,0,0,0,0,0,0,0,0,0,0,0,0,0],"id":11,"left_children":[1,3,5,7,9,11,13,15,17,19,21,23,25,27,29,31,33,35,37,39,41,43,45,47,-1,49,51,53,55,57,59,61,63,-1,65,67,69,-1,71,-1,-1,73,75,77,79,81,83,85,87,89,91,93,95,97,-1,-1,99,101,103,105,107,-1,-1,-1,-1,-1,-1,-1,-1,-1,-1,-1,-1,-1,-1,-1,-1,-1,-1,-1,-1,-1,-1,-1,-1,-1,-1,-1,-1,-1,-1,-1,-1,-1,-1,-1,-1,-1,-1,-1,-1,-1,-1,-1,-1,-1,-1,-1,-1],"loss_changes":[3.3472595E1,8.819132E0,6.3026237E0,3.5720978E0,3.5878365E0,4.764662E0,2.7257795E0,8.3601E-1,3.6194706E0,3.236753E0,2.8016138E0,1.1875358E0,5.0989776E0,3.2150497E0,4.285455E0,7.265425E-1,8.24852E-1,1.0296965E0,1.2475816E0,2.503896E0,1.342948E0,2.1619403E0,2.7077336E0,7.6926565E-1,0E0,2.6114883E0,3.4550395E0,2.8179562E0,5.746975E-1,3.002775E0,3.082878E0,1.8358877E0,9.451072E-1,0E0,9.307747E-1,1.5273466E0,3.923628E0,0E0,1.0970397E0,0E0,0E0,8.5866356E-1,1.3363624E0,1.080801E0,2.8566742E0,1.8790126E-1,1.5390587E-1,9.856977E-2,1.2588453E-1,2.0120635E0,1.4509172E0,3.2130165E0,2.5118089E0,2.1108932E0,0E0,0E0,4.4293022E-1,3.056091E0,4.0455246E-1,2.333848E0,1.6526165E0,0E0,0E0,0E0,0E0,0E0,0E0,0E0,0E0,0E0,0E0,0E0,0E0,0E0,0E0,0E0,0E0,0E0,0E0,0E0,0E0,0E0,0E0,0E0,0E0,0E0,0E0,0E0,0E0,0E0,0E0,0E0,0E0,0E0,0E0,0E0,0E0,0E0,0E0,0E0,0E0,0E0,0E0,0E0,0E0,0E0,0E0,0E0,0E0],"parents":[2147483647,0,0,1,1,2,2,3,3,4,4,5,5,6,6,7,7,8,8,9,9,10,10,11,11,12,12,13,13,14,14,15,15,16,16,17,17,18,18,19,19,20,20,21,21,22,22,23,23,25,25,26,26,27,27,28,28,29,29,30,30,31,31,32,32,34,34,35,35,36,36,38,38,41,41,42,42,43,43,44,44,45,45,46,46,47,47,48,48,49,49,50,50,51,51,52,52,53,53,56,56,57,57,58,58,59,59,60,60],"right_children":[2,4,6,8,10,12,14,16,18,20,22,24,26,28,30,32,34,36,38,40,42,44,46,48,-1,50,52,54,56,58,60,62,64,-1,66,68,70,-1,72,-1,-1,74,76,78,80,82,84,86,88,90,92,94,96,98,-1,-1,100,102,104,106,108,-1,-1,-1,-1,-1,-1,-1,-1,-1,-1,-1,-1,-1,-1,-1,-1,-1,-1,-1,-1,-1,-1,-1,-1,-1,-1,-1,-1,-1,-1,-1,-1,-1,-1,-1,-1,-1,-1,-1,-1,-1,-1,-1,-1,-1,-1,-1,-1],"split_conditions":[6.12776E-1,6.68421E-1,5.0406E-1,6.2704E-2,2.1739E-2,5.054E-3,2.84087E-1,5.36E-4,5.29032E-1,2.55E-1,4.09091E-1,5.00343E-1,7.45898E-1,8.46123E-1,5.45791E-1,1.545E-3,3.68095E-1,6.47059E-1,5.8824E-2,2.33794E-1,5.38462E-1,1.7544E-2,9.12985E-1,7.36427E-1,2.4099922E-2,5.9206E-2,4.26292E-1,1.96461E-1,2.95E-3,5.34879E-1,2.381E-2,1.15385E-1,4.68077E-1,-6.4160146E-2,3.77711E-1,3.57971E-1,7.05882E-1,-4.2037524E-2,5.5508E-1,-4.7259122E-2,7.2450355E-2,6.75791E-1,6.25E-1,1.0814E-2,7.39902E-1,8.8235E-2,6.024E-3,1.0962E-2,1.7113E-2,6.3096E-1,7.46206E-1,2.90004E-1,2.75E-1,6.144E-1,-6.1026663E-2,8.204123E-3,3.4483E-2,8.28369E-1,3.57971E-1,2.06897E-1,6.316E-3,-3.884403E-2,3.2308158E-2,-6.439433E-2,1.4181012E-2,7.4753053E-3,-4.717811E-2,-5.116983E-2,4.1611213E-3,6.772231E-2,-4.5559373E-2,6.4518265E-2,4.513194E-3,1.7851878E-2,-5.3879526E-2,5.07808E-2,-3.7929278E-2,5.0975095E-2,-2.01981E-2,2.3556525E-2,-6.631166E-2,-1.5329512E-2,-6.1128803E-2,5.6064527E-2,8.36538E-3,-1.605693E-2,1.4956129E-2,-2.3405232E-2,-7.1171306E-2,6.366712E-3,-1.7783297E-2,-6.681832E-2,2.5349949E-2,1.1565684E-2,3.9089084E-2,-3.661855E-2,3.0846415E-2,-7.404007E-3,7.034921E-2,7.45574E-3,7.568638E-2,-5.137958E-2,3.616607E-2,-9.124081E-3,-7.6071195E-2,1.8895542E-2,-2.376605E-2,-2.6523673E-3,4.1061547E-2],"split_indices":[22,39,28,43,44,15,31,14,38,38,41,11,23,22,30,43,38,41,18,38,1,4,32,20,0,29,12,25,15,24,44,16,22,0,38,31,41,0,38,0,0,39,1,15,23,16,1,0,10,21,21,13,0,24,0,0,18,20,31,16,19,0,0,0,0,0,0,0,0,0,0,0,0,0,0,0,0,0,0,0,0,0,0,0,0,0,0,0,0,0,0,0,0,0,0,0,0,0,0,0,0,0,0,0,0,0,0,0,0],"split_type":[0,0,0,0,0,0,0,0,0,0,0,0,0,0,0,0,0,0,0,0,0,0,0,0,0,0,0,0,0,0,0,0,0,0,0,0,0,0,0,0,0,0,0,0,0,0,0,0,0,0,0,0,0,0,0,0,0,0,0,0,0,0,0,0,0,0,0,0,0,0,0,0,0,0,0,0,0,0,0,0,0,0,0,0,0,0,0,0,0,0,0,0,0,0,0,0,0,0,0,0,0,0,0,0,0,0,0,0,0],"sum_hessian":[1.0366735E3,2.7940567E2,7.572678E2,1.9245775E2,8.694793E1,5.292811E2,2.2798668E2,1.3316661E2,5.9291138E1,3.5756176E1,5.1191753E1,1.5566112E1,5.13715E2,4.1759247E1,1.8622743E2,2.3422256E1,1.09744354E2,4.6173843E1,1.3117295E1,6.0618467E0,2.9694328E1,3.896878E1,1.2222976E1,1.406056E1,1.505551E0,1.4776013E2,3.659549E2,1.5855098E1,2.5904148E1,2.3386042E1,1.6284138E2,1.4198614E1,9.223642E0,5.3487675E1,5.625668E1,3.463353E1,1.1540313E1,1.5702106E0,1.1547084E1,1.7886364E0,4.27321E0,2.4880424E1,4.813904E0,2.3853167E1,1.5115612E1,8.914053E0,3.308922E0,2.1008222E0,1.1959738E1,1.3657697E2,1.1183173E1,3.380508E2,2.7904074E1,1.2635066E1,3.2200313E0,1.7532458E0,2.4150902E1,1.5579736E1,7.8063064E0,6.819463E1,9.464676E1,9.583512E0,4.615101E0,7.7553678E0,1.468275E0,3.03719E0,5.321949E1,2.8814415E1,5.8191147E0,3.6753964E0,7.8649163E0,5.535921E0,6.011163E0,1.3292218E0,2.3551203E1,2.3546844E0,2.4592192E0,2.2027576E1,1.8255901E0,1.1118711E1,3.996901E0,1.9358379E0,6.978215E0,1.8948997E0,1.4140223E0,1.019715E0,1.0811071E0,1.9323598E0,1.0027378E1,7.203039E1,6.454658E1,9.694234E0,1.4889395E0,2.8892474E2,4.9126064E1,2.1427507E1,6.4765654E0,6.51077E0,6.1242967E0,1.2320353E0,2.2918867E1,5.1280017E0,1.0451735E1,1.3653052E0,6.441001E0,5.2230534E1,1.5964097E1,9.482914E0,8.516384E1],"tree_param":{"num_deleted":"0","num_feature":"46","num_nodes":"109","size_leaf_vector":"1"}},{"base_weights":[-9.878135E-3,-3.355981E-1,8.871139E-2,-4.752945E-1,-1.9446631E-1,8.188979E-3,2.3428178E-1,-5.54099E-1,-2.948537E-1,3.1918314E-1,-2.4136981E-1,-1.2789895E-1,1.1646035E-1,-4.9813953E-1,2.586655E-1,-3.8179547E-1,-5.9709873E-2,-4.0614432E-1,9.312977E-2,-3.5122942E-2,4.7875917E-1,-2.916766E-1,8.383671E-2,3.229798E-2,-2.8555188E-1,1.4784981E-1,-4.22953E-1,-5.852399E-1,-2.678273E-3,-1.6477495E-2,2.9634717E-1,-1.0455869E-1,-5.5869704E-1,-1.2753443E-1,-5.441147E-1,4.1515836E-1,-3.9103597E-1,6.1165655E-1,-2.3332266E-2,5.326171E-3,-3.4666437E-1,-1.7530501E-1,5.284572E-1,-4.1059056E-1,1.5188044E-1,-3.3495992E-1,2.9912356E-1,1.9860071E-1,-1.8068735E-1,-6.3822615E-1,2.1897715E-1,-6.267684E-2,-1.6395958E-2,-4.1625065E-1,3.071563E-1,3.218502E-1,-8.8487305E-2,-3.2904565E-2,4.9605533E-2,-5.945602E-2,-1.5055942E-2,-3.229645E-2,5.1130045E-2,-5.7147887E-2,-2.13333E-2,-1.2421378E-2,5.4939218E-2,-4.702958E-3,-4.8740294E-2,6.998707E-2,1.57406E-2,-2.0588914E-2,3.6385145E-2,-5.112631E-2,-1.6299998E-2,-5.7736404E-2,2.3827849E-2,7.049377E-2,-2.6053637E-3,-6.1642993E-2,2.5910316E-2,-2.0916415E-2,2.3995396E-2,2.5336355E-2,-3.9362825E-2,-3.0753357E-2,5.860284E-2,4.6696935E-2,1.2585786E-2,-4.534593E-2,8.33593E-3,-3.552625E-2,-8.4597014E-2,-2.0976542E-2,4.614571E-2,2.5955498E-2,-4.970815E-2,4.6168145E-2,-3.5476957E-2,3.4640424E-2,-6.7610684E-4,-3.341358E-2,5.74896E-2],"categories":[],"categories_nodes":[],"categories_segments":[],"categories_sizes":[],"default_left":[0,0,0,0,0,0,0,0,0,0,0,0,0,0,0,0,0,0,0,0,0,0,0,0,0,0,0,0,0,0,0,0,0,0,0,0,0,0,0,0,0,0,0,0,0,0,0,0,0,0,0,0,0,0,0,0,0,0,0,0,0,0,0,0,0,0,0,0,0,0,0,0,0,0,0,0,0,0,0,0,0,0,0,0,0,0,0,0,0,0,0,0,0,0,0,0,0,0,0,0,0,0,0],"id":12,"left_children":[1,3,5,7,9,11,13,15,17,19,21,23,25,27,29,31,-1,33,35,-1,37,39,41,43,45,47,49,51,-1,53,55,57,59,61,63,65,67,69,-1,71,73,75,77,79,81,83,85,87,89,91,93,-1,-1,95,97,99,101,-1,-1,-1,-1,-1,-1,-1,-1,-1,-1,-1,-1,-1,-1,-1,-1,-1,-1,-1,-1,-1,-1,-1,-1,-1,-1,-1,-1,-1,-1,-1,-1,-1,-1,-1,-1,-1,-1,-1,-1,-1,-1,-1,-1,-1,-1],"loss_changes":[3.212376E1,4.490019E0,9.000258E0,1.4877281E0,2.9033217E0,7.3159637E0,5.013027E0,3.6239052E-1,1.6541705E0,1.264346E0,1.7924175E0,5.566166E0,4.7438974E0,3.6011386E-1,2.7557774E0,8.580632E-1,0E0,1.0559759E0,1.5901543E0,0E0,9.659971E-1,1.5339313E0,1.8502135E0,5.8898582E0,3.3066273E0,4.404668E0,2.2766292E0,3.1557083E-2,0E0,4.385484E0,2.3193893E0,1.3105531E0,7.409096E-2,1.5387428E0,5.2541733E-2,5.01547E-1,1.1541307E-1,1.9467974E-1,0E0,1.2592725E0,2.310092E0,1.8649554E0,5.924157E-1,3.4216633E0,2.8283966E0,3.6486406E0,1.7775342E0,4.381201E0,2.6006627E0,3.9518833E-1,5.779209E-1,0E0,0E0,9.564259E-1,2.0827613E0,1.770441E0,2.6840386E0,0E0,0E0,0E0,0E0,0E0,0E0,0E0,0E0,0E0,0E0,0E0,0E0,0E0,0E0,0E0,0E0,0E0,0E0,0E0,0E0,0E0,0E0,0E0,0E0,0E0,0E0,0E0,0E0,0E0,0E0,0E0,0E0,0E0,0E0,0E0,0E0,0E0,0E0,0E0,0E0,0E0,0E0,0E0,0E0,0E0,0E0],"parents":[2147483647,0,0,1,1,2,2,3,3,4,4,5,5,6,6,7,7,8,8,9,9,10,10,11,11,12,12,13,13,14,14,15,15,17,17,18,18,20,20,21,21,22,22,23,23,24,24,25,25,26,26,27,27,29,29,30,30,31,31,32,32,33,33,34,34,35,35,36,36,37,37,39,39,40,40,41,41,42,42,43,43,44,44,45,45,46,46,47,47,48,48,49,49,50,50,53,53,54,54,55,55,56,56],"right_children":[2,4,6,8,10,12,14,16,18,20,22,24,26,28,30,32,-1,34,36,-1,38,40,42,44,46,48,50,52,-1,54,56,58,60,62,64,66,68,70,-1,72,74,76,78,80,82,84,86,88,90,92,94,-1,-1,96,98,100,102,-1,-1,-1,-1,-1,-1,-1,-1,-1,-1,-1,-1,-1,-1,-1,-1,-1,-1,-1,-1,-1,-1,-1,-1,-1,-1,-1,-1,-1,-1,-1,-1,-1,-1,-1,-1,-1,-1,-1,-1,-1,-1,-1,-1,-1,-1],"split_conditions":[6.19565E-1,4.35959E-1,4.77249E-1,6.2704E-2,2.34884E-1,7.69062E-1,4.451E-3,5.36E-4,5.25339E-1,9.2287E-2,7E-1,2E-1,4.83558E-1,2.85968E-1,2.8465E-2,1.73913E-1,-5.9709873E-2,2.7394E-2,5.88722E-1,-3.5122942E-2,5.65335E-1,2.39542E-1,9.23592E-1,5E-2,7.92535E-1,5.625E-1,7.64564E-1,7.22222E-1,-2.678273E-3,9.66047E-1,7E-1,1.51515E-1,2.92471E-1,1.8739E-2,1E0,6.9216E-2,6.954E-2,1.10464E-1,-2.3332266E-2,6.99809E-1,6.21722E-1,7.11062E-1,5.68218E-1,9.25533E-1,8.6826E-2,1.692E-3,3.313E-2,8.11405E-1,3.362E-2,8.68187E-1,4.797E-3,-6.267684E-2,-1.6395958E-2,3.37093E-1,1.9056E-2,9.54545E-1,8.75918E-1,-3.2904565E-2,4.9605533E-2,-5.945602E-2,-1.5055942E-2,-3.229645E-2,5.1130045E-2,-5.7147887E-2,-2.13333E-2,-1.2421378E-2,5.4939218E-2,-4.702958E-3,-4.8740294E-2,6.998707E-2,1.57406E-2,-2.0588914E-2,3.6385145E-2,-5.112631E-2,-1.6299998E-2,-5.7736404E-2,2.3827849E-2,7.049377E-2,-2.6053637E-3,-6.1642993E-2,2.5910316E-2,-2.0916415E-2,2.3995396E-2,2.5336355E-2,-3.9362825E-2,-3.0753357E-2,5.860284E-2,4.6696935E-2,1.2585786E-2,-4.534593E-2,8.33593E-3,-3.552625E-2,-8.4597014E-2,-2.0976542E-2,4.614571E-2,2.5955498E-2,-4.970815E-2,4.6168145E-2,-3.5476957E-2,3.4640424E-2,-6.7610684E-4,-3.341358E-2,5.74896E-2],"split_indices":[39,38,28,43,21,36,4,14,20,39,2,18,12,43,10,18,0,36,20,0,36,36,11,18,13,18,26,16,0,28,18,18,20,20,18,10,39,43,0,0,36,38,37,10,14,14,43,20,15,38,43,0,0,12,4,45,35,0,0,0,0,0,0,0,0,0,0,0,0,0,0,0,0,0,0,0,0,0,0,0,0,0,0,0,0,0,0,0,0,0,0,0,0,0,0,0,0,0,0,0,0,0,0],"split_type":[0,0,0,0,0,0,0,0,0,0,0,0,0,0,0,0,0,0,0,0,0,0,0,0,0,0,0,0,0,0,0,0,0,0,0,0,0,0,0,0,0,0,0,0,0,0,0,0,0,0,0,0,0,0,0,0,0,0,0,0,0,0,0,0,0,0,0,0,0,0,0,0,0,0,0,0,0,0,0,0,0,0,0,0,0,0,0,0,0,0,0,0,0,0,0,0,0,0,0,0,0,0,0],"sum_hessian":[9.9842126E2,2.3142746E2,7.6699384E2,1.15115265E2,1.16312195E2,4.945109E2,2.7248294E2,7.868158E1,3.643368E1,9.246529E0,1.0706566E2,2.190289E2,2.75482E2,8.153213E0,2.643297E2,1.768704E1,6.099454E1,2.827606E1,8.157621E0,1.5468537E0,7.699675E0,9.281157E1,1.4254091E1,1.090323E2,1.0999659E2,2.6101874E2,1.4463257E1,6.677664E0,1.4755486E0,3.1907927E1,2.324218E2,7.509442E0,1.0177599E1,1.0002308E1,1.8273752E1,4.9847136E0,3.1729074E0,6.607528E0,1.0921471E0,1.4640058E1,7.817152E1,9.388082E0,4.86601E0,2.2663113E1,8.6369194E1,1.0181943E2,8.177157E0,2.2643553E2,3.4583206E1,1.0835359E1,3.6278985E0,5.6344657E0,1.0431982E0,1.4146762E1,1.7761164E1,2.1812994E2,1.4291847E1,5.7954655E0,1.7139761E0,8.935657E0,1.2419426E0,8.037847E0,1.9644614E0,1.6205482E1,2.0682697E0,1.0082109E0,3.9765027E0,1.0199529E0,2.1529546E0,5.0802445E0,1.5272837E0,9.480572E0,5.159486E0,4.0284847E1,3.7886665E1,4.5595646E0,4.8285165E0,3.4854434E0,1.380567E0,1.7395811E1,5.2673025E0,1.6667658E1,6.970153E1,8.931922E0,9.288751E1,2.6024356E0,5.574722E0,4.713221E1,1.7930331E2,1.665771E1,1.7925497E1,5.7345486E0,5.1008096E0,1.3593215E0,2.2685769E0,1.2750779E0,1.2871684E1,1.4644869E1,3.1162949E0,2.0291396E2,1.5215983E1,1.07919445E1,3.4999032E0],"tree_param":{"num_deleted":"0","num_feature":"46","num_nodes":"103","size_leaf_vector":"1"}},{"base_weights":[4.196647E-3,-4.0197232E-1,7.60669E-2,-4.2088968E-1,2.955329E-1,1.6683728E-2,2.2738904E-1,-4.9147907E-1,-2.8108197E-1,5.491509E-2,-2.6213994E-2,-1.8908133E-1,6.936151E-2,-1.8192796E-1,2.6358297E-1,-5.956114E-1,-3.8236058E-1,1.9832505E-1,-3.6278713E-1,3.0701026E-1,-2.4821964E-1,-1.5845712E-2,1.5505786E-1,2.7752966E-1,-3.5823438E-1,2.9707384E-1,-5.2174046E-3,-6.0696214E-2,-1.02623785E-2,2.7690405E-2,-4.1619477E-1,3.9034668E-1,-3.1594332E-2,3.952432E-2,-4.0527743E-1,-5.6230903E-2,6.303275E-1,-4.0644518E-1,-4.2652376E-2,-1.8096578E-1,1.1306139E-1,2.9657596E-1,-6.9926404E-3,-4.176767E-2,5.740083E-2,-5.27656E-1,2.27325E-1,2.0485412E-1,4.241166E-1,3.9706418E-1,-2.0748614E-1,-5.090673E-2,-1.5580361E-2,-1.1406842E-2,5.241576E-2,-4.483573E-2,-3.5197646E-3,-3.4011712E-3,7.054542E-2,-5.923733E-2,-2.5475586E-2,-2.9654E-2,1.6308062E-2,-4.0283535E-2,-7.588242E-3,2.1227844E-2,-2.4949986E-2,3.752167E-2,-3.1036308E-2,1.8006437E-2,-3.093726E-2,-6.1003752E-2,1.7491495E-2,-8.428219E-3,3.7466865E-2,5.079784E-2,1.0644057E-2,5.52375E-2,1.52343465E-2,-2.771988E-2,5.469488E-2,-4.4017565E-2,4.9550448E-2],"categories":[],"categories_nodes":[],"categories_segments":[],"categories_sizes":[],"default_left":[0,0,0,0,0,0,0,0,0,0,0,0,0,0,0,0,0,0,0,0,0,0,0,0,0,0,0,0,0,0,0,0,0,0,0,0,0,0,0,0,0,0,0,0,0,0,0,0,0,0,0,0,0,0,0,0,0,0,0,0,0,0,0,0,0,0,0,0,0,0,0,0,0,0,0,0,0,0,0,0,0,0,0],"id":13,"left_children":[1,3,5,7,9,11,13,15,17,-1,-1,19,21,23,25,27,29,31,33,35,37,39,41,43,45,47,49,-1,-1,-1,51,53,-1,-1,55,-1,57,59,61,63,65,67,69,-1,-1,71,73,75,77,79,81,-1,-1,-1,-1,-1,-1,-1,-1,-1,-1,-1,-1,-1,-1,-1,-1,-1,-1,-1,-1,-1,-1,-1,-1,-1,-1,-1,-1,-1,-1,-1,-1],"loss_changes":[2.9006933E1,2.0956497E0,7.582502E0,1.3013649E0,7.849858E-1,6.596698E0,3.5716858E0,8.584175E-1,2.0803428E0,0E0,0E0,3.7161736E0,3.538891E0,1.7126496E0,1.9724998E0,2.0138168E-1,1.2187085E0,9.244582E-1,1.5825658E0,4.19434E0,3.6063213E0,5.20887E0,5.5417104E0,1.494202E0,1.5910699E0,2.1941738E0,2.1360404E0,0E0,0E0,0E0,1.0682898E0,4.8868614E-1,0E0,0E0,6.587796E-1,0E0,5.4453754E-1,1.6212645E0,2.637672E0,2.469999E0,4.9993258E0,6.272229E0,6.480402E0,0E0,0E0,7.898085E-1,2.1645156E-1,3.3689308E0,2.7376814E0,1.0396962E0,3.072762E0,0E0,0E0,0E0,0E0,0E0,0E0,0E0,0E0,0E0,0E0,0E0,0E0,0E0,0E0,0E0,0E0,0E0,0E0,0E0,0E0,0E0,0E0,0E0,0E0,0E0,0E0,0E0,0E0,0E0,0E0,0E0,0E0],"parents":[2147483647,0,0,1,1,2,2,3,3,4,4,5,5,6,6,7,7,8,8,11,11,12,12,13,13,14,14,15,15,16,16,17,17,18,18,19,19,20,20,21,21,22,22,23,23,24,24,25,25,26,26,30,30,31,31,34,34,36,36,37,37,38,38,39,39,40,40,41,41,42,42,45,45,46,46,47,47,48,48,49,49,50,50],"right_children":[2,4,6,8,10,12,14,16,18,-1,-1,20,22,24,26,28,30,32,34,36,38,40,42,44,46,48,50,-1,-1,-1,52,54,-1,-1,56,-1,58,60,62,64,66,68,70,-1,-1,72,74,76,78,80,82,-1,-1,-1,-1,-1,-1,-1,-1,-1,-1,-1,-1,-1,-1,-1,-1,-1,-1,-1,-1,-1,-1,-1,-1,-1,-1,-1,-1,-1,-1,-1,-1],"split_conditions":[5.04496E-1,9.25106E-1,3.51837E-1,4.04951E-1,3.16502E-1,2.7297E-2,4.305E-3,2.6549E-2,2.45637E-1,5.491509E-2,-2.6213994E-2,2.145E-3,8.21887E-1,7.428E-3,3.69964E-1,6.60484E-1,2.7778E-2,5.38462E-1,4.0909E-1,8.38392E-1,1.00068E-1,1.77409E-1,1.13757E-1,5.5556E-2,6.97948E-1,9.11244E-1,5.38462E-1,-6.0696214E-2,-1.02623785E-2,2.7690405E-2,2.72727E-1,1.16771E-1,-3.1594332E-2,3.952432E-2,6.06644E-1,-5.6230903E-2,2.86E-4,8.097E-3,5.451E-3,5.82269E-1,7.648E-1,8.37741E-1,2.77778E-1,-4.176767E-2,5.740083E-2,1.01961E-1,5.27278E-1,5.647E-2,9.99446E-1,7.09964E-1,1.136E-3,-5.090673E-2,-1.5580361E-2,-1.1406842E-2,5.241576E-2,-4.483573E-2,-3.5197646E-3,-3.4011712E-3,7.054542E-2,-5.923733E-2,-2.5475586E-2,-2.9654E-2,1.6308062E-2,-4.0283535E-2,-7.588242E-3,2.1227844E-2,-2.4949986E-2,3.752167E-2,-3.1036308E-2,1.8006437E-2,-3.093726E-2,-6.1003752E-2,1.7491495E-2,-8.428219E-3,3.7466865E-2,5.079784E-2,1.0644057E-2,5.52375E-2,1.52343465E-2,-2.771988E-2,5.469488E-2,-4.4017565E-2,4.9550448E-2],"split_indices":[23,20,11,22,10,0,19,44,21,0,0,14,37,10,15,20,44,40,22,23,31,0,4,3,10,24,1,0,0,0,2,15,0,0,21,0,43,15,19,20,0,13,18,0,0,4,22,25,30,20,33,0,0,0,0,0,0,0,0,0,0,0,0,0,0,0,0,0,0,0,0,0,0,0,0,0,0,0,0,0,0,0,0],"split_type":[0,0,0,0,0,0,0,0,0,0,0,0,0,0,0,0,0,0,0,0,0,0,0,0,0,0,0,0,0,0,0,0,0,0,0,0,0,0,0,0,0,0,0,0,0,0,0,0,0,0,0,0,0,0,0,0,0,0,0,0,0,0,0,0,0,0,0,0,0,0,0,0,0,0,0,0,0,0,0,0,0,0,0],"sum_hessian":[9.9163116E2,1.4839511E2,8.432361E2,1.448628E2,3.532311E0,6.063838E2,2.3685225E2,9.458905E1,5.027374E1,2.438578E0,1.0937332E0,1.2306997E2,4.8331384E2,1.8915098E1,2.1793715E2,4.6119034E1,4.847002E1,7.112664E0,4.3161076E1,1.2661924E1,1.1040804E2,2.4275726E2,2.405566E2,5.0862103E0,1.3828887E1,1.9369835E2,2.4238798E1,4.4855076E1,1.2639552E0,2.0154037E0,4.6454617E1,5.3543725E0,1.7582915E0,1.8502642E0,4.131081E1,3.2321892E0,9.429735E0,6.1835754E1,4.857229E1,1.0625234E2,1.3650491E2,1.2797038E2,1.12586205E2,1.3983821E0,3.687828E0,1.0802309E1,3.0265787E0,1.1374435E2,7.9954E1,7.7875333E0,1.6451265E1,3.3537827E1,1.2916789E1,1.153535E0,4.2008376E0,3.68139E1,4.496912E0,1.0136231E0,8.416112E0,2.6477123E1,3.535863E1,2.1544107E1,2.7028181E1,3.323904E1,7.30133E1,1.075011E2,2.9003817E1,1.1362929E2,1.4341095E1,6.980701E1,4.27792E1,9.786481E0,1.0158281E0,1.1090701E0,1.9175085E0,2.6857794E1,8.688655E1,5.3617638E1,2.6336363E1,1.2618097E0,6.5257235E0,1.26409645E1,3.8102999E0],"tree_param":{"num_deleted":"0","num_feature":"46","num_nodes":"83","size_leaf_vector":"1"}},{"base_weights":[1.5253695E-2,-2.7321115E-1,1.0821838E-1,-4.9112415E-1,-1.4959446E-1,7.791394E-3,1.773039E-1,-3.300777E-1,-5.395443E-1,-3.292081E-1,3.691845E-2,-3.8176447E-2,2.7476415E-1,1.4459842E-1,4.2262486E-1,-1.15955934E-1,-4.854726E-1,-5.6755066E-1,-2.3271419E-1,-1.648582E-1,-4.7081462E-1,-2.8772813E-1,1.2199427E-1,-9.986897E-2,1.5466294E-1,3.6668894E-1,-2.8884488E-1,-3.3600938E-1,1.6446373E-1,5.3544486E-1,1.2301424E-1,-2.9395878E-1,3.452245E-1,-5.7941344E-2,2.6944539E-2,-5.9601325E-1,-3.6230162E-1,3.0141357E-2,-4.939754E-2,2.8985563E-1,-2.7102074E-1,-2.739096E-1,-5.410732E-1,7.3445536E-2,-6.876625E-2,-1.0965419E-1,2.626678E-1,-3.5538504E-1,-3.038205E-3,2.2656508E-1,-7.090225E-2,5.25554E-1,5.6334887E-2,-5.5725377E-2,3.941464E-2,2.4624826E-1,-6.118128E-1,1.2946202E-1,4.0146995E-1,5.736951E-1,-1.4490406E-2,-4.9826917E-1,3.321758E-1,-4.2086862E-2,3.2355748E-2,4.394645E-2,6.5529323E-3,-6.034049E-2,-1.818652E-2,-4.6258505E-2,8.571222E-3,-3.565563E-2,4.847417E-2,-3.610879E-2,4.3601457E-2,-4.9183942E-2,5.3380644E-3,2.763667E-3,-5.8544334E-2,3.1790785E-2,-5.7229757E-2,-2.9838879E-2,3.3085316E-2,5.323857E-2,3.971545E-3,-4.8365824E-2,-1.7228816E-4,5.8117297E-2,-4.6518976E-3,4.26785E-2,-7.775008E-3,6.15908E-2,-1.9438367E-2,-3.748426E-2,4.014642E-2,-3.431559E-2,5.39832E-2,-7.082539E-2,-1.0735058E-2,1.4364541E-2,-4.697776E-2,4.4559773E-2,-3.0938035E-2,8.449897E-4,6.191296E-2,-5.916705E-3,-6.487787E-2,8.075558E-3,6.060483E-2],"categories":[],"categories_nodes":[],"categories_segments":[],"categories_sizes":[],"default_left":[0,0,0,0,0,0,0,0,0,0,0,0,0,0,0,0,0,0,0,0,0,0,0,0,0,0,0,0,0,0,0,0,0,0,0,0,0,0,0,0,0,0,0,0,0,0,0,0,0,0,0,0,0,0,0,0,0,0,0,0,0,0,0,0,0,0,0,0,0,0,0,0,0,0,0,0,0,0,0,0,0,0,0,0,0,0,0,0,0,0,0,0,0,0,0,0,0,0,0,0,0,0,0,0,0,0,0,0,0],"id":14,"left_children":[1,3,5,7,9,11,13,15,17,19,21,23,25,27,29,31,33,35,37,39,41,43,45,47,49,51,53,55,57,59,61,63,65,-1,-1,67,69,-1,-1,71,73,75,77,79,-1,81,83,85,87,89,-1,91,93,-1,-1,95,97,99,101,103,-1,105,107,-1,-1,-1,-1,-1,-1,-1,-1,-1,-1,-1,-1,-1,-1,-1,-1,-1,-1,-1,-1,-1,-1,-1,-1,-1,-1,-1,-1,-1,-1,-1,-1,-1,-1,-1,-1,-1,-1,-1,-1,-1,-1,-1,-1,-1,-1],"loss_changes":[2.7018957E1,6.541811E0,5.2843704E0,5.116215E-1,5.3095E0,3.83377E0,3.5598927E0,7.0971155E-1,4.387455E-1,1.7994661E0,2.2025063E0,3.187794E0,2.4831614E0,3.8717394E0,1.7110853E0,1.0040913E0,1.0799177E0,1.3560677E-1,1.1607593E0,1.9548811E0,4.437132E-1,2.4471774E0,2.0779042E0,5.0124297E0,4.1986613E0,1.9371743E0,1.5017257E0,2.7514687E0,3.1380548E0,1.0691833E0,2.20292E0,8.0021703E-1,6.403369E-2,0E0,0E0,4.7294617E-2,4.8348546E-1,0E0,0E0,1.1605246E0,2.1970239E0,9.732685E-1,7.8604126E-1,1.7008796E0,0E0,2.132617E0,2.3491998E0,2.5250335E0,3.7853742E0,3.7367654E0,0E0,1.8282161E0,2.327001E0,0E0,0E0,1.2094104E0,4.725952E-1,2.9277945E0,1.6751156E0,9.212456E-1,0E0,2.490288E-1,8.000423E-1,0E0,0E0,0E0,0E0,0E0,0E0,0E0,0E0,0E0,0E0,0E0,0E0,0E0,0E0,0E0,0E0,0E0,0E0,0E0,0E0,0E0,0E0,0E0,0E0,0E0,0E0,0E0,0E0,0E0,0E0,0E0,0E0,0E0,0E0,0E0,0E0,0E0,0E0,0E0,0E0,0E0,0E0,0E0,0E0,0E0,0E0],"parents":[2147483647,0,0,1,1,2,2,3,3,4,4,5,5,6,6,7,7,8,8,9,9,10,10,11,11,12,12,13,13,14,14,15,15,16,16,17,17,18,18,19,19,20,20,21,21,22,22,23,23,24,24,25,25,26,26,27,27,28,28,29,29,30,30,31,31,32,32,35,35,36,36,39,39,40,40,41,41,42,42,43,43,45,45,46,46,47,47,48,48,49,49,51,51,52,52,55,55,56,56,57,57,58,58,59,59,61,61,62,62],"right_children":[2,4,6,8,10,12,14,16,18,20,22,24,26,28,30,32,34,36,38,40,42,44,46,48,50,52,54,56,58,60,62,64,66,-1,-1,68,70,-1,-1,72,74,76,78,80,-1,82,84,86,88,90,-1,92,94,-1,-1,96,98,100,102,104,-1,106,108,-1,-1,-1,-1,-1,-1,-1,-1,-1,-1,-1,-1,-1,-1,-1,-1,-1,-1,-1,-1,-1,-1,-1,-1,-1,-1,-1,-1,-1,-1,-1,-1,-1,-1,-1,-1,-1,-1,-1,-1,-1,-1,-1,-1,-1,-1],"split_conditions":[6.41625E-1,3.58755E-1,8.22682E-1,5.36E-4,1.7326E-2,9.6501E-1,9.61515E-1,1.545E-3,6.71985E-1,3.84615E-1,7.1429E-2,1.77409E-1,5.5124E-1,5.12584E-1,3.84615E-1,4.93E-4,6.66667E-1,4.5E-1,1.04135E-1,2.01442E-1,2.22222E-1,1.59091E-1,1.24366E-1,6.83459E-1,5.04348E-1,3.57143E-1,7.27273E-1,7.08995E-1,8.94998E-1,9.26212E-1,6.024E-3,3.71876E-1,1.73913E-1,-5.7941344E-2,2.6944539E-2,6.87448E-1,1.95082E-1,3.0141357E-2,-4.939754E-2,4.64776E-1,1E0,6.18394E-1,2.12577E-1,2.13677E-1,-6.876625E-2,5.06231E-1,2.71781E-1,5.86015E-1,2.76E-3,4.2287E-1,-7.090225E-2,2.3188E-2,3.7066E-2,-5.5725377E-2,3.941464E-2,7.45514E-1,9.04238E-1,8.43921E-1,6.56827E-1,3.2967E-2,-1.4490406E-2,9.74043E-1,2.54902E-1,-4.2086862E-2,3.2355748E-2,4.394645E-2,6.5529323E-3,-6.034049E-2,-1.818652E-2,-4.6258505E-2,8.571222E-3,-3.565563E-2,4.847417E-2,-3.610879E-2,4.3601457E-2,-4.9183942E-2,5.3380644E-3,2.763667E-3,-5.8544334E-2,3.1790785E-2,-5.7229757E-2,-2.9838879E-2,3.3085316E-2,5.323857E-2,3.971545E-3,-4.8365824E-2,-1.7228816E-4,5.8117297E-2,-4.6518976E-3,4.26785E-2,-7.775008E-3,6.15908E-2,-1.9438367E-2,-3.748426E-2,4.014642E-2,-3.431559E-2,5.39832E-2,-7.082539E-2,-1.0735058E-2,1.4364541E-2,-4.697776E-2,4.4559773E-2,-3.0938035E-2,8.449897E-4,6.191296E-2,-5.916705E-3,-6.487787E-2,8.075558E-3,6.060483E-2],"split_indices":[39,38,38,14,43,21,32,43,30,40,18,0,10,36,40,43,3,44,37,36,18,45,10,36,45,40,40,37,29,19,1,39,18,0,0,36,4,0,0,22,12,20,21,19,0,12,14,10,14,4,0,4,0,0,0,39,37,29,19,10,0,37,45,0,0,0,0,0,0,0,0,0,0,0,0,0,0,0,0,0,0,0,0,0,0,0,0,0,0,0,0,0,0,0,0,0,0,0,0,0,0,0,0,0,0,0,0,0,0],"split_type":[0,0,0,0,0,0,0,0,0,0,0,0,0,0,0,0,0,0,0,0,0,0,0,0,0,0,0,0,0,0,0,0,0,0,0,0,0,0,0,0,0,0,0,0,0,0,0,0,0,0,0,0,0,0,0,0,0,0,0,0,0,0,0,0,0,0,0,0,0,0,0,0,0,0,0,0,0,0,0,0,0,0,0,0,0,0,0,0,0,0,0,0,0,0,0,0,0,0,0,0,0,0,0,0,0,0,0,0,0],"sum_hessian":[1.00542676E3,2.4457712E2,7.608497E2,8.744865E1,1.5712848E2,3.1054092E2,4.5030872E2,2.2021523E1,6.5427124E1,7.965495E1,7.747352E1,2.6565668E2,4.4884235E1,3.9873938E2,5.1569347E1,9.995172E0,1.2026351E1,5.917602E1,6.2511024E0,3.786855E1,4.1786404E1,1.5592193E1,6.1881325E1,2.0163304E2,6.402364E1,3.8890564E1,5.9936705E0,1.5195483E1,3.8354388E2,3.6890785E1,1.4678561E1,7.473285E0,2.5218859E0,1.0902182E1,1.1241685E0,5.029727E1,8.878749E0,2.0028162E0,4.2482862E0,6.840238E0,3.102831E1,1.2277205E1,2.9509201E1,8.62209E0,6.9701023E0,2.3463787E1,3.8417538E1,5.4678307E1,1.4695473E2,5.978426E1,4.2393856E0,2.5264624E1,1.3625939E1,4.4348974E0,1.5587732E0,4.9186716E0,1.0276812E1,3.3553714E2,4.8006767E1,3.5075546E1,1.8152392E0,3.348907E0,1.1329655E1,6.463399E0,1.0098861E0,1.4590498E0,1.062836E0,4.896635E1,1.3309196E0,7.2282524E0,1.6504967E0,1.3923687E0,5.44787E0,2.7956327E1,3.0719826E0,7.068083E0,5.2091227E0,2.1629477E0,2.7346252E1,6.622618E0,1.999472E0,1.6651924E1,6.8118625E0,1.6757349E1,2.1660189E1,3.9855244E1,1.4823059E1,9.323066E0,1.3763167E2,3.5816708E1,2.396755E1,2.2575802E1,2.688822E0,6.019525E0,7.606415E0,1.5792627E0,3.339409E0,8.288307E0,1.9885046E0,3.2852164E2,7.015484E0,4.5552155E1,2.4546134E0,2.6978493E0,3.2377697E1,1.2104899E0,2.138417E0,6.582062E0,4.747593E0],"tree_param":{"num_deleted":"0","num_feature":"46","num_nodes":"109","size_leaf_vector":"1"}},{"base_weights":[4.422665E-3,-3.7448335E-1,7.596445E-2,-5.053666E-1,-2.835744E-1,1.399288E-2,1.9885913E-1,-1.8409438E-1,-5.52191E-1,-5.52323E-1,-1.9877008E-1,4.7562543E-2,