{"learner":{"attributes":{"best_iteration":"279","best_score":"0.5103992040839247"},"feature_names":[],"feature_types":[],"gradient_booster":{"model":{"cats":{"enc":[],"feature_segments":[],"sorted_idx":[]},"gbtree_model_param":{"num_parallel_tree":"1","num_trees":"330"},"iteration_indptr":[0,1,2,3,4,5,6,7,8,9,10,11,12,13,14,15,16,17,18,19,20,21,22,23,24,25,26,27,28,29,30,31,32,33,34,35,36,37,38,39,40,41,42,43,44,45,46,47,48,49,50,51,52,53,54,55,56,57,58,59,60,61,62,63,64,65,66,67,68,69,70,71,72,73,74,75,76,77,78,79,80,81,82,83,84,85,86,87,88,89,90,91,92,93,94,95,96,97,98,99,100,101,102,103,104,105,106,107,108,109,110,111,112,113,114,115,116,117,118,119,120,121,122,123,124,125,126,127,128,129,130,131,132,133,134,135,136,137,138,139,140,141,142,143,144,145,146,147,148,149,150,151,152,153,154,155,156,157,158,159,160,161,162,163,164,165,166,167,168,169,170,171,172,173,174,175,176,177,178,179,180,181,182,183,184,185,186,187,188,189,190,191,192,193,194,195,196,197,198,199,200,201,202,203,204,205,206,207,208,209,210,211,212,213,214,215,216,217,218,219,220,221,222,223,224,225,226,227,228,229,230,231,232,233,234,235,236,237,238,239,240,241,242,243,244,245,246,247,248,249,250,251,252,253,254,255,256,257,258,259,260,261,262,263,264,265,266,267,268,269,270,271,272,273,274,275,276,277,278,279,280,281,282,283,284,285,286,287,288,289,290,291,292,293,294,295,296,297,298,299,300,301,302,303,304,305,306,307,308,309,310,311,312,313,314,315,316,317,318,319,320,321,322,323,324,325,326,327,328,329,330],"tree_info":[0,0,0,0,0,0,0,0,0,0,0,0,0,0,0,0,0,0,0,0,0,0,0,0,0,0,0,0,0,0,0,0,0,0,0,0,0,0,0,0,0,0,0,0,0,0,0,0,0,0,0,0,0,0,0,0,0,0,0,0,0,0,0,0,0,0,0,0,0,0,0,0,0,0,0,0,0,0,0,0,0,0,0,0,0,0,0,0,0,0,0,0,0,0,0,0,0,0,0,0,0,0,0,0,0,0,0,0,0,0,0,0,0,0,0,0,0,0,0,0,0,0,0,0,0,0,0,0,0,0,0,0,0,0,0,0,0,0,0,0,0,0,0,0,0,0,0,0,0,0,0,0,0,0,0,0,0,0,0,0,0,0,0,0,0,0,0,0,0,0,0,0,0,0,0,0,0,0,0,0,0,0,0,0,0,0,0,0,0,0,0,0,0,0,0,0,0,0,0,0,0,0,0,0,0,0,0,0,0,0,0,0,0,0,0,0,0,0,0,0,0,0,0,0,0,0,0,0,0,0,0,0,0,0,0,0,0,0,0,0,0,0,0,0,0,0,0,0,0,0,0,0,0,0,0,0,0,0,0,0,0,0,0,0,0,0,0,0,0,0,0,0,0,0,0,0,0,0,0,0,0,0,0,0,0,0,0,0,0,0,0,0,0,0,0,0,0,0,0,0,0,0,0,0,0,0,0,0,0,0,0,0,0,0,0,0,0,0,0,0,0,0,0,0,0,0,0,0,0,0],"trees":[{"base_weights":[3.048614E-4,-2.9844904E-2,6.0252213E-1,-1.4798696E-1,9.7340345E-2,4.3232048E-1,7.251455E-1,-2.6296774E-1,-6.0856603E-2,4.8386715E-2,1.9260524E-1,4.106941E-1,6.466299E-1,5.522042E-1,7.6454073E-1,-3.171424E-1,-5.7643954E-2,-1.2533535E-1,5.3413678E-2,2.7048526E-2,2.31265E-1,8.2532525E-2,2.3519649E-1,3.7169954E-1,5.115025E-1,6.650167E-1,1.2105636E-2,3.8884386E-1,6.360301E-1,8.290064E-1,6.980014E-1,-1.8475933E-2,-3.665749E-1,-1.378851E-1,8.781856E-2,-1.4993633E-1,4.920055E-2,1.027876E-2,1.9219637E-1,1.7221074E-1,7.409297E-3,1.1732891E-1,4.6106303E-1,2.9419586E-1,1.4292664E-3,2.9189897E-1,1.5748511E-1,3.790473E-1,-1.1007821E-1,5.203064E-1,-9.503651E-3,3.6527848E-1,6.9400415E-2,7.1342014E-2,4.148667E-1,6.4409804E-1,1.0539996E-2,8.335141E-1,3.2162052E-3,7.017407E-1,3.2976035E-3,-2.8529948E-2,3.543852E-3,-4.3921713E-2,-2.4968253E-2,-6.2581464E-3,-2.5506774E-2,4.0403856E-3,3.8627725E-2,1.3264325E-2,-1.5871692E-2,-3.3383388E-3,1.2890113E-2,1.0085849E-2,-4.7555855E-3,1.330359E-2,4.7874104E-2,7.903646E-3,4.4887017E-2,-4.6105572E-4,2.6165575E-2,3.7977677E-2,7.970372E-3,3.204933E-2,7.1664385E-2,3.802415E-2,1.1830822E-2,-9.950631E-4,5.6073543E-2,4.9140505E-2,2.637193E-2,1.2902263E-2,3.1848524E-2,3.861114E-2,-1.105007E-2,1.421566E-2,-3.2643538E-2,5.3151276E-2,3.5232864E-3,5.0539084E-2,1.0665684E-3,3.3338234E-2,-2.2742871E-2,4.294903E-2,7.63835E-3,6.673171E-2,4.0885236E-2,7.6330476E-2,8.829906E-2,7.068398E-2,2.9644424E-2],"categories":[],"categories_nodes":[],"categories_segments":[],"categories_sizes":[],"default_left":[0,0,0,0,0,0,0,0,0,0,0,0,0,0,0,0,0,0,0,0,0,0,0,0,0,0,0,0,0,0,0,0,0,0,0,0,0,0,0,0,0,0,0,0,0,0,0,0,0,0,0,0,0,0,0,0,0,0,0,0,0,0,0,0,0,0,0,0,0,0,0,0,0,0,0,0,0,0,0,0,0,0,0,0,0,0,0,0,0,0,0,0,0,0,0,0,0,0,0,0,0,0,0,0,0,0,0,0,0,0,0],"id":0,"left_children":[1,3,5,7,9,11,13,15,17,19,21,23,25,27,29,31,33,35,37,39,41,43,45,47,49,51,-1,53,55,57,59,61,63,65,67,69,71,73,75,77,79,81,83,85,87,89,91,93,95,97,-1,99,-1,101,103,105,-1,107,-1,109,-1,-1,-1,-1,-1,-1,-1,-1,-1,-1,-1,-1,-1,-1,-1,-1,-1,-1,-1,-1,-1,-1,-1,-1,-1,-1,-1,-1,-1,-1,-1,-1,-1,-1,-1,-1,-1,-1,-1,-1,-1,-1,-1,-1,-1,-1,-1,-1,-1,-1,-1],"loss_changes":[3.3229184E2,2.6189783E2,1.7897522E1,9.05096E1,3.913552E1,1.439415E0,3.0231323E0,4.3308624E1,3.7892056E1,2.1635517E1,1.3336365E1,1.1341934E0,2.2852993E-1,1.0867729E0,1.1769257E0,4.5491486E1,9.517815E0,1.4122616E1,1.110569E1,1.4160624E1,1.5114601E1,1.3669881E1,9.002701E0,9.1462326E-1,5.3702927E-1,1.3023376E-2,0E0,2.646327E-1,2.0101547E-1,7.0072937E-1,4.9342346E-1,6.320826E0,2.2341827E1,4.6190367E0,4.090283E0,7.1707E0,2.6823187E0,7.42579E0,7.3936024E0,1.5223146E1,1.3376207E1,3.8075757E0,6.657261E0,3.293621E0,3.6764028E0,6.538498E0,3.9385357E0,8.8337326E-1,2.9084656E-1,4.7135544E-1,0E0,2.3390591E-1,0E0,3.81567E-1,1.2908268E-1,6.404495E-2,0E0,2.5497437E-2,0E0,2.1724701E-1,0E0,0E0,0E0,0E0,0E0,0E0,0E0,0E0,0E0,0E0,0E0,0E0,0E0,0E0,0E0,0E0,0E0,0E0,0E0,0E0,0E0,0E0,0E0,0E0,0E0,0E0,0E0,0E0,0E0,0E0,0E0,0E0,0E0,0E0,0E0,0E0,0E0,0E0,0E0,0E0,0E0,0E0,0E0,0E0,0E0,0E0,0E0,0E0,0E0,0E0,0E0],"parents":[2147483647,0,0,1,1,2,2,3,3,4,4,5,5,6,6,7,7,8,8,9,9,10,10,11,11,12,12,13,13,14,14,15,15,16,16,17,17,18,18,19,19,20,20,21,21,22,22,23,23,24,24,25,25,27,27,28,28,29,29,30,30,31,31,32,32,33,33,34,34,35,35,36,36,37,37,38,38,39,39,40,40,41,41,42,42,43,43,44,44,45,45,46,46,47,47,48,48,49,49,51,51,53,53,54,54,55,55,57,57,59,59],"right_children":[2,4,6,8,10,12,14,16,18,20,22,24,26,28,30,32,34,36,38,40,42,44,46,48,50,52,-1,54,56,58,60,62,64,66,68,70,72,74,76,78,80,82,84,86,88,90,92,94,96,98,-1,100,-1,102,104,106,-1,108,-1,110,-1,-1,-1,-1,-1,-1,-1,-1,-1,-1,-1,-1,-1,-1,-1,-1,-1,-1,-1,-1,-1,-1,-1,-1,-1,-1,-1,-1,-1,-1,-1,-1,-1,-1,-1,-1,-1,-1,-1,-1,-1,-1,-1,-1,-1,-1,-1,-1,-1,-1,-1],"split_conditions":[1E0,1.1140631E1,7E0,1.2048E-2,2.0591328E1,2.2448069E1,9E0,-2.302585E0,-9.807497E0,1.3E1,5.55556E-1,8.8235E-2,1.6193115E2,1.6353018E1,2.3E1,5.1E1,2E0,1.1634419E1,1.66667E-1,5E0,6.4035E4,3.2E1,1.5E1,8.6207E-2,-1.199881E0,1.0478287E1,1.2105636E-2,7E1,1.65E2,1.7E2,1.38E2,1.3E1,5.747E-3,7.37E2,1.57895E-1,8.072E-3,9.375012E0,9.9168E-1,6E0,2E0,1.9449734E1,2.9E1,2E1,1.6E1,1.21E2,2.9E1,4E0,1.09E2,2.3561747E1,1.23E2,-9.503651E-3,-7.20348E0,6.9400415E-2,-1.1123772E1,2.0666632E1,1.6751013E1,1.0539996E-2,7.727319E0,3.2162052E-3,3E0,3.2976035E-3,-2.8529948E-2,3.543852E-3,-4.3921713E-2,-2.4968253E-2,-6.2581464E-3,-2.5506774E-2,4.0403856E-3,3.8627725E-2,1.3264325E-2,-1.5871692E-2,-3.3383388E-3,1.2890113E-2,1.0085849E-2,-4.7555855E-3,1.330359E-2,4.7874104E-2,7.903646E-3,4.4887017E-2,-4.6105572E-4,2.6165575E-2,3.7977677E-2,7.970372E-3,3.204933E-2,7.1664385E-2,3.802415E-2,1.1830822E-2,-9.950631E-4,5.6073543E-2,4.9140505E-2,2.637193E-2,1.2902263E-2,3.1848524E-2,3.861114E-2,-1.105007E-2,1.421566E-2,-3.2643538E-2,5.3151276E-2,3.5232864E-3,5.0539084E-2,1.0665684E-3,3.3338234E-2,-2.2742871E-2,4.294903E-2,7.63835E-3,6.673171E-2,4.0885236E-2,7.6330476E-2,8.829906E-2,7.068398E-2,2.9644424E-2],"split_indices":[133,107,134,59,107,108,133,123,121,128,44,49,75,18,126,14,128,108,48,13,130,126,132,49,111,19,0,10,20,132,131,131,59,14,53,90,19,104,128,125,108,126,29,132,126,126,2,131,107,131,0,112,0,111,82,82,0,19,0,27,0,0,0,0,0,0,0,0,0,0,0,0,0,0,0,0,0,0,0,0,0,0,0,0,0,0,0,0,0,0,0,0,0,0,0,0,0,0,0,0,0,0,0,0,0,0,0,0,0,0,0],"split_type":[0,0,0,0,0,0,0,0,0,0,0,0,0,0,0,0,0,0,0,0,0,0,0,0,0,0,0,0,0,0,0,0,0,0,0,0,0,0,0,0,0,0,0,0,0,0,0,0,0,0,0,0,0,0,0,0,0,0,0,0,0,0,0,0,0,0,0,0,0,0,0,0,0,0,0,0,0,0,0,0,0,0,0,0,0,0,0,0,0,0,0,0,0,0,0,0,0,0,0,0,0,0,0,0,0,0,0,0,0,0,0],"sum_hessian":[1.8299334E4,1.7427771E4,8.715639E2,9.03501E3,8.392762E3,3.6687112E2,5.0469278E2,3.8941338E3,5.140876E3,5.544913E3,2.847848E3,3.3589197E2,3.0979153E1,9.642279E1,4.0827E2,3.0807368E3,8.133969E2,3.2863857E3,1.85449E3,4.966564E3,5.783495E2,7.953318E2,2.052516E3,2.455831E2,9.030886E1,2.9675657E1,1.3034956E0,3.4611137E1,6.1811657E1,2.0154616E2,2.0672385E2,4.3768143E2,2.6430554E3,5.242553E2,2.891416E2,2.8805154E3,4.0587036E2,1.4155868E3,4.3890317E2,5.909348E2,4.375629E3,3.8765634E2,1.9069316E2,2.1959782E2,5.75734E2,1.1850688E3,8.674473E2,2.4210391E2,3.4791834E0,8.915692E1,1.1519431E0,3.8162067E0,2.5859451E1,2.9053056E0,3.1705833E1,6.0675285E1,1.1363717E0,2.0036667E2,1.179487E0,2.0551306E2,1.2107754E0,7.285065E1,3.6483078E2,1.6283608E3,1.01469464E3,3.2009235E2,2.0416295E2,2.5048381E2,3.86578E1,8.6383575E1,2.7941318E3,1.9961496E2,2.0625539E2,5.513409E2,8.64246E2,3.6500742E2,7.389574E1,4.4301904E2,1.4791576E2,4.179041E3,1.965881E2,4.746675E1,3.4018958E2,1.2448193E2,6.621123E1,1.4667932E2,7.29185E1,5.6521606E2,1.0517935E1,1.4463632E2,1.0404326E3,7.3866364E2,1.2878365E2,2.3886838E2,3.235542E0,1.7647482E0,1.7144351E0,8.7050125E1,2.106796E0,2.4306378E0,1.3855689E0,1.4860775E0,1.4192281E0,3.0135035E1,1.5707982E0,5.3552856E1,7.1224275E0,8.9619736E1,1.10746925E2,2.0222487E2,3.2881923E0],"tree_param":{"num_deleted":"0","num_feature":"136","num_nodes":"111","size_leaf_vector":"1"}},{"base_weights":[-3.197427E-3,-1.0157198E-1,5.141506E-1,-2.2968622E-1,2.397386E-2,3.962222E-1,6.374607E-1,-2.8740954E-1,1.2646885E-2,-4.573673E-2,1.1383262E-1,3.2077757E-1,4.6004766E-1,4.718749E-1,7.050157E-1,-4.2812994E-1,-2.2033603E-1,-4.680022E-2,2.8131467E-1,-9.974796E-2,1.8597996E-1,2.6709926E-1,6.467706E-2,2.1332239E-1,3.638516E-1,3.3764663E-1,5.1452285E-1,2.986433E-1,5.783842E-1,7.449175E-1,5.5265325E-1,-1.17409304E-1,-4.8123974E-1,-2.8577423E-1,-5.848777E-2,-7.402806E-3,-2.3758498E-1,5.3080505E-1,6.848744E-2,9.437161E-2,-1.5462372E-1,-8.740409E-3,3.841264E-1,1.877669E-1,3.9118198E-1,-1.9484484E-1,1.1335985E-1,9.586205E-2,3.3085564E-1,5.238748E-1,3.4132504E-1,2.7115467E-1,5.1247996E-1,5.865127E-1,4.540605E-1,7.446362E-2,3.6602283E-1,5.8797693E-1,1.9287242E-2,6.534834E-1,7.883743E-1,5.017731E-1,6.5242076E-1,3.477823E-3,-2.4281709E-2,-5.383302E-2,-2.6712809E-2,-3.0976895E-2,5.3884704E-3,-1.8253226E-2,8.873283E-5,9.22868E-3,-6.7337626E-3,-3.805059E-2,-2.0485935E-3,3.8824745E-2,7.641816E-2,4.2605447E-3,8.436421E-2,1.4775069E-2,-2.7734728E-3,-2.1477947E-2,-3.214644E-3,-3.370678E-3,3.9575115E-2,7.500493E-3,5.0703473E-2,1.6837042E-2,5.8003612E-2,3.389703E-2,5.9325404E-2,-2.3984043E-2,1.9479979E-2,7.1503366E-3,2.8228357E-2,-1.010371E-2,1.4410958E-2,3.502662E-2,-7.218578E-2,5.6674834E-2,-1.4705741E-3,3.4480114E-2,-5.9263915E-2,2.2583542E-2,4.8168823E-2,2.7251894E-2,5.6580227E-2,6.661763E-2,4.4769894E-2,1.9803746E-2,4.6896156E-2,-2.2785745E-3,4.7020353E-2,2.1403518E-2,4.6288427E-2,5.9984334E-2,2.095974E-2,-3.9339032E-2,4.074589E-2,7.060384E-2,4.430272E-2,7.473499E-2,8.779235E-2,4.476516E-2,6.3360974E-2,6.687207E-2,4.950264E-3],"categories":[],"categories_nodes":[],"categories_segments":[],"categories_sizes":[],"default_left":[0,0,0,0,0,0,0,0,0,0,0,0,0,0,0,0,0,0,0,0,0,0,0,0,0,0,0,0,0,0,0,0,0,0,0,0,0,0,0,0,0,0,0,0,0,0,0,0,0,0,0,0,0,0,0,0,0,0,0,0,0,0,0,0,0,0,0,0,0,0,0,0,0,0,0,0,0,0,0,0,0,0,0,0,0,0,0,0,0,0,0,0,0,0,0,0,0,0,0,0,0,0,0,0,0,0,0,0,0,0,0,0,0,0,0,0,0,0,0,0,0,0,0,0,0,0,0],"id":1,"left_children":[1,3,5,7,9,11,13,15,17,19,21,23,25,27,29,31,33,35,37,39,41,43,45,47,49,51,53,55,57,59,61,63,65,67,69,71,73,75,77,79,81,83,85,87,89,91,93,95,97,99,101,103,105,107,109,111,113,115,117,119,121,123,125,-1,-1,-1,-1,-1,-1,-1,-1,-1,-1,-1,-1,-1,-1,-1,-1,-1,-1,-1,-1,-1,-1,-1,-1,-1,-1,-1,-1,-1,-1,-1,-1,-1,-1,-1,-1,-1,-1,-1,-1,-1,-1,-1,-1,-1,-1,-1,-1,-1,-1,-1,-1,-1,-1,-1,-1,-1,-1,-1,-1,-1,-1,-1,-1],"loss_changes":[2.1153147E3,5.617081E2,9.631348E1,2.4178546E2,1.10497894E2,1.620996E1,3.5961792E1,1.3166406E2,5.313576E1,1.2434338E2,5.8040466E1,7.1433716E0,1.2081116E1,1.7229614E1,1.35859375E1,7.4285034E1,1.00128174E2,2.0475449E1,3.1968903E1,8.583809E1,7.246802E1,1.8344513E1,7.3757645E1,6.164768E0,3.8306427E0,6.4751587E0,5.261383E0,5.428341E0,3.115448E0,6.7232056E0,2.1178741E0,1.2584332E1,4.68808E1,5.4890564E1,2.0060091E1,1.3503887E1,1.4459221E1,8.929939E0,6.512984E0,1.1581378E1,4.6273056E1,9.589303E0,3.5330383E1,8.600887E0,7.487938E0,1.6215435E1,3.4731163E1,2.1605742E0,4.828848E0,3.1344376E0,3.3790665E0,3.844305E0,1.837265E0,6.074539E0,2.5572815E0,3.2713273E0,3.9855042E0,2.4476318E0,1.9012353E0,6.2430725E0,3.8624268E0,2.023491E0,1.5330276E0,0E0,0E0,0E0,0E0,0E0,0E0,0E0,0E0,0E0,0E0,0E0,0E0,0E0,0E0,0E0,0E0,0E0,0E0,0E0,0E0,0E0,0E0,0E0,0E0,0E0,0E0,0E0,0E0,0E0,0E0,0E0,0E0,0E0,0E0,0E0,0E0,0E0,0E0,0E0,0E0,0E0,0E0,0E0,0E0,0E0,0E0,0E0,0E0,0E0,0E0,0E0,0E0,0E0,0E0,0E0,0E0,0E0,0E0,0E0,0E0,0E0,0E0,0E0,0E0],"parents":[2147483647,0,0,1,1,2,2,3,3,4,4,5,5,6,6,7,7,8,8,9,9,10,10,11,11,12,12,13,13,14,14,15,15,16,16,17,17,18,18,19,19,20,20,21,21,22,22,23,23,24,24,25,25,26,26,27,27,28,28,29,29,30,30,31,31,32,32,33,33,34,34,35,35,36,36,37,37,38,38,39,39,40,40,41,41,42,42,43,43,44,44,45,45,46,46,47,47,48,48,49,49,50,50,51,51,52,52,53,53,54,54,55,55,56,56,57,57,58,58,59,59,60,60,61,61,62,62],"right_children":[2,4,6,8,10,12,14,16,18,20,22,24,26,28,30,32,34,36,38,40,42,44,46,48,50,52,54,56,58,60,62,64,66,68,70,72,74,76,78,80,82,84,86,88,90,92,94,96,98,100,102,104,106,108,110,112,114,116,118,120,122,124,126,-1,-1,-1,-1,-1,-1,-1,-1,-1,-1,-1,-1,-1,-1,-1,-1,-1,-1,-1,-1,-1,-1,-1,-1,-1,-1,-1,-1,-1,-1,-1,-1,-1,-1,-1,-1,-1,-1,-1,-1,-1,-1,-1,-1,-1,-1,-1,-1,-1,-1,-1,-1,-1,-1,-1,-1,-1,-1,-1,-1,-1,-1,-1,-1],"split_conditions":[1E0,1.21381E1,3E1,-1.89712E0,2.0591328E1,3E0,7.6E1,1.2048E-2,1E1,1.3E1,3E1,2.53016E-1,1.3874004E1,1.6667538E1,2.8E1,3.2E1,1.481422E1,9.56E2,-7.215829E0,2.6E1,6.4571E4,3E0,5.55556E-1,1.48148E-1,1.576E3,5E0,2.1827E4,1.0642864E1,2E1,2.58E2,1.9819065E1,2.7E1,-7.370332E0,2E0,-2.228094E1,2.7E1,1.333333E0,1.1655633E1,2.3655294E1,1E0,2.4096273E1,1.57895E-1,1.7E1,8.8E1,8E-1,-1.05358E-1,3E0,2E0,1.27E2,5.0845562E1,2.6019176E1,3.75E-1,1.4E1,1.4888889E1,3.846E-3,4.28571E-1,2E0,7.4E1,2.6875E0,2.027E3,1.2981153E1,5.46E2,1E0,3.477823E-3,-2.4281709E-2,-5.383302E-2,-2.6712809E-2,-3.0976895E-2,5.3884704E-3,-1.8253226E-2,8.873283E-5,9.22868E-3,-6.7337626E-3,-3.805059E-2,-2.0485935E-3,3.8824745E-2,7.641816E-2,4.2605447E-3,8.436421E-2,1.4775069E-2,-2.7734728E-3,-2.1477947E-2,-3.214644E-3,-3.370678E-3,3.9575115E-2,7.500493E-3,5.0703473E-2,1.6837042E-2,5.8003612E-2,3.389703E-2,5.9325404E-2,-2.3984043E-2,1.9479979E-2,7.1503366E-3,2.8228357E-2,-1.010371E-2,1.4410958E-2,3.502662E-2,-7.218578E-2,5.6674834E-2,-1.4705741E-3,3.4480114E-2,-5.9263915E-2,2.2583542E-2,4.8168823E-2,2.7251894E-2,5.6580227E-2,6.661763E-2,4.4769894E-2,1.9803746E-2,4.6896156E-2,-2.2785745E-3,4.7020353E-2,2.1403518E-2,4.6288427E-2,5.9984334E-2,2.095974E-2,-3.9339032E-2,4.074589E-2,7.060384E-2,4.430272E-2,7.473499E-2,8.779235E-2,4.476516E-2,6.3360974E-2,6.687207E-2,4.950264E-3],"split_indices":[133,107,134,123,107,134,133,59,128,128,126,90,17,18,126,10,15,10,118,126,130,2,44,58,130,128,130,18,12,134,107,126,116,1,121,126,35,76,108,134,18,53,39,134,47,121,23,133,131,75,15,6,133,44,64,47,128,131,42,133,108,134,56,0,0,0,0,0,0,0,0,0,0,0,0,0,0,0,0,0,0,0,0,0,0,0,0,0,0,0,0,0,0,0,0,0,0,0,0,0,0,0,0,0,0,0,0,0,0,0,0,0,0,0,0,0,0,0,0,0,0,0,0,0,0,0,0],"split_type":[0,0,0,0,0,0,0,0,0,0,0,0,0,0,0,0,0,0,0,0,0,0,0,0,0,0,0,0,0,0,0,0,0,0,0,0,0,0,0,0,0,0,0,0,0,0,0,0,0,0,0,0,0,0,0,0,0,0,0,0,0,0,0,0,0,0,0,0,0,0,0,0,0,0,0,0,0,0,0,0,0,0,0,0,0,0,0,0,0,0,0,0,0,0,0,0,0,0,0,0,0,0,0,0,0,0,0,0,0,0,0,0,0,0,0,0,0,0,0,0,0,0,0,0,0,0,0],"sum_hessian":[4.1561215E4,3.4921617E4,6.6395977E3,1.7283602E4,1.7638018E4,3.3960122E3,3.2435854E3,1.395852E4,3.325082E3,9.932825E3,7.705192E3,1.5591047E3,1.8369076E3,9.421769E2,2.3014084E3,4.5039155E3,9.4546045E3,2.7233276E3,6.017545E2,8.0556826E3,1.877143E3,1.8700275E3,5.835164E3,4.4784207E2,1.1112626E3,5.6795654E2,1.268951E3,3.6017532E2,5.820015E2,1.820701E3,4.807074E2,6.5792365E2,3.8459917E3,6.7319775E3,2.7226267E3,2.2580706E3,4.65257E2,2.7632904E2,3.2542548E2,1.7752228E3,6.2804595E3,9.472386E2,9.299044E2,1.1422455E3,7.2778204E2,9.2122516E2,4.913939E3,2.2489862E2,2.2294347E2,1.3438283E2,9.7687976E2,4.133165E2,1.5464006E2,5.7528455E2,6.936665E2,8.3723274E1,2.7645206E2,5.721335E2,9.868017E0,5.917283E2,1.2289728E3,3.223451E2,1.583623E2,2.975532E2,3.6037045E2,3.035181E3,8.108108E2,6.287868E3,4.4410944E2,8.806751E2,1.8419515E3,8.476441E2,1.4104265E3,2.8010513E2,1.8515186E2,1.7319614E2,1.031329E2,3.1593167E2,9.493825E0,1.2350902E3,5.4013257E2,4.211294E3,2.0691658E3,8.930346E2,5.420397E1,2.6500702E2,6.648974E2,1.0897881E3,5.24574E1,5.804754E2,1.473066E2,8.262012E2,9.502402E1,3.9392754E3,9.746636E2,4.4047142E1,1.8085147E2,2.1956232E2,3.3811495E0,1.2442567E2,9.957156E0,9.738859E2,2.9938421E0,3.4181122E2,7.150528E1,2.9226362E1,1.25413704E2,3.6310422E2,2.1218031E2,3.8938274E1,6.547282E2,6.796414E1,1.5759128E1,1.088549E2,1.6759717E2,5.541689E2,1.7964603E1,4.776512E0,5.091505E0,4.716046E2,1.2012364E2,8.49256E2,3.7971686E2,2.316455E2,9.069959E1,1.5408742E2,4.274893E0],"tree_param":{"num_deleted":"0","num_feature":"136","num_nodes":"127","size_leaf_vector":"1"}},{"base_weights":[-4.250677E-4,-9.271657E-2,4.8855886E-1,-1.9093329E-1,4.3652683E-2,3.3331615E-1,5.823208E-1,-2.401182E-1,7.2824103E-3,2.3757458E-1,9.378471E-3,2.7706796E-1,4.062409E-1,4.6105114E-1,6.380615E-1,-2.9930547E-1,-6.674159E-2,-4.966662E-2,3.7133455E-1,3.291513E-1,8.5831545E-2,-3.0447612E-2,1.9534093E-1,5.759218E-1,2.5792047E-1,3.6211392E-1,5.1207525E-1,3.1838563E-1,5.3578675E-1,5.564249E-1,7.0370054E-1,-3.459943E-1,-1.7020279E-1,-3.1393757E-1,-2.3726894E-2,-1.0235991E-1,4.6336915E-2,2.177141E-1,6.555181E-1,2.6910183E-1,6.043471E-1,-9.58821E-3,2.7812207E-1,-7.647359E-2,6.6672586E-2,2.9862612E-1,8.730233E-2,6.1965096E-1,-4.1529915E-1,1.8197265E-1,3.2194257E-1,4.826514E-2,3.7593776E-1,5.5091494E-1,3.3533838E-1,-1.6350585E-1,3.4399098E-1,4.056545E-1,5.770148E-1,5.648011E-1,4.1939974E-2,5.069348E-1,7.2697085E-1,-3.795959E-2,-1.5294546E-2,-1.999511E-2,7.7842176E-3,-5.48924E-2,-1.2920596E-2,-3.9586513E-3,2.181135E-2,-1.3227333E-2,8.87731E-3,7.385109E-4,3.4559906E-2,5.787775E-2,1.3518927E-2,6.947364E-2,-2.8697042E-2,1.9735279E-2,3.9917093E-2,3.8516384E-2,7.06517E-2,1.4634668E-2,-1.1281686E-2,3.0204242E-2,-3.040464E-2,-1.0541162E-2,1.378762E-2,5.9823124E-3,7.274301E-2,-5.3847632E-3,3.4075733E-2,1.2169667E-2,-2.3664763E-2,-1.5541749E-2,6.460133E-2,-5.823156E-2,2.4099087E-3,1.2965083E-2,2.851975E-2,5.127875E-2,2.9857224E-2,1.6665794E-2,-5.5151362E-2,7.903713E-3,3.8902E-2,5.717321E-2,1.6935686E-2,-9.934445E-4,4.4818338E-2,3.893504E-2,-2.2530071E-2,2.9125834E-2,5.598409E-2,7.284477E-2,3.511799E-2,6.0356524E-2,3.3674333E-2,5.0371915E-2,6.154231E-2,3.9240085E-2,-1.8155279E-2,4.0548645E-2,7.551405E-2,7.548745E-2,6.079666E-2],"categories":[],"categories_nodes":[],"categories_segments":[],"categories_sizes":[],"default_left":[0,0,0,0,0,0,0,0,0,0,0,0,0,0,0,0,0,0,0,0,0,0,0,0,0,0,0,0,0,0,0,0,0,0,0,0,0,0,0,0,0,0,0,0,0,0,0,0,0,0,0,0,0,0,0,0,0,0,0,0,0,0,0,0,0,0,0,0,0,0,0,0,0,0,0,0,0,0,0,0,0,0,0,0,0,0,0,0,0,0,0,0,0,0,0,0,0,0,0,0,0,0,0,0,0,0,0,0,0,0,0,0,0,0,0,0,0,0,0,0,0,0,0,0,0,0,0],"id":2,"left_children":[1,3,5,7,9,11,13,15,17,19,21,23,25,27,29,31,33,35,37,39,41,43,45,47,49,51,53,55,57,59,61,63,65,67,69,71,73,75,77,79,81,83,85,87,89,91,93,95,97,99,101,103,105,107,109,111,113,115,117,119,121,123,125,-1,-1,-1,-1,-1,-1,-1,-1,-1,-1,-1,-1,-1,-1,-1,-1,-1,-1,-1,-1,-1,-1,-1,-1,-1,-1,-1,-1,-1,-1,-1,-1,-1,-1,-1,-1,-1,-1,-1,-1,-1,-1,-1,-1,-1,-1,-1,-1,-1,-1,-1,-1,-1,-1,-1,-1,-1,-1,-1,-1,-1,-1,-1,-1],"loss_changes":[1.7457478E3,4.3586102E2,8.920703E1,1.8442969E2,9.055882E1,9.383545E0,2.558081E1,1.5550964E2,7.801038E1,2.8409248E1,8.57685E1,7.348343E0,4.512512E0,1.2720032E1,1.3647095E1,6.8046265E1,4.1020874E1,1.6465141E1,2.207766E1,2.0921707E1,1.4159421E1,4.2641468E1,2.27677E1,3.6414661E0,5.9368896E0,3.0768127E0,1.8305817E0,5.2149467E0,4.014679E0,5.028778E0,6.263672E0,5.3762207E1,2.2173248E1,2.4751877E1,1.2618713E1,1.2024687E1,1.3446449E1,9.810806E0,6.782402E0,9.712189E0,4.827736E0,8.332747E0,3.655716E0,4.0158543E1,1.3838908E1,1.55203705E1,1.116836E1,1.636446E0,3.000604E-1,3.0215206E0,2.825142E0,2.3104184E0,2.6225433E0,1.8026505E0,2.1649413E0,8.3152586E-1,4.3592606E0,3.1536884E0,3.6181183E0,3.2569275E0,1.6269662E0,3.6341438E0,3.8344727E0,0E0,0E0,0E0,0E0,0E0,0E0,0E0,0E0,0E0,0E0,0E0,0E0,0E0,0E0,0E0,0E0,0E0,0E0,0E0,0E0,0E0,0E0,0E0,0E0,0E0,0E0,0E0,0E0,0E0,0E0,0E0,0E0,0E0,0E0,0E0,0E0,0E0,0E0,0E0,0E0,0E0,0E0,0E0,0E0,0E0,0E0,0E0,0E0,0E0,0E0,0E0,0E0,0E0,0E0,0E0,0E0,0E0,0E0,0E0,0E0,0E0,0E0,0E0,0E0],"parents":[2147483647,0,0,1,1,2,2,3,3,4,4,5,5,6,6,7,7,8,8,9,9,10,10,11,11,12,12,13,13,14,14,15,15,16,16,17,17,18,18,19,19,20,20,21,21,22,22,23,23,24,24,25,25,26,26,27,27,28,28,29,29,30,30,31,31,32,32,33,33,34,34,35,35,36,36,37,37,38,38,39,39,40,40,41,41,42,42,43,43,44,44,45,45,46,46,47,47,48,48,49,49,50,50,51,51,52,52,53,53,54,54,55,55,56,56,57,57,58,58,59,59,60,60,61,61,62,62],"right_children":[2,4,6,8,10,12,14,16,18,20,22,24,26,28,30,32,34,36,38,40,42,44,46,48,50,52,54,56,58,60,62,64,66,68,70,72,74,76,78,80,82,84,86,88,90,92,94,96,98,100,102,104,106,108,110,112,114,116,118,120,122,124,126,-1,-1,-1,-1,-1,-1,-1,-1,-1,-1,-1,-1,-1,-1,-1,-1,-1,-1,-1,-1,-1,-1,-1,-1,-1,-1,-1,-1,-1,-1,-1,-1,-1,-1,-1,-1,-1,-1,-1,-1,-1,-1,-1,-1,-1,-1,-1,-1,-1,-1,-1,-1,-1,-1,-1,-1,-1,-1,-1,-1,-1,-1,-1,-1],"split_conditions":[1E0,1.4577331E1,1.1E1,1.53846E-1,5E0,7.3E0,6.2E1,1.8313486E1,-2.007121E0,1.6E1,2.66667E-1,4E0,2.2293756E1,1.7322067E1,2.58E2,1.1140631E1,-3.0210688E1,2.5E-1,6.3571E4,2.6263483E1,2E0,2.4272245E1,1.5E1,4.7E1,6.00915E-1,2E0,9.70474E0,1.613E-3,3E0,2.8192E4,2.26E2,-6.067415E0,6.4571E4,4.01727E-1,2.8E1,1.6600134E1,6.4412E4,5E0,2.14286E-1,2E0,5.448E3,-2.228094E1,9.26E2,6.2106E4,-1.71479E0,5.8704853E1,1.78E2,2E0,7.392704E0,2.9412E-2,1.374E3,1.73913E-1,1.093E-3,3.67E2,1.4674E4,-1.5686244E1,4E1,-2.6378666E1,1.7415047E1,7.909649E0,6.158627E0,8.798411E0,2E0,-3.795959E-2,-1.5294546E-2,-1.999511E-2,7.7842176E-3,-5.48924E-2,-1.2920596E-2,-3.9586513E-3,2.181135E-2,-1.3227333E-2,8.87731E-3,7.385109E-4,3.4559906E-2,5.787775E-2,1.3518927E-2,6.947364E-2,-2.8697042E-2,1.9735279E-2,3.9917093E-2,3.8516384E-2,7.06517E-2,1.4634668E-2,-1.1281686E-2,3.0204242E-2,-3.040464E-2,-1.0541162E-2,1.378762E-2,5.9823124E-3,7.274301E-2,-5.3847632E-3,3.4075733E-2,1.2169667E-2,-2.3664763E-2,-1.5541749E-2,6.460133E-2,-5.823156E-2,2.4099087E-3,1.2965083E-2,2.851975E-2,5.127875E-2,2.9857224E-2,1.6665794E-2,-5.5151362E-2,7.903713E-3,3.8902E-2,5.717321E-2,1.6935686E-2,-9.934445E-4,4.4818338E-2,3.893504E-2,-2.2530071E-2,2.9125834E-2,5.598409E-2,7.284477E-2,3.511799E-2,6.0356524E-2,3.3674333E-2,5.0371915E-2,6.154231E-2,3.9240085E-2,-1.8155279E-2,4.0548645E-2,7.551405E-2,7.548745E-2,6.079666E-2],"split_indices":[133,107,134,48,13,135,133,19,111,132,48,13,107,16,134,107,114,48,130,107,125,17,132,132,92,132,77,64,133,133,133,116,130,104,134,19,129,13,47,125,129,121,44,130,123,74,132,131,77,50,130,58,64,133,130,122,133,115,82,19,19,83,125,0,0,0,0,0,0,0,0,0,0,0,0,0,0,0,0,0,0,0,0,0,0,0,0,0,0,0,0,0,0,0,0,0,0,0,0,0,0,0,0,0,0,0,0,0,0,0,0,0,0,0,0,0,0,0,0,0,0,0,0,0,0,0,0],"split_type":[0,0,0,0,0,0,0,0,0,0,0,0,0,0,0,0,0,0,0,0,0,0,0,0,0,0,0,0,0,0,0,0,0,0,0,0,0,0,0,0,0,0,0,0,0,0,0,0,0,0,0,0,0,0,0,0,0,0,0,0,0,0,0,0,0,0,0,0,0,0,0,0,0,0,0,0,0,0,0,0,0,0,0,0,0,0,0,0,0,0,0,0,0,0,0,0,0,0,0,0,0,0,0,0,0,0,0,0,0,0,0,0,0,0,0,0,0,0,0,0,0,0,0,0,0,0,0],"sum_hessian":[3.868145E4,3.2540518E4,6.1409316E3,1.8916184E4,1.3624334E4,2.3140637E3,3.8268677E3,1.5155349E4,3.7608354E3,2.0454337E3,1.15789E4,1.3091173E3,1.00494653E3,1.2080033E3,2.6188645E3,1.1297788E4,3.8575613E3,3.252852E3,5.0798325E2,1.2748777E3,7.70556E2,9.537226E3,2.0416746E3,7.7073654E1,1.2320436E3,7.123557E2,2.925908E2,4.1708145E2,7.909219E2,1.1714214E3,1.4474431E3,8.295951E3,3.0018372E3,5.7082983E2,3.2867312E3,2.100105E3,1.1527472E3,3.308841E2,1.7709915E2,1.0481439E3,2.2673376E2,5.1563446E2,2.5492162E2,6.470853E3,3.0663726E3,1.0428976E3,9.987769E2,7.4176125E1,2.8975327E0,5.6529285E2,6.667508E2,3.0242365E1,6.8211334E2,2.3814005E2,5.445075E1,2.0771803E1,3.9630966E2,1.9289789E2,5.98024E2,1.1525591E3,1.8862314E1,1.554865E2,1.2919565E3,7.0652275E3,1.230723E3,2.6805498E3,3.2128735E2,2.5037317E2,3.204567E2,3.085241E3,2.0149031E2,1.8161716E3,2.8393338E2,1.02089294E3,1.3185422E2,6.043873E1,2.7044537E2,1.7027658E2,6.822568E0,6.771371E2,3.710068E2,7.360346E1,1.5313031E2,2.052184E2,3.1041605E2,2.4532288E2,9.5987425E0,5.701621E3,7.692322E2,3.035992E3,3.03808E1,1.11318375E2,9.315792E2,9.034775E2,9.529946E1,2.2789242E0,7.18972E1,1.8638293E0,1.0337033E0,3.766403E2,1.8865253E2,7.045611E1,5.962947E2,2.5859905E1,4.3824587E0,2.908444E1,6.5302893E2,2.2534708E2,1.279297E1,1.3637114E1,4.0813637E1,1.5554113E0,1.9216393E1,3.2038754E2,7.5922104E1,2.606651E1,1.6683139E2,5.3715533E2,6.0868645E1,5.2727924E2,6.252798E2,7.050539E0,1.1811774E1,1.1224329E2,4.3243195E1,1.0422346E3,2.4972202E2],"tree_param":{"num_deleted":"0","num_feature":"136","num_nodes":"127","size_leaf_vector":"1"}},{"base_weights":[4.9664755E-4,-8.4624395E-2,4.6053928E-1,-1.8281962E-1,4.971486E-2,3.415593E-1,5.8417904E-1,-2.3669797E-1,9.166076E-3,2.4116649E-1,1.3604206E-2,2.6330987E-1,4.0586153E-1,4.171813E-1,6.418355E-1,-3.034862E-1,-6.813869E-2,-2.8852815E-2,4.8909155E-1,1.647507E-1,3.8426995E-1,-3.0739697E-2,1.9001241E-1,4.8241422E-1,2.481066E-1,2.4646102E-1,4.3580195E-1,2.7762145E-1,5.1524484E-1,6.7893684E-1,5.467464E-1,-3.5755703E-1,-1.8502758E-1,-2.385554E-1,-7.858074E-3,1.1924572E-1,-8.6711265E-2,4.3783832E-2,6.202392E-1,1.0229994E-1,4.3820897E-1,2.7150154E-1,4.7108617E-1,-1.3844503E-1,8.245347E-3,1.4260952E-1,4.516103E-1,-2.307557E-1,5.1524115E-1,3.1714773E-1,1.9928633E-1,3.395431E-1,-1.887029E-2,3.3726382E-1,4.859303E-1,4.0359324E-1,1.5710191E-1,5.3447497E-1,2.2006324E-1,6.412124E-1,7.704793E-1,4.8660216E-1,6.0756856E-1,-3.9239492E-2,-1.746672E-2,-2.1713143E-2,4.4554616E-3,-5.6717176E-2,-1.5778763E-2,-1.0218079E-2,5.258909E-3,4.823308E-3,4.002614E-2,-1.3650641E-2,1.18899E-2,6.8279326E-2,-3.7086816E-3,6.731009E-2,1.4729182E-2,1.9289128E-2,-5.058986E-3,1.3029123E-2,5.964554E-2,-3.0294115E-2,2.8671412E-2,-2.1739348E-3,4.9272727E-2,-1.6749648E-2,1.4640354E-2,-1.5303699E-3,1.9826097E-2,-1.3109515E-2,1.6954483E-2,5.7822835E-2,2.184159E-2,-5.4707974E-2,2.3202991E-2,5.3893216E-2,-3.568284E-2,2.6380215E-2,3.962007E-2,7.827163E-3,2.3717145E-2,2.7134268E-2,5.4361153E-2,-1.0467204E-2,2.41468E-2,3.04645E-2,5.083176E-2,5.8097597E-2,4.269511E-2,7.946626E-3,4.7409035E-2,-4.675856E-2,2.0102294E-2,-2.2148328E-2,5.4005153E-2,-3.2690328E-2,4.967015E-2,5.6880135E-2,7.093259E-2,2.8988237E-2,7.805943E-2,5.063799E-2,3.1620234E-3,-2.5827963E-2,6.1227906E-2],"categories":[],"categories_nodes":[],"categories_segments":[],"categories_sizes":[],"default_left":[0,0,0,0,0,0,0,0,0,0,0,0,0,0,0,0,0,0,0,0,0,0,0,0,0,0,0,0,0,0,0,0,0,0,0,0,0,0,0,0,0,0,0,0,0,0,0,0,0,0,0,0,0,0,0,0,0,0,0,0,0,0,0,0,0,0,0,0,0,0,0,0,0,0,0,0,0,0,0,0,0,0,0,0,0,0,0,0,0,0,0,0,0,0,0,0,0,0,0,0,0,0,0,0,0,0,0,0,0,0,0,0,0,0,0,0,0,0,0,0,0,0,0,0,0,0,0],"id":3,"left_children":[1,3,5,7,9,11,13,15,17,19,21,23,25,27,29,31,33,35,37,39,41,43,45,47,49,51,53,55,57,59,61,63,65,67,69,71,73,75,77,79,81,83,85,87,89,91,93,95,97,99,101,103,105,107,109,111,113,115,117,119,121,123,125,-1,-1,-1,-1,-1,-1,-1,-1,-1,-1,-1,-1,-1,-1,-1,-1,-1,-1,-1,-1,-1,-1,-1,-1,-1,-1,-1,-1,-1,-1,-1,-1,-1,-1,-1,-1,-1,-1,-1,-1,-1,-1,-1,-1,-1,-1,-1,-1,-1,-1,-1,-1,-1,-1,-1,-1,-1,-1,-1,-1,-1,-1,-1,-1],"loss_changes":[1.4481848E3,4.1168326E2,8.474414E1,1.8649585E2,9.111041E1,1.4711273E1,2.6983643E1,1.5847168E2,7.2121414E1,2.2805573E1,8.675038E1,4.3149414E0,7.5989075E0,9.837097E0,7.044739E0,6.45166E1,4.1054092E1,3.1395638E1,1.6917244E1,2.3266945E1,6.991829E0,3.7212955E1,2.7559486E1,2.1163979E0,4.139801E0,6.3694324E0,6.544464E0,4.5384827E0,2.3069077E0,4.71344E0,1.8813477E0,4.4034058E1,2.331559E1,2.762677E1,1.6843756E1,2.0522697E1,2.6988043E1,3.4920583E0,5.5023956E0,1.5419342E1,1.2273506E1,2.8718643E0,4.37854E0,1.9515522E1,2.9124063E1,1.3936512E1,9.950401E0,7.776761E-1,1.8839092E0,2.0665474E0,3.342617E0,2.5076904E0,1.5410372E0,2.4184341E0,4.7852783E0,3.3342361E0,4.3891478E0,1.8071289E0,4.3724356E0,4.8928833E0,1.888855E0,2.7217407E0,1.3485336E0,0E0,0E0,0E0,0E0,0E0,0E0,0E0,0E0,0E0,0E0,0E0,0E0,0E0,0E0,0E0,0E0,0E0,0E0,0E0,0E0,0E0,0E0,0E0,0E0,0E0,0E0,0E0,0E0,0E0,0E0,0E0,0E0,0E0,0E0,0E0,0E0,0E0,0E0,0E0,0E0,0E0,0E0,0E0,0E0,0E0,0E0,0E0,0E0,0E0,0E0,0E0,0E0,0E0,0E0,0E0,0E0,0E0,0E0,0E0,0E0,0E0,0E0,0E0,0E0],"parents":[2147483647,0,0,1,1,2,2,3,3,4,4,5,5,6,6,7,7,8,8,9,9,10,10,11,11,12,12,13,13,14,14,15,15,16,16,17,17,18,18,19,19,20,20,21,21,22,22,23,23,24,24,25,25,26,26,27,27,28,28,29,29,30,30,31,31,32,32,33,33,34,34,35,35,36,36,37,37,38,38,39,39,40,40,41,41,42,42,43,43,44,44,45,45,46,46,47,47,48,48,49,49,50,50,51,51,52,52,53,53,54,54,55,55,56,56,57,57,58,58,59,59,60,60,61,61,62,62],"right_children":[2,4,6,8,10,12,14,16,18,20,22,24,26,28,30,32,34,36,38,40,42,44,46,48,50,52,54,56,58,60,62,64,66,68,70,72,74,76,78,80,82,84,86,88,90,92,94,96,98,100,102,104,106,108,110,112,114,116,118,120,122,124,126,-1,-1,-1,-1,-1,-1,-1,-1,-1,-1,-1,-1,-1,-1,-1,-1,-1,-1,-1,-1,-1,-1,-1,-1,-1,-1,-1,-1,-1,-1,-1,-1,-1,-1,-1,-1,-1,-1,-1,-1,-1,-1,-1,-1,-1,-1,-1,-1,-1,-1,-1,-1,-1,-1,-1,-1,-1,-1,-1,-1,-1,-1,-1,-1],"split_conditions":[1E0,1.4960643E1,3.3E1,1.53846E-1,5E0,3E0,7.6E1,1.7364313E1,1.1523977E1,2E0,2.66667E-1,4E0,3E0,1.83888E1,2.5E1,1.0575176E1,-1.6102448E1,2.4E1,5.5635E4,2.6263483E1,1.8922958E1,1.4E1,1.6E1,-1.7646406E1,-8.874543E0,-1.5633382E1,1.3998727E1,9.70747E-1,2.7778E-2,9.033834E0,3.52941E-1,-1.347028E0,6.4571E4,4.167E-3,2.208E-3,1.2754251E1,1.2E1,2E0,8E0,1.4E1,4.624E3,-2.6251253E1,5.41E2,-6.132669E0,6.2106E4,1.7E1,5E0,7E-5,6.3E1,2.2657743E1,1.8634E-2,3.647167E1,5.442E4,1.2E1,2.8E1,1.0980185E1,-1.3179858E1,2.07E2,1.70654E1,1.2404291E1,1.3927E4,1.09E2,5.12594E-1,-3.9239492E-2,-1.746672E-2,-2.1713143E-2,4.4554616E-3,-5.6717176E-2,-1.5778763E-2,-1.0218079E-2,5.258909E-3,4.823308E-3,4.002614E-2,-1.3650641E-2,1.18899E-2,6.8279326E-2,-3.7086816E-3,6.731009E-2,1.4729182E-2,1.9289128E-2,-5.058986E-3,1.3029123E-2,5.964554E-2,-3.0294115E-2,2.8671412E-2,-2.1739348E-3,4.9272727E-2,-1.6749648E-2,1.4640354E-2,-1.5303699E-3,1.9826097E-2,-1.3109515E-2,1.6954483E-2,5.7822835E-2,2.184159E-2,-5.4707974E-2,2.3202991E-2,5.3893216E-2,-3.568284E-2,2.6380215E-2,3.962007E-2,7.827163E-3,2.3717145E-2,2.7134268E-2,5.4361153E-2,-1.0467204E-2,2.41468E-2,3.04645E-2,5.083176E-2,5.8097597E-2,4.269511E-2,7.946626E-3,4.7409035E-2,-4.675856E-2,2.0102294E-2,-2.2148328E-2,5.4005153E-2,-3.2690328E-2,4.967015E-2,5.6880135E-2,7.093259E-2,2.8988237E-2,7.805943E-2,5.063799E-2,3.1620234E-3,-2.5827963E-2,6.1227906E-2],"split_indices":[133,107,134,48,13,134,133,19,76,125,48,13,133,16,126,107,116,126,130,107,107,24,128,110,120,116,17,100,67,83,47,111,130,59,60,73,128,125,13,132,129,120,129,116,130,24,131,65,132,107,55,105,130,128,126,74,115,129,107,72,129,132,102,0,0,0,0,0,0,0,0,0,0,0,0,0,0,0,0,0,0,0,0,0,0,0,0,0,0,0,0,0,0,0,0,0,0,0,0,0,0,0,0,0,0,0,0,0,0,0,0,0,0,0,0,0,0,0,0,0,0,0,0,0,0,0,0],"split_type":[0,0,0,0,0,0,0,0,0,0,0,0,0,0,0,0,0,0,0,0,0,0,0,0,0,0,0,0,0,0,0,0,0,0,0,0,0,0,0,0,0,0,0,0,0,0,0,0,0,0,0,0,0,0,0,0,0,0,0,0,0,0,0,0,0,0,0,0,0,0,0,0,0,0,0,0,0,0,0,0,0,0,0,0,0,0,0,0,0,0,0,0,0,0,0,0,0,0,0,0,0,0,0,0,0,0,0,0,0,0,0,0,0,0,0,0,0,0,0,0,0,0,0,0,0,0,0],"sum_hessian":[3.6979887E4,3.1206592E4,5.773296E3,1.8028387E4,1.3178204E4,2.9440066E3,2.8292893E3,1.4077486E4,3.9509004E3,2.0902783E3,1.1087926E4,1.3302812E3,1.6137252E3,7.2823773E2,2.1010515E3,1.0081926E4,3.9955613E3,3.6617617E3,2.8913876E2,1.3640441E3,7.262343E2,8.861282E3,2.2266433E3,8.432259E1,1.2459587E3,2.5663757E2,1.3570876E3,3.0211356E2,4.261242E2,1.5069417E3,5.941098E2,6.920859E3,3.1610664E3,1.0432571E3,2.9523042E3,1.0283821E3,2.6333796E3,6.608456E1,2.230542E2,1.1115656E3,2.5247853E2,3.1769598E2,4.0853833E2,2.354333E3,6.506949E3,1.8863687E3,3.4027466E2,3.4452224E0,8.087737E1,5.138215E2,7.321372E2,1.8978021E2,6.685735E1,4.6019754E2,8.968901E2,1.4656706E2,1.5554651E2,3.9930045E2,2.6823744E1,1.0728345E3,4.3410724E2,3.0324536E2,2.908644E2,5.8125127E3,1.1083464E3,2.773312E3,3.877543E2,2.04637E2,8.3862006E2,1.1527869E3,1.7995173E3,8.2186774E2,2.065143E2,2.1202332E3,5.131466E2,6.5877333E0,5.9496822E1,2.0024902E2,2.2805174E1,6.978242E2,4.1374136E2,8.6326584E1,1.6615195E2,7.708314E0,3.0998767E2,1.7185005E1,3.9135333E2,2.1368135E3,2.1751968E2,5.790268E3,7.1668097E2,1.6865944E2,1.7177092E3,2.1957303E2,1.20701614E2,1.9382448E0,1.5069776E0,7.911024E1,1.7671306E0,3.0938382E2,2.0443767E2,1.7528824E2,5.56849E2,1.439884E2,4.579181E1,5.0734364E1,1.6122986E1,3.88831E2,7.1366554E1,3.400482E2,5.5684186E2,2.6563297E1,1.2000376E2,9.584229E0,1.4596228E2,2.6404734E0,3.9665997E2,8.94872E0,1.7875023E1,5.245446E2,5.4828986E2,9.559462E0,4.2454776E2,2.9050436E2,1.2740992E1,1.2825714E0,2.8958185E2],"tree_param":{"num_deleted":"0","num_feature":"136","num_nodes":"127","size_leaf_vector":"1"}},{"base_weights":[-7.623464E-4,-8.174901E-2,4.386787E-1,-1.7971301E-1,4.3749508E-2,2.8101167E-1,5.322941E-1,-2.2806378E-1,3.7611734E-2,2.1365303E-1,1.2037638E-2,2.4599646E-1,3.7613443E-1,6.16848E-1,4.6158808E-1,-3.9749092E-1,-1.69287E-1,-5.3843867E-2,2.5352722E-1,1.4301398E-1,3.5749862E-1,-4.2818714E-2,1.4364816E-1,1.951627E-1,3.1918505E-1,5.210421E-1,3.276194E-1,4.8185933E-1,6.604941E-1,4.029625E-1,5.32783E-1,-1.1818429E-1,-4.2860308E-1,-2.2590496E-1,-3.9828986E-2,-8.25879E-2,2.3496978E-1,4.378654E-1,3.7906207E-2,6.958357E-2,3.0499607E-1,1.8396334E-1,4.5377538E-1,-1.4824711E-1,-6.9761924E-3,9.621832E-2,3.8480973E-1,-4.3580174E-2,2.1858512E-1,2.3527592E-1,3.7127218E-1,5.4533255E-1,-1.8797255E-1,2.546561E-1,4.5487192E-1,6.356154E-2,5.2900755E-1,5.8343315E-1,7.008475E-1,3.650927E-1,5.373668E-1,4.933669E-1,6.4147997E-1,1.8850511E-3,-2.6206413E-2,-4.7743004E-2,-2.381393E-2,-2.5792813E-2,2.2232437E-3,-1.3388881E-2,1.3629437E-3,-1.2964155E-2,5.4711E-3,5.2192714E-3,4.5878317E-2,6.3294046E-2,3.056909E-2,-8.734466E-2,5.606153E-3,1.1713565E-3,2.7874384E-2,3.3352014E-2,8.634286E-3,2.9927228E-2,5.4266903E-4,5.352631E-2,2.5695536E-2,-1.709296E-2,2.7972687E-2,3.5428274E-3,-1.0010584E-2,-9.8714E-3,1.2195026E-2,5.085845E-2,1.8994981E-2,-3.4052517E-2,8.097985E-3,4.1543733E-2,1.9875443E-2,1.2233668E-2,3.9013434E-2,4.8718094E-3,3.8128093E-2,5.718201E-2,-1.9090304E-2,3.1468127E-2,-4.5116097E-2,-2.7578946E-3,3.0397981E-2,5.0185293E-2,1.6578803E-2,-3.7501488E-2,1.1688574E-2,4.685921E-2,7.4328884E-2,3.5130784E-2,6.335713E-2,7.458137E-2,5.8677692E-2,4.696317E-2,3.2151815E-2,3.951808E-2,5.967625E-2,5.594441E-2,4.2321663E-2,7.04772E-2,4.0051218E-2],"categories":[],"categories_nodes":[],"categories_segments":[],"categories_sizes":[],"default_left":[0,0,0,0,0,0,0,0,0,0,0,0,0,0,0,0,0,0,0,0,0,0,0,0,0,0,0,0,0,0,0,0,0,0,0,0,0,0,0,0,0,0,0,0,0,0,0,0,0,0,0,0,0,0,0,0,0,0,0,0,0,0,0,0,0,0,0,0,0,0,0,0,0,0,0,0,0,0,0,0,0,0,0,0,0,0,0,0,0,0,0,0,0,0,0,0,0,0,0,0,0,0,0,0,0,0,0,0,0,0,0,0,0,0,0,0,0,0,0,0,0,0,0,0,0,0,0],"id":4,"left_children":[1,3,5,7,9,11,13,15,17,19,21,23,25,27,29,31,33,35,37,39,41,43,45,47,49,51,53,55,57,59,61,63,65,67,69,71,73,75,77,79,81,83,85,87,89,91,93,95,97,99,101,103,105,107,109,111,113,115,117,119,121,123,125,-1,-1,-1,-1,-1,-1,-1,-1,-1,-1,-1,-1,-1,-1,-1,-1,-1,-1,-1,-1,-1,-1,-1,-1,-1,-1,-1,-1,-1,-1,-1,-1,-1,-1,-1,-1,-1,-1,-1,-1,-1,-1,-1,-1,-1,-1,-1,-1,-1,-1,-1,-1,-1,-1,-1,-1,-1,-1,-1,-1,-1,-1,-1,-1],"loss_changes":[1.2715796E3,3.7092297E2,8.191785E1,1.7804999E2,7.126337E1,6.8138733E0,2.0565552E1,1.3795825E2,6.0921776E1,2.1087883E1,8.0487495E1,5.5872803E0,3.7382278E0,9.0216675E0,7.729309E0,3.0964539E1,7.542844E1,1.801361E1,3.646869E1,1.659397E1,1.1352638E1,2.9733788E1,3.747696E1,5.0349274E0,2.62603E0,2.4752083E0,3.7768059E0,7.678276E0,3.3080444E0,5.1374207E0,3.352707E0,7.0851974E0,2.9748108E1,5.6902313E1,1.5754576E1,1.2747571E1,8.012709E0,1.2563644E1,7.067135E0,1.1646511E1,2.6868973E0,5.0612803E0,6.9123764E0,1.9427742E1,2.3198376E1,1.3765934E1,1.2895744E1,3.0281625E0,3.1128654E0,4.158698E0,1.2124672E0,2.7118149E0,8.4407806E-1,3.7494488E0,1.9745617E0,9.967671E-1,4.1993866E0,4.627762E0,3.5605774E0,3.587288E0,1.6916275E0,2.696579E0,3.1427994E0,0E0,0E0,0E0,0E0,0E0,0E0,0E0,0E0,0E0,0E0,0E0,0E0,0E0,0E0,0E0,0E0,0E0,0E0,0E0,0E0,0E0,0E0,0E0,0E0,0E0,0E0,0E0,0E0,0E0,0E0,0E0,0E0,0E0,0E0,0E0,0E0,0E0,0E0,0E0,0E0,0E0,0E0,0E0,0E0,0E0,0E0,0E0,0E0,0E0,0E0,0E0,0E0,0E0,0E0,0E0,0E0,0E0,0E0,0E0,0E0,0E0,0E0,0E0,0E0],"parents":[2147483647,0,0,1,1,2,2,3,3,4,4,5,5,6,6,7,7,8,8,9,9,10,10,11,11,12,12,13,13,14,14,15,15,16,16,17,17,18,18,19,19,20,20,21,21,22,22,23,23,24,24,25,25,26,26,27,27,28,28,29,29,30,30,31,31,32,32,33,33,34,34,35,35,36,36,37,37,38,38,39,39,40,40,41,41,42,42,43,43,44,44,45,45,46,46,47,47,48,48,49,49,50,50,51,51,52,52,53,53,54,54,55,55,56,56,57,57,58,58,59,59,60,60,61,61,62,62],"right_children":[2,4,6,8,10,12,14,16,18,20,22,24,26,28,30,32,34,36,38,40,42,44,46,48,50,52,54,56,58,60,62,64,66,68,70,72,74,76,78,80,82,84,86,88,90,92,94,96,98,100,102,104,106,108,110,112,114,116,118,120,122,124,126,-1,-1,-1,-1,-1,-1,-1,-1,-1,-1,-1,-1,-1,-1,-1,-1,-1,-1,-1,-1,-1,-1,-1,-1,-1,-1,-1,-1,-1,-1,-1,-1,-1,-1,-1,-1,-1,-1,-1,-1,-1,-1,-1,-1,-1,-1,-1,-1,-1,-1,-1,-1,-1,-1,-1,-1,-1,-1,-1,-1,-1,-1,-1,-1],"split_conditions":[1E0,1.4801662E1,1.1E1,-1.89712E0,5E0,2.2994719E1,2.1E1,1.0732E-2,6E0,2.2293756E1,2.14286E-1,9E0,2.8E1,1.11E2,1.7342257E1,3.1E1,1.452886E1,6.3491E4,-2.302574E0,1E0,5.6E3,1.4E1,1.6E1,2.77E2,1E0,8.9E1,1.2E1,1.195453E1,1.5132169E1,6.4765E4,5.7824E4,2.7E1,-6.643777E0,2.30769E-1,1.99683E0,2.2342299E1,2.30769E-1,2E0,-3.2468136E1,2E0,8.35E2,1.8E1,1.1E1,-1.714748E0,1.4E1,3E-6,3E0,8E0,4E0,2.4028536E1,2.387E-3,5.94E-4,2E0,1.8420681E1,8.70751E1,1.2035E4,9.811948E0,5.02E2,9E0,3.802E-3,3.57E2,9.75995E-1,-1.0879781E1,1.8850511E-3,-2.6206413E-2,-4.7743004E-2,-2.381393E-2,-2.5792813E-2,2.2232437E-3,-1.3388881E-2,1.3629437E-3,-1.2964155E-2,5.4711E-3,5.2192714E-3,4.5878317E-2,6.3294046E-2,3.056909E-2,-8.734466E-2,5.606153E-3,1.1713565E-3,2.7874384E-2,3.3352014E-2,8.634286E-3,2.9927228E-2,5.4266903E-4,5.352631E-2,2.5695536E-2,-1.709296E-2,2.7972687E-2,3.5428274E-3,-1.0010584E-2,-9.8714E-3,1.2195026E-2,5.085845E-2,1.8994981E-2,-3.4052517E-2,8.097985E-3,4.1543733E-2,1.9875443E-2,1.2233668E-2,3.9013434E-2,4.8718094E-3,3.8128093E-2,5.718201E-2,-1.9090304E-2,3.1468127E-2,-4.5116097E-2,-2.7578946E-3,3.0397981E-2,5.0185293E-2,1.6578803E-2,-3.7501488E-2,1.1688574E-2,4.685921E-2,7.4328884E-2,3.5130784E-2,6.335713E-2,7.458137E-2,5.8677692E-2,4.696317E-2,3.2151815E-2,3.951808E-2,5.967625E-2,5.594441E-2,4.2321663E-2,7.04772E-2,4.0051218E-2],"split_indices":[133,107,134,123,13,107,126,59,128,107,48,135,126,133,107,14,19,129,113,127,129,24,128,129,127,131,135,18,109,129,129,126,116,48,87,109,53,132,124,128,10,132,39,123,132,65,132,34,13,109,49,69,25,18,75,130,83,133,132,54,134,104,115,0,0,0,0,0,0,0,0,0,0,0,0,0,0,0,0,0,0,0,0,0,0,0,0,0,0,0,0,0,0,0,0,0,0,0,0,0,0,0,0,0,0,0,0,0,0,0,0,0,0,0,0,0,0,0,0,0,0,0,0,0,0,0,0],"split_type":[0,0,0,0,0,0,0,0,0,0,0,0,0,0,0,0,0,0,0,0,0,0,0,0,0,0,0,0,0,0,0,0,0,0,0,0,0,0,0,0,0,0,0,0,0,0,0,0,0,0,0,0,0,0,0,0,0,0,0,0,0,0,0,0,0,0,0,0,0,0,0,0,0,0,0,0,0,0,0,0,0,0,0,0,0,0,0,0,0,0,0,0,0,0,0,0,0,0,0,0,0,0,0,0,0,0,0,0,0,0,0,0,0,0,0,0,0,0,0,0,0,0,0,0,0,0,0],"sum_hessian":[3.5727695E4,3.0168596E4,5.559099E3,1.6942707E4,1.322589E4,2.0725356E3,3.4865632E3,1.3859232E4,3.0834744E3,2.0793835E3,1.1146506E4,1.517516E3,5.550198E2,1.5842771E3,1.902286E3,3.568135E3,1.0291098E4,2.1665405E3,9.169337E2,1.3958904E3,6.8349335E2,7.867812E3,3.278694E3,8.9768665E2,6.1982935E2,1.3676921E2,4.1825058E2,3.9003046E2,1.1942467E3,1.0468859E3,8.5540015E2,3.5810233E2,3.2100325E3,7.1592725E3,3.1318252E3,1.9710835E3,1.9545703E2,4.937702E2,4.2316354E2,9.614646E2,4.344257E2,2.4492886E2,4.3856448E2,1.9953845E3,5.8724272E3,2.7410115E3,5.376826E2,8.0124405E1,8.175622E2,2.3951021E2,3.8031915E2,1.3246199E2,4.3072195E0,2.6773782E2,1.5051274E2,3.9746742E1,3.5028372E2,4.157558E2,7.7849084E2,8.196555E2,2.272303E2,6.3182446E2,2.2357565E2,1.8385916E2,1.7424315E2,2.5538308E3,6.562018E2,6.3409116E3,8.1836066E2,1.1343817E3,1.9974435E3,1.4680309E3,5.0305258E2,1.08270874E2,8.7186165E1,1.979012E2,2.9586902E2,7.3451524E0,4.158184E2,7.53926E2,2.075386E2,3.838286E2,5.059708E1,1.4840463E2,9.652423E1,3.08938E2,1.2962648E2,1.895523E3,9.9861496E1,4.0355508E3,1.8368766E3,3.193021E2,2.4217092E3,3.278333E2,2.098493E2,2.3165401E1,5.6959003E1,7.299711E1,7.445651E2,1.3953581E2,9.997439E1,1.1622612E1,3.6869653E2,1.2807747E2,4.3845215E0,1.412977E0,2.8942425E0,3.9895084E1,2.2784274E2,1.2883832E2,2.1674416E1,3.654747E0,3.6091995E1,2.7572992E2,7.455381E1,7.527252E1,3.4048328E2,5.5440765E2,2.2408322E2,2.3826353E2,5.8139197E2,6.920806E1,1.5802225E2,3.2176593E2,3.1005856E2,1.7554315E2,4.8032505E1],"tree_param":{"num_deleted":"0","num_feature":"136","num_nodes":"127","size_leaf_vector":"1"}},{"base_weights":[-8.6596666E-4,-7.6603256E-2,4.1801056E-1,-1.7552993E-1,4.2972706E-2,3.13663E-1,5.436466E-1,-2.0696391E-1,1.0304132E-1,7.457754E-3,1.8569177E-1,2.2495732E-1,3.6777717E-1,3.8966796E-1,5.963812E-1,-2.599494E-1,-6.0510058E-2,3.2097075E-2,4.690816E-1,1.8627591E-1,-3.3635087E-2,2.2783719E-1,3.7797287E-2,4.779066E-1,2.0274943E-1,3.294147E-1,4.471522E-1,2.267998E-1,4.6244836E-1,6.330741E-1,4.9324933E-1,-3.561484E-1,-1.9423443E-1,-1.9247748E-1,-5.571697E-3,-1.0603594E-2,3.563647E-1,1.1696682E-1,5.833914E-1,8.959341E-2,2.9648113E-1,-1.6694853E-1,2.6769475E-3,1.8382809E-1,3.7335736E-1,7.0101775E-2,-2.0543024E-1,5.5048466E-1,1.4206053E-1,1.6050313E-1,2.8897786E-1,2.1523164E-1,3.7580267E-1,4.8556194E-1,2.866212E-1,1.6250321E-1,5.586863E-1,4.9620414E-1,2.820705E-1,5.747911E-1,6.973482E-1,4.3833864E-1,5.607576E-1,-4.1402224E-2,-1.8328719E-2,-2.2874296E-2,-3.8708113E-3,-3.6518138E-2,-4.070006E-3,-3.7771221E-3,1.9179977E-2,-6.895875E-3,2.4165021E-2,5.106134E-2,1.9391702E-2,4.4773534E-2,-4.88377E-3,6.2829845E-2,2.8241277E-3,3.9582798E-4,2.4421064E-2,4.1864377E-2,2.1254623E-2,-2.3112344E-2,-8.641633E-3,4.448724E-3,-8.901544E-3,2.0684527E-2,-4.282446E-3,5.6586366E-2,2.871618E-2,-1.1440946E-3,1.50796E-2,-2.7114272E-2,1.9502735E-2,-1.4138624E-2,5.8525372E-2,-3.4729615E-2,3.454998E-2,1.1151948E-2,2.5705436E-2,4.326513E-2,2.326562E-2,1.973174E-3,2.6167726E-2,3.9792303E-2,1.2819615E-2,-1.8801926E-2,4.922423E-2,1.7627334E-2,5.0789375E-2,8.414362E-3,3.3244576E-2,-3.3437245E-2,6.790983E-2,4.5480143E-2,6.541082E-2,8.688989E-3,4.4249635E-2,5.075975E-2,6.493798E-2,7.05354E-2,5.222214E-3,4.674736E-2,2.1559795E-2,5.7237208E-2,-3.840324E-3],"categories":[],"categories_nodes":[],"categories_segments":[],"categories_sizes":[],"default_left":[0,0,0,0,0,0,0,0,0,0,0,0,0,0,0,0,0,0,0,0,0,0,0,0,0,0,0,0,0,0,0,0,0,0,0,0,0,0,0,0,0,0,0,0,0,0,0,0,0,0,0,0,0,0,0,0,0,0,0,0,0,0,0,0,0,0,0,0,0,0,0,0,0,0,0,0,0,0,0,0,0,0,0,0,0,0,0,0,0,0,0,0,0,0,0,0,0,0,0,0,0,0,0,0,0,0,0,0,0,0,0,0,0,0,0,0,0,0,0,0,0,0,0,0,0,0,0],"id":5,"left_children":[1,3,5,7,9,11,13,15,17,19,21,23,25,27,29,31,33,35,37,39,41,43,45,47,49,51,53,55,57,59,61,63,65,67,69,71,73,75,77,79,81,83,85,87,89,91,93,95,97,99,101,103,105,107,109,111,113,115,117,119,121,123,125,-1,-1,-1,-1,-1,-1,-1,-1,-1,-1,-1,-1,-1,-1,-1,-1,-1,-1,-1,-1,-1,-1,-1,-1,-1,-1,-1,-1,-1,-1,-1,-1,-1,-1,-1,-1,-1,-1,-1,-1,-1,-1,-1,-1,-1,-1,-1,-1,-1,-1,-1,-1,-1,-1,-1,-1,-1,-1,-1,-1,-1,-1,-1,-1],"loss_changes":[1.0986509E3,3.469368E2,6.934863E1,1.4056512E2,6.730555E1,1.38341675E1,1.9293152E1,1.1190509E2,4.2264526E1,7.8147156E1,1.6483742E1,6.088379E0,5.331085E0,7.200821E0,6.4588013E0,6.688324E1,2.7788998E1,1.890228E1,1.0567875E1,2.114746E1,4.1863625E1,1.3117317E1,4.634464E0,2.069994E0,3.6472626E0,6.3637085E0,3.45813E0,4.0130787E0,2.447853E0,4.529846E0,1.5115585E0,4.2914307E1,3.3774216E1,2.9517479E1,1.7213655E1,1.7784346E1,3.8812237E0,3.6421742E0,4.949272E0,1.403421E1,9.428986E0,9.547688E0,2.6063692E1,8.266312E0,7.7544937E0,3.4220228E0,1.8737013E0,1.8176956E0,1.8133049E0,3.2005005E0,2.5872116E0,3.2077599E0,4.680542E0,2.204445E0,2.7204008E0,2.1361828E0,3.539235E0,2.034462E0,2.1319628E0,3.158493E0,3.171753E0,1.6254997E0,1.4768524E0,0E0,0E0,0E0,0E0,0E0,0E0,0E0,0E0,0E0,0E0,0E0,0E0,0E0,0E0,0E0,0E0,0E0,0E0,0E0,0E0,0E0,0E0,0E0,0E0,0E0,0E0,0E0,0E0,0E0,0E0,0E0,0E0,0E0,0E0,0E0,0E0,0E0,0E0,0E0,0E0,0E0,0E0,0E0,0E0,0E0,0E0,0E0,0E0,0E0,0E0,0E0,0E0,0E0,0E0,0E0,0E0,0E0,0E0,0E0,0E0,0E0,0E0,0E0,0E0],"parents":[2147483647,0,0,1,1,2,2,3,3,4,4,5,5,6,6,7,7,8,8,9,9,10,10,11,11,12,12,13,13,14,14,15,15,16,16,17,17,18,18,19,19,20,20,21,21,22,22,23,23,24,24,25,25,26,26,27,27,28,28,29,29,30,30,31,31,32,32,33,33,34,34,35,35,36,36,37,37,38,38,39,39,40,40,41,41,42,42,43,43,44,44,45,45,46,46,47,47,48,48,49,49,50,50,51,51,52,52,53,53,54,54,55,55,56,56,57,57,58,58,59,59,60,60,61,61,62,62],"right_children":[2,4,6,8,10,12,14,16,18,20,22,24,26,28,30,32,34,36,38,40,42,44,46,48,50,52,54,56,58,60,62,64,66,68,70,72,74,76,78,80,82,84,86,88,90,92,94,96,98,100,102,104,106,108,110,112,114,116,118,120,122,124,126,-1,-1,-1,-1,-1,-1,-1,-1,-1,-1,-1,-1,-1,-1,-1,-1,-1,-1,-1,-1,-1,-1,-1,-1,-1,-1,-1,-1,-1,-1,-1,-1,-1,-1,-1,-1,-1,-1,-1,-1,-1,-1,-1,-1,-1,-1,-1,-1,-1,-1,-1,-1,-1,-1,-1,-1,-1,-1,-1,-1,-1,-1,-1,-1],"split_conditions":[1E0,1.465798E1,4.5E1,1.48148E-1,1.8266476E1,7.3E0,8.2E1,1.8313486E1,6.4571E4,5E0,5.4E1,4E0,3.002019E1,6.00915E-1,2E0,2.3041E-2,-1.4804133E1,6.4602E4,6.155279E1,1.9819065E1,1.4E1,1.4048617E1,1.78E2,1.9E1,2.1654013E1,9E0,1.5992736E1,1.2655976E1,3.8E1,1.964879E1,7.94487E0,-2.302565E0,1.1878125E1,1.9802E-2,3.8E1,1.9610964E1,5E0,2.083E-3,3E0,2E0,7.454066E0,1.819908E1,1.4E1,5.9701E-2,2E0,3E0,9.199691E0,4.021914E0,1.3747851E1,9E0,5.383207E0,6.9881E-2,1.9E3,2E0,2.6184321E3,8.1617805E1,1.8E1,2.2820608E1,5.805E-1,1.889E3,1.08E2,2.9E1,1.452886E1,-4.1402224E-2,-1.8328719E-2,-2.2874296E-2,-3.8708113E-3,-3.6518138E-2,-4.070006E-3,-3.7771221E-3,1.9179977E-2,-6.895875E-3,2.4165021E-2,5.106134E-2,1.9391702E-2,4.4773534E-2,-4.88377E-3,6.2829845E-2,2.8241277E-3,3.9582798E-4,2.4421064E-2,4.1864377E-2,2.1254623E-2,-2.3112344E-2,-8.641633E-3,4.448724E-3,-8.901544E-3,2.0684527E-2,-4.282446E-3,5.6586366E-2,2.871618E-2,-1.1440946E-3,1.50796E-2,-2.7114272E-2,1.9502735E-2,-1.4138624E-2,5.8525372E-2,-3.4729615E-2,3.454998E-2,1.1151948E-2,2.5705436E-2,4.326513E-2,2.326562E-2,1.973174E-3,2.6167726E-2,3.9792303E-2,1.2819615E-2,-1.8801926E-2,4.922423E-2,1.7627334E-2,5.0789375E-2,8.414362E-3,3.3244576E-2,-3.3437245E-2,6.790983E-2,4.5480143E-2,6.541082E-2,8.688989E-3,4.4249635E-2,5.075975E-2,6.493798E-2,7.05354E-2,5.222214E-3,4.674736E-2,2.1559795E-2,5.7237208E-2,-3.840324E-3],"split_indices":[133,107,134,63,108,135,133,19,130,13,132,13,109,92,125,49,114,129,79,107,24,106,132,24,107,133,82,15,132,109,106,111,108,49,134,108,13,60,132,125,87,17,132,60,132,3,86,109,72,12,77,90,133,20,90,84,126,107,103,134,132,132,19,0,0,0,0,0,0,0,0,0,0,0,0,0,0,0,0,0,0,0,0,0,0,0,0,0,0,0,0,0,0,0,0,0,0,0,0,0,0,0,0,0,0,0,0,0,0,0,0,0,0,0,0,0,0,0,0,0,0,0,0,0,0,0,0],"split_type":[0,0,0,0,0,0,0,0,0,0,0,0,0,0,0,0,0,0,0,0,0,0,0,0,0,0,0,0,0,0,0,0,0,0,0,0,0,0,0,0,0,0,0,0,0,0,0,0,0,0,0,0,0,0,0,0,0,0,0,0,0,0,0,0,0,0,0,0,0,0,0,0,0,0,0,0,0,0,0,0,0,0,0,0,0,0,0,0,0,0,0,0,0,0,0,0,0,0,0,0,0,0,0,0,0,0,0,0,0,0,0,0,0,0,0,0,0,0,0,0,0,0,0,0,0,0,0],"sum_hessian":[3.4628906E4,2.9327078E4,5.301828E3,1.6049041E4,1.3278037E4,2.898207E3,2.403621E3,1.4421928E4,1.6271133E3,1.0633096E4,2.6449424E3,1.100079E3,1.7981279E3,6.1532764E2,1.7882933E3,1.05898545E4,3.832074E3,1.3638633E3,2.6325003E2,1.986253E3,8.646842E3,2.0579492E3,5.8699316E2,8.7131035E1,1.01294794E3,1.2157148E3,5.824131E2,1.9131613E2,4.2401147E2,1.3152181E3,4.7307532E2,4.29624E3,6.293614E3,1.125649E3,2.7064248E3,1.206018E3,1.5784526E2,6.5012314E1,1.9823772E2,1.0590055E3,9.272475E2,1.850275E3,6.7965674E3,1.5818267E3,4.7612244E2,5.1880005E2,6.8193115E1,7.112209E1,1.600894E1,6.8178107E2,3.3116687E2,3.5284177E2,8.628731E2,4.6833203E2,1.14081055E2,1.615153E2,2.9800825E1,3.5569586E2,6.831561E1,6.9496967E2,6.202484E2,2.650108E2,2.0806451E2,3.217596E3,1.0786442E3,5.150368E3,1.143246E3,5.258692E2,5.997799E2,2.327518E3,3.789067E2,9.8002936E2,2.2598859E2,7.98665E1,7.797876E1,2.11397E1,4.3872616E1,1.8328014E2,1.4957572E1,6.821955E2,3.7681006E2,3.7600513E2,5.512424E2,1.028672E3,8.216031E2,4.668376E3,2.1281914E3,1.4360765E3,1.4575008E2,1.4553174E2,3.305907E2,2.584702E2,2.603298E2,5.8857845E1,9.335271E0,3.2564037E0,6.786569E1,4.4933724E0,1.1515567E1,4.537391E2,2.2804196E2,9.137991E1,2.3978694E2,6.8007614E1,2.8483417E2,7.9155145E2,7.1321625E1,4.332593E0,4.6399945E2,7.731896E1,3.676209E1,1.1156733E2,4.9947968E1,3.3295624E0,2.6471262E1,2.8488004E2,7.081583E1,3.1514912E1,3.6800705E1,3.697153E2,3.2525436E2,6.1255347E2,7.6949687E0,2.3338483E2,3.1625977E1,2.0415182E2,3.9126813E0],"tree_param":{"num_deleted":"0","num_feature":"136","num_nodes":"127","size_leaf_vector":"1"}},{"base_weights":[1.6357643E-3,-5.7768077E-2,2.0288959E-1,-1.7156743E-1,3.0408656E-2,7.359498E-2,3.1424633E-1,-2.231144E-1,2.6094792E-2,-7.484336E-3,1.6392735E-1,3.0080419E-2,3.5659018E-1,2.4466614E-1,4.780776E-1,-3.4554482E-1,-1.71073E-1,-2.3572186E-2,3.351065E-1,1.7874993E-1,-4.505422E-2,1.1889742E-1,3.895427E-1,2.1692622E-1,-2.6870191E-2,5.353719E-1,2.1511231E-1,1.5709613E-1,3.4785035E-1,2.737348E-1,5.270048E-1,-9.546833E-2,-3.8526008E-1,-2.265428E-1,-8.141653E-2,1.8462299E-1,-7.235647E-2,1.279523E-1,5.1326656E-1,1.0025013E-1,3.2801872E-1,-1.62635E-1,-8.981856E-3,1.0568436E-1,3.9710286E-1,1.7458686E-1,4.649081E-1,-4.332437E-2,2.4659887E-1,2.5866218E-2,-1.7054263E-1,1.6136329E-1,6.133133E-1,-1.2322007E-1,2.7176356E-1,1.16658024E-1,3.7670815E-1,4.4491076E-1,2.9622537E-1,1.3588752E-1,4.9522734E-1,5.8824146E-1,3.7677732E-1,-1.8793728E-2,1.3677217E-2,-4.507632E-2,-2.278182E-2,-2.6070833E-2,4.094277E-3,-1.3658041E-2,1.1733526E-3,1.072473E-2,5.61862E-2,-1.6300062E-2,1.19683455E-5,1.7041437E-2,-3.1939205E-2,5.383969E-2,-4.4478085E-2,2.9424686E-2,2.9909567E-3,2.3095014E-2,4.3626502E-2,-2.0284971E-2,6.4287917E-3,-3.6373534E-3,1.6350456E-2,3.543329E-3,1.5945947E-2,5.8355745E-2,2.3288809E-2,5.5448066E-2,7.914829E-3,1.264629E-2,5.2651305E-2,-2.1999119E-2,2.0644445E-2,2.8193003E-2,4.3064593E-3,8.8922895E-4,2.9371409E-2,-3.1583477E-2,-4.284472E-3,-4.349542E-2,3.6305908E-2,6.313712E-2,-4.078993E-2,8.899204E-3,-3.2553088E-2,3.1773702E-3,3.3871364E-2,3.7860924E-3,1.9538999E-2,5.7389982E-2,2.1189796E-2,3.4560613E-2,5.6742575E-2,2.0175459E-2,3.7488665E-2,-1.9157982E-2,1.9713022E-2,-1.3157226E-2,5.3983953E-2,4.745907E-2,6.4320974E-2,4.837432E-2,2.4138309E-2],"categories":[],"categories_nodes":[],"categories_segments":[],"categories_sizes":[],"default_left":[0,0,0,0,0,0,0,0,0,0,0,0,0,0,0,0,0,0,0,0,0,0,0,0,0,0,0,0,0,0,0,0,0,0,0,0,0,0,0,0,0,0,0,0,0,0,0,0,0,0,0,0,0,0,0,0,0,0,0,0,0,0,0,0,0,0,0,0,0,0,0,0,0,0,0,0,0,0,0,0,0,0,0,0,0,0,0,0,0,0,0,0,0,0,0,0,0,0,0,0,0,0,0,0,0,0,0,0,0,0,0,0,0,0,0,0,0,0,0,0,0,0,0,0,0,0,0],"id":6,"left_children":[1,3,5,7,9,11,13,15,17,19,21,23,25,27,29,31,33,35,37,39,41,43,45,47,49,51,53,55,57,59,61,63,65,67,69,71,73,75,77,79,81,83,85,87,89,91,93,95,97,99,101,103,105,107,109,111,113,115,117,119,121,123,125,-1,-1,-1,-1,-1,-1,-1,-1,-1,-1,-1,-1,-1,-1,-1,-1,-1,-1,-1,-1,-1,-1,-1,-1,-1,-1,-1,-1,-1,-1,-1,-1,-1,-1,-1,-1,-1,-1,-1,-1,-1,-1,-1,-1,-1,-1,-1,-1,-1,-1,-1,-1,-1,-1,-1,-1,-1,-1,-1,-1,-1,-1,-1,-1],"loss_changes":[4.0476636E2,2.6231442E2,1.11069885E2,1.16286194E2,7.45234E1,4.397283E1,4.713626E1,5.7615204E1,3.6251053E1,8.029074E1,3.30347E1,3.2958794E1,1.1922508E1,2.6254028E1,1.2199707E1,2.6769745E1,3.1581177E1,2.0686316E1,1.200515E1,2.253949E1,4.0499115E1,9.941383E0,8.688416E0,5.5979347E0,1.7993767E1,6.0101395E0,5.1577253E0,1.3958965E1,6.5615845E0,7.278536E0,8.932343E0,7.997818E0,2.3914307E1,3.587854E1,1.2488977E1,1.1226545E1,1.0838E1,2.9523065E0,4.464939E0,1.7238062E1,6.8706055E0,2.0469719E1,3.453475E1,9.794174E0,3.6233215E0,5.1090856E0,8.277512E0,3.3504553E0,4.6593323E0,7.8974705E0,1.1816793E1,4.668035E0,3.4491272E0,1.7047592E0,3.6737137E0,8.262579E0,7.8323364E0,5.422455E0,6.4266205E0,3.0395343E0,2.6412792E0,4.099762E0,4.096718E0,0E0,0E0,0E0,0E0,0E0,0E0,0E0,0E0,0E0,0E0,0E0,0E0,0E0,0E0,0E0,0E0,0E0,0E0,0E0,0E0,0E0,0E0,0E0,0E0,0E0,0E0,0E0,0E0,0E0,0E0,0E0,0E0,0E0,0E0,0E0,0E0,0E0,0E0,0E0,0E0,0E0,0E0,0E0,0E0,0E0,0E0,0E0,0E0,0E0,0E0,0E0,0E0,0E0,0E0,0E0,0E0,0E0,0E0,0E0,0E0,0E0,0E0,0E0,0E0],"parents":[2147483647,0,0,1,1,2,2,3,3,4,4,5,5,6,6,7,7,8,8,9,9,10,10,11,11,12,12,13,13,14,14,15,15,16,16,17,17,18,18,19,19,20,20,21,21,22,22,23,23,24,24,25,25,26,26,27,27,28,28,29,29,30,30,31,31,32,32,33,33,34,34,35,35,36,36,37,37,38,38,39,39,40,40,41,41,42,42,43,43,44,44,45,45,46,46,47,47,48,48,49,49,50,50,51,51,52,52,53,53,54,54,55,55,56,56,57,57,58,58,59,59,60,60,61,61,62,62],"right_children":[2,4,6,8,10,12,14,16,18,20,22,24,26,28,30,32,34,36,38,40,42,44,46,48,50,52,54,56,58,60,62,64,66,68,70,72,74,76,78,80,82,84,86,88,90,92,94,96,98,100,102,104,106,108,110,112,114,116,118,120,122,124,126,-1,-1,-1,-1,-1,-1,-1,-1,-1,-1,-1,-1,-1,-1,-1,-1,-1,-1,-1,-1,-1,-1,-1,-1,-1,-1,-1,-1,-1,-1,-1,-1,-1,-1,-1,-1,-1,-1,-1,-1,-1,-1,-1,-1,-1,-1,-1,-1,-1,-1,-1,-1,-1,-1,-1,-1,-1,-1,-1,-1,-1,-1,-1,-1],"split_conditions":[1.16E1,1.2073588E1,8.4662E-1,-1.89712E0,1.7170553E1,1.339921E1,6.0695E4,1.0732E-2,6.4571E4,5E0,1.5E1,2.27E2,2E0,1.9138454E1,9.70474E0,5.1E1,1.343406E1,5E0,2.249461E1,1E0,1.4E1,4.9372E4,5.5105E4,1.1540287E1,9.88E2,2.8657E4,1.97E1,1.5116001E1,2E0,6.5404E4,2E0,4.0605E4,-1.895531E0,2.5E-1,-2.617499E0,9.49E2,4.065E-3,9.261644E0,1.1E1,4E0,1.8922958E1,1.5271801E1,6.2106E4,3E0,6E0,4.666667E0,2E0,2.381E-2,3E0,2.0058805E1,6.513E-3,9.818918E0,6.1263E4,4.16667E-1,7.80372E-1,2E0,6E0,3.9915E4,3.9E1,5.519677E0,5.454206E0,1.7864449E1,6E0,-1.8793728E-2,1.3677217E-2,-4.507632E-2,-2.278182E-2,-2.6070833E-2,4.094277E-3,-1.3658041E-2,1.1733526E-3,1.072473E-2,5.61862E-2,-1.6300062E-2,1.19683455E-5,1.7041437E-2,-3.1939205E-2,5.383969E-2,-4.4478085E-2,2.9424686E-2,2.9909567E-3,2.3095014E-2,4.3626502E-2,-2.0284971E-2,6.4287917E-3,-3.6373534E-3,1.6350456E-2,3.543329E-3,1.5945947E-2,5.8355745E-2,2.3288809E-2,5.5448066E-2,7.914829E-3,1.264629E-2,5.2651305E-2,-2.1999119E-2,2.0644445E-2,2.8193003E-2,4.3064593E-3,8.8922895E-4,2.9371409E-2,-3.1583477E-2,-4.284472E-3,-4.349542E-2,3.6305908E-2,6.313712E-2,-4.078993E-2,8.899204E-3,-3.2553088E-2,3.1773702E-3,3.3871364E-2,3.7860924E-3,1.9538999E-2,5.7389982E-2,2.1189796E-2,3.4560613E-2,5.6742575E-2,2.0175459E-2,3.7488665E-2,-1.9157982E-2,1.9713022E-2,-1.3157226E-2,5.3983953E-2,4.745907E-2,6.4320974E-2,4.837432E-2,2.4138309E-2],"split_indices":[135,107,102,123,108,108,129,59,130,13,128,14,125,107,72,14,19,13,70,127,24,129,130,18,14,129,135,108,125,129,125,129,121,48,121,127,49,80,12,13,107,19,130,0,13,35,29,54,125,107,64,19,130,7,104,128,13,129,135,77,70,105,25,0,0,0,0,0,0,0,0,0,0,0,0,0,0,0,0,0,0,0,0,0,0,0,0,0,0,0,0,0,0,0,0,0,0,0,0,0,0,0,0,0,0,0,0,0,0,0,0,0,0,0,0,0,0,0,0,0,0,0,0,0,0,0,0],"split_type":[0,0,0,0,0,0,0,0,0,0,0,0,0,0,0,0,0,0,0,0,0,0,0,0,0,0,0,0,0,0,0,0,0,0,0,0,0,0,0,0,0,0,0,0,0,0,0,0,0,0,0,0,0,0,0,0,0,0,0,0,0,0,0,0,0,0,0,0,0,0,0,0,0,0,0,0,0,0,0,0,0,0,0,0,0,0,0,0,0,0,0,0,0,0,0,0,0,0,0,0,0,0,0,0,0,0,0,0,0,0,0,0,0,0,0,0,0,0,0,0,0,0,0,0,0,0,0],"sum_hessian":[3.385481E4,2.6139852E4,7.714955E3,1.1411467E4,1.4728386E4,3.570714E3,4.1442407E3,9.050992E3,2.3604746E3,1.1473201E4,3.255184E3,3.095797E3,4.7491684E2,2.9105886E3,1.2336523E3,2.6980447E3,6.3529478E3,2.0344106E3,3.26064E2,1.9253694E3,9.547832E3,2.7148599E3,5.4032404E2,7.225191E2,2.373278E3,2.085693E2,2.6634753E2,1.5757819E3,1.3348066E3,2.3959341E2,9.940589E2,3.7022708E2,2.3278176E3,3.9237966E3,2.4291511E3,3.856784E2,1.6487323E3,1.5155864E2,1.7450537E2,1.2628918E3,6.6247754E2,2.2406719E3,7.30716E3,2.593084E3,1.21775826E2,1.4112538E2,3.9919864E2,7.3900276E1,6.4861884E2,1.736645E3,6.36633E2,3.649849E1,1.7207082E2,3.803285E1,2.2831468E2,1.3320391E3,2.4374284E2,4.6081244E2,8.739942E2,1.4867691E2,9.0916504E1,7.041237E2,2.8993515E2,2.649323E2,1.0529476E2,1.6425693E3,6.852483E2,3.479403E3,4.443936E2,1.52536E3,9.03791E2,3.211014E2,6.457699E1,7.31995E2,9.1673724E2,1.3898517E2,1.2573465E1,1.704718E2,4.033575E0,3.3521045E2,9.276814E2,3.5092407E2,3.115535E2,1.903453E3,3.37219E2,6.3064536E3,1.0007063E3,1.1250251E3,1.468059E3,5.5830498E1,6.594533E1,2.7369827E1,1.1375556E2,6.194392E1,3.3725473E2,4.335417E1,3.054611E1,5.5235187E2,9.626697E1,1.6341215E3,1.0252357E2,2.9711182E2,3.3952118E2,8.9326E0,2.756589E1,1.694561E2,2.6147177E0,1.8835567E1,1.9197279E1,5.0121883E1,1.781928E2,6.6648425E2,6.655548E2,1.0983981E2,1.3390303E2,2.5662537E2,2.0418707E2,3.987125E2,4.7528168E2,2.3089289E1,1.25587616E2,5.9114594E0,8.500505E1,2.3267828E2,4.7144547E2,1.6053465E2,1.294005E2],"tree_param":{"num_deleted":"0","num_feature":"136","num_nodes":"127","size_leaf_vector":"1"}},{"base_weights":[3.5804908E-3,-6.658841E-2,3.9565873E-1,-1.5676084E-1,4.3952737E-2,3.0700985E-1,4.8596185E-1,-1.9155455E-1,8.475289E-2,-1.8299915E-3,1.4433332E-1,2.552342E-1,3.8584325E-1,3.7812388E-1,5.653633E-1,-2.4505316E-1,-4.8017282E-2,-2.9126192E-2,3.5488105E-1,1.4722475E-1,-3.3980705E-2,3.0604172E-1,1.1356615E-1,1.1293683E-1,2.800902E-1,3.1039453E-1,4.5383278E-1,2.4259184E-1,4.2024845E-1,6.085741E-1,4.5288756E-1,-3.3528706E-1,-1.8511786E-1,-2.1240385E-1,-8.360176E-3,-7.543514E-2,2.957953E-1,4.5178205E-1,9.71325E-2,8.1886515E-2,3.0061743E-1,-6.0233973E-2,1.8481389E-1,2.2504827E-1,4.557325E-1,7.892316E-2,2.7973932E-1,7.423673E-2,2.4929807E-1,2.645428E-1,5.746952E-1,4.7855097E-1,2.8669554E-1,3.5835904E-1,5.379435E-1,3.5368523E-1,1.7764172E-1,3.691875E-1,4.6288943E-1,5.543601E-1,6.651558E-1,2.5598028E-1,5.115384E-1,-3.927065E-2,-1.7493576E-2,-1.9538237E-2,9.851088E-3,-4.6568602E-2,-1.1498172E-2,-2.4921896E-3,2.5942475E-2,-1.19152665E-2,2.003935E-2,1.935613E-2,5.716638E-2,3.42304E-2,5.7307273E-2,-1.4642228E-2,2.7048921E-2,4.9618576E-3,3.7200592E-2,3.3339392E-2,7.547685E-3,-8.446286E-3,6.2562446E-3,-5.3673764E-3,4.5930814E-2,1.7278312E-2,3.9395127E-2,2.4623109E-2,5.4464407E-2,-1.0768538E-2,1.0029856E-2,5.2637447E-2,2.4095006E-2,9.884809E-3,-1.9611051E-2,3.928863E-2,9.990382E-3,1.6492834E-2,3.0492676E-2,-7.4170553E-3,6.315308E-2,-2.2360214E-3,5.724427E-2,1.1487655E-2,3.1601306E-2,1.6268527E-2,4.0026546E-2,5.484559E-2,-7.973905E-3,4.072457E-2,-6.9349827E-3,2.317753E-3,3.2309934E-2,4.1344114E-2,2.1825256E-2,5.4306664E-2,3.9138768E-2,3.647886E-2,5.9542306E-2,6.687545E-2,-1.4649299E-2,-1.6741088E-2,3.39295E-2,5.3033065E-2,1.9411944E-2],"categories":[],"categories_nodes":[],"categories_segments":[],"categories_sizes":[],"default_left":[0,0,0,0,0,0,0,0,0,0,0,0,0,0,0,0,0,0,0,0,0,0,0,0,0,0,0,0,0,0,0,0,0,0,0,0,0,0,0,0,0,0,0,0,0,0,0,0,0,0,0,0,0,0,0,0,0,0,0,0,0,0,0,0,0,0,0,0,0,0,0,0,0,0,0,0,0,0,0,0,0,0,0,0,0,0,0,0,0,0,0,0,0,0,0,0,0,0,0,0,0,0,0,0,0,0,0,0,0,0,0,0,0,0,0,0,0,0,0,0,0,0,0,0,0,0,0],"id":7,"left_children":[1,3,5,7,9,11,13,15,17,19,21,23,25,27,29,31,33,35,37,39,41,43,45,47,49,51,53,55,57,59,61,63,65,67,69,71,73,75,77,79,81,83,85,87,89,91,93,95,97,99,101,103,105,107,109,111,113,115,117,119,121,123,125,-1,-1,-1,-1,-1,-1,-1,-1,-1,-1,-1,-1,-1,-1,-1,-1,-1,-1,-1,-1,-1,-1,-1,-1,-1,-1,-1,-1,-1,-1,-1,-1,-1,-1,-1,-1,-1,-1,-1,-1,-1,-1,-1,-1,-1,-1,-1,-1,-1,-1,-1,-1,-1,-1,-1,-1,-1,-1,-1,-1,-1,-1,-1,-1],"loss_changes":[9.1376807E2,2.8081882E2,4.0212097E1,1.3039697E2,5.8169453E1,1.0297211E1,2.1157288E1,1.04132965E2,6.01342E1,4.166687E1,1.9690674E1,5.41613E0,5.0283356E0,5.9580536E0,6.7009583E0,5.3368652E1,2.4012054E1,2.0723667E1,1.4434479E1,1.5436699E1,4.1092617E1,7.5738487E0,1.9162266E1,1.1990073E0,5.850647E0,1.7788963E0,4.0463333E0,1.7702465E0,1.5892181E0,2.8035278E0,4.5153656E0,3.6225433E1,1.730864E1,1.7611282E1,1.3172686E1,1.4554108E1,4.7354E0,5.394493E0,6.7808447E0,1.012225E1,3.3726158E0,1.9006538E1,5.0200783E1,3.576313E0,3.9885826E0,1.1015999E1,5.369293E0,1.2245798E0,1.0457239E0,4.9649124E0,2.438116E0,2.735818E0,2.0990791E0,1.9868279E0,1.8530884E0,2.1290798E0,3.6396618E0,2.3999596E0,2.290268E0,3.9405975E0,1.5613708E0,3.3844314E0,1.7401657E0,0E0,0E0,0E0,0E0,0E0,0E0,0E0,0E0,0E0,0E0,0E0,0E0,0E0,0E0,0E0,0E0,0E0,0E0,0E0,0E0,0E0,0E0,0E0,0E0,0E0,0E0,0E0,0E0,0E0,0E0,0E0,0E0,0E0,0E0,0E0,0E0,0E0,0E0,0E0,0E0,0E0,0E0,0E0,0E0,0E0,0E0,0E0,0E0,0E0,0E0,0E0,0E0,0E0,0E0,0E0,0E0,0E0,0E0,0E0,0E0,0E0,0E0,0E0,0E0],"parents":[2147483647,0,0,1,1,2,2,3,3,4,4,5,5,6,6,7,7,8,8,9,9,10,10,11,11,12,12,13,13,14,14,15,15,16,16,17,17,18,18,19,19,20,20,21,21,22,22,23,23,24,24,25,25,26,26,27,27,28,28,29,29,30,30,31,31,32,32,33,33,34,34,35,35,36,36,37,37,38,38,39,39,40,40,41,41,42,42,43,43,44,44,45,45,46,46,47,47,48,48,49,49,50,50,51,51,52,52,53,53,54,54,55,55,56,56,57,57,58,58,59,59,60,60,61,61,62,62],"right_children":[2,4,6,8,10,12,14,16,18,20,22,24,26,28,30,32,34,36,38,40,42,44,46,48,50,52,54,56,58,60,62,64,66,68,70,72,74,76,78,80,82,84,86,88,90,92,94,96,98,100,102,104,106,108,110,112,114,116,118,120,122,124,126,-1,-1,-1,-1,-1,-1,-1,-1,-1,-1,-1,-1,-1,-1,-1,-1,-1,-1,-1,-1,-1,-1,-1,-1,-1,-1,-1,-1,-1,-1,-1,-1,-1,-1,-1,-1,-1,-1,-1,-1,-1,-1,-1,-1,-1,-1,-1,-1,-1,-1,-1,-1,-1,-1,-1,-1,-1,-1,-1,-1,-1,-1,-1,-1],"split_conditions":[1E0,1.4801662E1,7.4E1,1.42857E-1,3E0,2.0187567E1,5.5041E4,1.8420681E1,9E0,5E0,2.7E1,1.218855E1,5E0,1.48E1,2.3E1,2.3041E-2,-1.8786512E1,6.4412E4,3.3E1,1E0,1.6E1,1.5E-1,1.3477358E1,8E0,2.30769E-1,-3.161769E1,1.7614E4,1.2035E4,1.55334E1,1.8837828E1,2.8E1,-2.302565E0,-1.199881E0,3.704E-3,7.72E1,1.6625834E1,1.1893976E1,1.281867E2,6.3571E4,5E0,7.5E-1,1.5476242E1,6.4035E4,3.3389668E1,4.258E3,4E-6,2E0,2.4160135E1,5.8953552E1,3E0,1.2924122E1,-4.6667274E1,4E0,1.15385E-1,2E0,3E0,2.7701E-2,1.8E1,2.9E1,4.4E2,6.3295E4,3.4052E4,1.5388333E2,-3.927065E-2,-1.7493576E-2,-1.9538237E-2,9.851088E-3,-4.6568602E-2,-1.1498172E-2,-2.4921896E-3,2.5942475E-2,-1.19152665E-2,2.003935E-2,1.935613E-2,5.716638E-2,3.42304E-2,5.7307273E-2,-1.4642228E-2,2.7048921E-2,4.9618576E-3,3.7200592E-2,3.3339392E-2,7.547685E-3,-8.446286E-3,6.2562446E-3,-5.3673764E-3,4.5930814E-2,1.7278312E-2,3.9395127E-2,2.4623109E-2,5.4464407E-2,-1.0768538E-2,1.0029856E-2,5.2637447E-2,2.4095006E-2,9.884809E-3,-1.9611051E-2,3.928863E-2,9.990382E-3,1.6492834E-2,3.0492676E-2,-7.4170553E-3,6.315308E-2,-2.2360214E-3,5.724427E-2,1.1487655E-2,3.1601306E-2,1.6268527E-2,4.0026546E-2,5.484559E-2,-7.973905E-3,4.072457E-2,-6.9349827E-3,2.317753E-3,3.2309934E-2,4.1344114E-2,2.1825256E-2,5.4306664E-2,3.9138768E-2,3.647886E-2,5.9542306E-2,6.687545E-2,-1.4649299E-2,-1.6741088E-2,3.39295E-2,5.3033065E-2,1.9411944E-2],"split_indices":[133,107,133,53,2,18,129,19,128,13,126,18,133,135,126,49,116,129,126,127,128,52,106,128,53,111,129,130,18,109,135,111,111,64,135,17,17,74,130,128,42,19,130,18,129,69,132,109,84,133,17,121,132,57,27,127,60,131,126,133,130,130,135,0,0,0,0,0,0,0,0,0,0,0,0,0,0,0,0,0,0,0,0,0,0,0,0,0,0,0,0,0,0,0,0,0,0,0,0,0,0,0,0,0,0,0,0,0,0,0,0,0,0,0,0,0,0,0,0,0,0,0,0,0,0,0,0],"split_type":[0,0,0,0,0,0,0,0,0,0,0,0,0,0,0,0,0,0,0,0,0,0,0,0,0,0,0,0,0,0,0,0,0,0,0,0,0,0,0,0,0,0,0,0,0,0,0,0,0,0,0,0,0,0,0,0,0,0,0,0,0,0,0,0,0,0,0,0,0,0,0,0,0,0,0,0,0,0,0,0,0,0,0,0,0,0,0,0,0,0,0,0,0,0,0,0,0,0,0,0,0,0,0,0,0,0,0,0,0,0,0,0,0,0,0,0,0,0,0,0,0,0,0,0,0,0,0],"sum_hessian":[3.3211844E4,2.8171006E4,5.0408384E3,1.551469E4,1.2656316E4,2.5459387E3,2.4948997E3,1.3561201E4,1.9534886E3,8.692653E3,3.9636633E3,1.539243E3,1.0066956E3,1.0604398E3,1.43446E3,9.878588E3,3.6826138E3,1.3748003E3,5.786883E2,1.5416749E3,7.150978E3,6.321602E2,3.331503E3,2.2971246E2,1.3095305E3,4.7981027E2,5.268854E2,2.53046E2,8.073938E2,1.033139E3,4.0132098E2,3.9408926E3,5.9376953E3,7.1489136E2,2.9677224E3,1.2039736E3,1.7082669E2,4.2002597E2,1.5866231E2,1.082229E3,4.59446E2,6.3855034E3,7.654749E2,4.1183267E2,2.2032756E2,2.7580024E3,5.735005E2,1.8013385E2,4.957861E1,1.2456888E3,6.384169E1,5.689786E1,4.229124E2,2.4923746E2,2.776479E2,9.1719574E1,1.6132643E2,3.7181607E2,4.3557773E2,5.331229E2,5.0001605E2,9.333471E1,3.0798627E2,2.9007334E3,1.040159E3,5.7306157E3,2.0707951E2,1.9753957E2,5.173518E2,2.795722E3,1.7200034E2,1.0397467E3,1.6422688E2,1.25878914E2,4.4947777E1,2.2277205E2,1.972539E2,6.603826E1,9.262404E1,9.7496185E2,1.0726713E2,4.006392E2,5.880684E1,5.333471E3,1.052032E3,4.1003256E2,3.5544235E2,3.1605573E2,9.577695E1,6.676926E1,1.535583E2,2.8303677E2,2.4749658E3,7.62306E1,4.9726987E2,1.656849E2,1.4448944E1,2.4449474E1,2.5129135E1,3.6079807E2,8.848908E2,5.1171E0,5.872459E1,9.10179E0,4.7796074E1,6.236036E1,3.6055206E2,4.482379E1,2.0441367E2,2.7311185E2,4.5360384E0,8.144512E1,1.0274446E1,7.8803185E1,8.252324E1,2.8617215E2,8.564391E1,2.0222319E2,2.3335452E2,9.6678734E1,4.364442E2,4.9798413E2,2.0319033E0,1.5180518E1,7.815419E1,2.9013837E2,1.7847883E1],"tree_param":{"num_deleted":"0","num_feature":"136","num_nodes":"127","size_leaf_vector":"1"}},{"base_weights":[1.1910485E-3,-6.3264824E-2,3.710196E-1,-1.496614E-1,4.0384974E-2,2.7014577E-1,4.761463E-1,-1.9838375E-1,1.9381592E-2,-3.2187821E-3,1.3363837E-1,2.1785475E-1,3.46038E-1,3.5893175E-1,5.2058923E-1,-2.5853306E-1,-6.498982E-2,-1.3793991E-2,4.1550213E-1,1.3519222E-1,-3.2919705E-2,2.8673524E-1,9.759926E-2,1.9743267E-1,3.8213408E-1,4.1038197E-1,2.6538545E-1,4.2049766E-1,1.6080268E-1,5.7973534E-1,4.4324836E-1,-2.819983E-1,-1.15428336E-1,-2.9615393E-1,-3.1513575E-2,1.723121E-1,-5.2857146E-2,5.410685E-1,1.15410656E-1,2.8176522E-1,7.289238E-2,-7.573257E-2,1.02539286E-1,1.521156E-1,3.5419285E-1,6.180347E-2,2.3021394E-1,1.22457124E-1,2.3265037E-1,5.4045665E-1,2.7154368E-1,4.1916552E-1,-4.000356E-1,2.3257872E-1,4.3363822E-1,3.615362E-1,4.9112126E-1,1.0332977E-1,6.296426E-1,4.979481E-1,6.1981857E-1,3.7878445E-1,5.116532E-1,-3.8316756E-2,-2.1950508E-2,-8.926231E-3,-4.831825E-2,-5.963114E-2,-1.4463747E-2,-1.5896264E-2,2.3178542E-4,9.549848E-3,4.9083974E-2,-2.641513E-5,-1.5197152E-2,5.5848062E-2,-2.0069396E-2,2.0915953E-2,-2.5336761E-2,2.3699114E-2,6.0798198E-2,9.220668E-4,2.3004742E-2,-4.201968E-3,-1.6012594E-2,3.835993E-2,4.977942E-3,6.2081058E-2,1.2611197E-2,2.9705698E-2,5.950841E-2,-6.858013E-3,9.679054E-3,3.3092458E-2,1.3919619E-2,8.486987E-3,3.0863998E-2,6.363332E-3,2.5022084E-2,5.613006E-2,-2.5752163E-2,1.3440922E-2,4.7242656E-2,2.9797703E-2,4.783301E-2,-5.2441742E-2,-1.4206319E-3,1.8545622E-2,3.6448944E-2,4.907464E-2,-2.8177814E-3,4.97203E-3,3.975388E-2,5.2661974E-2,1.8738724E-2,1.8653201E-3,2.060101E-2,6.753167E-2,-1.985505E-3,3.3974554E-2,5.493583E-2,4.116277E-2,6.412048E-2,4.7654685E-2,3.2720782E-2,6.407002E-2,4.5132447E-2],"categories":[],"categories_nodes":[],"categories_segments":[],"categories_sizes":[],"default_left":[0,0,0,0,0,0,0,0,0,0,0,0,0,0,0,0,0,0,0,0,0,0,0,0,0,0,0,0,0,0,0,0,0,0,0,0,0,0,0,0,0,0,0,0,0,0,0,0,0,0,0,0,0,0,0,0,0,0,0,0,0,0,0,0,0,0,0,0,0,0,0,0,0,0,0,0,0,0,0,0,0,0,0,0,0,0,0,0,0,0,0,0,0,0,0,0,0,0,0,0,0,0,0,0,0,0,0,0,0,0,0,0,0,0,0,0,0,0,0,0,0,0,0,0,0,0,0],"id":8,"left_children":[1,3,5,7,9,11,13,15,17,19,21,23,25,27,29,31,33,35,37,39,41,43,45,47,49,51,53,55,57,59,61,63,65,67,69,71,73,75,77,79,81,83,85,87,89,91,93,95,97,99,101,103,105,107,109,111,113,115,117,119,121,123,125,-1,-1,-1,-1,-1,-1,-1,-1,-1,-1,-1,-1,-1,-1,-1,-1,-1,-1,-1,-1,-1,-1,-1,-1,-1,-1,-1,-1,-1,-1,-1,-1,-1,-1,-1,-1,-1,-1,-1,-1,-1,-1,-1,-1,-1,-1,-1,-1,-1,-1,-1,-1,-1,-1,-1,-1,-1,-1,-1,-1,-1,-1,-1,-1],"loss_changes":[7.768433E2,2.4852637E2,5.1163452E1,1.2466675E2,5.1304222E1,9.729324E0,1.2144531E1,9.4256805E1,4.452151E1,3.5351078E1,2.215194E1,4.841095E0,5.112625E0,7.9098816E0,7.5842896E0,2.7159546E1,2.8258484E1,2.2739183E1,9.802853E0,1.38526325E1,4.1067013E1,6.8974266E0,1.5439665E1,3.4186516E0,2.6715755E0,4.138603E0,2.3793755E0,1.8975601E0,4.156326E0,2.8650513E0,3.1005096E0,4.38963E1,1.0950255E1,2.0923107E1,1.3763231E1,1.3230261E1,1.3474614E1,2.4925003E0,2.7670379E0,6.469513E0,1.0679346E1,1.5300783E1,2.5200123E1,3.0574026E0,6.8314133E0,1.1706988E1,6.293339E0,2.9084573E0,2.6186638E0,1.2288055E0,2.6025395E0,3.8178482E0,3.0414617E-1,2.283102E0,1.9169474E0,3.0717392E0,2.3160172E0,1.2199436E0,5.150814E-1,2.4443817E0,2.6105347E0,1.8028145E0,2.5104523E0,0E0,0E0,0E0,0E0,0E0,0E0,0E0,0E0,0E0,0E0,0E0,0E0,0E0,0E0,0E0,0E0,0E0,0E0,0E0,0E0,0E0,0E0,0E0,0E0,0E0,0E0,0E0,0E0,0E0,0E0,0E0,0E0,0E0,0E0,0E0,0E0,0E0,0E0,0E0,0E0,0E0,0E0,0E0,0E0,0E0,0E0,0E0,0E0,0E0,0E0,0E0,0E0,0E0,0E0,0E0,0E0,0E0,0E0,0E0,0E0,0E0,0E0,0E0,0E0],"parents":[2147483647,0,0,1,1,2,2,3,3,4,4,5,5,6,6,7,7,8,8,9,9,10,10,11,11,12,12,13,13,14,14,15,15,16,16,17,17,18,18,19,19,20,20,21,21,22,22,23,23,24,24,25,25,26,26,27,27,28,28,29,29,30,30,31,31,32,32,33,33,34,34,35,35,36,36,37,37,38,38,39,39,40,40,41,41,42,42,43,43,44,44,45,45,46,46,47,47,48,48,49,49,50,50,51,51,52,52,53,53,54,54,55,55,56,56,57,57,58,58,59,59,60,60,61,61,62,62],"right_children":[2,4,6,8,10,12,14,16,18,20,22,24,26,28,30,32,34,36,38,40,42,44,46,48,50,52,54,56,58,60,62,64,66,68,70,72,74,76,78,80,82,84,86,88,90,92,94,96,98,100,102,104,106,108,110,112,114,116,118,120,122,124,126,-1,-1,-1,-1,-1,-1,-1,-1,-1,-1,-1,-1,-1,-1,-1,-1,-1,-1,-1,-1,-1,-1,-1,-1,-1,-1,-1,-1,-1,-1,-1,-1,-1,-1,-1,-1,-1,-1,-1,-1,-1,-1,-1,-1,-1,-1,-1,-1,-1,-1,-1,-1,-1,-1,-1,-1,-1,-1,-1,-1,-1,-1,-1,-1],"split_conditions":[1E0,1.4801662E1,3.2E1,1.53846E-1,3E0,6E0,7.6E1,1.7364313E1,1.1979728E1,5E0,2.9E1,2.1862951E1,-1.6389019E1,-1.0329478E1,2.1E1,-1.816549E0,-3.2468136E1,5E0,3E0,6E0,1.6839314E1,2.1807947E1,3.75E-1,1.767404E0,7.58592E-1,2.732E3,-1.491655E0,1.9768633E1,1.8858313E1,1.4541028E1,2.58E2,2.3041E-2,2.351E3,7.526554E0,-1.5763808E1,6.37E2,1.4E1,2E0,2.9E1,8.8E1,1E0,1.4E1,2E0,3.91525E-1,5.5621E4,6.3996494E1,9E0,-4.806468E0,7.89516E-1,3.63636E-1,1.3680862E3,9E0,-7.916333E0,1.4535295E1,1.785E3,2E-6,3.73505E1,1.3107473E1,3.33333E-1,8.37E2,3.8541E4,-1.4811748E1,-1.4583804E1,-3.8316756E-2,-2.1950508E-2,-8.926231E-3,-4.831825E-2,-5.963114E-2,-1.4463747E-2,-1.5896264E-2,2.3178542E-4,9.549848E-3,4.9083974E-2,-2.641513E-5,-1.5197152E-2,5.5848062E-2,-2.0069396E-2,2.0915953E-2,-2.5336761E-2,2.3699114E-2,6.0798198E-2,9.220668E-4,2.3004742E-2,-4.201968E-3,-1.6012594E-2,3.835993E-2,4.977942E-3,6.2081058E-2,1.2611197E-2,2.9705698E-2,5.950841E-2,-6.858013E-3,9.679054E-3,3.3092458E-2,1.3919619E-2,8.486987E-3,3.0863998E-2,6.363332E-3,2.5022084E-2,5.613006E-2,-2.5752163E-2,1.3440922E-2,4.7242656E-2,2.9797703E-2,4.783301E-2,-5.2441742E-2,-1.4206319E-3,1.8545622E-2,3.6448944E-2,4.907464E-2,-2.8177814E-3,4.97203E-3,3.975388E-2,5.2661974E-2,1.8738724E-2,1.8653201E-3,2.060101E-2,6.753167E-2,-1.985505E-3,3.3974554E-2,5.493583E-2,4.116277E-2,6.412048E-2,4.7654685E-2,3.2720782E-2,6.407002E-2,4.5132447E-2],"split_indices":[133,107,134,48,2,134,133,19,76,13,126,108,116,115,126,111,124,13,132,132,108,107,46,94,93,133,123,17,108,109,134,49,14,109,116,127,132,33,132,134,127,132,132,100,129,74,132,115,100,56,90,133,110,106,133,65,92,72,48,133,129,113,121,0,0,0,0,0,0,0,0,0,0,0,0,0,0,0,0,0,0,0,0,0,0,0,0,0,0,0,0,0,0,0,0,0,0,0,0,0,0,0,0,0,0,0,0,0,0,0,0,0,0,0,0,0,0,0,0,0,0,0,0,0,0,0,0],"split_type":[0,0,0,0,0,0,0,0,0,0,0,0,0,0,0,0,0,0,0,0,0,0,0,0,0,0,0,0,0,0,0,0,0,0,0,0,0,0,0,0,0,0,0,0,0,0,0,0,0,0,0,0,0,0,0,0,0,0,0,0,0,0,0,0,0,0,0,0,0,0,0,0,0,0,0,0,0,0,0,0,0,0,0,0,0,0,0,0,0,0,0,0,0,0,0,0,0,0,0,0,0,0,0,0,0,0,0,0,0,0,0,0,0,0,0,0,0,0,0,0,0,0,0,0,0,0,0],"sum_hessian":[3.2586973E4,2.7751166E4,4.8358057E3,1.5135026E4,1.2616141E4,2.469642E3,2.3661636E3,1.1748613E4,3.3864124E3,8.597197E3,4.0189434E3,1.464469E3,1.0051731E3,6.530015E2,1.7131621E3,8.0967363E3,3.6518772E3,3.1256042E3,2.6080804E2,1.5182694E3,7.078928E3,7.644681E2,3.2544753E3,1.3045038E3,1.5996521E2,5.568413E2,4.483318E2,4.973382E2,1.5566335E2,9.670893E2,7.460729E2,6.955289E3,1.141447E3,4.609594E2,3.190918E3,5.416491E2,2.5839553E3,1.8330518E2,7.750287E1,4.517987E2,1.0664707E3,5.3792236E3,1.6997045E3,2.5628207E2,5.08186E2,2.5638882E3,6.9058704E2,4.183496E2,8.861541E2,6.418713E1,9.5778076E1,5.513484E2,5.4929185E0,3.7717142E2,7.116036E1,2.7438336E2,2.2295483E2,1.3975217E2,1.5911172E1,3.224909E2,6.445984E2,3.8746637E2,3.5860654E2,2.6538625E3,4.301427E3,1.066787E3,7.466009E1,1.5364658E2,3.0731284E2,6.6857544E2,2.5223425E3,4.3745557E2,1.0419354E2,1.6888203E3,8.9513495E2,1.7934239E2,3.9627879E0,6.213904E1,1.5363827E1,3.9879022E2,5.3008484E1,7.597251E2,3.0674564E2,3.8448196E3,1.5344043E3,2.6764536E2,1.4320591E3,1.2268995E1,2.4401306E2,4.1256485E2,9.562118E1,5.4223236E2,2.0216559E3,3.2658582E2,3.6400122E2,3.492896E2,6.906E1,8.388206E1,8.022721E2,6.284223E1,1.3449029E0,5.7912617E1,3.7865463E1,1.8284932E2,3.6849905E2,3.8821983E0,1.6107203E0,2.7967053E2,9.75009E1,6.327334E1,7.887027E0,2.8647812E1,2.4573553E2,1.9896706E2,2.3987785E1,7.723832E1,6.2513847E1,1.4828639E1,1.0825326E0,8.09611E1,2.415298E2,6.1933643E1,5.8266473E2,1.309721E2,2.5649426E2,1.1117522E2,2.4743132E2],"tree_param":{"num_deleted":"0","num_feature":"136","num_nodes":"127","size_leaf_vector":"1"}},{"base_weights":[-9.0956676E-4,-6.3015856E-2,3.563129E-1,-1.4523599E-1,3.5155106E-2,2.0429675E-1,4.1061068E-1,-1.9243346E-1,1.5615523E-2,1.6537592E-1,9.224828E-3,4.3812498E-1,1.8538083E-1,2.6859897E-1,4.445947E-1,-2.6239184E-1,-7.923261E-2,-4.94396E-2,2.0874736E-1,1.16448954E-1,3.5037094E-1,-3.7446763E-2,1.2734485E-1,-2.0336518E-1,4.65822E-1,1.7602934E-1,5.3575695E-1,3.2663685E-1,1.0498364E-1,5.1142824E-1,3.7889495E-1,-3.1923813E-1,-1.944549E-1,-3.1675112E-1,-4.8534982E-2,6.261338E-2,-1.0806458E-1,-4.779985E-2,3.6721098E-1,6.909239E-2,2.6356375E-1,2.4869473E-1,5.059515E-1,-1.6366075E-1,-5.1946035E-3,7.993245E-2,2.8925753E-1,-4.9844787E-2,1.9215222E-2,5.2060515E-1,1.3439679E-1,3.4346125E-1,1.6098371E-1,5.72377E-1,-1.0775024E-2,1.6950119E-1,3.7631065E-1,-2.0348598E-1,1.4163622E-1,5.3603005E-1,4.1653475E-1,4.2310822E-1,2.9643404E-1,-3.60121E-2,-1.7750053E-2,-2.284551E-2,-1.2421615E-2,-5.7230484E-2,-1.642999E-2,-1.0411927E-2,2.9358089E-3,-3.5436553E-4,3.0017605E-2,-1.5731918E-2,-1.1633958E-3,-3.5674013E-2,1.9946073E-4,4.0434115E-2,-1.3202893E-2,2.4435629E-5,2.0333802E-2,2.9869288E-2,-2.1887146E-2,-5.903624E-3,3.173598E-2,6.084439E-2,5.2817324E-3,-1.7682394E-2,2.1894623E-2,-2.5953315E-3,1.1740315E-2,1.7605791E-3,1.6400326E-2,3.884396E-2,1.2957145E-2,3.2469627E-2,5.768758E-2,-2.313183E-2,2.9198179E-2,4.6689983E-2,2.1122867E-2,3.0272752E-2,1.4608219E-2,6.3934855E-2,1.5995786E-2,6.915472E-2,1.1821988E-2,3.802396E-2,-4.1459873E-2,-3.154686E-2,1.5726546E-2,1.1151192E-2,4.5831658E-2,5.4856148E-2,2.9714528E-2,-4.4262137E-2,4.2242642E-2,2.979884E-2,4.4796523E-2,3.2181624E-2,-1.8793963E-3],"categories":[],"categories_nodes":[],"categories_segments":[],"categories_sizes":[],"default_left":[0,0,0,0,0,0,0,0,0,0,0,0,0,0,0,0,0,0,0,0,0,0,0,0,0,0,0,0,0,0,0,0,0,0,0,0,0,0,0,0,0,0,0,0,0,0,0,0,0,0,0,0,0,0,0,0,0,0,0,0,0,0,0,0,0,0,0,0,0,0,0,0,0,0,0,0,0,0,0,0,0,0,0,0,0,0,0,0,0,0,0,0,0,0,0,0,0,0,0,0,0,0,0,0,0,0,0,0,0,0,0,0,0,0,0,0,0,0,0,0,0],"id":9,"left_children":[1,3,5,7,9,11,13,15,17,19,21,23,25,27,29,31,33,35,37,39,41,43,45,47,49,51,53,55,57,59,61,63,65,67,69,71,73,75,77,79,81,83,85,87,89,91,93,-1,-1,95,97,99,101,103,-1,105,107,109,111,113,115,117,119,-1,-1,-1,-1,-1,-1,-1,-1,-1,-1,-1,-1,-1,-1,-1,-1,-1,-1,-1,-1,-1,-1,-1,-1,-1,-1,-1,-1,-1,-1,-1,-1,-1,-1,-1,-1,-1,-1,-1,-1,-1,-1,-1,-1,-1,-1,-1,-1,-1,-1,-1,-1,-1,-1,-1,-1,-1,-1],"loss_changes":[7.11036E2,2.2038016E2,3.909668E1,1.1280554E2,4.2020782E1,5.453148E0,1.6755188E1,9.095514E1,4.2372917E1,1.866389E1,5.7224808E1,1.7455482E0,3.704296E0,6.400982E0,1.2188049E1,2.7356232E1,3.198773E1,1.6580185E1,3.456287E1,1.137813E1,6.703747E0,3.028724E1,2.2545029E1,6.2583786E-1,1.5526981E0,2.793045E0,7.60355E-1,3.8371735E0,2.0517344E0,3.0333862E0,5.072983E0,2.2324982E1,7.7016144E0,1.9470364E1,1.6836975E1,1.363065E1,7.866993E0,5.0056734E0,9.79277E0,1.144972E1,6.8102303E0,5.5774345E0,7.847801E0,7.665344E0,1.5087695E1,1.1919566E1,1.0489777E1,0E0,0E0,6.5431976E-1,8.758271E-1,1.4086876E0,2.1510696E0,6.769247E-1,0E0,3.1805766E0,1.3350906E0,8.338194E-1,1.4801083E0,3.1428223E0,1.6634712E0,2.7459564E0,4.0146484E0,0E0,0E0,0E0,0E0,0E0,0E0,0E0,0E0,0E0,0E0,0E0,0E0,0E0,0E0,0E0,0E0,0E0,0E0,0E0,0E0,0E0,0E0,0E0,0E0,0E0,0E0,0E0,0E0,0E0,0E0,0E0,0E0,0E0,0E0,0E0,0E0,0E0,0E0,0E0,0E0,0E0,0E0,0E0,0E0,0E0,0E0,0E0,0E0,0E0,0E0,0E0,0E0,0E0,0E0,0E0,0E0,0E0,0E0],"parents":[2147483647,0,0,1,1,2,2,3,3,4,4,5,5,6,6,7,7,8,8,9,9,10,10,11,11,12,12,13,13,14,14,15,15,16,16,17,17,18,18,19,19,20,20,21,21,22,22,23,23,24,24,25,25,26,26,27,27,28,28,29,29,30,30,31,31,32,32,33,33,34,34,35,35,36,36,37,37,38,38,39,39,40,40,41,41,42,42,43,43,44,44,45,45,46,46,49,49,50,50,51,51,52,52,53,53,55,55,56,56,57,57,58,58,59,59,60,60,61,61,62,62],"right_children":[2,4,6,8,10,12,14,16,18,20,22,24,26,28,30,32,34,36,38,40,42,44,46,48,50,52,54,56,58,60,62,64,66,68,70,72,74,76,78,80,82,84,86,88,90,92,94,-1,-1,96,98,100,102,104,-1,106,108,110,112,114,116,118,120,-1,-1,-1,-1,-1,-1,-1,-1,-1,-1,-1,-1,-1,-1,-1,-1,-1,-1,-1,-1,-1,-1,-1,-1,-1,-1,-1,-1,-1,-1,-1,-1,-1,-1,-1,-1,-1,-1,-1,-1,-1,-1,-1,-1,-1,-1,-1,-1,-1,-1,-1,-1,-1,-1,-1,-1,-1,-1],"split_conditions":[1E0,1.4801662E1,1.31E1,1.53846E-1,5E0,4E0,9E0,1.5476242E1,9E0,2.4636011E1,1.7055834E1,2E0,4.28571E-1,-1.0816484E1,2.3E1,3.2491E-2,-3.3541134E1,2.4E1,1.2E-1,2E0,1E0,1.4E1,1E1,1.9E1,1.9E1,-2.0975874E1,1.76829E-1,8.40413E-1,2.857E-3,1.8E1,-1.3878012E1,-1.714798E0,1.1612415E1,3.72044E-1,2.191445E0,1.7655998E1,1.0684751E1,4.44444E-1,2E0,2E0,5.29E2,6.00915E-1,5.92E2,-1.491596E0,2E0,3E0,6E0,-4.9844787E-2,1.9215222E-2,1.4290376E1,9.54086E-1,2.888889E0,1.7E1,3.8E0,-1.0775024E-2,-3.0589571E1,1E1,9E0,1.9826586E1,5.7555557E1,-4.075906E0,2.4133333E1,3.9E1,-3.60121E-2,-1.7750053E-2,-2.284551E-2,-1.2421615E-2,-5.7230484E-2,-1.642999E-2,-1.0411927E-2,2.9358089E-3,-3.5436553E-4,3.0017605E-2,-1.5731918E-2,-1.1633958E-3,-3.5674013E-2,1.9946073E-4,4.0434115E-2,-1.3202893E-2,2.4435629E-5,2.0333802E-2,2.9869288E-2,-2.1887146E-2,-5.903624E-3,3.173598E-2,6.084439E-2,5.2817324E-3,-1.7682394E-2,2.1894623E-2,-2.5953315E-3,1.1740315E-2,1.7605791E-3,1.6400326E-2,3.884396E-2,1.2957145E-2,3.2469627E-2,5.768758E-2,-2.313183E-2,2.9198179E-2,4.6689983E-2,2.1122867E-2,3.0272752E-2,1.4608219E-2,6.3934855E-2,1.5995786E-2,6.915472E-2,1.1821988E-2,3.802396E-2,-4.1459873E-2,-3.154686E-2,1.5726546E-2,1.1151192E-2,4.5831658E-2,5.4856148E-2,2.9714528E-2,-4.4262137E-2,4.2242642E-2,2.979884E-2,4.4796523E-2,3.2181624E-2,-1.8793963E-3],"split_indices":[133,107,135,48,13,13,133,19,128,107,108,24,48,115,126,49,124,126,53,128,128,24,128,126,24,115,51,104,50,131,117,121,107,104,87,108,15,8,33,125,40,92,14,123,1,3,131,0,0,18,102,44,126,135,0,110,22,12,108,40,79,135,131,0,0,0,0,0,0,0,0,0,0,0,0,0,0,0,0,0,0,0,0,0,0,0,0,0,0,0,0,0,0,0,0,0,0,0,0,0,0,0,0,0,0,0,0,0,0,0,0,0,0,0,0,0,0,0,0,0,0],"split_type":[0,0,0,0,0,0,0,0,0,0,0,0,0,0,0,0,0,0,0,0,0,0,0,0,0,0,0,0,0,0,0,0,0,0,0,0,0,0,0,0,0,0,0,0,0,0,0,0,0,0,0,0,0,0,0,0,0,0,0,0,0,0,0,0,0,0,0,0,0,0,0,0,0,0,0,0,0,0,0,0,0,0,0,0,0,0,0,0,0,0,0,0,0,0,0,0,0,0,0,0,0,0,0,0,0,0,0,0,0,0,0,0,0,0,0,0,0,0,0,0,0],"sum_hessian":[3.2047195E4,2.7301424E4,4.745771E3,1.4857497E4,1.2443928E4,1.2502477E3,3.4955232E3,1.148681E4,3.3706868E3,2.0655317E3,1.03783955E4,9.1912674E1,1.158335E3,6.7668994E2,2.8188335E3,7.098564E3,4.3882456E3,2.5219346E3,8.4875226E2,1.634795E3,4.3073657E2,7.4395596E3,2.9388364E3,3.5416715E0,8.8371E1,1.1296862E3,2.864876E1,4.987693E2,1.7792062E2,1.3939971E3,1.4248363E3,3.862726E3,3.2358381E3,5.0117294E2,3.8870728E3,8.6621826E2,1.6557162E3,3.2434583E2,5.2440643E2,1.2378108E3,3.9698425E2,2.6206702E2,1.6866957E2,1.5133229E3,5.926237E3,2.2743416E3,6.6449475E2,1.8793253E0,1.6623461E0,7.534585E1,1.302515E1,9.134507E1,1.0383411E3,2.721081E1,1.4379512E0,1.2085974E2,3.7790955E2,1.8412077E1,1.5950854E2,1.1033074E3,2.9068973E2,9.2483435E2,5.000019E2,2.9967896E3,8.659364E2,2.1788687E3,1.0569694E3,1.8623442E2,3.149385E2,2.2681736E3,1.6188992E3,6.783068E2,1.8791145E2,1.0955186E3,5.6019763E2,4.4165447E1,2.801804E2,4.8828137E2,3.6125034E1,8.1885956E2,4.1895126E2,3.7039438E2,2.6589872E1,4.783385E1,2.1423317E2,1.372768E2,3.1392765E1,1.4635101E3,4.9812683E1,5.068763E3,8.5747363E2,1.3067672E3,9.675744E2,4.090183E2,2.5547644E2,1.832316E1,5.702269E1,3.7814536E0,9.243697E0,4.59345E1,4.5410572E1,9.6938965E1,9.4140216E2,2.293605E1,4.2747583E0,9.693555E0,1.1116619E2,3.765582E2,1.3513638E0,1.4146359E1,4.2657166E0,1.4688791E2,1.2620627E1,1.0470833E3,5.6224194E1,1.4749694E0,2.8921475E2,1.5543375E2,7.6940063E2,4.6272253E2,3.7279366E1],"tree_param":{"num_deleted":"0","num_feature":"136","num_nodes":"121","size_leaf_vector":"1"}},{"base_weights":[1.2896733E-3,-3.860171E-2,2.8977394E-1,-1.3690244E-1,4.0370572E-2,1.9496132E-1,4.08E-1,-1.7440532E-1,6.450532E-3,1.1939506E-2,1.8399851E-1,1.238449E-1,3.5138655E-1,2.6461393E-1,4.8437858E-1,-2.1841107E-1,-2.9955853E-2,2.6395792E-1,-1.4709157E-2,-4.3067753E-2,9.732083E-2,1.3032399E-1,3.7162596E-1,8.6507425E-2,4.5248523E-1,2.0184688E-1,3.9427298E-1,-4.6181092E-1,2.794563E-1,4.2309284E-1,6.087545E-1,-1.9622427E-1,-4.1000667E-1,-4.2656805E-2,3.8235185E-1,1.5701765E-1,5.4310054E-1,-3.429534E-2,2.4757022E-1,5.7488862E-2,-9.056305E-2,2.2613011E-1,5.1573843E-2,7.568658E-2,2.2381148E-1,1.8821177E-1,4.415824E-1,-4.7748E-2,1.21070206E-1,5.513342E-1,2.614372E-1,2.6749107E-1,-1.8586057E-1,3.2701114E-1,4.7979695E-1,-6.011564E-1,1.2103601E-2,4.055742E-1,2.3663546E-1,3.0394033E-1,5.2507824E-1,6.464492E-1,4.5997664E-1,-4.323493E-3,-2.2256598E-2,-5.9855487E-2,-3.363752E-2,-6.451676E-3,1.1735462E-2,5.682298E-2,7.3846504E-3,-2.6089286E-2,2.4033992E-2,-4.932798E-2,5.854472E-2,-7.431362E-3,1.3258857E-2,2.6798321E-2,-3.3444263E-2,8.4013504E-4,1.9091256E-2,-1.5199539E-2,-2.1100552E-3,-1.2905943E-2,2.4295269E-2,8.606578E-3,-1.1627815E-2,4.7154645E-3,2.2703208E-2,1.8689891E-2,3.6147136E-2,-4.045736E-2,2.1669773E-2,4.6749365E-2,-3.0487299E-2,6.854292E-3,-2.632719E-2,3.3439577E-3,1.7953085E-2,-3.9567124E-2,5.6772675E-2,5.6498456E-3,4.1723043E-2,3.082261E-2,-3.309552E-2,4.3053877E-2,-3.08815E-2,2.083131E-2,4.038496E-2,4.993496E-2,2.3998066E-3,1.474557E-3,-6.9460295E-2,-2.0862272E-2,2.764499E-2,4.592992E-2,9.81827E-3,1.4898342E-2,3.0980576E-2,1.3048983E-2,4.0532336E-2,3.2524545E-2,5.7596695E-2,2.6481232E-2,6.5815896E-2,2.8754069E-2,6.0099524E-2],"categories":[],"categories_nodes":[],"categories_segments":[],"categories_sizes":[],"default_left":[0,0,0,0,0,0,0,0,0,0,0,0,0,0,0,0,0,0,0,0,0,0,0,0,0,0,0,0,0,0,0,0,0,0,0,0,0,0,0,0,0,0,0,0,0,0,0,0,0,0,0,0,0,0,0,0,0,0,0,0,0,0,0,0,0,0,0,0,0,0,0,0,0,0,0,0,0,0,0,0,0,0,0,0,0,0,0,0,0,0,0,0,0,0,0,0,0,0,0,0,0,0,0,0,0,0,0,0,0,0,0,0,0,0,0,0,0,0,0,0,0,0,0,0,0,0,0],"id":10,"left_children":[1,3,5,7,9,11,13,15,17,19,21,23,25,27,29,31,33,35,37,39,41,43,45,47,49,51,53,55,57,59,61,63,65,67,69,71,73,75,77,79,81,83,85,87,89,91,93,95,97,99,101,103,105,107,109,111,113,115,117,119,121,123,125,-1,-1,-1,-1,-1,-1,-1,-1,-1,-1,-1,-1,-1,-1,-1,-1,-1,-1,-1,-1,-1,-1,-1,-1,-1,-1,-1,-1,-1,-1,-1,-1,-1,-1,-1,-1,-1,-1,-1,-1,-1,-1,-1,-1,-1,-1,-1,-1,-1,-1,-1,-1,-1,-1,-1,-1,-1,-1,-1,-1,-1,-1,-1,-1],"loss_changes":[3.6324847E2,2.1527657E2,4.290277E1,6.6416046E1,6.279239E1,2.3650177E1,1.855127E1,6.223712E1,1.3967207E1,6.0297718E1,2.554087E1,1.7946486E1,4.1860733E0,6.544174E0,8.215881E0,3.1823853E1,1.19961E1,5.725025E0,1.2178237E1,3.7297466E1,2.9630661E1,1.0082832E1,7.1620255E0,6.1190596E0,2.6753998E0,3.8746848E0,2.8105087E0,8.1891465E-1,3.0562897E0,8.929657E0,1.7477417E0,2.7105469E1,1.0599686E1,7.7734632E0,3.8841038E0,5.0119686E0,2.6370268E0,1.4737576E1,2.0468254E0,1.6408226E1,2.2629333E1,7.906952E0,2.150859E1,5.3846436E0,3.6358986E0,2.749704E0,8.034119E0,6.796294E0,5.3628674E0,1.7380543E0,1.6625628E0,3.2452106E0,1.8269563E0,2.5780983E0,1.9928207E0,5.580158E-1,2.7781692E-1,2.3751144E0,2.763939E0,6.054859E0,3.8970947E0,1.114914E0,1.7040157E0,0E0,0E0,0E0,0E0,0E0,0E0,0E0,0E0,0E0,0E0,0E0,0E0,0E0,0E0,0E0,0E0,0E0,0E0,0E0,0E0,0E0,0E0,0E0,0E0,0E0,0E0,0E0,0E0,0E0,0E0,0E0,0E0,0E0,0E0,0E0,0E0,0E0,0E0,0E0,0E0,0E0,0E0,0E0,0E0,0E0,0E0,0E0,0E0,0E0,0E0,0E0,0E0,0E0,0E0,0E0,0E0,0E0,0E0,0E0,0E0,0E0,0E0,0E0,0E0],"parents":[2147483647,0,0,1,1,2,2,3,3,4,4,5,5,6,6,7,7,8,8,9,9,10,10,11,11,12,12,13,13,14,14,15,15,16,16,17,17,18,18,19,19,20,20,21,21,22,22,23,23,24,24,25,25,26,26,27,27,28,28,29,29,30,30,31,31,32,32,33,33,34,34,35,35,36,36,37,37,38,38,39,39,40,40,41,41,42,42,43,43,44,44,45,45,46,46,47,47,48,48,49,49,50,50,51,51,52,52,53,53,54,54,55,55,56,56,57,57,58,58,59,59,60,60,61,61,62,62],"right_children":[2,4,6,8,10,12,14,16,18,20,22,24,26,28,30,32,34,36,38,40,42,44,46,48,50,52,54,56,58,60,62,64,66,68,70,72,74,76,78,80,82,84,86,88,90,92,94,96,98,100,102,104,106,108,110,112,114,116,118,120,122,124,126,-1,-1,-1,-1,-1,-1,-1,-1,-1,-1,-1,-1,-1,-1,-1,-1,-1,-1,-1,-1,-1,-1,-1,-1,-1,-1,-1,-1,-1,-1,-1,-1,-1,-1,-1,-1,-1,-1,-1,-1,-1,-1,-1,-1,-1,-1,-1,-1,-1,-1,-1,-1,-1,-1,-1,-1,-1,-1,-1,-1,-1,-1,-1,-1],"split_conditions":[3.1E1,5.38462E-1,2.8E2,3.002019E1,1.1311264E1,1.763102E1,8.68601E-1,-5.689549E0,2.3E1,2.0591328E1,6.4035E4,1.5264864E1,-1.0342448E1,-3.3541134E1,1.2757832E1,2.092E3,6.5153E4,2.1047401E1,1.7663338E1,2.9E1,2.9E1,3E0,8.299393E1,1.2346E-2,2.8E1,2.5E1,1.9847172E1,6.549806E0,1.2E2,1.3168405E1,2E0,5E0,1.1104431E1,6.4571E4,-7.537826E0,1.7857E-2,5.98E2,-1.347028E0,6.9E1,1.4E1,2.4E1,2.13E2,9.99426E-1,2.68E1,1.03E1,3.924371E0,2.14286E-1,1.48365E-1,-9.921181E0,-2.1604244E1,1.7775846E1,1.453E-3,4.2902946E1,6.7E1,1.5E1,2E0,7E0,6.1263E4,3.75E-1,6.4765E4,5.7824E4,3.4484E4,8.348226E0,-4.323493E-3,-2.2256598E-2,-5.9855487E-2,-3.363752E-2,-6.451676E-3,1.1735462E-2,5.682298E-2,7.3846504E-3,-2.6089286E-2,2.4033992E-2,-4.932798E-2,5.854472E-2,-7.431362E-3,1.3258857E-2,2.6798321E-2,-3.3444263E-2,8.4013504E-4,1.9091256E-2,-1.5199539E-2,-2.1100552E-3,-1.2905943E-2,2.4295269E-2,8.606578E-3,-1.1627815E-2,4.7154645E-3,2.2703208E-2,1.8689891E-2,3.6147136E-2,-4.045736E-2,2.1669773E-2,4.6749365E-2,-3.0487299E-2,6.854292E-3,-2.632719E-2,3.3439577E-3,1.7953085E-2,-3.9567124E-2,5.6772675E-2,5.6498456E-3,4.1723043E-2,3.082261E-2,-3.309552E-2,4.3053877E-2,-3.08815E-2,2.083131E-2,4.038496E-2,4.993496E-2,2.3998066E-3,1.474557E-3,-6.9460295E-2,-2.0862272E-2,2.764499E-2,4.592992E-2,9.81827E-3,1.4898342E-2,3.0980576E-2,1.3048983E-2,4.0532336E-2,3.2524545E-2,5.7596695E-2,2.6481232E-2,6.5815896E-2,2.8754069E-2,6.0099524E-2],"split_indices":[134,7,134,109,106,107,104,114,126,107,130,108,122,124,108,14,129,108,71,126,126,2,80,49,126,131,18,72,10,72,125,13,80,130,118,55,129,111,30,127,24,129,100,135,135,87,52,104,122,111,108,65,70,134,12,12,13,130,7,129,129,129,86,0,0,0,0,0,0,0,0,0,0,0,0,0,0,0,0,0,0,0,0,0,0,0,0,0,0,0,0,0,0,0,0,0,0,0,0,0,0,0,0,0,0,0,0,0,0,0,0,0,0,0,0,0,0,0,0,0,0,0,0,0,0,0,0],"split_type":[0,0,0,0,0,0,0,0,0,0,0,0,0,0,0,0,0,0,0,0,0,0,0,0,0,0,0,0,0,0,0,0,0,0,0,0,0,0,0,0,0,0,0,0,0,0,0,0,0,0,0,0,0,0,0,0,0,0,0,0,0,0,0,0,0,0,0,0,0,0,0,0,0,0,0,0,0,0,0,0,0,0,0,0,0,0,0,0,0,0,0,0,0,0,0,0,0,0,0,0,0,0,0,0,0,0,0,0,0,0,0,0,0,0,0,0,0,0,0,0,0,0,0,0,0,0,0],"sum_hessian":[3.1562791E4,2.7729275E4,3.8335168E3,1.2352621E4,1.5376654E4,2.1288845E3,1.7046322E3,9.790968E3,2.5616533E3,1.2836716E4,2.5399375E3,1.4647496E3,6.64135E2,5.9399176E2,1.1106405E3,7.5043086E3,2.2866594E3,1.9363962E2,2.3680137E3,7.807317E3,5.0293994E3,1.9762788E3,5.6365875E2,1.3164485E3,1.4830109E2,1.4928903E2,5.14846E2,1.1290503E1,5.827013E2,7.469739E2,3.636666E2,6.727309E3,7.769994E2,2.2191948E3,6.746476E1,1.411335E2,5.2506126E1,2.2042747E3,1.6373892E2,2.5045327E3,5.302784E3,1.3170509E3,3.7123484E3,1.2484498E3,7.27829E2,1.5664691E2,4.0701184E2,2.6944333E2,1.0470051E3,9.6490616E1,5.1810467E1,1.2793752E2,2.1351513E1,2.9089227E2,2.2395372E2,8.517579E0,2.772923E0,1.4554977E2,4.371515E2,3.4632846E2,4.0064542E2,2.8748395E2,7.618266E1,9.8855383E2,5.7387554E3,2.1621317E2,5.6078625E2,1.9529846E3,2.6621014E2,4.157405E1,2.5890709E1,2.310701E1,1.1802648E2,1.6431662E0,5.086296E1,1.7783793E3,4.258955E2,1.5871196E2,5.026962E0,1.8317003E3,6.728324E2,2.81342E3,2.4893643E3,5.9255913E1,1.257795E3,3.0799385E3,6.3241003E2,1.0515258E3,1.9692403E2,5.757919E2,1.5203708E2,6.577075E0,1.5006984E2,3.9371866E2,1.3293186E1,1.7545467E2,9.398867E1,4.196041E2,6.2740106E2,1.2481275E0,9.524249E1,2.2964447E1,2.884602E1,1.2023811E2,7.699406E0,3.1347358E0,1.8216778E1,1.1576797E2,1.7512431E2,2.146502E2,9.303511E0,1.2330166E0,7.2845626E0,1.6260153E0,1.1469078E0,1.23475E2,2.2074776E1,2.0027478E2,2.3687671E2,1.286004E2,2.1772804E2,8.281885E1,3.1782657E2,9.261241E0,2.782227E2,3.5640663E1,4.0541996E1],"tree_param":{"num_deleted":"0","num_feature":"136","num_nodes":"127","size_leaf_vector":"1"}},{"base_weights":[-1.1674382E-3,-5.882437E-2,3.3278853E-1,-1.3997097E-1,3.7078522E-2,2.4793139E-1,4.3944952E-1,-1.7112644E-1,7.2144814E-2,-5.0437846E-3,1.2517151E-1,1.9316182E-1,3.010699E-1,2.9864895E-1,4.8371115E-1,-2.1706024E-1,-5.350617E-2,-2.5545357E-2,3.016539E-1,-3.3130772E-2,1.1494157E-1,2.6958033E-1,9.714757E-2,4.093275E-1,1.7606744E-1,1.8466231E-1,3.2891518E-1,1.0971423E-1,3.5841614E-1,5.1852715E-1,3.7477127E-1,-2.945058E-1,-1.5976436E-1,-2.5328004E-1,-2.4329808E-2,-6.4966775E-2,2.968626E-1,3.8039473E-1,9.101893E-2,-4.9898647E-2,1.4052226E-1,9.185407E-2,4.787868E-1,2.2182532E-1,4.6097618E-1,6.079544E-2,2.3041974E-1,-1.664527E-2,4.3728197E-1,1.3132596E-1,2.5373313E-1,3.6036527E-1,1.10535614E-1,3.5191566E-1,1.2759061E-1,4.5543257E-2,4.3143344E-1,3.2982472E-1,5.4899615E-1,4.501644E-1,5.708395E-1,-3.131129E-1,3.8087288E-1,-3.4690257E-2,-1.7243015E-2,-1.7311199E-2,5.338443E-3,-5.724482E-2,-1.3695021E-2,-5.394917E-3,1.1146879E-2,-1.1198869E-2,1.4650119E-2,9.083386E-3,4.8815843E-2,4.1507546E-2,3.0026154E-3,2.4410104E-2,-1.5845414E-2,-6.188795E-3,1.7514855E-2,3.6633577E-2,-7.5489725E-3,3.2334726E-2,6.2037418E-3,5.614856E-2,4.0104743E-3,1.6209744E-2,3.5231218E-2,-1.5590276E-2,4.9586166E-2,2.9496632E-3,1.6926186E-2,-5.605491E-4,2.594702E-2,-4.177719E-2,1.8968409E-2,3.7774112E-2,5.9632152E-2,1.1824104E-2,3.401835E-2,3.8150873E-2,1.7605117E-2,-5.1781334E-2,3.914723E-2,1.9076223E-2,-1.1919749E-2,4.0660474E-2,2.8463805E-2,2.888889E-2,2.5039967E-3,-2.8356526E-3,2.6070258E-2,5.3293414E-2,-4.381733E-2,4.130077E-2,2.650763E-2,5.8502533E-2,-1.5809786E-2,3.975033E-2,5.8313657E-2,4.918024E-2,6.0670055E-2,-5.9350736E-2,6.7500845E-3,4.829063E-2,3.3661697E-2],"categories":[],"categories_nodes":[],"categories_segments":[],"categories_sizes":[],"default_left":[0,0,0,0,0,0,0,0,0,0,0,0,0,0,0,0,0,0,0,0,0,0,0,0,0,0,0,0,0,0,0,0,0,0,0,0,0,0,0,0,0,0,0,0,0,0,0,0,0,0,0,0,0,0,0,0,0,0,0,0,0,0,0,0,0,0,0,0,0,0,0,0,0,0,0,0,0,0,0,0,0,0,0,0,0,0,0,0,0,0,0,0,0,0,0,0,0,0,0,0,0,0,0,0,0,0,0,0,0,0,0,0,0,0,0,0,0,0,0,0,0,0,0,0,0,0,0],"id":11,"left_children":[1,3,5,7,9,11,13,15,17,19,21,23,25,27,29,31,33,35,37,39,41,43,45,47,49,51,53,55,57,59,61,63,65,67,69,71,73,75,77,79,81,83,85,87,89,91,93,95,97,99,101,103,105,107,109,111,113,115,117,119,121,123,125,-1,-1,-1,-1,-1,-1,-1,-1,-1,-1,-1,-1,-1,-1,-1,-1,-1,-1,-1,-1,-1,-1,-1,-1,-1,-1,-1,-1,-1,-1,-1,-1,-1,-1,-1,-1,-1,-1,-1,-1,-1,-1,-1,-1,-1,-1,-1,-1,-1,-1,-1,-1,-1,-1,-1,-1,-1,-1,-1,-1,-1,-1,-1,-1],"loss_changes":[5.9907007E2,2.0648178E2,4.1350647E1,9.498959E1,4.512657E1,7.3731537E0,1.2496094E1,6.7693115E1,4.129081E1,2.7732931E1,1.589407E1,4.584606E0,4.134308E0,5.468136E0,5.652588E0,3.994095E1,2.0515343E1,1.6446243E1,9.084484E0,1.9423386E1,1.3068655E1,5.736294E0,1.5954937E1,1.0980091E0,4.030861E0,3.2436142E0,4.785248E0,2.4298825E0,1.8354568E0,3.9115295E0,1.7014275E0,2.4443848E1,1.4751907E1,1.6576317E1,1.2367318E1,1.1476157E1,5.512579E0,4.84671E0,5.802453E0,1.6420351E1,2.8682142E1,1.0119999E1,3.3478565E0,3.9422703E0,2.8023663E0,8.791494E0,4.84251E0,6.2583953E-1,5.890446E-1,1.9934845E0,4.1655025E0,2.2339993E0,3.3171086E0,3.3265991E0,1.7878222E0,1.5980072E0,1.9646418E0,1.6372147E0,1.2840662E0,3.3396225E0,1.5626526E0,4.5233813E-1,1.5267105E0,0E0,0E0,0E0,0E0,0E0,0E0,0E0,0E0,0E0,0E0,0E0,0E0,0E0,0E0,0E0,0E0,0E0,0E0,0E0,0E0,0E0,0E0,0E0,0E0,0E0,0E0,0E0,0E0,0E0,0E0,0E0,0E0,0E0,0E0,0E0,0E0,0E0,0E0,0E0,0E0,0E0,0E0,0E0,0E0,0E0,0E0,0E0,0E0,0E0,0E0,0E0,0E0,0E0,0E0,0E0,0E0,0E0,0E0,0E0,0E0,0E0,0E0,0E0,0E0],"parents":[2147483647,0,0,1,1,2,2,3,3,4,4,5,5,6,6,7,7,8,8,9,9,10,10,11,11,12,12,13,13,14,14,15,15,16,16,17,17,18,18,19,19,20,20,21,21,22,22,23,23,24,24,25,25,26,26,27,27,28,28,29,29,30,30,31,31,32,32,33,33,34,34,35,35,36,36,37,37,38,38,39,39,40,40,41,41,42,42,43,43,44,44,45,45,46,46,47,47,48,48,49,49,50,50,51,51,52,52,53,53,54,54,55,55,56,56,57,57,58,58,59,59,60,60,61,61,62,62],"right_children":[2,4,6,8,10,12,14,16,18,20,22,24,26,28,30,32,34,36,38,40,42,44,46,48,50,52,54,56,58,60,62,64,66,68,70,72,74,76,78,80,82,84,86,88,90,92,94,96,98,100,102,104,106,108,110,112,114,116,118,120,122,124,126,-1,-1,-1,-1,-1,-1,-1,-1,-1,-1,-1,-1,-1,-1,-1,-1,-1,-1,-1,-1,-1,-1,-1,-1,-1,-1,-1,-1,-1,-1,-1,-1,-1,-1,-1,-1,-1,-1,-1,-1,-1,-1,-1,-1,-1,-1,-1,-1,-1,-1,-1,-1,-1,-1,-1,-1,-1,-1,-1,-1,-1,-1,-1,-1],"split_conditions":[1E0,1.4801662E1,4.5E1,1.36364E-1,3E0,1.48E1,6.2E1,1.8328905E1,9E0,3.1063E4,2.7E1,4E0,4E0,1.04855E-1,1.2E1,2.5723E-2,-2.9874971E1,6.4765E4,3.3E1,1.6E1,3.02E2,8E-1,4.44444E-1,5.366318E0,2.0327282E1,-2.322831E1,9.43E2,1.2167914E1,2.9042414E1,5.46E2,-2.8896324E1,-1.937845E0,1.3265402E1,8.622923E0,1E1,1.6662052E1,5.327986E0,2.14286E-1,3E0,0E0,3E0,2E0,2.2190928E1,3.9915E4,7.62945E-1,4E0,-2.1245846E1,2E1,2.3728283E1,2E0,3.5E1,-4.6667274E1,1.5E1,-1.6281818E1,1.5245785E1,7.8062195E1,7.88E2,7.769777E0,4.9E1,2.7763897E1,1.583E3,1.2588795E1,-1.5085078E1,-3.4690257E-2,-1.7243015E-2,-1.7311199E-2,5.338443E-3,-5.724482E-2,-1.3695021E-2,-5.394917E-3,1.1146879E-2,-1.1198869E-2,1.4650119E-2,9.083386E-3,4.8815843E-2,4.1507546E-2,3.0026154E-3,2.4410104E-2,-1.5845414E-2,-6.188795E-3,1.7514855E-2,3.6633577E-2,-7.5489725E-3,3.2334726E-2,6.2037418E-3,5.614856E-2,4.0104743E-3,1.6209744E-2,3.5231218E-2,-1.5590276E-2,4.9586166E-2,2.9496632E-3,1.6926186E-2,-5.605491E-4,2.594702E-2,-4.177719E-2,1.8968409E-2,3.7774112E-2,5.9632152E-2,1.1824104E-2,3.401835E-2,3.8150873E-2,1.7605117E-2,-5.1781334E-2,3.914723E-2,1.9076223E-2,-1.1919749E-2,4.0660474E-2,2.8463805E-2,2.888889E-2,2.5039967E-3,-2.8356526E-3,2.6070258E-2,5.3293414E-2,-4.381733E-2,4.130077E-2,2.650763E-2,5.8502533E-2,-1.5809786E-2,3.975033E-2,5.8313657E-2,4.918024E-2,6.0670055E-2,-5.9350736E-2,6.7500845E-3,4.829063E-2,3.3661697E-2],"split_indices":[133,107,134,53,2,135,133,15,128,129,126,13,133,92,132,49,110,129,126,128,134,47,46,89,16,121,133,15,16,134,117,121,106,109,134,16,19,62,132,121,132,132,72,129,102,2,122,126,107,31,126,121,131,116,105,85,134,92,132,109,133,15,117,0,0,0,0,0,0,0,0,0,0,0,0,0,0,0,0,0,0,0,0,0,0,0,0,0,0,0,0,0,0,0,0,0,0,0,0,0,0,0,0,0,0,0,0,0,0,0,0,0,0,0,0,0,0,0,0,0,0,0,0,0,0,0,0],"split_type":[0,0,0,0,0,0,0,0,0,0,0,0,0,0,0,0,0,0,0,0,0,0,0,0,0,0,0,0,0,0,0,0,0,0,0,0,0,0,0,0,0,0,0,0,0,0,0,0,0,0,0,0,0,0,0,0,0,0,0,0,0,0,0,0,0,0,0,0,0,0,0,0,0,0,0,0,0,0,0,0,0,0,0,0,0,0,0,0,0,0,0,0,0,0,0,0,0,0,0,0,0,0,0,0,0,0,0,0,0,0,0,0,0,0,0,0,0,0,0,0,0,0,0,0,0,0,0],"sum_hessian":[3.1110623E4,2.6530928E4,4.579696E3,1.4370833E4,1.2160096E4,2.5523926E3,2.0273035E3,1.2530545E4,1.8402876E3,8.227161E3,3.9329343E3,1.2591884E3,1.2932041E3,4.8672665E2,1.5405768E3,9.010762E3,3.5197834E3,1.2914658E3,5.488217E2,6.667185E3,1.5599761E3,6.3778357E2,3.2951506E3,9.059765E1,1.1685907E3,2.51102E2,1.042102E3,1.17649895E2,3.6907675E2,1.164618E3,3.7595877E2,3.8298706E3,5.180891E3,4.4756613E2,3.0722175E3,1.1514718E3,1.399941E2,3.988975E2,1.499242E2,6.080743E3,5.864418E2,1.4680731E3,9.190291E1,5.1215515E2,1.2562845E2,2.590112E3,7.050386E2,5.6042433E0,8.49934E1,7.4316223E2,4.254285E2,7.335848E1,1.7774353E2,9.3458203E2,1.0752003E2,9.903723E1,1.8612667E1,3.2330426E2,4.57725E1,5.0902316E2,6.555949E2,2.8630838E0,3.7309567E2,2.6784128E3,1.1514576E3,4.8757534E3,3.051375E2,1.1850613E2,3.2906E2,2.522608E3,5.4960944E2,9.423923E2,2.0907945E2,6.811161E1,7.188249E1,3.6280142E2,3.6096077E1,9.292495E1,5.6999245E1,5.7738677E3,3.068756E2,2.863758E2,3.00066E2,1.663906E2,1.3016825E3,7.70902E1,1.4812705E1,3.528754E2,1.5927972E2,6.5385427E0,1.19089905E2,2.0110735E3,5.7903864E2,7.7355804E1,6.2768274E2,1.5554663E0,4.0487766E0,6.429713E1,2.0696278E1,7.008219E2,4.2340324E1,1.5937254E2,2.6605597E2,1.974362E0,7.1384125E1,1.3186404E2,4.5879482E1,5.1273944E2,4.218426E2,4.1083775E1,6.643625E1,7.4363976E1,2.4673248E1,1.7013952E1,1.5987165E0,1.3915356E2,1.8415068E2,4.3717556E1,2.0549443E0,3.6747925E2,1.415439E2,2.0921092E2,4.4638397E2,1.3265123E0,1.5365715E0,1.09871544E2,2.6322412E2],"tree_param":{"num_deleted":"0","num_feature":"136","num_nodes":"127","size_leaf_vector":"1"}},{"base_weights":[2.0030721E-4,-5.5790335E-2,3.254275E-1,-1.3495004E-1,3.435948E-2,2.0108905E-1,4.0201178E-1,-1.8091129E-1,2.9227039E-2,-7.885026E-3,1.16207734E-1,1.7672047E-1,3.0287924E-1,3.3825272E-1,4.8334873E-1,-2.5510016E-1,-8.550884E-2,-2.7254824E-2,2.799627E-1,-2.5669148E-2,1.8305421E-1,2.5127E-1,9.021579E-2,1.18193224E-1,2.2881378E-1,5.360601E-1,2.6944715E-1,2.8990296E-1,4.223678E-1,3.1049845E-1,5.39604E-1,-3.612557E-1,-2.0932251E-1,-1.5495086E-1,4.2658865E-2,8.108631E-2,-1.085112E-1,-7.6961583E-3,3.707054E-1,8.542317E-2,-5.600942E-2,1.011846E-1,3.9549232E-1,1.7898847E-1,3.92218E-1,6.327748E-2,2.5005987E-1,7.947587E-2,1.9366483E-1,1.8728812E-1,3.3551103E-1,9.437436E-2,5.914015E-1,2.1702603E-1,4.0915352E-1,1.3083051E-1,3.2822552E-1,5.0481147E-1,3.4654224E-1,5.2040744E-1,2.5292534E-1,5.4277873E-1,-2.2670424E-1,-2.6785263E-3,-4.0665176E-2,-2.2004046E-2,1.3488461E-2,-2.506106E-2,-9.787633E-3,4.97026E-4,2.2852223E-2,9.935412E-6,2.6683956E-2,-1.5385451E-2,-1.7543131E-3,-7.3786266E-3,4.707339E-2,4.0277753E-2,-1.3186271E-2,5.718065E-3,3.0020876E-2,-1.1648624E-2,-1.6244876E-3,1.1568526E-2,-6.381794E-2,-6.4195427E-3,4.383841E-2,1.3349584E-2,3.4838255E-2,3.244616E-2,6.345632E-2,-1.7412821E-3,1.0114827E-2,8.205395E-3,2.9530277E-2,2.5337044E-2,6.021123E-3,9.749259E-3,2.6385827E-2,3.0241428E-2,1.4053764E-2,3.837624E-2,1.17872935E-2,-3.4071386E-2,4.6222277E-2,6.127909E-2,-1.4365078E-3,-1.2589487E-2,2.3818834E-2,4.512516E-2,2.665146E-3,-4.045644E-2,1.5702156E-2,4.164165E-2,2.7594179E-2,5.154398E-2,-2.5672896E-2,3.585953E-2,-2.7351497E-2,5.660695E-2,-5.0787413E-3,1.840216E-2,4.7403537E-2,5.075992E-2,6.044389E-2,-5.793926E-2,1.5424858E-2],"categories":[],"categories_nodes":[],"categories_segments":[],"categories_sizes":[],"default_left":[0,0,0,0,0,0,0,0,0,0,0,0,0,0,0,0,0,0,0,0,0,0,0,0,0,0,0,0,0,0,0,0,0,0,0,0,0,0,0,0,0,0,0,0,0,0,0,0,0,0,0,0,0,0,0,0,0,0,0,0,0,0,0,0,0,0,0,0,0,0,0,0,0,0,0,0,0,0,0,0,0,0,0,0,0,0,0,0,0,0,0,0,0,0,0,0,0,0,0,0,0,0,0,0,0,0,0,0,0,0,0,0,0,0,0,0,0,0,0,0,0,0,0,0,0,0,0],"id":12,"left_children":[1,3,5,7,9,11,13,15,17,19,21,23,25,27,29,31,33,35,37,39,41,43,45,47,49,51,53,55,57,59,61,63,65,67,69,71,73,75,77,79,81,83,85,87,89,91,93,95,97,99,101,103,105,107,109,111,113,115,117,119,121,123,125,-1,-1,-1,-1,-1,-1,-1,-1,-1,-1,-1,-1,-1,-1,-1,-1,-1,-1,-1,-1,-1,-1,-1,-1,-1,-1,-1,-1,-1,-1,-1,-1,-1,-1,-1,-1,-1,-1,-1,-1,-1,-1,-1,-1,-1,-1,-1,-1,-1,-1,-1,-1,-1,-1,-1,-1,-1,-1,-1,-1,-1,-1,-1,-1],"loss_changes":[5.597083E2,1.8713412E2,4.2907104E1,1.05363174E2,4.2394863E1,4.219673E0,1.4319275E1,7.718826E1,4.3268654E1,2.7468779E1,1.4630356E1,4.218128E0,2.4387379E0,6.2579193E0,1.1742554E1,2.9743347E1,4.2492897E1,2.1964706E1,1.4664841E1,2.4945936E1,1.1947561E1,6.7869835E0,1.5063326E1,1.9066296E0,3.1963997E0,9.35133E-1,2.0483513E0,6.049469E0,3.3910599E0,3.531475E0,2.36792E0,2.804013E1,1.5855225E1,1.6880653E1,1.1755112E1,1.6088243E1,5.8775234E0,4.324803E0,6.936016E0,9.614465E0,1.3977156E1,5.4222383E0,3.8017368E0,3.3962193E0,3.5268173E0,9.163763E0,3.8122082E0,1.4468081E0,1.475131E0,2.8196812E0,2.105671E0,1.0703628E0,4.731331E-1,1.5853539E0,1.251894E0,2.8075676E0,3.5955734E0,2.326622E0,2.3426628E0,1.7057114E0,3.566391E0,1.6871643E0,6.9564855E-1,0E0,0E0,0E0,0E0,0E0,0E0,0E0,0E0,0E0,0E0,0E0,0E0,0E0,0E0,0E0,0E0,0E0,0E0,0E0,0E0,0E0,0E0,0E0,0E0,0E0,0E0,0E0,0E0,0E0,0E0,0E0,0E0,0E0,0E0,0E0,0E0,0E0,0E0,0E0,0E0,0E0,0E0,0E0,0E0,0E0,0E0,0E0,0E0,0E0,0E0,0E0,0E0,0E0,0E0,0E0,0E0,0E0,0E0,0E0,0E0,0E0,0E0,0E0,0E0],"parents":[2147483647,0,0,1,1,2,2,3,3,4,4,5,5,6,6,7,7,8,8,9,9,10,10,11,11,12,12,13,13,14,14,15,15,16,16,17,17,18,18,19,19,20,20,21,21,22,22,23,23,24,24,25,25,26,26,27,27,28,28,29,29,30,30,31,31,32,32,33,33,34,34,35,35,36,36,37,37,38,38,39,39,40,40,41,41,42,42,43,43,44,44,45,45,46,46,47,47,48,48,49,49,50,50,51,51,52,52,53,53,54,54,55,55,56,56,57,57,58,58,59,59,60,60,61,61,62,62],"right_children":[2,4,6,8,10,12,14,16,18,20,22,24,26,28,30,32,34,36,38,40,42,44,46,48,50,52,54,56,58,60,62,64,66,68,70,72,74,76,78,80,82,84,86,88,90,92,94,96,98,100,102,104,106,108,110,112,114,116,118,120,122,124,126,-1,-1,-1,-1,-1,-1,-1,-1,-1,-1,-1,-1,-1,-1,-1,-1,-1,-1,-1,-1,-1,-1,-1,-1,-1,-1,-1,-1,-1,-1,-1,-1,-1,-1,-1,-1,-1,-1,-1,-1,-1,-1,-1,-1,-1,-1,-1,-1,-1,-1,-1,-1,-1,-1,-1,-1,-1,-1,-1,-1,-1,-1,-1,-1],"split_conditions":[1E0,2E0,1.1E1,1.66667E-1,3E0,1.8390537E1,2.58E2,-7.601648E0,1.2E1,-4.890637E0,2.7E1,6.29392E-1,1.6E1,1.7859348E1,2.26E2,1.0732E-2,7E-6,2.4E1,1.14286E-1,2.8E1,6.3151E4,1.5E-1,1.7710688E1,3E0,5E0,9.837048E0,1.7100656E3,1.5E1,2.9E1,-2.7087345E1,2.174E3,6E1,6E-1,-1.976862E0,2.9286667E1,1.7299925E1,1.1434451E1,1.8390537E1,2E0,6.2568E4,7.8270294E1,5E0,5E0,4.6E1,8E0,8.223934E1,4.255E-3,4E0,2E0,7.864E3,8.6923645E1,1.81E2,1.0001862E2,1.63E2,-6.051654E0,-1.3717712E1,2.1E1,3.9056866E1,1.4809762E1,4.535E-3,1.2641987E1,1.6087812E1,6.25E-2,-2.6785263E-3,-4.0665176E-2,-2.2004046E-2,1.3488461E-2,-2.506106E-2,-9.787633E-3,4.97026E-4,2.2852223E-2,9.935412E-6,2.6683956E-2,-1.5385451E-2,